digraph Tree {
node [shape=box, style="filled, rounded", color="black", fontname=helvetica] ;
edge [fontname=helvetica] ;
0 [label=<floating &le; 3945.0<br/>gini = 0.816<br/>samples = 885<br/>value = [173, 239, 185, 121, 77, 43, 25, 9, 8, 2, 2, 1]>, fillcolor="#fdfcf0"] ;
1 [label=<CCTV_num &le; 2.5<br/>gini = 0.77<br/>samples = 637<br/>value = [157, 205, 138, 78, 38, 9, 8, 2, 0, 1, 1, 0]>, fillcolor="#fcfbeb"] ;
0 -> 1 [labeldistance=2.5, labelangle=45, headlabel="True"] ;
2 [label=<police_value &le; 0.5<br/>gini = 0.785<br/>samples = 456<br/>value = [89, 143, 103, 66, 35, 8, 8, 2, 0, 1, 1, 0]>, fillcolor="#fcfae9"] ;
1 -> 2 ;
3 [label=<floating &le; 1465.0<br/>gini = 0.802<br/>samples = 310<br/>value = [39, 86, 75, 57, 33, 8, 8, 2, 0, 1, 1, 0]>, fillcolor="#fefdf6"] ;
2 -> 3 ;
4 [label=<resident &le; 95.0<br/>gini = 0.79<br/>samples = 270<br/>value = [31, 82, 67, 47, 29, 8, 5, 0, 0, 0, 1, 0]>, fillcolor="#fdfcf0"] ;
3 -> 4 ;
5 [label=<floating &le; 275.0<br/>gini = 0.794<br/>samples = 264<br/>value = [31, 77, 66, 47, 29, 8, 5, 0, 0, 0, 1, 0]>, fillcolor="#fefdf4"] ;
4 -> 5 ;
6 [label=<floating &le; 205.0<br/>gini = 0.756<br/>samples = 34<br/>value = [6, 8, 12, 1, 6, 0, 1, 0, 0, 0, 0, 0]>, fillcolor="#f0fbe1"] ;
5 -> 6 ;
7 [label=<gini = 0.656<br/>samples = 8<br/>value = [0, 1, 4, 1, 2, 0, 0, 0, 0, 0, 0, 0]>, fillcolor="#def6bd"] ;
6 -> 7 ;
8 [label=<resident &le; 15.0<br/>gini = 0.754<br/>samples = 26<br/>value = [6, 7, 8, 0, 4, 0, 1, 0, 0, 0, 0, 0]>, fillcolor="#fafef5"] ;
6 -> 8 ;
9 [label=<floating &le; 265.0<br/>gini = 0.739<br/>samples = 21<br/>value = [5, 7, 6, 0, 2, 0, 1, 0, 0, 0, 0, 0]>, fillcolor="#fdfcf2"] ;
8 -> 9 ;
10 [label=<gini = 0.699<br/>samples = 17<br/>value = [5, 6, 5, 0, 0, 0, 1, 0, 0, 0, 0, 0]>, fillcolor="#fdfcee"] ;
9 -> 10 ;
11 [label=<gini = 0.625<br/>samples = 4<br/>value = [0, 1, 1, 0, 2, 0, 0, 0, 0, 0, 0, 0]>, fillcolor="#bdf6d5"] ;
9 -> 11 ;
12 [label=<gini = 0.64<br/>samples = 5<br/>value = [1, 0, 2, 0, 2, 0, 0, 0, 0, 0, 0, 0]>, fillcolor="#ffffff"] ;
8 -> 12 ;
13 [label=<floating &le; 685.0<br/>gini = 0.792<br/>samples = 230<br/>value = [25, 69, 54, 46, 23, 8, 4, 0, 0, 0, 1, 0]>, fillcolor="#fdfcee"] ;
5 -> 13 ;
14 [label=<resident &le; 25.0<br/>gini = 0.763<br/>samples = 84<br/>value = [4, 31, 16, 18, 8, 7, 0, 0, 0, 0, 0, 0]>, fillcolor="#faf7d8"] ;
13 -> 14 ;
15 [label=<floating &le; 315.0<br/>gini = 0.789<br/>samples = 40<br/>value = [4, 12, 11, 5, 4, 4, 0, 0, 0, 0, 0, 0]>, fillcolor="#fefef8"] ;
14 -> 15 ;
16 [label=<gini = 0.756<br/>samples = 15<br/>value = [4, 5, 0, 3, 1, 2, 0, 0, 0, 0, 0, 0]>, fillcolor="#fdfbed"] ;
15 -> 16 ;
17 [label=<gini = 0.701<br/>samples = 25<br/>value = [0, 7, 11, 2, 3, 2, 0, 0, 0, 0, 0, 0]>, fillcolor="#e9f9d3"] ;
15 -> 17 ;
18 [label=<floating &le; 595.0<br/>gini = 0.7<br/>samples = 44<br/>value = [0, 19, 5, 13, 4, 3, 0, 0, 0, 0, 0, 0]>, fillcolor="#faf7d9"] ;
14 -> 18 ;
19 [label=<gini = 0.64<br/>samples = 20<br/>value = [0, 11, 1, 3, 3, 2, 0, 0, 0, 0, 0, 0]>, fillcolor="#f3eca2"] ;
18 -> 19 ;
20 [label=<gini = 0.684<br/>samples = 24<br/>value = [0, 8, 4, 10, 1, 1, 0, 0, 0, 0, 0, 0]>, fillcolor="#e8fce6"] ;
18 -> 20 ;
21 [label=<resident &le; 15.0<br/>gini = 0.796<br/>samples = 146<br/>value = [21, 38, 38, 28, 15, 1, 4, 0, 0, 0, 1, 0]>, fillcolor="#ffffff"] ;
13 -> 21 ;
22 [label=<floating &le; 755.0<br/>gini = 0.663<br/>samples = 13<br/>value = [2, 6, 0, 4, 1, 0, 0, 0, 0, 0, 0, 0]>, fillcolor="#f9f6d3"] ;
21 -> 22 ;
23 [label=<gini = 0.32<br/>samples = 5<br/>value = [1, 4, 0, 0, 0, 0, 0, 0, 0, 0, 0, 0]>, fillcolor="#ece16a"] ;
22 -> 23 ;
24 [label=<gini = 0.656<br/>samples = 8<br/>value = [1, 2, 0, 4, 1, 0, 0, 0, 0, 0, 0, 0]>, fillcolor="#c2f6bd"] ;
22 -> 24 ;
25 [label=<floating &le; 1110.0<br/>gini = 0.795<br/>samples = 133<br/>value = [19, 32, 38, 24, 14, 1, 4, 0, 0, 0, 1, 0]>, fillcolor="#f9fdf3"] ;
21 -> 25 ;
26 [label=<gini = 0.79<br/>samples = 104<br/>value = [18, 22, 32, 17, 12, 0, 2, 0, 0, 0, 1, 0]>, fillcolor="#f3fce7"] ;
25 -> 26 ;
27 [label=<gini = 0.768<br/>samples = 29<br/>value = [1, 10, 6, 7, 2, 1, 2, 0, 0, 0, 0, 0]>, fillcolor="#fbfae4"] ;
25 -> 27 ;
28 [label=<gini = 0.278<br/>samples = 6<br/>value = [0, 5, 1, 0, 0, 0, 0, 0, 0, 0, 0, 0]>, fillcolor="#eadf61"] ;
4 -> 28 ;
29 [label=<floating &le; 2385.0<br/>gini = 0.829<br/>samples = 40<br/>value = [8, 4, 8, 10, 4, 0, 3, 2, 0, 1, 0, 0]>, fillcolor="#f4fdf3"] ;
3 -> 29 ;
30 [label=<resident &le; 140.0<br/>gini = 0.79<br/>samples = 26<br/>value = [4, 3, 6, 8, 4, 0, 0, 1, 0, 0, 0, 0]>, fillcolor="#edfceb"] ;
29 -> 30 ;
31 [label=<resident &le; 110.0<br/>gini = 0.789<br/>samples = 22<br/>value = [4, 3, 6, 6, 2, 0, 0, 1, 0, 0, 0, 0]>, fillcolor="#ffffff"] ;
30 -> 31 ;
32 [label=<floating &le; 2325.0<br/>gini = 0.772<br/>samples = 18<br/>value = [3, 3, 4, 6, 2, 0, 0, 0, 0, 0, 0, 0]>, fillcolor="#e5fbe3"] ;
31 -> 32 ;
33 [label=<floating &le; 2220.0<br/>gini = 0.735<br/>samples = 14<br/>value = [3, 1, 4, 5, 1, 0, 0, 0, 0, 0, 0, 0]>, fillcolor="#edfceb"] ;
32 -> 33 ;
34 [label=<gini = 0.741<br/>samples = 9<br/>value = [3, 1, 1, 3, 1, 0, 0, 0, 0, 0, 0, 0]>, fillcolor="#ffffff"] ;
33 -> 34 ;
35 [label=<gini = 0.48<br/>samples = 5<br/>value = [0, 0, 3, 2, 0, 0, 0, 0, 0, 0, 0, 0]>, fillcolor="#def6bd"] ;
33 -> 35 ;
36 [label=<gini = 0.625<br/>samples = 4<br/>value = [0, 2, 0, 1, 1, 0, 0, 0, 0, 0, 0, 0]>, fillcolor="#f6f2bd"] ;
32 -> 36 ;
37 [label=<gini = 0.625<br/>samples = 4<br/>value = [1, 0, 2, 0, 0, 0, 0, 1, 0, 0, 0, 0]>, fillcolor="#def6bd"] ;
31 -> 37 ;
38 [label=<gini = 0.5<br/>samples = 4<br/>value = [0, 0, 0, 2, 2, 0, 0, 0, 0, 0, 0, 0]>, fillcolor="#ffffff"] ;
30 -> 38 ;
39 [label=<floating &le; 3820.0<br/>gini = 0.816<br/>samples = 14<br/>value = [4, 1, 2, 2, 0, 0, 3, 1, 0, 1, 0, 0]>, fillcolor="#fdf4ed"] ;
29 -> 39 ;
40 [label=<gini = 0.691<br/>samples = 9<br/>value = [4, 0, 2, 0, 0, 0, 2, 1, 0, 0, 0, 0]>, fillcolor="#f8dbc6"] ;
39 -> 40 ;
41 [label=<gini = 0.72<br/>samples = 5<br/>value = [0, 1, 0, 2, 0, 0, 1, 0, 0, 1, 0, 0]>, fillcolor="#d1f8ce"] ;
39 -> 41 ;
42 [label=<floating &le; 560.0<br/>gini = 0.69<br/>samples = 146<br/>value = [50, 57, 28, 9, 2, 0, 0, 0, 0, 0, 0, 0]>, fillcolor="#fdfcf1"] ;
2 -> 42 ;
43 [label=<floating &le; 255.0<br/>gini = 0.622<br/>samples = 24<br/>value = [12, 3, 8, 1, 0, 0, 0, 0, 0, 0, 0, 0]>, fillcolor="#f8e0ce"] ;
42 -> 43 ;
44 [label=<gini = 0.571<br/>samples = 7<br/>value = [1, 2, 4, 0, 0, 0, 0, 0, 0, 0, 0, 0]>, fillcolor="#d8f5b0"] ;
43 -> 44 ;
45 [label=<floating &le; 500.0<br/>gini = 0.519<br/>samples = 17<br/>value = [11, 1, 4, 1, 0, 0, 0, 0, 0, 0, 0, 0]>, fillcolor="#f1bb94"] ;
43 -> 45 ;
46 [label=<resident &le; 15.0<br/>gini = 0.165<br/>samples = 11<br/>value = [10, 0, 0, 1, 0, 0, 0, 0, 0, 0, 0, 0]>, fillcolor="#e88e4d"] ;
45 -> 46 ;
47 [label=<gini = 0.375<br/>samples = 4<br/>value = [3, 0, 0, 1, 0, 0, 0, 0, 0, 0, 0, 0]>, fillcolor="#eeab7b"] ;
46 -> 47 ;
48 [label=<gini = 0.0<br/>samples = 7<br/>value = [7, 0, 0, 0, 0, 0, 0, 0, 0, 0, 0, 0]>, fillcolor="#e58139"] ;
46 -> 48 ;
49 [label=<gini = 0.5<br/>samples = 6<br/>value = [1, 1, 4, 0, 0, 0, 0, 0, 0, 0, 0, 0]>, fillcolor="#c4ef88"] ;
45 -> 49 ;
50 [label=<floating &le; 675.0<br/>gini = 0.676<br/>samples = 122<br/>value = [38, 54, 20, 8, 2, 0, 0, 0, 0, 0, 0, 0]>, fillcolor="#faf7d9"] ;
42 -> 50 ;
51 [label=<resident &le; 15.0<br/>gini = 0.603<br/>samples = 22<br/>value = [3, 13, 2, 3, 1, 0, 0, 0, 0, 0, 0, 0]>, fillcolor="#f1ea97"] ;
50 -> 51 ;
52 [label=<gini = 0.72<br/>samples = 5<br/>value = [2, 1, 1, 0, 1, 0, 0, 0, 0, 0, 0, 0]>, fillcolor="#f8e0ce"] ;
51 -> 52 ;
53 [label=<resident &le; 25.0<br/>gini = 0.464<br/>samples = 17<br/>value = [1, 12, 1, 3, 0, 0, 0, 0, 0, 0, 0, 0]>, fillcolor="#eee580"] ;
51 -> 53 ;
54 [label=<gini = 0.625<br/>samples = 4<br/>value = [0, 2, 1, 1, 0, 0, 0, 0, 0, 0, 0, 0]>, fillcolor="#f6f2bd"] ;
53 -> 54 ;
55 [label=<floating &le; 625.0<br/>gini = 0.379<br/>samples = 13<br/>value = [1, 10, 0, 2, 0, 0, 0, 0, 0, 0, 0, 0]>, fillcolor="#ece26f"] ;
53 -> 55 ;
56 [label=<gini = 0.571<br/>samples = 7<br/>value = [1, 4, 0, 2, 0, 0, 0, 0, 0, 0, 0, 0]>, fillcolor="#f5efb0"] ;
55 -> 56 ;
57 [label=<gini = 0.0<br/>samples = 6<br/>value = [0, 6, 0, 0, 0, 0, 0, 0, 0, 0, 0, 0]>, fillcolor="#e5d739"] ;
55 -> 57 ;
58 [label=<floating &le; 770.0<br/>gini = 0.674<br/>samples = 100<br/>value = [35, 41, 18, 5, 1, 0, 0, 0, 0, 0, 0, 0]>, fillcolor="#fdfbed"] ;
50 -> 58 ;
59 [label=<resident &le; 35.0<br/>gini = 0.62<br/>samples = 23<br/>value = [11, 4, 8, 0, 0, 0, 0, 0, 0, 0, 0, 0]>, fillcolor="#fae6d7"] ;
58 -> 59 ;
60 [label=<gini = 0.219<br/>samples = 8<br/>value = [7, 1, 0, 0, 0, 0, 0, 0, 0, 0, 0, 0]>, fillcolor="#e99355"] ;
59 -> 60 ;
61 [label=<floating &le; 720.0<br/>gini = 0.604<br/>samples = 15<br/>value = [4, 3, 8, 0, 0, 0, 0, 0, 0, 0, 0, 0]>, fillcolor="#dbf6b7"] ;
59 -> 61 ;
62 [label=<gini = 0.642<br/>samples = 9<br/>value = [4, 2, 3, 0, 0, 0, 0, 0, 0, 0, 0, 0]>, fillcolor="#fbeade"] ;
61 -> 62 ;
63 [label=<gini = 0.278<br/>samples = 6<br/>value = [0, 1, 5, 0, 0, 0, 0, 0, 0, 0, 0, 0]>, fillcolor="#b1ea61"] ;
61 -> 63 ;
64 [label=<floating &le; 955.0<br/>gini = 0.651<br/>samples = 77<br/>value = [24, 37, 10, 5, 1, 0, 0, 0, 0, 0, 0, 0]>, fillcolor="#f9f5ce"] ;
58 -> 64 ;
65 [label=<resident &le; 15.0<br/>gini = 0.609<br/>samples = 23<br/>value = [11, 9, 1, 2, 0, 0, 0, 0, 0, 0, 0, 0]>, fillcolor="#fbede3"] ;
64 -> 65 ;
66 [label=<gini = 0.625<br/>samples = 4<br/>value = [1, 1, 0, 2, 0, 0, 0, 0, 0, 0, 0, 0]>, fillcolor="#c2f6bd"] ;
65 -> 66 ;
67 [label=<police_value &le; 2.5<br/>gini = 0.543<br/>samples = 19<br/>value = [10, 8, 1, 0, 0, 0, 0, 0, 0, 0, 0, 0]>, fillcolor="#fae8db"] ;
65 -> 67 ;
68 [label=<gini = 0.524<br/>samples = 15<br/>value = [9, 5, 1, 0, 0, 0, 0, 0, 0, 0, 0, 0]>, fillcolor="#f5cdb0"] ;
67 -> 68 ;
69 [label=<gini = 0.375<br/>samples = 4<br/>value = [1, 3, 0, 0, 0, 0, 0, 0, 0, 0, 0, 0]>, fillcolor="#eee47b"] ;
67 -> 69 ;
70 [label=<police_value &le; 2.5<br/>gini = 0.642<br/>samples = 54<br/>value = [13, 28, 9, 3, 1, 0, 0, 0, 0, 0, 0, 0]>, fillcolor="#f5f0b7"] ;
64 -> 70 ;
71 [label=<floating &le; 2275.0<br/>gini = 0.624<br/>samples = 47<br/>value = [9, 26, 8, 3, 1, 0, 0, 0, 0, 0, 0, 0]>, fillcolor="#f3eda6"] ;
70 -> 71 ;
72 [label=<gini = 0.592<br/>samples = 42<br/>value = [7, 25, 6, 3, 1, 0, 0, 0, 0, 0, 0, 0]>, fillcolor="#f2ea99"] ;
71 -> 72 ;
73 [label=<gini = 0.64<br/>samples = 5<br/>value = [2, 1, 2, 0, 0, 0, 0, 0, 0, 0, 0, 0]>, fillcolor="#ffffff"] ;
71 -> 73 ;
74 [label=<gini = 0.571<br/>samples = 7<br/>value = [4, 2, 1, 0, 0, 0, 0, 0, 0, 0, 0, 0]>, fillcolor="#f5cdb0"] ;
70 -> 74 ;
75 [label=<floating &le; 1305.0<br/>gini = 0.699<br/>samples = 181<br/>value = [68, 62, 35, 12, 3, 1, 0, 0, 0, 0, 0, 0]>, fillcolor="#fef9f5"] ;
1 -> 75 ;
76 [label=<floating &le; 1235.0<br/>gini = 0.695<br/>samples = 130<br/>value = [56, 37, 23, 11, 2, 1, 0, 0, 0, 0, 0, 0]>, fillcolor="#fae5d7"] ;
75 -> 76 ;
77 [label=<police_value &le; 0.5<br/>gini = 0.704<br/>samples = 123<br/>value = [50, 37, 22, 11, 2, 1, 0, 0, 0, 0, 0, 0]>, fillcolor="#fbece1"] ;
76 -> 77 ;
78 [label=<resident &le; 5.0<br/>gini = 0.673<br/>samples = 77<br/>value = [34, 26, 8, 6, 2, 1, 0, 0, 0, 0, 0, 0]>, fillcolor="#fbebe0"] ;
77 -> 78 ;
79 [label=<gini = 0.449<br/>samples = 7<br/>value = [5, 0, 1, 0, 1, 0, 0, 0, 0, 0, 0, 0]>, fillcolor="#eeab7b"] ;
78 -> 79 ;
80 [label=<floating &le; 595.0<br/>gini = 0.673<br/>samples = 70<br/>value = [29, 26, 7, 6, 1, 1, 0, 0, 0, 0, 0, 0]>, fillcolor="#fdf6f1"] ;
78 -> 80 ;
81 [label=<floating &le; 265.0<br/>gini = 0.648<br/>samples = 16<br/>value = [4, 8, 3, 0, 0, 1, 0, 0, 0, 0, 0, 0]>, fillcolor="#f6f2bd"] ;
80 -> 81 ;
82 [label=<gini = 0.375<br/>samples = 4<br/>value = [3, 1, 0, 0, 0, 0, 0, 0, 0, 0, 0, 0]>, fillcolor="#eeab7b"] ;
81 -> 82 ;
83 [label=<floating &le; 525.0<br/>gini = 0.583<br/>samples = 12<br/>value = [1, 7, 3, 0, 0, 1, 0, 0, 0, 0, 0, 0]>, fillcolor="#f3eda7"] ;
81 -> 83 ;
84 [label=<gini = 0.594<br/>samples = 8<br/>value = [1, 4, 3, 0, 0, 0, 0, 0, 0, 0, 0, 0]>, fillcolor="#faf7d7"] ;
83 -> 84 ;
85 [label=<gini = 0.375<br/>samples = 4<br/>value = [0, 3, 0, 0, 0, 1, 0, 0, 0, 0, 0, 0]>, fillcolor="#eee47b"] ;
83 -> 85 ;
86 [label=<floating &le; 715.0<br/>gini = 0.656<br/>samples = 54<br/>value = [25, 18, 4, 6, 1, 0, 0, 0, 0, 0, 0, 0]>, fillcolor="#fae7d9"] ;
80 -> 86 ;
87 [label=<resident &le; 45.0<br/>gini = 0.596<br/>samples = 15<br/>value = [9, 2, 2, 1, 1, 0, 0, 0, 0, 0, 0, 0]>, fillcolor="#f1bb94"] ;
86 -> 87 ;
88 [label=<gini = 0.48<br/>samples = 10<br/>value = [7, 0, 1, 1, 1, 0, 0, 0, 0, 0, 0, 0]>, fillcolor="#eeab7b"] ;
87 -> 88 ;
89 [label=<gini = 0.64<br/>samples = 5<br/>value = [2, 2, 1, 0, 0, 0, 0, 0, 0, 0, 0, 0]>, fillcolor="#ffffff"] ;
87 -> 89 ;
90 [label=<CCTV_num &le; 5.5<br/>gini = 0.644<br/>samples = 39<br/>value = [16, 16, 2, 5, 0, 0, 0, 0, 0, 0, 0, 0]>, fillcolor="#ffffff"] ;
86 -> 90 ;
91 [label=<gini = 0.689<br/>samples = 26<br/>value = [10, 9, 2, 5, 0, 0, 0, 0, 0, 0, 0, 0]>, fillcolor="#fdf8f3"] ;
90 -> 91 ;
92 [label=<gini = 0.497<br/>samples = 13<br/>value = [6, 7, 0, 0, 0, 0, 0, 0, 0, 0, 0, 0]>, fillcolor="#fbf9e3"] ;
90 -> 92 ;
93 [label=<floating &le; 645.0<br/>gini = 0.717<br/>samples = 46<br/>value = [16, 11, 14, 5, 0, 0, 0, 0, 0, 0, 0, 0]>, fillcolor="#fdf7f3"] ;
77 -> 93 ;
94 [label=<resident &le; 35.0<br/>gini = 0.698<br/>samples = 13<br/>value = [3, 1, 5, 4, 0, 0, 0, 0, 0, 0, 0, 0]>, fillcolor="#f4fce9"] ;
93 -> 94 ;
95 [label=<gini = 0.593<br/>samples = 9<br/>value = [0, 1, 4, 4, 0, 0, 0, 0, 0, 0, 0, 0]>, fillcolor="#ffffff"] ;
94 -> 95 ;
96 [label=<gini = 0.375<br/>samples = 4<br/>value = [3, 0, 1, 0, 0, 0, 0, 0, 0, 0, 0, 0]>, fillcolor="#eeab7b"] ;
94 -> 96 ;
97 [label=<CCTV_num &le; 4.5<br/>gini = 0.678<br/>samples = 33<br/>value = [13, 10, 9, 1, 0, 0, 0, 0, 0, 0, 0, 0]>, fillcolor="#fcefe5"] ;
93 -> 97 ;
98 [label=<floating &le; 680.0<br/>gini = 0.66<br/>samples = 20<br/>value = [6, 8, 6, 0, 0, 0, 0, 0, 0, 0, 0, 0]>, fillcolor="#fbf9e3"] ;
97 -> 98 ;
99 [label=<gini = 0.5<br/>samples = 4<br/>value = [2, 0, 2, 0, 0, 0, 0, 0, 0, 0, 0, 0]>, fillcolor="#ffffff"] ;
98 -> 99 ;
100 [label=<floating &le; 795.0<br/>gini = 0.625<br/>samples = 16<br/>value = [4, 8, 4, 0, 0, 0, 0, 0, 0, 0, 0, 0]>, fillcolor="#f6f2bd"] ;
98 -> 100 ;
101 [label=<gini = 0.245<br/>samples = 7<br/>value = [0, 6, 1, 0, 0, 0, 0, 0, 0, 0, 0, 0]>, fillcolor="#e9de5a"] ;
100 -> 101 ;
102 [label=<gini = 0.642<br/>samples = 9<br/>value = [4, 2, 3, 0, 0, 0, 0, 0, 0, 0, 0, 0]>, fillcolor="#fbeade"] ;
100 -> 102 ;
103 [label=<resident &le; 65.0<br/>gini = 0.627<br/>samples = 13<br/>value = [7, 2, 3, 1, 0, 0, 0, 0, 0, 0, 0, 0]>, fillcolor="#f5cdb0"] ;
97 -> 103 ;
104 [label=<gini = 0.406<br/>samples = 8<br/>value = [6, 1, 1, 0, 0, 0, 0, 0, 0, 0, 0, 0]>, fillcolor="#eca572"] ;
103 -> 104 ;
105 [label=<gini = 0.72<br/>samples = 5<br/>value = [1, 1, 2, 1, 0, 0, 0, 0, 0, 0, 0, 0]>, fillcolor="#e6f8ce"] ;
103 -> 105 ;
106 [label=<gini = 0.245<br/>samples = 7<br/>value = [6, 0, 1, 0, 0, 0, 0, 0, 0, 0, 0, 0]>, fillcolor="#e9965a"] ;
76 -> 106 ;
107 [label=<floating &le; 1545.0<br/>gini = 0.648<br/>samples = 51<br/>value = [12, 25, 12, 1, 1, 0, 0, 0, 0, 0, 0, 0]>, fillcolor="#f6f2bd"] ;
75 -> 107 ;
108 [label=<floating &le; 1425.0<br/>gini = 0.338<br/>samples = 15<br/>value = [2, 12, 1, 0, 0, 0, 0, 0, 0, 0, 0, 0]>, fillcolor="#ebe067"] ;
107 -> 108 ;
109 [label=<gini = 0.531<br/>samples = 8<br/>value = [2, 5, 1, 0, 0, 0, 0, 0, 0, 0, 0, 0]>, fillcolor="#f2eb9c"] ;
108 -> 109 ;
110 [label=<gini = 0.0<br/>samples = 7<br/>value = [0, 7, 0, 0, 0, 0, 0, 0, 0, 0, 0, 0]>, fillcolor="#e5d739"] ;
108 -> 110 ;
111 [label=<resident &le; 95.0<br/>gini = 0.698<br/>samples = 36<br/>value = [10, 13, 11, 1, 1, 0, 0, 0, 0, 0, 0, 0]>, fillcolor="#fdfcef"] ;
107 -> 111 ;
112 [label=<gini = 0.449<br/>samples = 7<br/>value = [5, 1, 1, 0, 0, 0, 0, 0, 0, 0, 0, 0]>, fillcolor="#eeab7b"] ;
111 -> 112 ;
113 [label=<floating &le; 3870.0<br/>gini = 0.678<br/>samples = 29<br/>value = [5, 12, 10, 1, 1, 0, 0, 0, 0, 0, 0, 0]>, fillcolor="#fcfbea"] ;
111 -> 113 ;
114 [label=<resident &le; 105.0<br/>gini = 0.701<br/>samples = 24<br/>value = [5, 8, 9, 1, 1, 0, 0, 0, 0, 0, 0, 0]>, fillcolor="#f9fdf3"] ;
113 -> 114 ;
115 [label=<gini = 0.625<br/>samples = 4<br/>value = [1, 2, 0, 1, 0, 0, 0, 0, 0, 0, 0, 0]>, fillcolor="#f6f2bd"] ;
114 -> 115 ;
116 [label=<resident &le; 125.0<br/>gini = 0.665<br/>samples = 20<br/>value = [4, 6, 9, 0, 1, 0, 0, 0, 0, 0, 0, 0]>, fillcolor="#eaf9d5"] ;
114 -> 116 ;
117 [label=<gini = 0.5<br/>samples = 6<br/>value = [0, 3, 3, 0, 0, 0, 0, 0, 0, 0, 0, 0]>, fillcolor="#ffffff"] ;
116 -> 117 ;
118 [label=<floating &le; 2375.0<br/>gini = 0.684<br/>samples = 14<br/>value = [4, 3, 6, 0, 1, 0, 0, 0, 0, 0, 0, 0]>, fillcolor="#ebfad7"] ;
116 -> 118 ;
119 [label=<gini = 0.722<br/>samples = 6<br/>value = [2, 2, 1, 0, 1, 0, 0, 0, 0, 0, 0, 0]>, fillcolor="#ffffff"] ;
118 -> 119 ;
120 [label=<gini = 0.531<br/>samples = 8<br/>value = [2, 1, 5, 0, 0, 0, 0, 0, 0, 0, 0, 0]>, fillcolor="#cef29c"] ;
118 -> 120 ;
121 [label=<gini = 0.32<br/>samples = 5<br/>value = [0, 4, 1, 0, 0, 0, 0, 0, 0, 0, 0, 0]>, fillcolor="#ece16a"] ;
113 -> 121 ;
122 [label=<CCTV_num &le; 2.5<br/>gini = 0.861<br/>samples = 248<br/>value = [16, 34, 47, 43, 39, 34, 17, 7, 8, 1, 1, 1]>, fillcolor="#fdfefb"] ;
0 -> 122 [labeldistance=2.5, labelangle=-45, headlabel="False"] ;
123 [label=<police_value &le; 0.5<br/>gini = 0.856<br/>samples = 147<br/>value = [4, 8, 15, 29, 29, 27, 17, 7, 8, 1, 1, 1]>, fillcolor="#ffffff"] ;
122 -> 123 ;
124 [label=<floating &le; 4990.0<br/>gini = 0.844<br/>samples = 125<br/>value = [3, 2, 9, 23, 29, 24, 17, 7, 8, 1, 1, 1]>, fillcolor="#f5fef9"] ;
123 -> 124 ;
125 [label=<floating &le; 4115.0<br/>gini = 0.764<br/>samples = 24<br/>value = [1, 0, 4, 3, 10, 2, 0, 0, 2, 1, 1, 0]>, fillcolor="#c4f7d9"] ;
124 -> 125 ;
126 [label=<gini = 0.691<br/>samples = 9<br/>value = [0, 0, 4, 0, 2, 2, 0, 0, 0, 0, 1, 0]>, fillcolor="#e3f8c6"] ;
125 -> 126 ;
127 [label=<resident &le; 235.0<br/>gini = 0.649<br/>samples = 15<br/>value = [1, 0, 0, 3, 8, 0, 0, 0, 2, 1, 0, 0]>, fillcolor="#acf4ca"] ;
125 -> 127 ;
128 [label=<floating &le; 4195.0<br/>gini = 0.58<br/>samples = 10<br/>value = [0, 0, 0, 1, 6, 0, 0, 0, 2, 1, 0, 0]>, fillcolor="#9cf2c0"] ;
127 -> 128 ;
129 [label=<gini = 0.75<br/>samples = 4<br/>value = [0, 0, 0, 1, 1, 0, 0, 0, 1, 1, 0, 0]>, fillcolor="#ffffff"] ;
128 -> 129 ;
130 [label=<gini = 0.278<br/>samples = 6<br/>value = [0, 0, 0, 0, 5, 0, 0, 0, 1, 0, 0, 0]>, fillcolor="#61ea9a"] ;
128 -> 130 ;
131 [label=<gini = 0.64<br/>samples = 5<br/>value = [1, 0, 0, 2, 2, 0, 0, 0, 0, 0, 0, 0]>, fillcolor="#ffffff"] ;
127 -> 131 ;
132 [label=<resident &le; 255.0<br/>gini = 0.838<br/>samples = 101<br/>value = [2, 2, 5, 20, 19, 22, 17, 7, 6, 0, 0, 1]>, fillcolor="#fafefe"] ;
124 -> 132 ;
133 [label=<floating &le; 6065.0<br/>gini = 0.848<br/>samples = 25<br/>value = [1, 2, 4, 2, 1, 4, 6, 4, 1, 0, 0, 0]>, fillcolor="#ecf6fd"] ;
132 -> 133 ;
134 [label=<resident &le; 195.0<br/>gini = 0.836<br/>samples = 15<br/>value = [1, 2, 1, 2, 0, 3, 1, 4, 1, 0, 0, 0]>, fillcolor="#eff0fd"] ;
133 -> 134 ;
135 [label=<gini = 0.625<br/>samples = 4<br/>value = [0, 1, 0, 0, 0, 0, 1, 2, 0, 0, 0, 0]>, fillcolor="#bdc2f6"] ;
134 -> 135 ;
136 [label=<floating &le; 5425.0<br/>gini = 0.826<br/>samples = 11<br/>value = [1, 1, 1, 2, 0, 3, 0, 2, 1, 0, 0, 0]>, fillcolor="#e9fcfb"] ;
134 -> 136 ;
137 [label=<gini = 0.776<br/>samples = 7<br/>value = [1, 1, 1, 2, 0, 2, 0, 0, 0, 0, 0, 0]>, fillcolor="#ffffff"] ;
136 -> 137 ;
138 [label=<gini = 0.625<br/>samples = 4<br/>value = [0, 0, 0, 0, 0, 1, 0, 2, 1, 0, 0, 0]>, fillcolor="#bdc2f6"] ;
136 -> 138 ;
139 [label=<floating &le; 6305.0<br/>gini = 0.64<br/>samples = 10<br/>value = [0, 0, 3, 0, 1, 1, 5, 0, 0, 0, 0, 0]>, fillcolor="#c6e3f8"] ;
133 -> 139 ;
140 [label=<gini = 0.5<br/>samples = 4<br/>value = [0, 0, 2, 0, 0, 0, 2, 0, 0, 0, 0, 0]>, fillcolor="#ffffff"] ;
139 -> 140 ;
141 [label=<gini = 0.667<br/>samples = 6<br/>value = [0, 0, 1, 0, 1, 1, 3, 0, 0, 0, 0, 0]>, fillcolor="#b0d8f5"] ;
139 -> 141 ;
142 [label=<floating &le; 5430.0<br/>gini = 0.804<br/>samples = 76<br/>value = [1, 0, 1, 18, 18, 18, 11, 3, 5, 0, 0, 1]>, fillcolor="#ffffff"] ;
132 -> 142 ;
143 [label=<gini = 0.617<br/>samples = 9<br/>value = [0, 0, 0, 0, 1, 5, 2, 0, 1, 0, 0, 0]>, fillcolor="#aaf4ee"] ;
142 -> 143 ;
144 [label=<floating &le; 6195.0<br/>gini = 0.802<br/>samples = 67<br/>value = [1, 0, 1, 18, 17, 13, 9, 3, 4, 0, 0, 1]>, fillcolor="#fbfefb"] ;
142 -> 144 ;
145 [label=<floating &le; 5885.0<br/>gini = 0.698<br/>samples = 21<br/>value = [0, 0, 0, 5, 9, 1, 5, 0, 1, 0, 0, 0]>, fillcolor="#cef8e0"] ;
144 -> 145 ;
146 [label=<gini = 0.656<br/>samples = 8<br/>value = [0, 0, 0, 2, 4, 1, 0, 0, 1, 0, 0, 0]>, fillcolor="#bdf6d5"] ;
145 -> 146 ;
147 [label=<floating &le; 6070.0<br/>gini = 0.651<br/>samples = 13<br/>value = [0, 0, 0, 3, 5, 0, 5, 0, 0, 0, 0, 0]>, fillcolor="#ffffff"] ;
145 -> 147 ;
148 [label=<gini = 0.611<br/>samples = 6<br/>value = [0, 0, 0, 2, 1, 0, 3, 0, 0, 0, 0, 0]>, fillcolor="#cee6f8"] ;
147 -> 148 ;
149 [label=<gini = 0.571<br/>samples = 7<br/>value = [0, 0, 0, 1, 4, 0, 2, 0, 0, 0, 0, 0]>, fillcolor="#b0f5cd"] ;
147 -> 149 ;
150 [label=<floating &le; 6850.0<br/>gini = 0.804<br/>samples = 46<br/>value = [1, 0, 1, 13, 8, 12, 4, 3, 3, 0, 0, 1]>, fillcolor="#fafef9"] ;
144 -> 150 ;
151 [label=<floating &le; 6295.0<br/>gini = 0.8<br/>samples = 42<br/>value = [1, 0, 1, 13, 5, 11, 4, 3, 3, 0, 0, 1]>, fillcolor="#f3fdf2"] ;
150 -> 151 ;
152 [label=<gini = 0.656<br/>samples = 8<br/>value = [0, 0, 0, 4, 1, 0, 0, 2, 0, 0, 0, 1]>, fillcolor="#c2f6bd"] ;
151 -> 152 ;
153 [label=<gini = 0.787<br/>samples = 34<br/>value = [1, 0, 1, 9, 4, 11, 4, 1, 3, 0, 0, 0]>, fillcolor="#effdfc"] ;
151 -> 153 ;
154 [label=<gini = 0.375<br/>samples = 4<br/>value = [0, 0, 0, 0, 3, 1, 0, 0, 0, 0, 0, 0]>, fillcolor="#7beeab"] ;
150 -> 154 ;
155 [label=<resident &le; 335.0<br/>gini = 0.756<br/>samples = 22<br/>value = [1, 6, 6, 6, 0, 3, 0, 0, 0, 0, 0, 0]>, fillcolor="#ffffff"] ;
123 -> 155 ;
156 [label=<resident &le; 285.0<br/>gini = 0.734<br/>samples = 17<br/>value = [0, 4, 6, 4, 0, 3, 0, 0, 0, 0, 0, 0]>, fillcolor="#f0fbe1"] ;
155 -> 156 ;
157 [label=<floating &le; 5975.0<br/>gini = 0.736<br/>samples = 12<br/>value = [0, 4, 3, 3, 0, 2, 0, 0, 0, 0, 0, 0]>, fillcolor="#fcfbe9"] ;
156 -> 157 ;
158 [label=<gini = 0.719<br/>samples = 8<br/>value = [0, 1, 2, 3, 0, 2, 0, 0, 0, 0, 0, 0]>, fillcolor="#e0fbde"] ;
157 -> 158 ;
159 [label=<gini = 0.375<br/>samples = 4<br/>value = [0, 3, 1, 0, 0, 0, 0, 0, 0, 0, 0, 0]>, fillcolor="#eee47b"] ;
157 -> 159 ;
160 [label=<gini = 0.56<br/>samples = 5<br/>value = [0, 0, 3, 1, 0, 1, 0, 0, 0, 0, 0, 0]>, fillcolor="#cef29c"] ;
156 -> 160 ;
161 [label=<gini = 0.64<br/>samples = 5<br/>value = [1, 2, 0, 2, 0, 0, 0, 0, 0, 0, 0, 0]>, fillcolor="#ffffff"] ;
155 -> 161 ;
162 [label=<floating &le; 6535.0<br/>gini = 0.785<br/>samples = 101<br/>value = [12, 26, 32, 14, 10, 7, 0, 0, 0, 0, 0, 0]>, fillcolor="#f7fdef"] ;
122 -> 162 ;
163 [label=<floating &le; 4840.0<br/>gini = 0.793<br/>samples = 89<br/>value = [12, 25, 24, 13, 10, 5, 0, 0, 0, 0, 0, 0]>, fillcolor="#fffefc"] ;
162 -> 163 ;
164 [label=<floating &le; 4335.0<br/>gini = 0.42<br/>samples = 10<br/>value = [0, 3, 7, 0, 0, 0, 0, 0, 0, 0, 0, 0]>, fillcolor="#c7f08e"] ;
163 -> 164 ;
165 [label=<gini = 0.5<br/>samples = 6<br/>value = [0, 3, 3, 0, 0, 0, 0, 0, 0, 0, 0, 0]>, fillcolor="#ffffff"] ;
164 -> 165 ;
166 [label=<gini = 0.0<br/>samples = 4<br/>value = [0, 0, 4, 0, 0, 0, 0, 0, 0, 0, 0, 0]>, fillcolor="#9de539"] ;
164 -> 166 ;
167 [label=<resident &le; 235.0<br/>gini = 0.806<br/>samples = 79<br/>value = [12, 22, 17, 13, 10, 5, 0, 0, 0, 0, 0, 0]>, fillcolor="#fdfcef"] ;
163 -> 167 ;
168 [label=<CCTV_num &le; 7.0<br/>gini = 0.693<br/>samples = 15<br/>value = [2, 5, 0, 6, 0, 2, 0, 0, 0, 0, 0, 0]>, fillcolor="#edfceb"] ;
167 -> 168 ;
169 [label=<floating &le; 5185.0<br/>gini = 0.678<br/>samples = 11<br/>value = [1, 5, 0, 3, 0, 2, 0, 0, 0, 0, 0, 0]>, fillcolor="#f8f5ce"] ;
168 -> 169 ;
170 [label=<gini = 0.5<br/>samples = 4<br/>value = [0, 2, 0, 0, 0, 2, 0, 0, 0, 0, 0, 0]>, fillcolor="#ffffff"] ;
169 -> 170 ;
171 [label=<gini = 0.612<br/>samples = 7<br/>value = [1, 3, 0, 3, 0, 0, 0, 0, 0, 0, 0, 0]>, fillcolor="#ffffff"] ;
169 -> 171 ;
172 [label=<gini = 0.375<br/>samples = 4<br/>value = [1, 0, 0, 3, 0, 0, 0, 0, 0, 0, 0, 0]>, fillcolor="#84ee7b"] ;
168 -> 172 ;
173 [label=<floating &le; 6225.0<br/>gini = 0.796<br/>samples = 64<br/>value = [10, 17, 17, 7, 10, 3, 0, 0, 0, 0, 0, 0]>, fillcolor="#ffffff"] ;
167 -> 173 ;
174 [label=<resident &le; 305.0<br/>gini = 0.777<br/>samples = 37<br/>value = [7, 5, 13, 5, 6, 1, 0, 0, 0, 0, 0, 0]>, fillcolor="#ebfad7"] ;
173 -> 174 ;
175 [label=<floating &le; 5175.0<br/>gini = 0.69<br/>samples = 20<br/>value = [1, 3, 10, 2, 3, 1, 0, 0, 0, 0, 0, 0]>, fillcolor="#d7f4ad"] ;
174 -> 175 ;
176 [label=<gini = 0.72<br/>samples = 5<br/>value = [0, 2, 1, 0, 1, 1, 0, 0, 0, 0, 0, 0]>, fillcolor="#f8f5ce"] ;
175 -> 176 ;
177 [label=<CCTV_num &le; 7.5<br/>gini = 0.596<br/>samples = 15<br/>value = [1, 1, 9, 2, 2, 0, 0, 0, 0, 0, 0, 0]>, fillcolor="#caf194"] ;
175 -> 177 ;
178 [label=<gini = 0.46<br/>samples = 10<br/>value = [1, 0, 7, 2, 0, 0, 0, 0, 0, 0, 0, 0]>, fillcolor="#c2ef83"] ;
177 -> 178 ;
179 [label=<gini = 0.64<br/>samples = 5<br/>value = [0, 1, 2, 0, 2, 0, 0, 0, 0, 0, 0, 0]>, fillcolor="#ffffff"] ;
177 -> 179 ;
180 [label=<CCTV_num &le; 4.5<br/>gini = 0.768<br/>samples = 17<br/>value = [6, 2, 3, 3, 3, 0, 0, 0, 0, 0, 0, 0]>, fillcolor="#f9e4d5"] ;
174 -> 180 ;
181 [label=<gini = 0.688<br/>samples = 8<br/>value = [3, 1, 1, 0, 3, 0, 0, 0, 0, 0, 0, 0]>, fillcolor="#ffffff"] ;
180 -> 181 ;
182 [label=<gini = 0.716<br/>samples = 9<br/>value = [3, 1, 2, 3, 0, 0, 0, 0, 0, 0, 0, 0]>, fillcolor="#ffffff"] ;
180 -> 182 ;
183 [label=<CCTV_num &le; 4.5<br/>gini = 0.735<br/>samples = 27<br/>value = [3, 12, 4, 2, 4, 2, 0, 0, 0, 0, 0, 0]>, fillcolor="#f6f1ba"] ;
173 -> 183 ;
184 [label=<floating &le; 6425.0<br/>gini = 0.541<br/>samples = 14<br/>value = [0, 9, 2, 1, 2, 0, 0, 0, 0, 0, 0, 0]>, fillcolor="#f0e88c"] ;
183 -> 184 ;
185 [label=<gini = 0.0<br/>samples = 6<br/>value = [0, 6, 0, 0, 0, 0, 0, 0, 0, 0, 0, 0]>, fillcolor="#e5d739"] ;
184 -> 185 ;
186 [label=<gini = 0.719<br/>samples = 8<br/>value = [0, 3, 2, 1, 2, 0, 0, 0, 0, 0, 0, 0]>, fillcolor="#fbf8de"] ;
184 -> 186 ;
187 [label=<floating &le; 6330.0<br/>gini = 0.817<br/>samples = 13<br/>value = [3, 3, 2, 1, 2, 2, 0, 0, 0, 0, 0, 0]>, fillcolor="#ffffff"] ;
183 -> 187 ;
188 [label=<gini = 0.625<br/>samples = 4<br/>value = [0, 0, 2, 1, 1, 0, 0, 0, 0, 0, 0, 0]>, fillcolor="#def6bd"] ;
187 -> 188 ;
189 [label=<gini = 0.716<br/>samples = 9<br/>value = [3, 3, 0, 0, 1, 2, 0, 0, 0, 0, 0, 0]>, fillcolor="#ffffff"] ;
187 -> 189 ;
190 [label=<floating &le; 6680.0<br/>gini = 0.514<br/>samples = 12<br/>value = [0, 1, 8, 1, 0, 2, 0, 0, 0, 0, 0, 0]>, fillcolor="#c4ef88"] ;
162 -> 190 ;
191 [label=<gini = 0.32<br/>samples = 5<br/>value = [0, 0, 4, 1, 0, 0, 0, 0, 0, 0, 0, 0]>, fillcolor="#b6ec6a"] ;
190 -> 191 ;
192 [label=<gini = 0.571<br/>samples = 7<br/>value = [0, 1, 4, 0, 0, 2, 0, 0, 0, 0, 0, 0]>, fillcolor="#d8f5b0"] ;
190 -> 192 ;
}