digraph Tree {
node [shape=box, style="filled, rounded", color="black", fontname=helvetica] ;
edge [fontname=helvetica] ;
0 [label=<floating &le; 3835.0<br/>gini = 0.588<br/>samples = 885<br/>value = [500, 252, 92, 28, 10, 3]>, fillcolor="#f5ceb1"] ;
1 [label=<police_value &le; 0.5<br/>gini = 0.51<br/>samples = 625<br/>value = [402, 166, 47, 7, 2, 1]>, fillcolor="#f2be99"] ;
0 -> 1 [labeldistance=2.5, labelangle=45, headlabel="True"] ;
2 [label=<floating &le; 2325.0<br/>gini = 0.566<br/>samples = 414<br/>value = [240, 123, 41, 7, 2, 1]>, fillcolor="#f5ccaf"] ;
1 -> 2 ;
3 [label=<floating &le; 1085.0<br/>gini = 0.568<br/>samples = 390<br/>value = [223, 120, 39, 6, 2, 0]>, fillcolor="#f5cfb3"] ;
2 -> 3 ;
4 [label=<gini = 0.56<br/>samples = 303<br/>value = [179, 85, 34, 3, 2, 0]>, fillcolor="#f4c9aa"] ;
3 -> 4 ;
5 [label=<gini = 0.578<br/>samples = 87<br/>value = [44, 35, 5, 3, 0, 0]>, fillcolor="#fae9dd"] ;
3 -> 5 ;
6 [label=<gini = 0.472<br/>samples = 24<br/>value = [17, 3, 2, 1, 0, 1]>, fillcolor="#eeab7b"] ;
2 -> 6 ;
7 [label=<CCTV_num &le; 0.5<br/>gini = 0.368<br/>samples = 211<br/>value = [162, 43, 6, 0, 0, 0]>, fillcolor="#eda673"] ;
1 -> 7 ;
8 [label=<floating &le; 1055.0<br/>gini = 0.305<br/>samples = 121<br/>value = [99, 19, 3, 0, 0, 0]>, fillcolor="#eb9c64"] ;
7 -> 8 ;
9 [label=<gini = 0.226<br/>samples = 87<br/>value = [76, 9, 2, 0, 0, 0]>, fillcolor="#e99355"] ;
8 -> 9 ;
10 [label=<gini = 0.455<br/>samples = 34<br/>value = [23, 10, 1, 0, 0, 0]>, fillcolor="#f1bb94"] ;
8 -> 10 ;
11 [label=<resident &le; 55.0<br/>gini = 0.438<br/>samples = 90<br/>value = [63, 24, 3, 0, 0, 0]>, fillcolor="#f0b58a"] ;
7 -> 11 ;
12 [label=<gini = 0.455<br/>samples = 60<br/>value = [39, 21, 0, 0, 0, 0]>, fillcolor="#f3c5a4"] ;
11 -> 12 ;
13 [label=<gini = 0.34<br/>samples = 30<br/>value = [24, 3, 3, 0, 0, 0]>, fillcolor="#eb9d65"] ;
11 -> 13 ;
14 [label=<CCTV_num &le; 3.5<br/>gini = 0.711<br/>samples = 260<br/>value = [98, 86, 45, 21, 8, 2]>, fillcolor="#fdf6f1"] ;
0 -> 14 [labeldistance=2.5, labelangle=-45, headlabel="False"] ;
15 [label=<police_value &le; 0.5<br/>gini = 0.738<br/>samples = 168<br/>value = [47, 62, 30, 19, 8, 2]>, fillcolor="#f3fce6"] ;
14 -> 15 ;
16 [label=<CCTV_num &le; 1.5<br/>gini = 0.743<br/>samples = 143<br/>value = [33, 55, 28, 17, 8, 2]>, fillcolor="#ebfad7"] ;
15 -> 16 ;
17 [label=<gini = 0.757<br/>samples = 123<br/>value = [27, 43, 28, 16, 7, 2]>, fillcolor="#f0fbe0"] ;
16 -> 17 ;
18 [label=<gini = 0.545<br/>samples = 20<br/>value = [6, 12, 0, 1, 1, 0]>, fillcolor="#d5f4aa"] ;
16 -> 18 ;
19 [label=<gini = 0.595<br/>samples = 25<br/>value = [14, 7, 2, 2, 0, 0]>, fillcolor="#f5ceb2"] ;
15 -> 19 ;
20 [label=<resident &le; 235.0<br/>gini = 0.598<br/>samples = 92<br/>value = [51, 24, 15, 2, 0, 0]>, fillcolor="#f5cdb0"] ;
14 -> 20 ;
21 [label=<gini = 0.665<br/>samples = 22<br/>value = [8, 7, 7, 0, 0, 0]>, fillcolor="#fdf7f2"] ;
20 -> 21 ;
22 [label=<CCTV_num &le; 6.5<br/>gini = 0.55<br/>samples = 70<br/>value = [43, 17, 8, 2, 0, 0]>, fillcolor="#f2c19e"] ;
20 -> 22 ;
23 [label=<gini = 0.429<br/>samples = 40<br/>value = [29, 8, 3, 0, 0, 0]>, fillcolor="#eeac7d"] ;
22 -> 23 ;
24 [label=<gini = 0.66<br/>samples = 30<br/>value = [14, 9, 5, 2, 0, 0]>, fillcolor="#f9e1d0"] ;
22 -> 24 ;
}