digraph Tree {
node [shape=box, style="filled, rounded", color="black", fontname=helvetica] ;
edge [fontname=helvetica] ;
0 [label=<police_value &le; 0.5<br/>gini = 0.173<br/>samples = 885<br/>value = [801, 77, 7]>, fillcolor="#e88e4e"] ;
1 [label=<floating &le; 2985.0<br/>gini = 0.207<br/>samples = 630<br/>value = [557, 68, 5]>, fillcolor="#e89153"] ;
0 -> 1 [labeldistance=2.5, labelangle=45, headlabel="True"] ;
2 [label=<resident &le; 5.0<br/>gini = 0.187<br/>samples = 579<br/>value = [519, 57, 3]>, fillcolor="#e88f50"] ;
1 -> 2 ;
3 [label=<floating &le; 220.0<br/>gini = 0.366<br/>samples = 29<br/>value = [22, 7, 0]>, fillcolor="#eda978"] ;
2 -> 3 ;
4 [label=<gini = 0.32<br/>samples = 25<br/>value = [20, 5, 0]>, fillcolor="#eca06a"] ;
3 -> 4 ;
5 [label=<gini = 0.5<br/>samples = 4<br/>value = [2, 2, 0]>, fillcolor="#ffffff"] ;
3 -> 5 ;
6 [label=<floating &le; 2840.0<br/>gini = 0.175<br/>samples = 550<br/>value = [497, 50, 3]>, fillcolor="#e88e4e"] ;
2 -> 6 ;
7 [label=<gini = 0.185<br/>samples = 517<br/>value = [464, 50, 3]>, fillcolor="#e88f4f"] ;
6 -> 7 ;
8 [label=<gini = 0.0<br/>samples = 33<br/>value = [33, 0, 0]>, fillcolor="#e58139"] ;
6 -> 8 ;
9 [label=<floating &le; 3005.0<br/>gini = 0.397<br/>samples = 51<br/>value = [38, 11, 2]>, fillcolor="#edaa79"] ;
1 -> 9 ;
10 [label=<resident &le; 275.0<br/>gini = 0.54<br/>samples = 10<br/>value = [3, 6, 1]>, fillcolor="#aaf4c9"] ;
9 -> 10 ;
11 [label=<gini = 0.0<br/>samples = 4<br/>value = [0, 4, 0]>, fillcolor="#39e581"] ;
10 -> 11 ;
12 [label=<gini = 0.611<br/>samples = 6<br/>value = [3, 2, 1]>, fillcolor="#f8e0ce"] ;
10 -> 12 ;
13 [label=<CCTV_num &le; 1.5<br/>gini = 0.256<br/>samples = 41<br/>value = [35, 5, 1]>, fillcolor="#e9965a"] ;
9 -> 13 ;
14 [label=<gini = 0.405<br/>samples = 23<br/>value = [17, 5, 1]>, fillcolor="#eeab7b"] ;
13 -> 14 ;
15 [label=<gini = 0.0<br/>samples = 18<br/>value = [18, 0, 0]>, fillcolor="#e58139"] ;
13 -> 15 ;
16 [label=<floating &le; 2395.0<br/>gini = 0.083<br/>samples = 255<br/>value = [244, 9, 2]>, fillcolor="#e68742"] ;
0 -> 16 [labeldistance=2.5, labelangle=-45, headlabel="False"] ;
17 [label=<floating &le; 385.0<br/>gini = 0.062<br/>samples = 219<br/>value = [212, 6, 1]>, fillcolor="#e68540"] ;
16 -> 17 ;
18 [label=<floating &le; 375.0<br/>gini = 0.11<br/>samples = 104<br/>value = [98, 5, 1]>, fillcolor="#e78945"] ;
17 -> 18 ;
19 [label=<gini = 0.081<br/>samples = 96<br/>value = [92, 3, 1]>, fillcolor="#e68642"] ;
18 -> 19 ;
20 [label=<gini = 0.375<br/>samples = 8<br/>value = [6, 2, 0]>, fillcolor="#eeab7b"] ;
18 -> 20 ;
21 [label=<CCTV_num &le; 4.5<br/>gini = 0.017<br/>samples = 115<br/>value = [114, 1, 0]>, fillcolor="#e5823b"] ;
17 -> 21 ;
22 [label=<gini = 0.0<br/>samples = 100<br/>value = [100, 0, 0]>, fillcolor="#e58139"] ;
21 -> 22 ;
23 [label=<gini = 0.124<br/>samples = 15<br/>value = [14, 1, 0]>, fillcolor="#e78a47"] ;
21 -> 23 ;
24 [label=<floating &le; 2510.0<br/>gini = 0.202<br/>samples = 36<br/>value = [32, 3, 1]>, fillcolor="#e89051"] ;
16 -> 24 ;
25 [label=<gini = 0.49<br/>samples = 7<br/>value = [4, 3, 0]>, fillcolor="#f8e0ce"] ;
24 -> 25 ;
26 [label=<CCTV_num &le; 5.5<br/>gini = 0.067<br/>samples = 29<br/>value = [28, 0, 1]>, fillcolor="#e68640"] ;
24 -> 26 ;
27 [label=<gini = 0.0<br/>samples = 24<br/>value = [24, 0, 0]>, fillcolor="#e58139"] ;
26 -> 27 ;
28 [label=<gini = 0.32<br/>samples = 5<br/>value = [4, 0, 1]>, fillcolor="#eca06a"] ;
26 -> 28 ;
}