digraph Tree {
node [shape=box, style="filled, rounded", color="black", fontname=helvetica] ;
edge [fontname=helvetica] ;
0 [label=<floating &le; 1330.0<br/>gini = 0.482<br/>samples = 885<br/>value = [589, 236, 53, 5, 2]>, fillcolor="#f1ba93"] ;
1 [label=<police_value &le; 0.5<br/>gini = 0.433<br/>samples = 663<br/>value = [473, 157, 31, 2, 0]>, fillcolor="#efb083"] ;
0 -> 1 [labeldistance=2.5, labelangle=45, headlabel="True"] ;
2 [label=<CCTV_num &le; 2.5<br/>gini = 0.474<br/>samples = 451<br/>value = [303, 121, 25, 2, 0]>, fillcolor="#f1ba92"] ;
1 -> 2 ;
3 [label=<floating &le; 145.0<br/>gini = 0.51<br/>samples = 326<br/>value = [207, 93, 25, 1, 0]>, fillcolor="#f2c19e"] ;
2 -> 3 ;
4 [label=<gini = 0.402<br/>samples = 79<br/>value = [58, 19, 2, 0, 0]>, fillcolor="#eead7e"] ;
3 -> 4 ;
5 [label=<gini = 0.538<br/>samples = 247<br/>value = [149, 74, 23, 1, 0]>, fillcolor="#f4c8a9"] ;
3 -> 5 ;
6 [label=<resident &le; 25.0<br/>gini = 0.36<br/>samples = 125<br/>value = [96, 28, 0, 1, 0]>, fillcolor="#eda774"] ;
2 -> 6 ;
7 [label=<gini = 0.239<br/>samples = 36<br/>value = [31, 5, 0, 0, 0]>, fillcolor="#e99559"] ;
6 -> 7 ;
8 [label=<gini = 0.4<br/>samples = 89<br/>value = [65, 23, 0, 1, 0]>, fillcolor="#eeaf81"] ;
6 -> 8 ;
9 [label=<floating &le; 215.0<br/>gini = 0.327<br/>samples = 212<br/>value = [170, 36, 6, 0, 0]>, fillcolor="#eb9f68"] ;
1 -> 9 ;
10 [label=<police_value &le; 1.5<br/>gini = 0.391<br/>samples = 85<br/>value = [64, 17, 4, 0, 0]>, fillcolor="#eda876"] ;
9 -> 10 ;
11 [label=<gini = 0.255<br/>samples = 40<br/>value = [34, 6, 0, 0, 0]>, fillcolor="#ea975c"] ;
10 -> 11 ;
12 [label=<gini = 0.488<br/>samples = 45<br/>value = [30, 11, 4, 0, 0]>, fillcolor="#f0b990"] ;
10 -> 12 ;
13 [label=<floating &le; 415.0<br/>gini = 0.281<br/>samples = 127<br/>value = [106, 19, 2, 0, 0]>, fillcolor="#ea9a60"] ;
9 -> 13 ;
14 [label=<gini = 0.241<br/>samples = 101<br/>value = [87, 13, 1, 0, 0]>, fillcolor="#e99558"] ;
13 -> 14 ;
15 [label=<gini = 0.411<br/>samples = 26<br/>value = [19, 6, 1, 0, 0]>, fillcolor="#eead7e"] ;
13 -> 15 ;
16 [label=<CCTV_num &le; 2.5<br/>gini = 0.59<br/>samples = 222<br/>value = [116, 79, 22, 3, 2]>, fillcolor="#f8decc"] ;
0 -> 16 [labeldistance=2.5, labelangle=-45, headlabel="False"] ;
17 [label=<floating &le; 1825.0<br/>gini = 0.643<br/>samples = 131<br/>value = [54, 53, 20, 2, 2]>, fillcolor="#fffdfc"] ;
16 -> 17 ;
18 [label=<resident &le; 275.0<br/>gini = 0.652<br/>samples = 76<br/>value = [22, 36, 15, 1, 2]>, fillcolor="#ddf8cc"] ;
17 -> 18 ;
19 [label=<gini = 0.524<br/>samples = 37<br/>value = [7, 24, 5, 0, 1]>, fillcolor="#b4f08f"] ;
18 -> 19 ;
20 [label=<gini = 0.69<br/>samples = 39<br/>value = [15, 12, 10, 1, 1]>, fillcolor="#fcf1e9"] ;
18 -> 20 ;
21 [label=<resident &le; 285.0<br/>gini = 0.557<br/>samples = 55<br/>value = [32, 17, 5, 1, 0]>, fillcolor="#f5cdb1"] ;
17 -> 21 ;
22 [label=<gini = 0.546<br/>samples = 27<br/>value = [17, 5, 4, 1, 0]>, fillcolor="#f1ba93"] ;
21 -> 22 ;
23 [label=<gini = 0.528<br/>samples = 28<br/>value = [15, 12, 1, 0, 0]>, fillcolor="#fae7da"] ;
21 -> 23 ;
24 [label=<CCTV_num &le; 6.5<br/>gini = 0.454<br/>samples = 91<br/>value = [62, 26, 2, 1, 0]>, fillcolor="#f1b991"] ;
16 -> 24 ;
25 [label=<resident &le; 285.0<br/>gini = 0.406<br/>samples = 58<br/>value = [43, 12, 2, 1, 0]>, fillcolor="#edaa7a"] ;
24 -> 25 ;
26 [label=<gini = 0.261<br/>samples = 27<br/>value = [23, 3, 0, 1, 0]>, fillcolor="#e9965a"] ;
25 -> 26 ;
27 [label=<gini = 0.495<br/>samples = 31<br/>value = [20, 9, 2, 0, 0]>, fillcolor="#f2c09c"] ;
25 -> 27 ;
28 [label=<gini = 0.489<br/>samples = 33<br/>value = [19, 14, 0, 0, 0]>, fillcolor="#f8decb"] ;
24 -> 28 ;
}