digraph Tree {
node [shape=box, style="filled, rounded", color="black", fontname=helvetica] ;
edge [fontname=helvetica] ;
0 [label=<floating &le; 1335.0<br/>gini = 0.661<br/>samples = 885<br/>value = [401, 292, 131, 42, 14, 4, 1]>, fillcolor="#fae8db"] ;
1 [label=<CCTV_num &le; 2.5<br/>gini = 0.603<br/>samples = 622<br/>value = [328, 201, 73, 16, 3, 1, 0]>, fillcolor="#f7d9c3"] ;
0 -> 1 [labeldistance=2.5, labelangle=45, headlabel="True"] ;
2 [label=<police_value &le; 0.5<br/>gini = 0.627<br/>samples = 449<br/>value = [218, 154, 61, 12, 3, 1, 0]>, fillcolor="#f9e4d4"] ;
1 -> 2 ;
3 [label=<resident &le; 5.0<br/>gini = 0.656<br/>samples = 303<br/>value = [135, 104, 49, 11, 3, 1, 0]>, fillcolor="#fbebe0"] ;
2 -> 3 ;
4 [label=<floating &le; 145.0<br/>gini = 0.525<br/>samples = 22<br/>value = [14, 3, 5, 0, 0, 0, 0]>, fillcolor="#f1bc96"] ;
3 -> 4 ;
5 [label=<gini = 0.32<br/>samples = 16<br/>value = [13, 2, 1, 0, 0, 0, 0]>, fillcolor="#eb9c63"] ;
4 -> 5 ;
6 [label=<gini = 0.5<br/>samples = 6<br/>value = [1, 1, 4, 0, 0, 0, 0]>, fillcolor="#88ef94"] ;
4 -> 6 ;
7 [label=<floating &le; 125.0<br/>gini = 0.659<br/>samples = 281<br/>value = [121, 101, 44, 11, 3, 1, 0]>, fillcolor="#fcf1e9"] ;
3 -> 7 ;
8 [label=<floating &le; 105.0<br/>gini = 0.601<br/>samples = 23<br/>value = [5, 13, 4, 1, 0, 0, 0]>, fillcolor="#dff3a7"] ;
7 -> 8 ;
9 [label=<gini = 0.625<br/>samples = 16<br/>value = [4, 8, 4, 0, 0, 0, 0]>, fillcolor="#e7f6bd"] ;
8 -> 9 ;
10 [label=<gini = 0.449<br/>samples = 7<br/>value = [1, 5, 0, 1, 0, 0, 0]>, fillcolor="#cfee7b"] ;
8 -> 10 ;
11 [label=<resident &le; 35.0<br/>gini = 0.656<br/>samples = 258<br/>value = [116, 88, 40, 10, 3, 1, 0]>, fillcolor="#fbeade"] ;
7 -> 11 ;
12 [label=<floating &le; 235.0<br/>gini = 0.643<br/>samples = 115<br/>value = [48, 47, 14, 3, 2, 1, 0]>, fillcolor="#fffdfc"] ;
11 -> 12 ;
13 [label=<floating &le; 155.0<br/>gini = 0.66<br/>samples = 26<br/>value = [12, 6, 7, 1, 0, 0, 0]>, fillcolor="#f8decb"] ;
12 -> 13 ;
14 [label=<gini = 0.672<br/>samples = 16<br/>value = [7, 5, 3, 1, 0, 0, 0]>, fillcolor="#fae8db"] ;
13 -> 14 ;
15 [label=<gini = 0.58<br/>samples = 10<br/>value = [5, 1, 4, 0, 0, 0, 0]>, fillcolor="#fbeade"] ;
13 -> 15 ;
16 [label=<floating &le; 295.0<br/>gini = 0.617<br/>samples = 89<br/>value = [36, 41, 7, 2, 2, 1, 0]>, fillcolor="#f8fdec"] ;
12 -> 16 ;
17 [label=<gini = 0.548<br/>samples = 19<br/>value = [4, 12, 1, 1, 1, 0, 0]>, fillcolor="#d9f195"] ;
16 -> 17 ;
18 [label=<floating &le; 405.0<br/>gini = 0.611<br/>samples = 70<br/>value = [32, 29, 6, 1, 1, 1, 0]>, fillcolor="#fdf6f1"] ;
16 -> 18 ;
19 [label=<gini = 0.598<br/>samples = 51<br/>value = [27, 17, 5, 0, 1, 1, 0]>, fillcolor="#f7dac5"] ;
18 -> 19 ;
20 [label=<gini = 0.526<br/>samples = 19<br/>value = [5, 12, 1, 1, 0, 0, 0]>, fillcolor="#dbf29c"] ;
18 -> 20 ;
21 [label=<floating &le; 1125.0<br/>gini = 0.656<br/>samples = 143<br/>value = [68, 41, 26, 7, 1, 0, 0]>, fillcolor="#f8decb"] ;
11 -> 21 ;
22 [label=<floating &le; 990.0<br/>gini = 0.665<br/>samples = 137<br/>value = [63, 40, 26, 7, 1, 0, 0]>, fillcolor="#f9e1d0"] ;
21 -> 22 ;
23 [label=<floating &le; 285.0<br/>gini = 0.645<br/>samples = 122<br/>value = [60, 33, 24, 5, 0, 0, 0]>, fillcolor="#f7d9c3"] ;
22 -> 23 ;
24 [label=<gini = 0.625<br/>samples = 20<br/>value = [8, 9, 2, 1, 0, 0, 0]>, fillcolor="#f9fdef"] ;
23 -> 24 ;
25 [label=<gini = 0.637<br/>samples = 102<br/>value = [52, 24, 22, 4, 0, 0, 0]>, fillcolor="#f6d2b8"] ;
23 -> 25 ;
26 [label=<gini = 0.702<br/>samples = 15<br/>value = [3, 7, 2, 2, 1, 0, 0]>, fillcolor="#e7f6bd"] ;
22 -> 26 ;
27 [label=<gini = 0.278<br/>samples = 6<br/>value = [5, 1, 0, 0, 0, 0, 0]>, fillcolor="#ea9a61"] ;
21 -> 27 ;
28 [label=<floating &le; 725.0<br/>gini = 0.553<br/>samples = 146<br/>value = [83, 50, 12, 1, 0, 0, 0]>, fillcolor="#f6d4bb"] ;
2 -> 28 ;
29 [label=<resident &le; 25.0<br/>gini = 0.566<br/>samples = 138<br/>value = [75, 50, 12, 1, 0, 0, 0]>, fillcolor="#f8dbc7"] ;
28 -> 29 ;
30 [label=<floating &le; 115.0<br/>gini = 0.452<br/>samples = 36<br/>value = [25, 9, 2, 0, 0, 0, 0]>, fillcolor="#f0b48a"] ;
29 -> 30 ;
31 [label=<gini = 0.444<br/>samples = 6<br/>value = [2, 4, 0, 0, 0, 0, 0]>, fillcolor="#dbf29c"] ;
30 -> 31 ;
32 [label=<floating &le; 260.0<br/>gini = 0.38<br/>samples = 30<br/>value = [23, 5, 2, 0, 0, 0, 0]>, fillcolor="#eca470"] ;
30 -> 32 ;
33 [label=<gini = 0.0<br/>samples = 9<br/>value = [9, 0, 0, 0, 0, 0, 0]>, fillcolor="#e58139"] ;
32 -> 33 ;
34 [label=<gini = 0.49<br/>samples = 21<br/>value = [14, 5, 2, 0, 0, 0, 0]>, fillcolor="#f0b890"] ;
32 -> 34 ;
35 [label=<floating &le; 485.0<br/>gini = 0.588<br/>samples = 102<br/>value = [50, 41, 10, 1, 0, 0, 0]>, fillcolor="#fbece2"] ;
29 -> 35 ;
36 [label=<police_value &le; 2.5<br/>gini = 0.545<br/>samples = 62<br/>value = [29, 30, 3, 0, 0, 0, 0]>, fillcolor="#fdfef9"] ;
35 -> 36 ;
37 [label=<police_value &le; 1.5<br/>gini = 0.527<br/>samples = 53<br/>value = [22, 29, 2, 0, 0, 0, 0]>, fillcolor="#eff9d2"] ;
36 -> 37 ;
38 [label=<floating &le; 365.0<br/>gini = 0.557<br/>samples = 32<br/>value = [15, 15, 2, 0, 0, 0, 0]>, fillcolor="#ffffff"] ;
37 -> 38 ;
39 [label=<gini = 0.554<br/>samples = 19<br/>value = [6, 11, 2, 0, 0, 0, 0]>, fillcolor="#e3f5b3"] ;
38 -> 39 ;
40 [label=<gini = 0.426<br/>samples = 13<br/>value = [9, 4, 0, 0, 0, 0, 0]>, fillcolor="#f1b991"] ;
38 -> 40 ;
41 [label=<gini = 0.444<br/>samples = 21<br/>value = [7, 14, 0, 0, 0, 0, 0]>, fillcolor="#dbf29c"] ;
37 -> 41 ;
42 [label=<gini = 0.37<br/>samples = 9<br/>value = [7, 1, 1, 0, 0, 0, 0]>, fillcolor="#eca06a"] ;
36 -> 42 ;
43 [label=<floating &le; 530.0<br/>gini = 0.617<br/>samples = 40<br/>value = [21, 11, 7, 1, 0, 0, 0]>, fillcolor="#f6d4bb"] ;
35 -> 43 ;
44 [label=<gini = 0.292<br/>samples = 12<br/>value = [10, 1, 1, 0, 0, 0, 0]>, fillcolor="#ea985d"] ;
43 -> 44 ;
45 [label=<floating &le; 615.0<br/>gini = 0.671<br/>samples = 28<br/>value = [11, 10, 6, 1, 0, 0, 0]>, fillcolor="#fef8f4"] ;
43 -> 45 ;
46 [label=<gini = 0.604<br/>samples = 15<br/>value = [4, 8, 3, 0, 0, 0, 0]>, fillcolor="#e5f6b7"] ;
45 -> 46 ;
47 [label=<gini = 0.627<br/>samples = 13<br/>value = [7, 2, 3, 1, 0, 0, 0]>, fillcolor="#f5cdb0"] ;
45 -> 47 ;
48 [label=<gini = 0.0<br/>samples = 8<br/>value = [8, 0, 0, 0, 0, 0, 0]>, fillcolor="#e58139"] ;
28 -> 48 ;
49 [label=<police_value &le; 2.5<br/>gini = 0.517<br/>samples = 173<br/>value = [110, 47, 12, 4, 0, 0, 0]>, fillcolor="#f2c09c"] ;
1 -> 49 ;
50 [label=<police_value &le; 1.5<br/>gini = 0.526<br/>samples = 160<br/>value = [99, 47, 10, 4, 0, 0, 0]>, fillcolor="#f3c5a4"] ;
49 -> 50 ;
51 [label=<floating &le; 1025.0<br/>gini = 0.513<br/>samples = 144<br/>value = [92, 39, 10, 3, 0, 0, 0]>, fillcolor="#f2bf9b"] ;
50 -> 51 ;
52 [label=<floating &le; 420.0<br/>gini = 0.496<br/>samples = 125<br/>value = [83, 30, 9, 3, 0, 0, 0]>, fillcolor="#f0b991"] ;
51 -> 52 ;
53 [label=<resident &le; 65.0<br/>gini = 0.545<br/>samples = 82<br/>value = [49, 25, 5, 3, 0, 0, 0]>, fillcolor="#f4caac"] ;
52 -> 53 ;
54 [label=<CCTV_num &le; 4.5<br/>gini = 0.519<br/>samples = 74<br/>value = [47, 20, 4, 3, 0, 0, 0]>, fillcolor="#f2c09c"] ;
53 -> 54 ;
55 [label=<floating &le; 315.0<br/>gini = 0.579<br/>samples = 40<br/>value = [21, 15, 2, 2, 0, 0, 0]>, fillcolor="#f9e1cf"] ;
54 -> 55 ;
56 [label=<gini = 0.585<br/>samples = 21<br/>value = [9, 10, 1, 1, 0, 0, 0]>, fillcolor="#f9fdee"] ;
55 -> 56 ;
57 [label=<gini = 0.526<br/>samples = 19<br/>value = [12, 5, 1, 1, 0, 0, 0]>, fillcolor="#f2c09c"] ;
55 -> 57 ;
58 [label=<police_value &le; 0.5<br/>gini = 0.389<br/>samples = 34<br/>value = [26, 5, 2, 1, 0, 0, 0]>, fillcolor="#eca470"] ;
54 -> 58 ;
59 [label=<gini = 0.304<br/>samples = 28<br/>value = [23, 4, 1, 0, 0, 0, 0]>, fillcolor="#ea9b62"] ;
58 -> 59 ;
60 [label=<gini = 0.667<br/>samples = 6<br/>value = [3, 1, 1, 1, 0, 0, 0]>, fillcolor="#f5cdb0"] ;
58 -> 60 ;
61 [label=<gini = 0.531<br/>samples = 8<br/>value = [2, 5, 1, 0, 0, 0, 0]>, fillcolor="#dbf29c"] ;
53 -> 61 ;
62 [label=<floating &le; 595.0<br/>gini = 0.353<br/>samples = 43<br/>value = [34, 5, 4, 0, 0, 0, 0]>, fillcolor="#eb9f68"] ;
52 -> 62 ;
63 [label=<CCTV_num &le; 5.5<br/>gini = 0.261<br/>samples = 27<br/>value = [23, 1, 3, 0, 0, 0, 0]>, fillcolor="#e9965a"] ;
62 -> 63 ;
64 [label=<gini = 0.335<br/>samples = 20<br/>value = [16, 1, 3, 0, 0, 0, 0]>, fillcolor="#eb9f68"] ;
63 -> 64 ;
65 [label=<gini = 0.0<br/>samples = 7<br/>value = [7, 0, 0, 0, 0, 0, 0]>, fillcolor="#e58139"] ;
63 -> 65 ;
66 [label=<gini = 0.461<br/>samples = 16<br/>value = [11, 4, 1, 0, 0, 0, 0]>, fillcolor="#f0b68c"] ;
62 -> 66 ;
67 [label=<gini = 0.548<br/>samples = 19<br/>value = [9, 9, 1, 0, 0, 0, 0]>, fillcolor="#ffffff"] ;
51 -> 67 ;
68 [label=<gini = 0.555<br/>samples = 16<br/>value = [7, 8, 0, 1, 0, 0, 0]>, fillcolor="#f7fce9"] ;
50 -> 68 ;
69 [label=<gini = 0.26<br/>samples = 13<br/>value = [11, 0, 2, 0, 0, 0, 0]>, fillcolor="#ea985d"] ;
49 -> 69 ;
70 [label=<CCTV_num &le; 2.5<br/>gini = 0.743<br/>samples = 263<br/>value = [73, 91, 58, 26, 11, 3, 1]>, fillcolor="#f8fdec"] ;
0 -> 70 [labeldistance=2.5, labelangle=-45, headlabel="False"] ;
71 [label=<resident &le; 275.0<br/>gini = 0.771<br/>samples = 154<br/>value = [33, 47, 41, 18, 11, 3, 1]>, fillcolor="#fbfef4"] ;
70 -> 71 ;
72 [label=<floating &le; 2140.0<br/>gini = 0.768<br/>samples = 80<br/>value = [24, 24, 15, 9, 5, 2, 1]>, fillcolor="#ffffff"] ;
71 -> 72 ;
73 [label=<floating &le; 1735.0<br/>gini = 0.707<br/>samples = 25<br/>value = [4, 11, 6, 3, 1, 0, 0]>, fillcolor="#ecf8cb"] ;
72 -> 73 ;
74 [label=<gini = 0.5<br/>samples = 6<br/>value = [1, 4, 0, 0, 1, 0, 0]>, fillcolor="#d4ef88"] ;
73 -> 74 ;
75 [label=<gini = 0.715<br/>samples = 19<br/>value = [3, 7, 6, 3, 0, 0, 0]>, fillcolor="#f9fdf0"] ;
73 -> 75 ;
76 [label=<floating &le; 2505.0<br/>gini = 0.766<br/>samples = 55<br/>value = [20, 13, 9, 6, 4, 2, 1]>, fillcolor="#fbeade"] ;
72 -> 76 ;
77 [label=<gini = 0.676<br/>samples = 19<br/>value = [10, 1, 3, 2, 1, 1, 1]>, fillcolor="#f4c8a8"] ;
76 -> 77 ;
78 [label=<CCTV_num &le; 0.5<br/>gini = 0.764<br/>samples = 36<br/>value = [10, 12, 6, 4, 3, 1, 0]>, fillcolor="#f9fdf0"] ;
76 -> 78 ;
79 [label=<floating &le; 2925.0<br/>gini = 0.721<br/>samples = 29<br/>value = [10, 10, 5, 3, 1, 0, 0]>, fillcolor="#ffffff"] ;
78 -> 79 ;
80 [label=<gini = 0.698<br/>samples = 18<br/>value = [5, 8, 2, 2, 1, 0, 0]>, fillcolor="#eef9d1"] ;
79 -> 80 ;
81 [label=<gini = 0.678<br/>samples = 11<br/>value = [5, 2, 3, 1, 0, 0, 0]>, fillcolor="#f8e0ce"] ;
79 -> 81 ;
82 [label=<gini = 0.776<br/>samples = 7<br/>value = [0, 2, 1, 1, 2, 1, 0]>, fillcolor="#ffffff"] ;
78 -> 82 ;
83 [label=<police_value &le; 1.5<br/>gini = 0.744<br/>samples = 74<br/>value = [9, 23, 26, 9, 6, 1, 0]>, fillcolor="#f3fdf5"] ;
71 -> 83 ;
84 [label=<floating &le; 2655.0<br/>gini = 0.748<br/>samples = 66<br/>value = [8, 17, 25, 9, 6, 1, 0]>, fillcolor="#dffbe2"] ;
83 -> 84 ;
85 [label=<gini = 0.62<br/>samples = 10<br/>value = [0, 3, 2, 5, 0, 0, 0]>, fillcolor="#c6f8f7"] ;
84 -> 85 ;
86 [label=<floating &le; 2955.0<br/>gini = 0.732<br/>samples = 56<br/>value = [8, 14, 23, 4, 6, 1, 0]>, fillcolor="#d5f9d9"] ;
84 -> 86 ;
87 [label=<floating &le; 2785.0<br/>gini = 0.663<br/>samples = 29<br/>value = [2, 6, 15, 1, 4, 1, 0]>, fillcolor="#b2f5b9"] ;
86 -> 87 ;
88 [label=<gini = 0.711<br/>samples = 11<br/>value = [0, 4, 4, 1, 1, 1, 0]>, fillcolor="#ffffff"] ;
87 -> 88 ;
89 [label=<gini = 0.574<br/>samples = 18<br/>value = [2, 2, 11, 0, 3, 0, 0]>, fillcolor="#95f1a0"] ;
87 -> 89 ;
90 [label=<floating &le; 3015.0<br/>gini = 0.757<br/>samples = 27<br/>value = [6, 8, 8, 3, 2, 0, 0]>, fillcolor="#ffffff"] ;
86 -> 90 ;
91 [label=<gini = 0.765<br/>samples = 9<br/>value = [3, 1, 2, 1, 2, 0, 0]>, fillcolor="#fbede3"] ;
90 -> 91 ;
92 [label=<gini = 0.698<br/>samples = 18<br/>value = [3, 7, 6, 2, 0, 0, 0]>, fillcolor="#f9fdee"] ;
90 -> 92 ;
93 [label=<gini = 0.406<br/>samples = 8<br/>value = [1, 6, 1, 0, 0, 0, 0]>, fillcolor="#ccec72"] ;
83 -> 93 ;
94 [label=<floating &le; 2475.0<br/>gini = 0.673<br/>samples = 109<br/>value = [40, 44, 17, 8, 0, 0, 0]>, fillcolor="#fbfdf4"] ;
70 -> 94 ;
95 [label=<resident &le; 215.0<br/>gini = 0.691<br/>samples = 33<br/>value = [13, 8, 10, 2, 0, 0, 0]>, fillcolor="#fcefe5"] ;
94 -> 95 ;
96 [label=<gini = 0.521<br/>samples = 13<br/>value = [8, 4, 1, 0, 0, 0, 0]>, fillcolor="#f3c7a7"] ;
95 -> 96 ;
97 [label=<gini = 0.685<br/>samples = 20<br/>value = [5, 4, 9, 2, 0, 0, 0]>, fillcolor="#caf8d0"] ;
95 -> 97 ;
98 [label=<CCTV_num &le; 9.5<br/>gini = 0.635<br/>samples = 76<br/>value = [27, 36, 7, 6, 0, 0, 0]>, fillcolor="#f2fadb"] ;
94 -> 98 ;
99 [label=<resident &le; 255.0<br/>gini = 0.64<br/>samples = 70<br/>value = [27, 31, 6, 6, 0, 0, 0]>, fillcolor="#f8fded"] ;
98 -> 99 ;
100 [label=<gini = 0.462<br/>samples = 13<br/>value = [3, 9, 0, 1, 0, 0, 0]>, fillcolor="#d4ef88"] ;
99 -> 100 ;
101 [label=<floating &le; 3100.0<br/>gini = 0.655<br/>samples = 57<br/>value = [24, 22, 6, 5, 0, 0, 0]>, fillcolor="#fef8f4"] ;
99 -> 101 ;
102 [label=<floating &le; 2720.0<br/>gini = 0.634<br/>samples = 45<br/>value = [22, 15, 4, 4, 0, 0, 0]>, fillcolor="#f9e2d1"] ;
101 -> 102 ;
103 [label=<gini = 0.653<br/>samples = 12<br/>value = [3, 6, 2, 1, 0, 0, 0]>, fillcolor="#e7f6bd"] ;
102 -> 103 ;
104 [label=<resident &le; 345.0<br/>gini = 0.582<br/>samples = 33<br/>value = [19, 9, 2, 3, 0, 0, 0]>, fillcolor="#f4caac"] ;
102 -> 104 ;
105 [label=<floating &le; 2900.0<br/>gini = 0.529<br/>samples = 23<br/>value = [15, 4, 2, 2, 0, 0, 0]>, fillcolor="#f0b68c"] ;
104 -> 105 ;
106 [label=<gini = 0.198<br/>samples = 9<br/>value = [8, 0, 0, 1, 0, 0, 0]>, fillcolor="#e89152"] ;
105 -> 106 ;
107 [label=<gini = 0.643<br/>samples = 14<br/>value = [7, 4, 2, 1, 0, 0, 0]>, fillcolor="#f7d9c4"] ;
105 -> 107 ;
108 [label=<gini = 0.58<br/>samples = 10<br/>value = [4, 5, 0, 1, 0, 0, 0]>, fillcolor="#f3fbde"] ;
104 -> 108 ;
109 [label=<gini = 0.597<br/>samples = 12<br/>value = [2, 7, 2, 1, 0, 0, 0]>, fillcolor="#dbf29c"] ;
101 -> 109 ;
110 [label=<gini = 0.278<br/>samples = 6<br/>value = [0, 5, 1, 0, 0, 0, 0]>, fillcolor="#c5ea61"] ;
98 -> 110 ;
}