digraph Tree {
node [shape=box, style="filled, rounded", color="black", fontname=helvetica] ;
edge [fontname=helvetica] ;
0 [label=<police_value &le; 0.5<br/>gini = 0.695<br/>samples = 885<br/>value = [357, 298, 134, 59, 28, 8, 1]>, fillcolor="#fcf2eb"] ;
1 [label=<CCTV_num &le; 2.5<br/>gini = 0.729<br/>samples = 630<br/>value = [210, 216, 113, 56, 26, 8, 1]>, fillcolor="#fefffc"] ;
0 -> 1 [labeldistance=2.5, labelangle=45, headlabel="True"] ;
2 [label=<resident &le; 195.0<br/>gini = 0.757<br/>samples = 435<br/>value = [114, 145, 95, 48, 26, 7, 0]>, fillcolor="#f8fcec"] ;
1 -> 2 ;
3 [label=<CCTV_num &le; 0.5<br/>gini = 0.712<br/>samples = 319<br/>value = [104, 117, 65, 20, 12, 1, 0]>, fillcolor="#fbfdf3"] ;
2 -> 3 ;
4 [label=<floating &le; 4075.0<br/>gini = 0.707<br/>samples = 283<br/>value = [86, 111, 58, 17, 10, 1, 0]>, fillcolor="#f6fce6"] ;
3 -> 4 ;
5 [label=<floating &le; 3310.0<br/>gini = 0.707<br/>samples = 281<br/>value = [84, 111, 58, 17, 10, 1, 0]>, fillcolor="#f5fbe4"] ;
4 -> 5 ;
6 [label=<floating &le; 3130.0<br/>gini = 0.708<br/>samples = 276<br/>value = [84, 107, 58, 16, 10, 1, 0]>, fillcolor="#f6fce7"] ;
5 -> 6 ;
7 [label=<resident &le; 65.0<br/>gini = 0.706<br/>samples = 273<br/>value = [82, 107, 58, 16, 9, 1, 0]>, fillcolor="#f6fce5"] ;
6 -> 7 ;
8 [label=<floating &le; 100.0<br/>gini = 0.713<br/>samples = 215<br/>value = [70, 79, 43, 14, 8, 1, 0]>, fillcolor="#fbfdf3"] ;
7 -> 8 ;
9 [label=<gini = 0.5<br/>samples = 2<br/>value = [0, 0, 1, 0, 1, 0, 0]>, fillcolor="#ffffff"] ;
8 -> 9 ;
10 [label=<gini = 0.71<br/>samples = 213<br/>value = [70, 79, 42, 14, 7, 1, 0]>, fillcolor="#fafdf3"] ;
8 -> 10 ;
11 [label=<floating &le; 1945.0<br/>gini = 0.656<br/>samples = 58<br/>value = [12, 28, 15, 2, 1, 0, 0]>, fillcolor="#e9f7c3"] ;
7 -> 11 ;
12 [label=<gini = 0.663<br/>samples = 51<br/>value = [11, 23, 15, 1, 1, 0, 0]>, fillcolor="#eff9d3"] ;
11 -> 12 ;
13 [label=<gini = 0.449<br/>samples = 7<br/>value = [1, 5, 0, 1, 0, 0, 0]>, fillcolor="#cfee7b"] ;
11 -> 13 ;
14 [label=<gini = 0.444<br/>samples = 3<br/>value = [2, 0, 0, 0, 1, 0, 0]>, fillcolor="#f2c09c"] ;
6 -> 14 ;
15 [label=<gini = 0.32<br/>samples = 5<br/>value = [0, 4, 0, 1, 0, 0, 0]>, fillcolor="#c9ec6a"] ;
5 -> 15 ;
16 [label=<gini = 0.0<br/>samples = 2<br/>value = [2, 0, 0, 0, 0, 0, 0]>, fillcolor="#e58139"] ;
4 -> 16 ;
17 [label=<resident &le; 105.0<br/>gini = 0.674<br/>samples = 36<br/>value = [18, 6, 7, 3, 2, 0, 0]>, fillcolor="#f5cfb4"] ;
3 -> 17 ;
18 [label=<resident &le; 55.0<br/>gini = 0.674<br/>samples = 32<br/>value = [16, 4, 7, 3, 2, 0, 0]>, fillcolor="#f6d2b8"] ;
17 -> 18 ;
19 [label=<gini = 0.713<br/>samples = 27<br/>value = [12, 4, 6, 3, 2, 0, 0]>, fillcolor="#f8dbc6"] ;
18 -> 19 ;
20 [label=<gini = 0.32<br/>samples = 5<br/>value = [4, 0, 1, 0, 0, 0, 0]>, fillcolor="#eca06a"] ;
18 -> 20 ;
21 [label=<gini = 0.5<br/>samples = 4<br/>value = [2, 2, 0, 0, 0, 0, 0]>, fillcolor="#ffffff"] ;
17 -> 21 ;
22 [label=<floating &le; 4905.0<br/>gini = 0.792<br/>samples = 116<br/>value = [10, 28, 30, 28, 14, 6, 0]>, fillcolor="#fafefb"] ;
2 -> 22 ;
23 [label=<floating &le; 3995.0<br/>gini = 0.774<br/>samples = 77<br/>value = [4, 23, 22, 14, 10, 4, 0]>, fillcolor="#fefffb"] ;
22 -> 23 ;
24 [label=<gini = 0.719<br/>samples = 26<br/>value = [2, 5, 11, 6, 2, 0, 0]>, fillcolor="#cef8d2"] ;
23 -> 24 ;
25 [label=<resident &le; 340.0<br/>gini = 0.772<br/>samples = 51<br/>value = [2, 18, 11, 8, 8, 4, 0]>, fillcolor="#f2fadc"] ;
23 -> 25 ;
26 [label=<floating &le; 4075.0<br/>gini = 0.763<br/>samples = 45<br/>value = [2, 17, 9, 8, 5, 4, 0]>, fillcolor="#eff9d3"] ;
25 -> 26 ;
27 [label=<gini = 0.625<br/>samples = 4<br/>value = [0, 1, 0, 1, 2, 0, 0]>, fillcolor="#bdc7f6"] ;
26 -> 27 ;
28 [label=<resident &le; 245.0<br/>gini = 0.753<br/>samples = 41<br/>value = [2, 16, 9, 7, 3, 4, 0]>, fillcolor="#eff9d4"] ;
26 -> 28 ;
29 [label=<gini = 0.719<br/>samples = 8<br/>value = [0, 2, 2, 0, 1, 3, 0]>, fillcolor="#f2defb"] ;
28 -> 29 ;
30 [label=<floating &le; 4190.0<br/>gini = 0.722<br/>samples = 33<br/>value = [2, 14, 7, 7, 2, 1, 0]>, fillcolor="#ecf8ca"] ;
28 -> 30 ;
31 [label=<gini = 0.0<br/>samples = 2<br/>value = [0, 2, 0, 0, 0, 0, 0]>, fillcolor="#b7e539"] ;
30 -> 31 ;
32 [label=<gini = 0.739<br/>samples = 31<br/>value = [2, 12, 7, 7, 2, 1, 0]>, fillcolor="#f0fad6"] ;
30 -> 32 ;
33 [label=<gini = 0.611<br/>samples = 6<br/>value = [0, 1, 2, 0, 3, 0, 0]>, fillcolor="#ced5f8"] ;
25 -> 33 ;
34 [label=<resident &le; 295.0<br/>gini = 0.776<br/>samples = 39<br/>value = [6, 5, 8, 14, 4, 2, 0]>, fillcolor="#d9faf9"] ;
22 -> 34 ;
35 [label=<gini = 0.797<br/>samples = 16<br/>value = [2, 3, 5, 2, 3, 1, 0]>, fillcolor="#e1fbe4"] ;
34 -> 35 ;
36 [label=<gini = 0.669<br/>samples = 23<br/>value = [4, 2, 3, 12, 1, 1, 0]>, fillcolor="#acf4f3"] ;
34 -> 36 ;
37 [label=<floating &le; 645.0<br/>gini = 0.615<br/>samples = 195<br/>value = [96, 71, 18, 8, 0, 1, 1]>, fillcolor="#fae6d7"] ;
1 -> 37 ;
38 [label=<CCTV_num &le; 8.5<br/>gini = 0.502<br/>samples = 55<br/>value = [36, 14, 2, 3, 0, 0, 0]>, fillcolor="#f1bb95"] ;
37 -> 38 ;
39 [label=<resident &le; 35.0<br/>gini = 0.544<br/>samples = 48<br/>value = [29, 14, 2, 3, 0, 0, 0]>, fillcolor="#f4c7a8"] ;
38 -> 39 ;
40 [label=<floating &le; 175.0<br/>gini = 0.604<br/>samples = 34<br/>value = [18, 11, 2, 3, 0, 0, 0]>, fillcolor="#f7d9c3"] ;
39 -> 40 ;
41 [label=<gini = 0.0<br/>samples = 2<br/>value = [2, 0, 0, 0, 0, 0, 0]>, fillcolor="#e58139"] ;
40 -> 41 ;
42 [label=<CCTV_num &le; 4.5<br/>gini = 0.619<br/>samples = 32<br/>value = [16, 11, 2, 3, 0, 0, 0]>, fillcolor="#f9e1d0"] ;
40 -> 42 ;
43 [label=<gini = 0.655<br/>samples = 20<br/>value = [10, 5, 2, 3, 0, 0, 0]>, fillcolor="#f6d5bd"] ;
42 -> 43 ;
44 [label=<gini = 0.5<br/>samples = 12<br/>value = [6, 6, 0, 0, 0, 0, 0]>, fillcolor="#ffffff"] ;
42 -> 44 ;
45 [label=<gini = 0.337<br/>samples = 14<br/>value = [11, 3, 0, 0, 0, 0, 0]>, fillcolor="#eca36f"] ;
39 -> 45 ;
46 [label=<gini = 0.0<br/>samples = 7<br/>value = [7, 0, 0, 0, 0, 0, 0]>, fillcolor="#e58139"] ;
38 -> 46 ;
47 [label=<floating &le; 685.0<br/>gini = 0.636<br/>samples = 140<br/>value = [60, 57, 16, 5, 0, 1, 1]>, fillcolor="#fefaf8"] ;
37 -> 47 ;
48 [label=<gini = 0.375<br/>samples = 4<br/>value = [0, 1, 3, 0, 0, 0, 0]>, fillcolor="#7bee88"] ;
47 -> 48 ;
49 [label=<resident &le; 375.0<br/>gini = 0.625<br/>samples = 136<br/>value = [60, 56, 13, 5, 0, 1, 1]>, fillcolor="#fef9f5"] ;
47 -> 49 ;
50 [label=<resident &le; 35.0<br/>gini = 0.627<br/>samples = 132<br/>value = [60, 52, 13, 5, 0, 1, 1]>, fillcolor="#fcf2eb"] ;
49 -> 50 ;
51 [label=<gini = 0.406<br/>samples = 8<br/>value = [6, 1, 1, 0, 0, 0, 0]>, fillcolor="#eca572"] ;
50 -> 51 ;
52 [label=<floating &le; 1010.0<br/>gini = 0.63<br/>samples = 124<br/>value = [54, 51, 12, 5, 0, 1, 1]>, fillcolor="#fefaf7"] ;
50 -> 52 ;
53 [label=<gini = 0.539<br/>samples = 16<br/>value = [4, 10, 1, 1, 0, 0, 0]>, fillcolor="#dbf29c"] ;
52 -> 53 ;
54 [label=<resident &le; 115.0<br/>gini = 0.63<br/>samples = 108<br/>value = [50, 41, 11, 4, 0, 1, 1]>, fillcolor="#fceee4"] ;
52 -> 54 ;
55 [label=<gini = 0.381<br/>samples = 17<br/>value = [13, 3, 1, 0, 0, 0, 0]>, fillcolor="#eca572"] ;
54 -> 55 ;
56 [label=<floating &le; 3965.0<br/>gini = 0.646<br/>samples = 91<br/>value = [37, 38, 10, 4, 0, 1, 1]>, fillcolor="#fefffb"] ;
54 -> 56 ;
57 [label=<gini = 0.619<br/>samples = 32<br/>value = [8, 17, 6, 1, 0, 0, 0]>, fillcolor="#e4f5b5"] ;
56 -> 57 ;
58 [label=<gini = 0.624<br/>samples = 59<br/>value = [29, 21, 4, 3, 0, 1, 1]>, fillcolor="#fae4d5"] ;
56 -> 58 ;
59 [label=<gini = 0.0<br/>samples = 4<br/>value = [0, 4, 0, 0, 0, 0, 0]>, fillcolor="#b7e539"] ;
49 -> 59 ;
60 [label=<resident &le; 235.0<br/>gini = 0.557<br/>samples = 255<br/>value = [147, 82, 21, 3, 2, 0, 0]>, fillcolor="#f5d0b5"] ;
0 -> 60 [labeldistance=2.5, labelangle=-45, headlabel="False"] ;
61 [label=<police_value &le; 1.5<br/>gini = 0.538<br/>samples = 219<br/>value = [134, 62, 18, 3, 2, 0, 0]>, fillcolor="#f3c5a4"] ;
60 -> 61 ;
62 [label=<resident &le; 75.0<br/>gini = 0.487<br/>samples = 119<br/>value = [81, 24, 11, 1, 2, 0, 0]>, fillcolor="#efb388"] ;
61 -> 62 ;
63 [label=<resident &le; 35.0<br/>gini = 0.418<br/>samples = 92<br/>value = [68, 15, 9, 0, 0, 0, 0]>, fillcolor="#eda877"] ;
62 -> 63 ;
64 [label=<floating &le; 615.0<br/>gini = 0.503<br/>samples = 49<br/>value = [32, 12, 5, 0, 0, 0, 0]>, fillcolor="#f1bb94"] ;
63 -> 64 ;
65 [label=<CCTV_num &le; 1.0<br/>gini = 0.403<br/>samples = 36<br/>value = [27, 6, 3, 0, 0, 0, 0]>, fillcolor="#eda774"] ;
64 -> 65 ;
66 [label=<gini = 0.278<br/>samples = 24<br/>value = [20, 4, 0, 0, 0, 0, 0]>, fillcolor="#ea9a61"] ;
65 -> 66 ;
67 [label=<gini = 0.569<br/>samples = 12<br/>value = [7, 2, 3, 0, 0, 0, 0]>, fillcolor="#f3c7a7"] ;
65 -> 67 ;
68 [label=<gini = 0.615<br/>samples = 13<br/>value = [5, 6, 2, 0, 0, 0, 0]>, fillcolor="#f6fce6"] ;
64 -> 68 ;
69 [label=<floating &le; 1040.0<br/>gini = 0.286<br/>samples = 43<br/>value = [36, 3, 4, 0, 0, 0, 0]>, fillcolor="#ea985d"] ;
63 -> 69 ;
70 [label=<floating &le; 660.0<br/>gini = 0.243<br/>samples = 37<br/>value = [32, 3, 2, 0, 0, 0, 0]>, fillcolor="#e99456"] ;
69 -> 70 ;
71 [label=<gini = 0.363<br/>samples = 23<br/>value = [18, 3, 2, 0, 0, 0, 0]>, fillcolor="#eca06a"] ;
70 -> 71 ;
72 [label=<gini = 0.0<br/>samples = 14<br/>value = [14, 0, 0, 0, 0, 0, 0]>, fillcolor="#e58139"] ;
70 -> 72 ;
73 [label=<gini = 0.444<br/>samples = 6<br/>value = [4, 0, 2, 0, 0, 0, 0]>, fillcolor="#f2c09c"] ;
69 -> 73 ;
74 [label=<gini = 0.645<br/>samples = 27<br/>value = [13, 9, 2, 1, 2, 0, 0]>, fillcolor="#f9e3d3"] ;
62 -> 74 ;
75 [label=<floating &le; 1005.0<br/>gini = 0.569<br/>samples = 100<br/>value = [53, 38, 7, 2, 0, 0, 0]>, fillcolor="#f9e1cf"] ;
61 -> 75 ;
76 [label=<CCTV_num &le; 3.5<br/>gini = 0.59<br/>samples = 85<br/>value = [41, 35, 7, 2, 0, 0, 0]>, fillcolor="#fcf0e7"] ;
75 -> 76 ;
77 [label=<floating &le; 655.0<br/>gini = 0.585<br/>samples = 67<br/>value = [36, 23, 6, 2, 0, 0, 0]>, fillcolor="#f7dac4"] ;
76 -> 77 ;
78 [label=<CCTV_num &le; 0.5<br/>gini = 0.524<br/>samples = 44<br/>value = [28, 11, 4, 1, 0, 0, 0]>, fillcolor="#f2be99"] ;
77 -> 78 ;
79 [label=<police_value &le; 2.5<br/>gini = 0.587<br/>samples = 34<br/>value = [19, 10, 4, 1, 0, 0, 0]>, fillcolor="#f5d0b5"] ;
78 -> 79 ;
80 [label=<gini = 0.628<br/>samples = 22<br/>value = [10, 8, 4, 0, 0, 0, 0]>, fillcolor="#fbede3"] ;
79 -> 80 ;
81 [label=<gini = 0.403<br/>samples = 12<br/>value = [9, 2, 0, 1, 0, 0, 0]>, fillcolor="#eda774"] ;
79 -> 81 ;
82 [label=<gini = 0.18<br/>samples = 10<br/>value = [9, 1, 0, 0, 0, 0, 0]>, fillcolor="#e88f4f"] ;
78 -> 82 ;
83 [label=<gini = 0.597<br/>samples = 23<br/>value = [8, 12, 2, 1, 0, 0, 0]>, fillcolor="#ecf8ca"] ;
77 -> 83 ;
84 [label=<gini = 0.475<br/>samples = 18<br/>value = [5, 12, 1, 0, 0, 0, 0]>, fillcolor="#d8f194"] ;
76 -> 84 ;
85 [label=<gini = 0.32<br/>samples = 15<br/>value = [12, 3, 0, 0, 0, 0, 0]>, fillcolor="#eca06a"] ;
75 -> 85 ;
86 [label=<resident &le; 305.0<br/>gini = 0.554<br/>samples = 36<br/>value = [13, 20, 3, 0, 0, 0, 0]>, fillcolor="#e9f7c3"] ;
60 -> 86 ;
87 [label=<gini = 0.332<br/>samples = 19<br/>value = [4, 15, 0, 0, 0, 0, 0]>, fillcolor="#caec6e"] ;
86 -> 87 ;
88 [label=<gini = 0.602<br/>samples = 17<br/>value = [9, 5, 3, 0, 0, 0, 0]>, fillcolor="#f6d5bd"] ;
86 -> 88 ;
}