digraph Tree {
node [shape=box, style="filled, rounded", color="black", fontname=helvetica] ;
edge [fontname=helvetica] ;
0 [label=<resident &le; 145.0<br/>gini = 0.722<br/>samples = 885<br/>value = [321, 291, 157, 62, 36, 12, 4, 2]>, fillcolor="#fef9f5"] ;
1 [label=<police_value &le; 0.5<br/>gini = 0.666<br/>samples = 616<br/>value = [264, 218, 90, 35, 7, 2, 0, 0]>, fillcolor="#fcf0e8"] ;
0 -> 1 [labeldistance=2.5, labelangle=45, headlabel="True"] ;
2 [label=<CCTV_num &le; 2.5<br/>gini = 0.703<br/>samples = 407<br/>value = [144, 148, 74, 33, 6, 2, 0, 0]>, fillcolor="#fefffc"] ;
1 -> 2 ;
3 [label=<floating &le; 135.0<br/>gini = 0.725<br/>samples = 302<br/>value = [88, 109, 67, 30, 6, 2, 0, 0]>, fillcolor="#fafcec"] ;
2 -> 3 ;
4 [label=<gini = 0.375<br/>samples = 4<br/>value = [0, 1, 3, 0, 0, 0, 0, 0]>, fillcolor="#84ee7b"] ;
3 -> 4 ;
5 [label=<floating &le; 1055.0<br/>gini = 0.725<br/>samples = 298<br/>value = [88, 108, 64, 30, 6, 2, 0, 0]>, fillcolor="#fafdec"] ;
3 -> 5 ;
6 [label=<floating &le; 765.0<br/>gini = 0.72<br/>samples = 258<br/>value = [76, 98, 50, 27, 6, 1, 0, 0]>, fillcolor="#f8fce7"] ;
5 -> 6 ;
7 [label=<floating &le; 605.0<br/>gini = 0.727<br/>samples = 219<br/>value = [68, 77, 44, 24, 5, 1, 0, 0]>, fillcolor="#fcfdf3"] ;
6 -> 7 ;
8 [label=<gini = 0.709<br/>samples = 174<br/>value = [52, 70, 30, 17, 5, 0, 0, 0]>, fillcolor="#f7fbe2"] ;
7 -> 8 ;
9 [label=<gini = 0.728<br/>samples = 45<br/>value = [16, 7, 14, 7, 0, 1, 0, 0]>, fillcolor="#fdf7f2"] ;
7 -> 9 ;
10 [label=<floating &le; 855.0<br/>gini = 0.638<br/>samples = 39<br/>value = [8, 21, 6, 3, 1, 0, 0, 0]>, fillcolor="#e8f4ac"] ;
6 -> 10 ;
11 [label=<gini = 0.18<br/>samples = 10<br/>value = [1, 9, 0, 0, 0, 0, 0, 0]>, fillcolor="#cee84f"] ;
10 -> 11 ;
12 [label=<gini = 0.716<br/>samples = 29<br/>value = [7, 12, 6, 3, 1, 0, 0, 0]>, fillcolor="#f2f9d2"] ;
10 -> 12 ;
13 [label=<resident &le; 125.0<br/>gini = 0.719<br/>samples = 40<br/>value = [12, 10, 14, 3, 0, 1, 0, 0]>, fillcolor="#f2fdf1"] ;
5 -> 13 ;
14 [label=<resident &le; 40.0<br/>gini = 0.68<br/>samples = 34<br/>value = [10, 10, 13, 1, 0, 0, 0, 0]>, fillcolor="#e8fce6"] ;
13 -> 14 ;
15 [label=<gini = 0.375<br/>samples = 4<br/>value = [0, 1, 3, 0, 0, 0, 0, 0]>, fillcolor="#84ee7b"] ;
14 -> 15 ;
16 [label=<gini = 0.687<br/>samples = 30<br/>value = [10, 9, 10, 1, 0, 0, 0, 0]>, fillcolor="#ffffff"] ;
14 -> 16 ;
17 [label=<gini = 0.722<br/>samples = 6<br/>value = [2, 0, 1, 2, 0, 1, 0, 0]>, fillcolor="#ffffff"] ;
13 -> 17 ;
18 [label=<CCTV_num &le; 8.5<br/>gini = 0.572<br/>samples = 105<br/>value = [56, 39, 7, 3, 0, 0, 0, 0]>, fillcolor="#f8dfcc"] ;
2 -> 18 ;
19 [label=<CCTV_num &le; 4.5<br/>gini = 0.556<br/>samples = 94<br/>value = [54, 31, 6, 3, 0, 0, 0, 0]>, fillcolor="#f6d1b7"] ;
18 -> 19 ;
20 [label=<floating &le; 640.0<br/>gini = 0.559<br/>samples = 55<br/>value = [29, 22, 2, 2, 0, 0, 0, 0]>, fillcolor="#f9e4d5"] ;
19 -> 20 ;
21 [label=<floating &le; 470.0<br/>gini = 0.554<br/>samples = 27<br/>value = [16, 8, 2, 1, 0, 0, 0, 0]>, fillcolor="#f4caac"] ;
20 -> 21 ;
22 [label=<gini = 0.569<br/>samples = 12<br/>value = [6, 5, 1, 0, 0, 0, 0, 0]>, fillcolor="#fbede3"] ;
21 -> 22 ;
23 [label=<gini = 0.507<br/>samples = 15<br/>value = [10, 3, 1, 1, 0, 0, 0, 0]>, fillcolor="#f0b68c"] ;
21 -> 23 ;
24 [label=<floating &le; 710.0<br/>gini = 0.533<br/>samples = 28<br/>value = [13, 14, 0, 1, 0, 0, 0, 0]>, fillcolor="#fbfdf2"] ;
20 -> 24 ;
25 [label=<gini = 0.375<br/>samples = 4<br/>value = [0, 3, 0, 1, 0, 0, 0, 0]>, fillcolor="#daee7b"] ;
24 -> 25 ;
26 [label=<gini = 0.497<br/>samples = 24<br/>value = [13, 11, 0, 0, 0, 0, 0, 0]>, fillcolor="#fbece1"] ;
24 -> 26 ;
27 [label=<resident &le; 45.0<br/>gini = 0.525<br/>samples = 39<br/>value = [25, 9, 4, 1, 0, 0, 0, 0]>, fillcolor="#f1bc95"] ;
19 -> 27 ;
28 [label=<gini = 0.427<br/>samples = 23<br/>value = [17, 3, 2, 1, 0, 0, 0, 0]>, fillcolor="#eda774"] ;
27 -> 28 ;
29 [label=<gini = 0.594<br/>samples = 16<br/>value = [8, 6, 2, 0, 0, 0, 0, 0]>, fillcolor="#fae6d7"] ;
27 -> 29 ;
30 [label=<gini = 0.43<br/>samples = 11<br/>value = [2, 8, 1, 0, 0, 0, 0, 0]>, fillcolor="#daee7b"] ;
18 -> 30 ;
31 [label=<resident &le; 5.0<br/>gini = 0.552<br/>samples = 209<br/>value = [120, 70, 16, 2, 1, 0, 0, 0]>, fillcolor="#f6d2b8"] ;
1 -> 31 ;
32 [label=<gini = 0.545<br/>samples = 11<br/>value = [2, 7, 1, 1, 0, 0, 0, 0]>, fillcolor="#e0f191"] ;
31 -> 32 ;
33 [label=<floating &le; 995.0<br/>gini = 0.538<br/>samples = 198<br/>value = [118, 63, 15, 1, 1, 0, 0, 0]>, fillcolor="#f4ccae"] ;
31 -> 33 ;
34 [label=<police_value &le; 3.5<br/>gini = 0.561<br/>samples = 160<br/>value = [89, 56, 13, 1, 1, 0, 0, 0]>, fillcolor="#f7d7c0"] ;
33 -> 34 ;
35 [label=<floating &le; 985.0<br/>gini = 0.558<br/>samples = 157<br/>value = [89, 53, 13, 1, 1, 0, 0, 0]>, fillcolor="#f6d3ba"] ;
34 -> 35 ;
36 [label=<floating &le; 675.0<br/>gini = 0.553<br/>samples = 154<br/>value = [89, 50, 13, 1, 1, 0, 0, 0]>, fillcolor="#f5d0b5"] ;
35 -> 36 ;
37 [label=<gini = 0.518<br/>samples = 107<br/>value = [67, 31, 8, 1, 0, 0, 0, 0]>, fillcolor="#f3c3a1"] ;
36 -> 37 ;
38 [label=<gini = 0.606<br/>samples = 47<br/>value = [22, 19, 5, 0, 1, 0, 0, 0]>, fillcolor="#fcf2ea"] ;
36 -> 38 ;
39 [label=<gini = 0.0<br/>samples = 3<br/>value = [0, 3, 0, 0, 0, 0, 0, 0]>, fillcolor="#c8e539"] ;
35 -> 39 ;
40 [label=<gini = 0.0<br/>samples = 3<br/>value = [0, 3, 0, 0, 0, 0, 0, 0]>, fillcolor="#c8e539"] ;
34 -> 40 ;
41 [label=<floating &le; 1025.0<br/>gini = 0.381<br/>samples = 38<br/>value = [29, 7, 2, 0, 0, 0, 0, 0]>, fillcolor="#eda672"] ;
33 -> 41 ;
42 [label=<gini = 0.18<br/>samples = 10<br/>value = [9, 0, 1, 0, 0, 0, 0, 0]>, fillcolor="#e88f4f"] ;
41 -> 42 ;
43 [label=<floating &le; 1055.0<br/>gini = 0.426<br/>samples = 28<br/>value = [20, 7, 1, 0, 0, 0, 0, 0]>, fillcolor="#efb184"] ;
41 -> 43 ;
44 [label=<gini = 0.48<br/>samples = 5<br/>value = [2, 3, 0, 0, 0, 0, 0, 0]>, fillcolor="#edf6bd"] ;
43 -> 44 ;
45 [label=<gini = 0.355<br/>samples = 23<br/>value = [18, 4, 1, 0, 0, 0, 0, 0]>, fillcolor="#eca26d"] ;
43 -> 45 ;
46 [label=<CCTV_num &le; 2.5<br/>gini = 0.796<br/>samples = 269<br/>value = [57, 73, 67, 27, 29, 10, 4, 2]>, fillcolor="#fdfef9"] ;
0 -> 46 [labeldistance=2.5, labelangle=-45, headlabel="False"] ;
47 [label=<police_value &le; 0.5<br/>gini = 0.82<br/>samples = 156<br/>value = [16, 34, 40, 23, 27, 10, 4, 2]>, fillcolor="#f6fef5"] ;
46 -> 47 ;
48 [label=<floating &le; 3175.0<br/>gini = 0.82<br/>samples = 133<br/>value = [9, 27, 33, 21, 27, 10, 4, 2]>, fillcolor="#f5fef4"] ;
47 -> 48 ;
49 [label=<gini = 0.722<br/>samples = 18<br/>value = [3, 2, 3, 2, 8, 0, 0, 0]>, fillcolor="#bddef6"] ;
48 -> 49 ;
50 [label=<resident &le; 185.0<br/>gini = 0.818<br/>samples = 115<br/>value = [6, 25, 30, 19, 19, 10, 4, 2]>, fillcolor="#f5fef4"] ;
48 -> 50 ;
51 [label=<gini = 0.444<br/>samples = 6<br/>value = [0, 0, 4, 2, 0, 0, 0, 0]>, fillcolor="#a3f29c"] ;
50 -> 51 ;
52 [label=<resident &le; 265.0<br/>gini = 0.823<br/>samples = 109<br/>value = [6, 25, 26, 17, 19, 10, 4, 2]>, fillcolor="#fdfffd"] ;
50 -> 52 ;
53 [label=<resident &le; 235.0<br/>gini = 0.748<br/>samples = 37<br/>value = [1, 15, 6, 3, 8, 3, 1, 0]>, fillcolor="#f2f9cf"] ;
52 -> 53 ;
54 [label=<gini = 0.659<br/>samples = 19<br/>value = [0, 10, 3, 3, 2, 1, 0, 0]>, fillcolor="#e7f4a8"] ;
53 -> 54 ;
55 [label=<gini = 0.765<br/>samples = 18<br/>value = [1, 5, 3, 0, 6, 2, 1, 0]>, fillcolor="#f0f7fd"] ;
53 -> 55 ;
56 [label=<floating &le; 5125.0<br/>gini = 0.826<br/>samples = 72<br/>value = [5, 10, 20, 14, 11, 7, 3, 2]>, fillcolor="#ecfceb"] ;
52 -> 56 ;
57 [label=<gini = 0.837<br/>samples = 62<br/>value = [5, 10, 14, 13, 9, 7, 2, 2]>, fillcolor="#fbfefb"] ;
56 -> 57 ;
58 [label=<gini = 0.58<br/>samples = 10<br/>value = [0, 0, 6, 1, 2, 0, 1, 0]>, fillcolor="#a3f29c"] ;
56 -> 58 ;
59 [label=<gini = 0.715<br/>samples = 23<br/>value = [7, 7, 7, 2, 0, 0, 0, 0]>, fillcolor="#ffffff"] ;
47 -> 59 ;
60 [label=<CCTV_num &le; 3.5<br/>gini = 0.691<br/>samples = 113<br/>value = [41, 39, 27, 4, 2, 0, 0, 0]>, fillcolor="#fefcfa"] ;
46 -> 60 ;
61 [label=<gini = 0.56<br/>samples = 19<br/>value = [11, 1, 6, 0, 1, 0, 0, 0]>, fillcolor="#f5cfb3"] ;
60 -> 61 ;
62 [label=<police_value &le; 1.5<br/>gini = 0.683<br/>samples = 94<br/>value = [30, 38, 21, 4, 1, 0, 0, 0]>, fillcolor="#f8fce6"] ;
60 -> 62 ;
63 [label=<CCTV_num &le; 5.5<br/>gini = 0.66<br/>samples = 82<br/>value = [26, 37, 15, 4, 0, 0, 0, 0]>, fillcolor="#f4fad8"] ;
62 -> 63 ;
64 [label=<resident &le; 290.0<br/>gini = 0.591<br/>samples = 42<br/>value = [11, 24, 4, 3, 0, 0, 0, 0]>, fillcolor="#e8f4ac"] ;
63 -> 64 ;
65 [label=<floating &le; 4585.0<br/>gini = 0.635<br/>samples = 24<br/>value = [10, 10, 3, 1, 0, 0, 0, 0]>, fillcolor="#ffffff"] ;
64 -> 65 ;
66 [label=<gini = 0.581<br/>samples = 17<br/>value = [6, 9, 2, 0, 0, 0, 0, 0]>, fillcolor="#f0f8c9"] ;
65 -> 66 ;
67 [label=<gini = 0.612<br/>samples = 7<br/>value = [4, 1, 1, 1, 0, 0, 0, 0]>, fillcolor="#f2c09c"] ;
65 -> 67 ;
68 [label=<gini = 0.377<br/>samples = 18<br/>value = [1, 14, 1, 2, 0, 0, 0, 0]>, fillcolor="#d6ec6a"] ;
64 -> 68 ;
69 [label=<floating &le; 4445.0<br/>gini = 0.678<br/>samples = 40<br/>value = [15, 13, 11, 1, 0, 0, 0, 0]>, fillcolor="#fdf6f0"] ;
63 -> 69 ;
70 [label=<gini = 0.586<br/>samples = 18<br/>value = [5, 10, 3, 0, 0, 0, 0, 0]>, fillcolor="#eaf5b3"] ;
69 -> 70 ;
71 [label=<gini = 0.64<br/>samples = 22<br/>value = [10, 3, 8, 1, 0, 0, 0, 0]>, fillcolor="#fbede3"] ;
69 -> 71 ;
72 [label=<gini = 0.625<br/>samples = 12<br/>value = [4, 1, 6, 0, 1, 0, 0, 0]>, fillcolor="#d1f8ce"] ;
62 -> 72 ;
}