digraph Tree {
node [shape=box, style="filled, rounded", color="black", fontname=helvetica] ;
edge [fontname=helvetica] ;
0 [label=<resident &le; 195.0<br/>gini = 0.296<br/>samples = 885<br/>value = [729, 141, 14, 1]>, fillcolor="#ea9b63"] ;
1 [label=<floating &le; 55.0<br/>gini = 0.23<br/>samples = 651<br/>value = [566, 77, 8, 0]>, fillcolor="#e99456"] ;
0 -> 1 [labeldistance=2.5, labelangle=45, headlabel="True"] ;
2 [label=<gini = 0.43<br/>samples = 16<br/>value = [11, 5, 0, 0]>, fillcolor="#f1ba93"] ;
1 -> 2 ;
3 [label=<police_value &le; 0.5<br/>gini = 0.223<br/>samples = 635<br/>value = [555, 72, 8, 0]>, fillcolor="#e99355"] ;
1 -> 3 ;
4 [label=<gini = 0.257<br/>samples = 425<br/>value = [362, 55, 8, 0]>, fillcolor="#e9965b"] ;
3 -> 4 ;
5 [label=<gini = 0.149<br/>samples = 210<br/>value = [193, 17, 0, 0]>, fillcolor="#e78c4a"] ;
3 -> 5 ;
6 [label=<floating &le; 1330.0<br/>gini = 0.439<br/>samples = 234<br/>value = [163, 64, 6, 1]>, fillcolor="#f0b68c"] ;
0 -> 6 [labeldistance=2.5, labelangle=-45, headlabel="False"] ;
7 [label=<gini = 0.245<br/>samples = 21<br/>value = [18, 3, 0, 0]>, fillcolor="#e9965a"] ;
6 -> 7 ;
8 [label=<resident &le; 285.0<br/>gini = 0.454<br/>samples = 213<br/>value = [145, 61, 6, 1]>, fillcolor="#f1b992"] ;
6 -> 8 ;
9 [label=<gini = 0.505<br/>samples = 102<br/>value = [63, 34, 5, 0]>, fillcolor="#f4c9ab"] ;
8 -> 9 ;
10 [label=<gini = 0.395<br/>samples = 111<br/>value = [82, 27, 1, 1]>, fillcolor="#eeac7d"] ;
8 -> 10 ;
}