digraph Tree {
node [shape=box, style="filled, rounded", color="black", fontname=helvetica] ;
edge [fontname=helvetica] ;
0 [label="CCTV_num <= 0.5\ngini = 0.188\nsamples = 47\nvalue = [68, 8]", fillcolor="#e89050"] ;
1 [label="floating <= 2350.0\ngini = 0.256\nsamples = 34\nvalue = [45, 8]", fillcolor="#ea975c"] ;
0 -> 1 [labeldistance=2.5, labelangle=45, headlabel="True"] ;
2 [label="floating <= 2255.0\ngini = 0.346\nsamples = 26\nvalue = [28, 8]", fillcolor="#eca572"] ;
1 -> 2 ;
3 [label="floating <= 325.0\ngini = 0.291\nsamples = 25\nvalue = [28, 6]", fillcolor="#eb9c63"] ;
2 -> 3 ;
4 [label="resident <= 15.0\ngini = 0.444\nsamples = 7\nvalue = [8, 4]", fillcolor="#f2c09c"] ;
3 -> 4 ;
5 [label="gini = 0.0\nsamples = 2\nvalue = [3, 0]", fillcolor="#e58139"] ;
4 -> 5 ;
6 [label="resident <= 25.0\ngini = 0.494\nsamples = 5\nvalue = [5, 4]", fillcolor="#fae6d7"] ;
4 -> 6 ;
7 [label="floating <= 305.0\ngini = 0.444\nsamples = 3\nvalue = [2, 4]", fillcolor="#9ccef2"] ;
6 -> 7 ;
8 [label="gini = 0.0\nsamples = 1\nvalue = [2, 0]", fillcolor="#e58139"] ;
7 -> 8 ;
9 [label="gini = 0.0\nsamples = 2\nvalue = [0, 4]", fillcolor="#399de5"] ;
7 -> 9 ;
10 [label="gini = 0.0\nsamples = 2\nvalue = [3, 0]", fillcolor="#e58139"] ;
6 -> 10 ;
11 [label="resident <= 95.0\ngini = 0.165\nsamples = 18\nvalue = [20, 2]", fillcolor="#e88e4d"] ;
3 -> 11 ;
12 [label="gini = 0.0\nsamples = 9\nvalue = [11, 0]", fillcolor="#e58139"] ;
11 -> 12 ;
13 [label="resident <= 135.0\ngini = 0.298\nsamples = 9\nvalue = [9, 2]", fillcolor="#eb9d65"] ;
11 -> 13 ;
14 [label="floating <= 800.0\ngini = 0.444\nsamples = 3\nvalue = [1, 2]", fillcolor="#9ccef2"] ;
13 -> 14 ;
15 [label="gini = 0.0\nsamples = 1\nvalue = [1, 0]", fillcolor="#e58139"] ;
14 -> 15 ;
16 [label="gini = 0.0\nsamples = 2\nvalue = [0, 2]", fillcolor="#399de5"] ;
14 -> 16 ;
17 [label="gini = 0.0\nsamples = 6\nvalue = [8, 0]", fillcolor="#e58139"] ;
13 -> 17 ;
18 [label="gini = 0.0\nsamples = 1\nvalue = [0, 2]", fillcolor="#399de5"] ;
2 -> 18 ;
19 [label="gini = 0.0\nsamples = 8\nvalue = [17, 0]", fillcolor="#e58139"] ;
1 -> 19 ;
20 [label="gini = 0.0\nsamples = 13\nvalue = [23, 0]", fillcolor="#e58139"] ;
0 -> 20 [labeldistance=2.5, labelangle=-45, headlabel="False"] ;
}