digraph Tree {
node [shape=box, style="filled, rounded", color="black", fontname=helvetica] ;
edge [fontname=helvetica] ;
0 [label="CCTV_num <= 7.5\ngini = 0.643\nsamples = 398\nvalue = [270, 228, 76, 27, 6]", fillcolor="#fcf1e9"] ;
1 [label="CCTV_num <= 0.5\ngini = 0.636\nsamples = 381\nvalue = [258, 225, 76, 17, 6]", fillcolor="#fdf3ed"] ;
0 -> 1 [labeldistance=2.5, labelangle=45, headlabel="True"] ;
2 [label="floating <= 295.0\ngini = 0.658\nsamples = 268\nvalue = [161, 161, 58, 17, 6]", fillcolor="#ffffff"] ;
1 -> 2 ;
3 [label="floating <= 45.0\ngini = 0.585\nsamples = 116\nvalue = [88, 53, 12, 8, 0]", fillcolor="#f7d6bf"] ;
2 -> 3 ;
4 [label="gini = 0.278\nsamples = 3\nvalue = [1, 5, 0, 0, 0]", fillcolor="#95ea61"] ;
3 -> 4 ;
5 [label="floating <= 225.0\ngini = 0.58\nsamples = 113\nvalue = [87, 48, 12, 8, 0]", fillcolor="#f6d1b7"] ;
3 -> 5 ;
6 [label="police_value <= 1.5\ngini = 0.621\nsamples = 76\nvalue = [54, 32, 10, 8, 0]", fillcolor="#f7d8c2"] ;
5 -> 6 ;
7 [label="resident <= 5.0\ngini = 0.615\nsamples = 71\nvalue = [51, 27, 9, 8, 0]", fillcolor="#f6d3b9"] ;
6 -> 7 ;
8 [label="floating <= 75.0\ngini = 0.142\nsamples = 8\nvalue = [12, 1, 0, 0, 0]", fillcolor="#e78c49"] ;
7 -> 8 ;
9 [label="gini = 0.0\nsamples = 3\nvalue = [6, 0, 0, 0, 0]", fillcolor="#e58139"] ;
8 -> 9 ;
10 [label="police_value <= 0.5\ngini = 0.245\nsamples = 5\nvalue = [6, 1, 0, 0, 0]", fillcolor="#e9965a"] ;
8 -> 10 ;
11 [label="floating <= 95.0\ngini = 0.32\nsamples = 4\nvalue = [4, 1, 0, 0, 0]", fillcolor="#eca06a"] ;
10 -> 11 ;
12 [label="gini = 0.444\nsamples = 3\nvalue = [2, 1, 0, 0, 0]", fillcolor="#f2c09c"] ;
11 -> 12 ;
13 [label="gini = 0.0\nsamples = 1\nvalue = [2, 0, 0, 0, 0]", fillcolor="#e58139"] ;
11 -> 13 ;
14 [label="gini = 0.0\nsamples = 1\nvalue = [2, 0, 0, 0, 0]", fillcolor="#e58139"] ;
10 -> 14 ;
15 [label="floating <= 75.0\ngini = 0.652\nsamples = 63\nvalue = [39, 26, 9, 8, 0]", fillcolor="#f9e2d1"] ;
7 -> 15 ;
16 [label="police_value <= 0.5\ngini = 0.544\nsamples = 10\nvalue = [2, 8, 3, 0, 0]", fillcolor="#bdf29c"] ;
15 -> 16 ;
17 [label="floating <= 55.0\ngini = 0.32\nsamples = 8\nvalue = [2, 8, 0, 0, 0]", fillcolor="#9cec6a"] ;
16 -> 17 ;
18 [label="gini = 0.0\nsamples = 1\nvalue = [1, 0, 0, 0, 0]", fillcolor="#e58139"] ;
17 -> 18 ;
19 [label="floating <= 65.0\ngini = 0.198\nsamples = 7\nvalue = [1, 8, 0, 0, 0]", fillcolor="#8ce852"] ;
17 -> 19 ;
20 [label="gini = 0.0\nsamples = 2\nvalue = [0, 3, 0, 0, 0]", fillcolor="#7be539"] ;
19 -> 20 ;
21 [label="gini = 0.278\nsamples = 5\nvalue = [1, 5, 0, 0, 0]", fillcolor="#95ea61"] ;
19 -> 21 ;
22 [label="gini = 0.0\nsamples = 2\nvalue = [0, 0, 3, 0, 0]", fillcolor="#39e5c5"] ;
16 -> 22 ;
23 [label="resident <= 45.0\ngini = 0.623\nsamples = 53\nvalue = [37, 18, 6, 8, 0]", fillcolor="#f5d0b5"] ;
15 -> 23 ;
24 [label="floating <= 185.0\ngini = 0.602\nsamples = 38\nvalue = [27, 11, 2, 8, 0]", fillcolor="#f4c9a9"] ;
23 -> 24 ;
25 [label="resident <= 35.0\ngini = 0.517\nsamples = 19\nvalue = [14, 9, 1, 0, 0]", fillcolor="#f6d5bd"] ;
24 -> 25 ;
26 [label="floating <= 115.0\ngini = 0.568\nsamples = 11\nvalue = [6, 6, 1, 0, 0]", fillcolor="#ffffff"] ;
25 -> 26 ;
27 [label="gini = 0.0\nsamples = 5\nvalue = [6, 0, 0, 0, 0]", fillcolor="#e58139"] ;
26 -> 27 ;
28 [label="floating <= 165.0\ngini = 0.245\nsamples = 6\nvalue = [0, 6, 1, 0, 0]", fillcolor="#91e95a"] ;
26 -> 28 ;
29 [label="gini = 0.0\nsamples = 4\nvalue = [0, 4, 0, 0, 0]", fillcolor="#7be539"] ;
28 -> 29 ;
30 [label="floating <= 175.0\ngini = 0.444\nsamples = 2\nvalue = [0, 2, 1, 0, 0]", fillcolor="#bdf29c"] ;
28 -> 30 ;
31 [label="gini = 0.0\nsamples = 1\nvalue = [0, 0, 1, 0, 0]", fillcolor="#39e5c5"] ;
30 -> 31 ;
32 [label="gini = 0.0\nsamples = 1\nvalue = [0, 2, 0, 0, 0]", fillcolor="#7be539"] ;
30 -> 32 ;
33 [label="floating <= 165.0\ngini = 0.397\nsamples = 8\nvalue = [8, 3, 0, 0, 0]", fillcolor="#efb083"] ;
25 -> 33 ;
34 [label="floating <= 110.0\ngini = 0.5\nsamples = 5\nvalue = [3, 3, 0, 0, 0]", fillcolor="#ffffff"] ;
33 -> 34 ;
35 [label="gini = 0.0\nsamples = 1\nvalue = [1, 0, 0, 0, 0]", fillcolor="#e58139"] ;
34 -> 35 ;
36 [label="floating <= 150.0\ngini = 0.48\nsamples = 4\nvalue = [2, 3, 0, 0, 0]", fillcolor="#d3f6bd"] ;
34 -> 36 ;
37 [label="gini = 0.0\nsamples = 1\nvalue = [0, 1, 0, 0, 0]", fillcolor="#7be539"] ;
36 -> 37 ;
38 [label="gini = 0.5\nsamples = 3\nvalue = [2, 2, 0, 0, 0]", fillcolor="#ffffff"] ;
36 -> 38 ;
39 [label="gini = 0.0\nsamples = 3\nvalue = [5, 0, 0, 0, 0]", fillcolor="#e58139"] ;
33 -> 39 ;
40 [label="resident <= 25.0\ngini = 0.587\nsamples = 19\nvalue = [13, 2, 1, 8, 0]", fillcolor="#f7d8c1"] ;
24 -> 40 ;
41 [label="resident <= 15.0\ngini = 0.571\nsamples = 6\nvalue = [2, 1, 0, 4, 0]", fillcolor="#b1b0f5"] ;
40 -> 41 ;
42 [label="gini = 0.0\nsamples = 1\nvalue = [1, 0, 0, 0, 0]", fillcolor="#e58139"] ;
41 -> 42 ;
43 [label="gini = 0.5\nsamples = 5\nvalue = [1, 1, 0, 4, 0]", fillcolor="#8a88ef"] ;
41 -> 43 ;
44 [label="police_value <= 0.5\ngini = 0.519\nsamples = 13\nvalue = [11, 1, 1, 4, 0]", fillcolor="#f1bb94"] ;
40 -> 44 ;
45 [label="resident <= 35.0\ngini = 0.604\nsamples = 9\nvalue = [7, 1, 1, 4, 0]", fillcolor="#f6d5bd"] ;
44 -> 45 ;
46 [label="floating <= 215.0\ngini = 0.444\nsamples = 2\nvalue = [2, 1, 0, 0, 0]", fillcolor="#f2c09c"] ;
45 -> 46 ;
47 [label="gini = 0.0\nsamples = 1\nvalue = [2, 0, 0, 0, 0]", fillcolor="#e58139"] ;
46 -> 47 ;
48 [label="gini = 0.0\nsamples = 1\nvalue = [0, 1, 0, 0, 0]", fillcolor="#7be539"] ;
46 -> 48 ;
49 [label="floating <= 215.0\ngini = 0.58\nsamples = 7\nvalue = [5, 0, 1, 4, 0]", fillcolor="#fbeade"] ;
45 -> 49 ;
50 [label="floating <= 200.0\ngini = 0.494\nsamples = 6\nvalue = [5, 0, 0, 4, 0]", fillcolor="#fae6d7"] ;
49 -> 50 ;
51 [label="gini = 0.5\nsamples = 5\nvalue = [4, 0, 0, 4, 0]", fillcolor="#ffffff"] ;
50 -> 51 ;
52 [label="gini = 0.0\nsamples = 1\nvalue = [1, 0, 0, 0, 0]", fillcolor="#e58139"] ;
50 -> 52 ;
53 [label="gini = 0.0\nsamples = 1\nvalue = [0, 0, 1, 0, 0]", fillcolor="#39e5c5"] ;
49 -> 53 ;
54 [label="gini = 0.0\nsamples = 4\nvalue = [4, 0, 0, 0, 0]", fillcolor="#e58139"] ;
44 -> 54 ;
55 [label="police_value <= 0.5\ngini = 0.626\nsamples = 15\nvalue = [10, 7, 4, 0, 0]", fillcolor="#f9e4d5"] ;
23 -> 55 ;
56 [label="resident <= 65.0\ngini = 0.635\nsamples = 14\nvalue = [9, 7, 4, 0, 0]", fillcolor="#fbece1"] ;
55 -> 56 ;
57 [label="resident <= 55.0\ngini = 0.653\nsamples = 10\nvalue = [4, 6, 4, 0, 0]", fillcolor="#e5fad7"] ;
56 -> 57 ;
58 [label="floating <= 175.0\ngini = 0.667\nsamples = 5\nvalue = [2, 2, 2, 0, 0]", fillcolor="#ffffff"] ;
57 -> 58 ;
59 [label="gini = 0.5\nsamples = 3\nvalue = [2, 0, 2, 0, 0]", fillcolor="#ffffff"] ;
58 -> 59 ;
60 [label="gini = 0.0\nsamples = 2\nvalue = [0, 2, 0, 0, 0]", fillcolor="#7be539"] ;
58 -> 60 ;
61 [label="floating <= 190.0\ngini = 0.625\nsamples = 5\nvalue = [2, 4, 2, 0, 0]", fillcolor="#d3f6bd"] ;
57 -> 61 ;
62 [label="floating <= 165.0\ngini = 0.32\nsamples = 3\nvalue = [1, 4, 0, 0, 0]", fillcolor="#9cec6a"] ;
61 -> 62 ;
63 [label="gini = 0.0\nsamples = 1\nvalue = [1, 0, 0, 0, 0]", fillcolor="#e58139"] ;
62 -> 63 ;
64 [label="gini = 0.0\nsamples = 2\nvalue = [0, 4, 0, 0, 0]", fillcolor="#7be539"] ;
62 -> 64 ;
65 [label="gini = 0.444\nsamples = 2\nvalue = [1, 0, 2, 0, 0]", fillcolor="#9cf2e2"] ;
61 -> 65 ;
66 [label="floating <= 185.0\ngini = 0.278\nsamples = 4\nvalue = [5, 1, 0, 0, 0]", fillcolor="#ea9a61"] ;
56 -> 66 ;
67 [label="gini = 0.0\nsamples = 2\nvalue = [3, 0, 0, 0, 0]", fillcolor="#e58139"] ;
66 -> 67 ;
68 [label="floating <= 205.0\ngini = 0.444\nsamples = 2\nvalue = [2, 1, 0, 0, 0]", fillcolor="#f2c09c"] ;
66 -> 68 ;
69 [label="gini = 0.0\nsamples = 1\nvalue = [0, 1, 0, 0, 0]", fillcolor="#7be539"] ;
68 -> 69 ;
70 [label="gini = 0.0\nsamples = 1\nvalue = [2, 0, 0, 0, 0]", fillcolor="#e58139"] ;
68 -> 70 ;
71 [label="gini = 0.0\nsamples = 1\nvalue = [1, 0, 0, 0, 0]", fillcolor="#e58139"] ;
55 -> 71 ;
72 [label="floating <= 195.0\ngini = 0.568\nsamples = 5\nvalue = [3, 5, 1, 0, 0]", fillcolor="#d3f6bd"] ;
6 -> 72 ;
73 [label="floating <= 115.0\ngini = 0.375\nsamples = 3\nvalue = [3, 0, 1, 0, 0]", fillcolor="#eeab7b"] ;
72 -> 73 ;
74 [label="gini = 0.0\nsamples = 1\nvalue = [2, 0, 0, 0, 0]", fillcolor="#e58139"] ;
73 -> 74 ;
75 [label="gini = 0.5\nsamples = 2\nvalue = [1, 0, 1, 0, 0]", fillcolor="#ffffff"] ;
73 -> 75 ;
76 [label="gini = 0.0\nsamples = 2\nvalue = [0, 5, 0, 0, 0]", fillcolor="#7be539"] ;
72 -> 76 ;
77 [label="resident <= 65.0\ngini = 0.481\nsamples = 37\nvalue = [33, 16, 2, 0, 0]", fillcolor="#f2c29f"] ;
5 -> 77 ;
78 [label="resident <= 15.0\ngini = 0.389\nsamples = 28\nvalue = [28, 7, 2, 0, 0]", fillcolor="#eda774"] ;
77 -> 78 ;
79 [label="gini = 0.0\nsamples = 3\nvalue = [0, 3, 0, 0, 0]", fillcolor="#7be539"] ;
78 -> 79 ;
80 [label="floating <= 265.0\ngini = 0.304\nsamples = 25\nvalue = [28, 4, 2, 0, 0]", fillcolor="#ea9a61"] ;
78 -> 80 ;
81 [label="floating <= 235.0\ngini = 0.159\nsamples = 16\nvalue = [21, 2, 0, 0, 0]", fillcolor="#e78d4c"] ;
80 -> 81 ;
82 [label="resident <= 30.0\ngini = 0.444\nsamples = 5\nvalue = [4, 2, 0, 0, 0]", fillcolor="#f2c09c"] ;
81 -> 82 ;
83 [label="gini = 0.5\nsamples = 3\nvalue = [2, 2, 0, 0, 0]", fillcolor="#ffffff"] ;
82 -> 83 ;
84 [label="gini = 0.0\nsamples = 2\nvalue = [2, 0, 0, 0, 0]", fillcolor="#e58139"] ;
82 -> 84 ;
85 [label="gini = 0.0\nsamples = 11\nvalue = [17, 0, 0, 0, 0]", fillcolor="#e58139"] ;
81 -> 85 ;
86 [label="resident <= 35.0\ngini = 0.529\nsamples = 9\nvalue = [7, 2, 2, 0, 0]", fillcolor="#f1b991"] ;
80 -> 86 ;
87 [label="resident <= 25.0\ngini = 0.375\nsamples = 6\nvalue = [6, 2, 0, 0, 0]", fillcolor="#eeab7b"] ;
86 -> 87 ;
88 [label="floating <= 275.0\ngini = 0.48\nsamples = 4\nvalue = [3, 2, 0, 0, 0]", fillcolor="#f6d5bd"] ;
87 -> 88 ;
89 [label="gini = 0.0\nsamples = 1\nvalue = [2, 0, 0, 0, 0]", fillcolor="#e58139"] ;
88 -> 89 ;
90 [label="police_value <= 1.0\ngini = 0.444\nsamples = 3\nvalue = [1, 2, 0, 0, 0]", fillcolor="#bdf29c"] ;
88 -> 90 ;
91 [label="gini = 0.0\nsamples = 1\nvalue = [1, 0, 0, 0, 0]", fillcolor="#e58139"] ;
90 -> 91 ;
92 [label="gini = 0.0\nsamples = 2\nvalue = [0, 2, 0, 0, 0]", fillcolor="#7be539"] ;
90 -> 92 ;
93 [label="gini = 0.0\nsamples = 2\nvalue = [3, 0, 0, 0, 0]", fillcolor="#e58139"] ;
87 -> 93 ;
94 [label="floating <= 280.0\ngini = 0.444\nsamples = 3\nvalue = [1, 0, 2, 0, 0]", fillcolor="#9cf2e2"] ;
86 -> 94 ;
95 [label="gini = 0.0\nsamples = 2\nvalue = [0, 0, 2, 0, 0]", fillcolor="#39e5c5"] ;
94 -> 95 ;
96 [label="gini = 0.0\nsamples = 1\nvalue = [1, 0, 0, 0, 0]", fillcolor="#e58139"] ;
94 -> 96 ;
97 [label="police_value <= 0.5\ngini = 0.459\nsamples = 9\nvalue = [5, 9, 0, 0, 0]", fillcolor="#c4f3a7"] ;
77 -> 97 ;
98 [label="floating <= 255.0\ngini = 0.444\nsamples = 5\nvalue = [4, 2, 0, 0, 0]", fillcolor="#f2c09c"] ;
97 -> 98 ;
99 [label="gini = 0.0\nsamples = 2\nvalue = [2, 0, 0, 0, 0]", fillcolor="#e58139"] ;
98 -> 99 ;
100 [label="resident <= 75.0\ngini = 0.5\nsamples = 3\nvalue = [2, 2, 0, 0, 0]", fillcolor="#ffffff"] ;
98 -> 100 ;
101 [label="floating <= 265.0\ngini = 0.444\nsamples = 2\nvalue = [1, 2, 0, 0, 0]", fillcolor="#bdf29c"] ;
100 -> 101 ;
102 [label="gini = 0.0\nsamples = 1\nvalue = [0, 2, 0, 0, 0]", fillcolor="#7be539"] ;
101 -> 102 ;
103 [label="gini = 0.0\nsamples = 1\nvalue = [1, 0, 0, 0, 0]", fillcolor="#e58139"] ;
101 -> 103 ;
104 [label="gini = 0.0\nsamples = 1\nvalue = [1, 0, 0, 0, 0]", fillcolor="#e58139"] ;
100 -> 104 ;
105 [label="resident <= 80.0\ngini = 0.219\nsamples = 4\nvalue = [1, 7, 0, 0, 0]", fillcolor="#8ee955"] ;
97 -> 105 ;
106 [label="police_value <= 2.0\ngini = 0.245\nsamples = 3\nvalue = [1, 6, 0, 0, 0]", fillcolor="#91e95a"] ;
105 -> 106 ;
107 [label="gini = 0.0\nsamples = 2\nvalue = [0, 6, 0, 0, 0]", fillcolor="#7be539"] ;
106 -> 107 ;
108 [label="gini = 0.0\nsamples = 1\nvalue = [1, 0, 0, 0, 0]", fillcolor="#e58139"] ;
106 -> 108 ;
109 [label="gini = 0.0\nsamples = 1\nvalue = [0, 1, 0, 0, 0]", fillcolor="#7be539"] ;
105 -> 109 ;
110 [label="resident <= 45.0\ngini = 0.672\nsamples = 152\nvalue = [73, 108, 46, 9, 6]", fillcolor="#e4fad6"] ;
2 -> 110 ;
111 [label="resident <= 25.0\ngini = 0.469\nsamples = 10\nvalue = [0, 10, 6, 0, 0]", fillcolor="#caf5b0"] ;
110 -> 111 ;
112 [label="gini = 0.0\nsamples = 2\nvalue = [0, 5, 0, 0, 0]", fillcolor="#7be539"] ;
111 -> 112 ;
113 [label="police_value <= 0.5\ngini = 0.496\nsamples = 8\nvalue = [0, 5, 6, 0, 0]", fillcolor="#defbf5"] ;
111 -> 113 ;
114 [label="floating <= 355.0\ngini = 0.444\nsamples = 7\nvalue = [0, 3, 6, 0, 0]", fillcolor="#9cf2e2"] ;
113 -> 114 ;
115 [label="gini = 0.0\nsamples = 3\nvalue = [0, 3, 0, 0, 0]", fillcolor="#7be539"] ;
114 -> 115 ;
116 [label="gini = 0.0\nsamples = 4\nvalue = [0, 0, 6, 0, 0]", fillcolor="#39e5c5"] ;
114 -> 116 ;
117 [label="gini = 0.0\nsamples = 1\nvalue = [0, 2, 0, 0, 0]", fillcolor="#7be539"] ;
113 -> 117 ;
118 [label="resident <= 155.0\ngini = 0.674\nsamples = 142\nvalue = [73, 98, 40, 9, 6]", fillcolor="#e9fbdf"] ;
110 -> 118 ;
119 [label="police_value <= 2.5\ngini = 0.576\nsamples = 26\nvalue = [21, 16, 4, 0, 0]", fillcolor="#fae6d7"] ;
118 -> 119 ;
120 [label="floating <= 1565.0\ngini = 0.584\nsamples = 25\nvalue = [19, 16, 4, 0, 0]", fillcolor="#fcefe5"] ;
119 -> 120 ;
121 [label="resident <= 105.0\ngini = 0.579\nsamples = 23\nvalue = [19, 13, 4, 0, 0]", fillcolor="#f8decb"] ;
120 -> 121 ;
122 [label="police_value <= 1.0\ngini = 0.517\nsamples = 14\nvalue = [8, 13, 1, 0, 0]", fillcolor="#d0f6b8"] ;
121 -> 122 ;
123 [label="floating <= 380.0\ngini = 0.543\nsamples = 12\nvalue = [8, 10, 1, 0, 0]", fillcolor="#e7fadb"] ;
122 -> 123 ;
124 [label="floating <= 315.0\ngini = 0.459\nsamples = 7\nvalue = [5, 9, 0, 0, 0]", fillcolor="#c4f3a7"] ;
123 -> 124 ;
125 [label="resident <= 65.0\ngini = 0.48\nsamples = 3\nvalue = [3, 2, 0, 0, 0]", fillcolor="#f6d5bd"] ;
124 -> 125 ;
126 [label="gini = 0.0\nsamples = 2\nvalue = [3, 0, 0, 0, 0]", fillcolor="#e58139"] ;
125 -> 126 ;
127 [label="gini = 0.0\nsamples = 1\nvalue = [0, 2, 0, 0, 0]", fillcolor="#7be539"] ;
125 -> 127 ;
128 [label="resident <= 70.0\ngini = 0.346\nsamples = 4\nvalue = [2, 7, 0, 0, 0]", fillcolor="#a1ec72"] ;
124 -> 128 ;
129 [label="gini = 0.0\nsamples = 3\nvalue = [0, 7, 0, 0, 0]", fillcolor="#7be539"] ;
128 -> 129 ;
130 [label="gini = 0.0\nsamples = 1\nvalue = [2, 0, 0, 0, 0]", fillcolor="#e58139"] ;
128 -> 130 ;
131 [label="floating <= 875.0\ngini = 0.56\nsamples = 5\nvalue = [3, 1, 1, 0, 0]", fillcolor="#f2c09c"] ;
123 -> 131 ;
132 [label="resident <= 75.0\ngini = 0.375\nsamples = 4\nvalue = [3, 0, 1, 0, 0]", fillcolor="#eeab7b"] ;
131 -> 132 ;
133 [label="gini = 0.0\nsamples = 1\nvalue = [0, 0, 1, 0, 0]", fillcolor="#39e5c5"] ;
132 -> 133 ;
134 [label="gini = 0.0\nsamples = 3\nvalue = [3, 0, 0, 0, 0]", fillcolor="#e58139"] ;
132 -> 134 ;
135 [label="gini = 0.0\nsamples = 1\nvalue = [0, 1, 0, 0, 0]", fillcolor="#7be539"] ;
131 -> 135 ;
136 [label="gini = 0.0\nsamples = 2\nvalue = [0, 3, 0, 0, 0]", fillcolor="#7be539"] ;
122 -> 136 ;
137 [label="police_value <= 0.5\ngini = 0.337\nsamples = 9\nvalue = [11, 0, 3, 0, 0]", fillcolor="#eca36f"] ;
121 -> 137 ;
138 [label="resident <= 125.0\ngini = 0.375\nsamples = 8\nvalue = [9, 0, 3, 0, 0]", fillcolor="#eeab7b"] ;
137 -> 138 ;
139 [label="floating <= 475.0\ngini = 0.375\nsamples = 3\nvalue = [1, 0, 3, 0, 0]", fillcolor="#7beed8"] ;
138 -> 139 ;
140 [label="gini = 0.0\nsamples = 1\nvalue = [1, 0, 0, 0, 0]", fillcolor="#e58139"] ;
139 -> 140 ;
141 [label="gini = 0.0\nsamples = 2\nvalue = [0, 0, 3, 0, 0]", fillcolor="#39e5c5"] ;
139 -> 141 ;
142 [label="gini = 0.0\nsamples = 5\nvalue = [8, 0, 0, 0, 0]", fillcolor="#e58139"] ;
138 -> 142 ;
143 [label="gini = 0.0\nsamples = 1\nvalue = [2, 0, 0, 0, 0]", fillcolor="#e58139"] ;
137 -> 143 ;
144 [label="gini = 0.0\nsamples = 2\nvalue = [0, 3, 0, 0, 0]", fillcolor="#7be539"] ;
120 -> 144 ;
145 [label="gini = 0.0\nsamples = 1\nvalue = [2, 0, 0, 0, 0]", fillcolor="#e58139"] ;
119 -> 145 ;
146 [label="resident <= 225.0\ngini = 0.683\nsamples = 116\nvalue = [52, 82, 36, 9, 6]", fillcolor="#e1f9d2"] ;
118 -> 146 ;
147 [label="floating <= 1720.0\ngini = 0.568\nsamples = 21\nvalue = [1, 19, 8, 0, 4]", fillcolor="#c3f3a4"] ;
146 -> 147 ;
148 [label="floating <= 1275.0\ngini = 0.665\nsamples = 15\nvalue = [1, 9, 8, 0, 4]", fillcolor="#f6fdf1"] ;
147 -> 148 ;
149 [label="resident <= 190.0\ngini = 0.549\nsamples = 12\nvalue = [1, 9, 8, 0, 0]", fillcolor="#f2fceb"] ;
148 -> 149 ;
150 [label="resident <= 175.0\ngini = 0.37\nsamples = 7\nvalue = [1, 7, 1, 0, 0]", fillcolor="#9cec6a"] ;
149 -> 150 ;
151 [label="floating <= 645.0\ngini = 0.32\nsamples = 4\nvalue = [1, 4, 0, 0, 0]", fillcolor="#9cec6a"] ;
150 -> 151 ;
152 [label="gini = 0.0\nsamples = 1\nvalue = [1, 0, 0, 0, 0]", fillcolor="#e58139"] ;
151 -> 152 ;
153 [label="gini = 0.0\nsamples = 3\nvalue = [0, 4, 0, 0, 0]", fillcolor="#7be539"] ;
151 -> 153 ;
154 [label="floating <= 1165.0\ngini = 0.375\nsamples = 3\nvalue = [0, 3, 1, 0, 0]", fillcolor="#a7ee7b"] ;
150 -> 154 ;
155 [label="gini = 0.0\nsamples = 1\nvalue = [0, 0, 1, 0, 0]", fillcolor="#39e5c5"] ;
154 -> 155 ;
156 [label="gini = 0.0\nsamples = 2\nvalue = [0, 3, 0, 0, 0]", fillcolor="#7be539"] ;
154 -> 156 ;
157 [label="resident <= 210.0\ngini = 0.346\nsamples = 5\nvalue = [0, 2, 7, 0, 0]", fillcolor="#72ecd6"] ;
149 -> 157 ;
158 [label="gini = 0.0\nsamples = 1\nvalue = [0, 0, 2, 0, 0]", fillcolor="#39e5c5"] ;
157 -> 158 ;
159 [label="floating <= 1080.0\ngini = 0.408\nsamples = 4\nvalue = [0, 2, 5, 0, 0]", fillcolor="#88efdc"] ;
157 -> 159 ;
160 [label="gini = 0.0\nsamples = 2\nvalue = [0, 0, 5, 0, 0]", fillcolor="#39e5c5"] ;
159 -> 160 ;
161 [label="gini = 0.0\nsamples = 2\nvalue = [0, 2, 0, 0, 0]", fillcolor="#7be539"] ;
159 -> 161 ;
162 [label="gini = 0.0\nsamples = 3\nvalue = [0, 0, 0, 0, 4]", fillcolor="#e539c0"] ;
148 -> 162 ;
163 [label="gini = 0.0\nsamples = 6\nvalue = [0, 10, 0, 0, 0]", fillcolor="#7be539"] ;
147 -> 163 ;
164 [label="floating <= 1975.0\ngini = 0.682\nsamples = 95\nvalue = [51, 63, 28, 9, 2]", fillcolor="#effce8"] ;
146 -> 164 ;
165 [label="resident <= 435.0\ngini = 0.678\nsamples = 88\nvalue = [40, 60, 28, 7, 2]", fillcolor="#e4fad6"] ;
164 -> 165 ;
166 [label="resident <= 355.0\ngini = 0.685\nsamples = 86\nvalue = [40, 56, 28, 7, 2]", fillcolor="#e8fbdd"] ;
165 -> 166 ;
167 [label="floating <= 1575.0\ngini = 0.67\nsamples = 75\nvalue = [34, 54, 22, 6, 2]", fillcolor="#e0f9d0"] ;
166 -> 167 ;
168 [label="floating <= 1565.0\ngini = 0.738\nsamples = 24\nvalue = [11, 12, 10, 3, 2]", fillcolor="#fafef8"] ;
167 -> 168 ;
169 [label="floating <= 1395.0\ngini = 0.687\nsamples = 20\nvalue = [11, 12, 2, 3, 2]", fillcolor="#f8fef5"] ;
168 -> 169 ;
170 [label="resident <= 260.0\ngini = 0.5\nsamples = 3\nvalue = [2, 0, 2, 0, 0]", fillcolor="#ffffff"] ;
169 -> 170 ;
171 [label="gini = 0.0\nsamples = 1\nvalue = [2, 0, 0, 0, 0]", fillcolor="#e58139"] ;
170 -> 171 ;
172 [label="gini = 0.0\nsamples = 2\nvalue = [0, 0, 2, 0, 0]", fillcolor="#39e5c5"] ;
170 -> 172 ;
173 [label="resident <= 305.0\ngini = 0.648\nsamples = 17\nvalue = [9, 12, 0, 3, 2]", fillcolor="#e8fadc"] ;
169 -> 173 ;
174 [label="floating <= 1555.0\ngini = 0.49\nsamples = 13\nvalue = [9, 12, 0, 0, 0]", fillcolor="#def8ce"] ;
173 -> 174 ;
175 [label="resident <= 275.0\ngini = 0.465\nsamples = 12\nvalue = [7, 12, 0, 0, 0]", fillcolor="#c8f4ac"] ;
174 -> 175 ;
176 [label="resident <= 235.0\ngini = 0.497\nsamples = 10\nvalue = [7, 6, 0, 0, 0]", fillcolor="#fbede3"] ;
175 -> 176 ;
177 [label="gini = 0.0\nsamples = 1\nvalue = [1, 0, 0, 0, 0]", fillcolor="#e58139"] ;
176 -> 177 ;
178 [label="floating <= 1525.0\ngini = 0.5\nsamples = 9\nvalue = [6, 6, 0, 0, 0]", fillcolor="#ffffff"] ;
176 -> 178 ;
179 [label="floating <= 1435.0\ngini = 0.444\nsamples = 6\nvalue = [6, 3, 0, 0, 0]", fillcolor="#f2c09c"] ;
178 -> 179 ;
180 [label="gini = 0.0\nsamples = 1\nvalue = [0, 1, 0, 0, 0]", fillcolor="#7be539"] ;
179 -> 180 ;
181 [label="floating <= 1450.0\ngini = 0.375\nsamples = 5\nvalue = [6, 2, 0, 0, 0]", fillcolor="#eeab7b"] ;
179 -> 181 ;
182 [label="gini = 0.48\nsamples = 3\nvalue = [3, 2, 0, 0, 0]", fillcolor="#f6d5bd"] ;
181 -> 182 ;
183 [label="gini = 0.0\nsamples = 2\nvalue = [3, 0, 0, 0, 0]", fillcolor="#e58139"] ;
181 -> 183 ;
184 [label="gini = 0.0\nsamples = 3\nvalue = [0, 3, 0, 0, 0]", fillcolor="#7be539"] ;
178 -> 184 ;
185 [label="gini = 0.0\nsamples = 2\nvalue = [0, 6, 0, 0, 0]", fillcolor="#7be539"] ;
175 -> 185 ;
186 [label="gini = 0.0\nsamples = 1\nvalue = [2, 0, 0, 0, 0]", fillcolor="#e58139"] ;
174 -> 186 ;
187 [label="floating <= 1495.0\ngini = 0.48\nsamples = 4\nvalue = [0, 0, 0, 3, 2]", fillcolor="#bebdf6"] ;
173 -> 187 ;
188 [label="gini = 0.0\nsamples = 2\nvalue = [0, 0, 0, 3, 0]", fillcolor="#3c39e5"] ;
187 -> 188 ;
189 [label="gini = 0.0\nsamples = 2\nvalue = [0, 0, 0, 0, 2]", fillcolor="#e539c0"] ;
187 -> 189 ;
190 [label="gini = 0.0\nsamples = 4\nvalue = [0, 0, 8, 0, 0]", fillcolor="#39e5c5"] ;
168 -> 190 ;
191 [label="resident <= 345.0\ngini = 0.618\nsamples = 51\nvalue = [23, 42, 12, 3, 0]", fillcolor="#d3f6bd"] ;
167 -> 191 ;
192 [label="police_value <= 3.0\ngini = 0.633\nsamples = 46\nvalue = [23, 36, 11, 3, 0]", fillcolor="#ddf8cc"] ;
191 -> 192 ;
193 [label="resident <= 265.0\ngini = 0.637\nsamples = 45\nvalue = [23, 35, 11, 3, 0]", fillcolor="#dff9cf"] ;
192 -> 193 ;
194 [label="floating <= 1620.0\ngini = 0.5\nsamples = 15\nvalue = [4, 16, 4, 0, 0]", fillcolor="#b0ef88"] ;
193 -> 194 ;
195 [label="gini = 0.0\nsamples = 2\nvalue = [0, 5, 0, 0, 0]", fillcolor="#7be539"] ;
194 -> 195 ;
196 [label="police_value <= 0.5\ngini = 0.576\nsamples = 13\nvalue = [4, 11, 4, 0, 0]", fillcolor="#c1f3a3"] ;
194 -> 196 ;
197 [label="resident <= 255.0\ngini = 0.512\nsamples = 12\nvalue = [2, 11, 4, 0, 0]", fillcolor="#b8f194"] ;
196 -> 197 ;
198 [label="resident <= 235.0\ngini = 0.656\nsamples = 6\nvalue = [2, 3, 3, 0, 0]", fillcolor="#ffffff"] ;
197 -> 198 ;
199 [label="gini = 0.0\nsamples = 2\nvalue = [0, 2, 0, 0, 0]", fillcolor="#7be539"] ;
198 -> 199 ;
200 [label="resident <= 245.0\ngini = 0.611\nsamples = 4\nvalue = [2, 1, 3, 0, 0]", fillcolor="#cef8f0"] ;
198 -> 200 ;
201 [label="gini = 0.0\nsamples = 1\nvalue = [0, 0, 1, 0, 0]", fillcolor="#39e5c5"] ;
200 -> 201 ;
202 [label="floating <= 1750.0\ngini = 0.64\nsamples = 3\nvalue = [2, 1, 2, 0, 0]", fillcolor="#ffffff"] ;
200 -> 202 ;
203 [label="gini = 0.0\nsamples = 1\nvalue = [0, 0, 2, 0, 0]", fillcolor="#39e5c5"] ;
202 -> 203 ;
204 [label="floating <= 1865.0\ngini = 0.444\nsamples = 2\nvalue = [2, 1, 0, 0, 0]", fillcolor="#f2c09c"] ;
202 -> 204 ;
205 [label="gini = 0.0\nsamples = 1\nvalue = [2, 0, 0, 0, 0]", fillcolor="#e58139"] ;
204 -> 205 ;
206 [label="gini = 0.0\nsamples = 1\nvalue = [0, 1, 0, 0, 0]", fillcolor="#7be539"] ;
204 -> 206 ;
207 [label="floating <= 1845.0\ngini = 0.198\nsamples = 6\nvalue = [0, 8, 1, 0, 0]", fillcolor="#8ce852"] ;
197 -> 207 ;
208 [label="floating <= 1735.0\ngini = 0.375\nsamples = 3\nvalue = [0, 3, 1, 0, 0]", fillcolor="#a7ee7b"] ;
207 -> 208 ;
209 [label="gini = 0.0\nsamples = 2\nvalue = [0, 3, 0, 0, 0]", fillcolor="#7be539"] ;
208 -> 209 ;
210 [label="gini = 0.0\nsamples = 1\nvalue = [0, 0, 1, 0, 0]", fillcolor="#39e5c5"] ;
208 -> 210 ;
211 [label="gini = 0.0\nsamples = 3\nvalue = [0, 5, 0, 0, 0]", fillcolor="#7be539"] ;
207 -> 211 ;
212 [label="gini = 0.0\nsamples = 1\nvalue = [2, 0, 0, 0, 0]", fillcolor="#e58139"] ;
196 -> 212 ;
213 [label="resident <= 285.0\ngini = 0.661\nsamples = 30\nvalue = [19, 19, 7, 3, 0]", fillcolor="#ffffff"] ;
193 -> 213 ;
214 [label="floating <= 1750.0\ngini = 0.675\nsamples = 10\nvalue = [6, 1, 3, 3, 0]", fillcolor="#f7d9c4"] ;
213 -> 214 ;
215 [label="gini = 0.0\nsamples = 2\nvalue = [5, 0, 0, 0, 0]", fillcolor="#e58139"] ;
214 -> 215 ;
216 [label="floating <= 1810.0\ngini = 0.688\nsamples = 8\nvalue = [1, 1, 3, 3, 0]", fillcolor="#ffffff"] ;
214 -> 216 ;
217 [label="gini = 0.0\nsamples = 2\nvalue = [0, 0, 0, 2, 0]", fillcolor="#3c39e5"] ;
216 -> 217 ;
218 [label="resident <= 275.0\ngini = 0.667\nsamples = 6\nvalue = [1, 1, 3, 1, 0]", fillcolor="#b0f5e8"] ;
216 -> 218 ;
219 [label="gini = 0.0\nsamples = 1\nvalue = [1, 0, 0, 0, 0]", fillcolor="#e58139"] ;
218 -> 219 ;
220 [label="floating <= 1955.0\ngini = 0.56\nsamples = 5\nvalue = [0, 1, 3, 1, 0]", fillcolor="#9cf2e2"] ;
218 -> 220 ;
221 [label="floating <= 1875.0\ngini = 0.375\nsamples = 4\nvalue = [0, 1, 3, 0, 0]", fillcolor="#7beed8"] ;
220 -> 221 ;
222 [label="gini = 0.0\nsamples = 2\nvalue = [0, 0, 2, 0, 0]", fillcolor="#39e5c5"] ;
221 -> 222 ;
223 [label="floating <= 1920.0\ngini = 0.5\nsamples = 2\nvalue = [0, 1, 1, 0, 0]", fillcolor="#ffffff"] ;
221 -> 223 ;
224 [label="gini = 0.0\nsamples = 1\nvalue = [0, 1, 0, 0, 0]", fillcolor="#7be539"] ;
223 -> 224 ;
225 [label="gini = 0.0\nsamples = 1\nvalue = [0, 0, 1, 0, 0]", fillcolor="#39e5c5"] ;
223 -> 225 ;
226 [label="gini = 0.0\nsamples = 1\nvalue = [0, 0, 0, 1, 0]", fillcolor="#3c39e5"] ;
220 -> 226 ;
227 [label="floating <= 1650.0\ngini = 0.584\nsamples = 20\nvalue = [13, 18, 4, 0, 0]", fillcolor="#e1f9d2"] ;
213 -> 227 ;
228 [label="gini = 0.0\nsamples = 2\nvalue = [7, 0, 0, 0, 0]", fillcolor="#e58139"] ;
227 -> 228 ;
229 [label="resident <= 335.0\ngini = 0.52\nsamples = 18\nvalue = [6, 18, 4, 0, 0]", fillcolor="#b7f193"] ;
227 -> 229 ;
230 [label="floating <= 1835.0\ngini = 0.499\nsamples = 17\nvalue = [5, 18, 4, 0, 0]", fillcolor="#b1f08a"] ;
229 -> 230 ;
231 [label="resident <= 325.0\ngini = 0.142\nsamples = 8\nvalue = [0, 12, 1, 0, 0]", fillcolor="#86e749"] ;
230 -> 231 ;
232 [label="gini = 0.0\nsamples = 5\nvalue = [0, 8, 0, 0, 0]", fillcolor="#7be539"] ;
231 -> 232 ;
233 [label="floating <= 1760.0\ngini = 0.32\nsamples = 3\nvalue = [0, 4, 1, 0, 0]", fillcolor="#9cec6a"] ;
231 -> 233 ;
234 [label="gini = 0.0\nsamples = 1\nvalue = [0, 2, 0, 0, 0]", fillcolor="#7be539"] ;
233 -> 234 ;
235 [label="floating <= 1790.0\ngini = 0.444\nsamples = 2\nvalue = [0, 2, 1, 0, 0]", fillcolor="#bdf29c"] ;
233 -> 235 ;
236 [label="gini = 0.0\nsamples = 1\nvalue = [0, 0, 1, 0, 0]", fillcolor="#39e5c5"] ;
235 -> 236 ;
237 [label="gini = 0.0\nsamples = 1\nvalue = [0, 2, 0, 0, 0]", fillcolor="#7be539"] ;
235 -> 237 ;
238 [label="floating <= 1885.0\ngini = 0.643\nsamples = 9\nvalue = [5, 6, 3, 0, 0]", fillcolor="#f0fce9"] ;
230 -> 238 ;
239 [label="resident <= 320.0\ngini = 0.5\nsamples = 3\nvalue = [3, 0, 3, 0, 0]", fillcolor="#ffffff"] ;
238 -> 239 ;
240 [label="gini = 0.0\nsamples = 2\nvalue = [0, 0, 3, 0, 0]", fillcolor="#39e5c5"] ;
239 -> 240 ;
241 [label="gini = 0.0\nsamples = 1\nvalue = [3, 0, 0, 0, 0]", fillcolor="#e58139"] ;
239 -> 241 ;
242 [label="resident <= 295.0\ngini = 0.375\nsamples = 6\nvalue = [2, 6, 0, 0, 0]", fillcolor="#a7ee7b"] ;
238 -> 242 ;
243 [label="gini = 0.0\nsamples = 2\nvalue = [2, 0, 0, 0, 0]", fillcolor="#e58139"] ;
242 -> 243 ;
244 [label="gini = 0.0\nsamples = 4\nvalue = [0, 6, 0, 0, 0]", fillcolor="#7be539"] ;
242 -> 244 ;
245 [label="gini = 0.0\nsamples = 1\nvalue = [1, 0, 0, 0, 0]", fillcolor="#e58139"] ;
229 -> 245 ;
246 [label="gini = 0.0\nsamples = 1\nvalue = [0, 1, 0, 0, 0]", fillcolor="#7be539"] ;
192 -> 246 ;
247 [label="floating <= 1880.0\ngini = 0.245\nsamples = 5\nvalue = [0, 6, 1, 0, 0]", fillcolor="#91e95a"] ;
191 -> 247 ;
248 [label="gini = 0.0\nsamples = 4\nvalue = [0, 6, 0, 0, 0]", fillcolor="#7be539"] ;
247 -> 248 ;
249 [label="gini = 0.0\nsamples = 1\nvalue = [0, 0, 1, 0, 0]", fillcolor="#39e5c5"] ;
247 -> 249 ;
250 [label="police_value <= 0.5\ngini = 0.658\nsamples = 11\nvalue = [6, 2, 6, 1, 0]", fillcolor="#ffffff"] ;
166 -> 250 ;
251 [label="resident <= 370.0\ngini = 0.663\nsamples = 10\nvalue = [6, 2, 5, 1, 0]", fillcolor="#fcf1e9"] ;
250 -> 251 ;
252 [label="floating <= 1825.0\ngini = 0.375\nsamples = 4\nvalue = [0, 1, 3, 0, 0]", fillcolor="#7beed8"] ;
251 -> 252 ;
253 [label="gini = 0.0\nsamples = 3\nvalue = [0, 0, 3, 0, 0]", fillcolor="#39e5c5"] ;
252 -> 253 ;
254 [label="gini = 0.0\nsamples = 1\nvalue = [0, 1, 0, 0, 0]", fillcolor="#7be539"] ;
252 -> 254 ;
255 [label="floating <= 1910.0\ngini = 0.58\nsamples = 6\nvalue = [6, 1, 2, 1, 0]", fillcolor="#f2c09c"] ;
251 -> 255 ;
256 [label="resident <= 415.0\ngini = 0.375\nsamples = 4\nvalue = [6, 0, 2, 0, 0]", fillcolor="#eeab7b"] ;
255 -> 256 ;
257 [label="gini = 0.0\nsamples = 3\nvalue = [6, 0, 0, 0, 0]", fillcolor="#e58139"] ;
256 -> 257 ;
258 [label="gini = 0.0\nsamples = 1\nvalue = [0, 0, 2, 0, 0]", fillcolor="#39e5c5"] ;
256 -> 258 ;
259 [label="floating <= 1945.0\ngini = 0.5\nsamples = 2\nvalue = [0, 1, 0, 1, 0]", fillcolor="#ffffff"] ;
255 -> 259 ;
260 [label="gini = 0.0\nsamples = 1\nvalue = [0, 1, 0, 0, 0]", fillcolor="#7be539"] ;
259 -> 260 ;
261 [label="gini = 0.0\nsamples = 1\nvalue = [0, 0, 0, 1, 0]", fillcolor="#3c39e5"] ;
259 -> 261 ;
262 [label="gini = 0.0\nsamples = 1\nvalue = [0, 0, 1, 0, 0]", fillcolor="#39e5c5"] ;
250 -> 262 ;
263 [label="gini = 0.0\nsamples = 2\nvalue = [0, 4, 0, 0, 0]", fillcolor="#7be539"] ;
165 -> 263 ;
264 [label="resident <= 285.0\ngini = 0.477\nsamples = 7\nvalue = [11, 3, 0, 2, 0]", fillcolor="#efb185"] ;
164 -> 264 ;
265 [label="resident <= 255.0\ngini = 0.153\nsamples = 5\nvalue = [11, 1, 0, 0, 0]", fillcolor="#e78c4b"] ;
264 -> 265 ;
266 [label="resident <= 240.0\ngini = 0.444\nsamples = 2\nvalue = [2, 1, 0, 0, 0]", fillcolor="#f2c09c"] ;
265 -> 266 ;
267 [label="gini = 0.0\nsamples = 1\nvalue = [2, 0, 0, 0, 0]", fillcolor="#e58139"] ;
266 -> 267 ;
268 [label="gini = 0.0\nsamples = 1\nvalue = [0, 1, 0, 0, 0]", fillcolor="#7be539"] ;
266 -> 268 ;
269 [label="gini = 0.0\nsamples = 3\nvalue = [9, 0, 0, 0, 0]", fillcolor="#e58139"] ;
265 -> 269 ;
270 [label="resident <= 305.0\ngini = 0.5\nsamples = 2\nvalue = [0, 2, 0, 2, 0]", fillcolor="#ffffff"] ;
264 -> 270 ;
271 [label="gini = 0.0\nsamples = 1\nvalue = [0, 0, 0, 2, 0]", fillcolor="#3c39e5"] ;
270 -> 271 ;
272 [label="gini = 0.0\nsamples = 1\nvalue = [0, 2, 0, 0, 0]", fillcolor="#7be539"] ;
270 -> 272 ;
273 [label="floating <= 260.0\ngini = 0.568\nsamples = 113\nvalue = [97, 64, 18, 0, 0]", fillcolor="#f8dbc6"] ;
1 -> 273 ;
274 [label="floating <= 195.0\ngini = 0.303\nsamples = 26\nvalue = [35, 8, 0, 0, 0]", fillcolor="#eb9e66"] ;
273 -> 274 ;
275 [label="resident <= 25.0\ngini = 0.434\nsamples = 13\nvalue = [15, 7, 0, 0, 0]", fillcolor="#f1bc95"] ;
274 -> 275 ;
276 [label="floating <= 95.0\ngini = 0.231\nsamples = 8\nvalue = [13, 2, 0, 0, 0]", fillcolor="#e99457"] ;
275 -> 276 ;
277 [label="floating <= 75.0\ngini = 0.375\nsamples = 5\nvalue = [6, 2, 0, 0, 0]", fillcolor="#eeab7b"] ;
276 -> 277 ;
278 [label="floating <= 65.0\ngini = 0.245\nsamples = 4\nvalue = [6, 1, 0, 0, 0]", fillcolor="#e9965a"] ;
277 -> 278 ;
279 [label="resident <= 5.0\ngini = 0.444\nsamples = 2\nvalue = [2, 1, 0, 0, 0]", fillcolor="#f2c09c"] ;
278 -> 279 ;
280 [label="gini = 0.0\nsamples = 1\nvalue = [0, 1, 0, 0, 0]", fillcolor="#7be539"] ;
279 -> 280 ;
281 [label="gini = 0.0\nsamples = 1\nvalue = [2, 0, 0, 0, 0]", fillcolor="#e58139"] ;
279 -> 281 ;
282 [label="gini = 0.0\nsamples = 2\nvalue = [4, 0, 0, 0, 0]", fillcolor="#e58139"] ;
278 -> 282 ;
283 [label="gini = 0.0\nsamples = 1\nvalue = [0, 1, 0, 0, 0]", fillcolor="#7be539"] ;
277 -> 283 ;
284 [label="gini = 0.0\nsamples = 3\nvalue = [7, 0, 0, 0, 0]", fillcolor="#e58139"] ;
276 -> 284 ;
285 [label="CCTV_num <= 3.5\ngini = 0.408\nsamples = 5\nvalue = [2, 5, 0, 0, 0]", fillcolor="#b0ef88"] ;
275 -> 285 ;
286 [label="gini = 0.0\nsamples = 2\nvalue = [0, 4, 0, 0, 0]", fillcolor="#7be539"] ;
285 -> 286 ;
287 [label="resident <= 45.0\ngini = 0.444\nsamples = 3\nvalue = [2, 1, 0, 0, 0]", fillcolor="#f2c09c"] ;
285 -> 287 ;
288 [label="gini = 0.0\nsamples = 1\nvalue = [0, 1, 0, 0, 0]", fillcolor="#7be539"] ;
287 -> 288 ;
289 [label="gini = 0.0\nsamples = 2\nvalue = [2, 0, 0, 0, 0]", fillcolor="#e58139"] ;
287 -> 289 ;
290 [label="floating <= 240.0\ngini = 0.091\nsamples = 13\nvalue = [20, 1, 0, 0, 0]", fillcolor="#e68743"] ;
274 -> 290 ;
291 [label="gini = 0.0\nsamples = 11\nvalue = [18, 0, 0, 0, 0]", fillcolor="#e58139"] ;
290 -> 291 ;
292 [label="CCTV_num <= 4.5\ngini = 0.444\nsamples = 2\nvalue = [2, 1, 0, 0, 0]", fillcolor="#f2c09c"] ;
290 -> 292 ;
293 [label="gini = 0.0\nsamples = 1\nvalue = [0, 1, 0, 0, 0]", fillcolor="#7be539"] ;
292 -> 293 ;
294 [label="gini = 0.0\nsamples = 1\nvalue = [2, 0, 0, 0, 0]", fillcolor="#e58139"] ;
292 -> 294 ;
295 [label="floating <= 1895.0\ngini = 0.605\nsamples = 87\nvalue = [62, 56, 18, 0, 0]", fillcolor="#fdf6f0"] ;
273 -> 295 ;
296 [label="floating <= 295.0\ngini = 0.606\nsamples = 76\nvalue = [60, 44, 18, 0, 0]", fillcolor="#fae5d6"] ;
295 -> 296 ;
297 [label="CCTV_num <= 5.0\ngini = 0.165\nsamples = 7\nvalue = [1, 10, 0, 0, 0]", fillcolor="#88e84d"] ;
296 -> 297 ;
298 [label="gini = 0.0\nsamples = 6\nvalue = [0, 10, 0, 0, 0]", fillcolor="#7be539"] ;
297 -> 298 ;
299 [label="gini = 0.0\nsamples = 1\nvalue = [1, 0, 0, 0, 0]", fillcolor="#e58139"] ;
297 -> 299 ;
300 [label="police_value <= 1.5\ngini = 0.597\nsamples = 69\nvalue = [59, 34, 18, 0, 0]", fillcolor="#f7d6bf"] ;
296 -> 300 ;
301 [label="police_value <= 0.5\ngini = 0.592\nsamples = 63\nvalue = [57, 29, 18, 0, 0]", fillcolor="#f5d0b5"] ;
300 -> 301 ;
302 [label="floating <= 425.0\ngini = 0.614\nsamples = 55\nvalue = [47, 29, 17, 0, 0]", fillcolor="#f8dcc7"] ;
301 -> 302 ;
303 [label="gini = 0.0\nsamples = 4\nvalue = [8, 0, 0, 0, 0]", fillcolor="#e58139"] ;
302 -> 303 ;
304 [label="resident <= 335.0\ngini = 0.633\nsamples = 51\nvalue = [39, 29, 17, 0, 0]", fillcolor="#fae8dc"] ;
302 -> 304 ;
305 [label="resident <= 275.0\ngini = 0.647\nsamples = 47\nvalue = [31, 29, 17, 0, 0]", fillcolor="#fefaf7"] ;
304 -> 305 ;
306 [label="floating <= 720.0\ngini = 0.612\nsamples = 32\nvalue = [28, 21, 9, 0, 0]", fillcolor="#fae7da"] ;
305 -> 306 ;
307 [label="floating <= 660.0\ngini = 0.469\nsamples = 9\nvalue = [6, 10, 0, 0, 0]", fillcolor="#caf5b0"] ;
306 -> 307 ;
308 [label="floating <= 465.0\ngini = 0.444\nsamples = 5\nvalue = [6, 3, 0, 0, 0]", fillcolor="#f2c09c"] ;
307 -> 308 ;
309 [label="resident <= 95.0\ngini = 0.48\nsamples = 2\nvalue = [2, 3, 0, 0, 0]", fillcolor="#d3f6bd"] ;
308 -> 309 ;
310 [label="gini = 0.0\nsamples = 1\nvalue = [2, 0, 0, 0, 0]", fillcolor="#e58139"] ;
309 -> 310 ;
311 [label="gini = 0.0\nsamples = 1\nvalue = [0, 3, 0, 0, 0]", fillcolor="#7be539"] ;
309 -> 311 ;
312 [label="gini = 0.0\nsamples = 3\nvalue = [4, 0, 0, 0, 0]", fillcolor="#e58139"] ;
308 -> 312 ;
313 [label="gini = 0.0\nsamples = 4\nvalue = [0, 7, 0, 0, 0]", fillcolor="#7be539"] ;
307 -> 313 ;
314 [label="floating <= 1605.0\ngini = 0.611\nsamples = 23\nvalue = [22, 11, 9, 0, 0]", fillcolor="#f6d2b9"] ;
306 -> 314 ;
315 [label="resident <= 145.0\ngini = 0.568\nsamples = 15\nvalue = [15, 3, 9, 0, 0]", fillcolor="#f6d5bd"] ;
314 -> 315 ;
316 [label="gini = 0.0\nsamples = 5\nvalue = [0, 0, 7, 0, 0]", fillcolor="#39e5c5"] ;
315 -> 316 ;
317 [label="floating <= 1090.0\ngini = 0.405\nsamples = 10\nvalue = [15, 3, 2, 0, 0]", fillcolor="#eda673"] ;
315 -> 317 ;
318 [label="floating <= 905.0\ngini = 0.5\nsamples = 2\nvalue = [2, 2, 0, 0, 0]", fillcolor="#ffffff"] ;
317 -> 318 ;
319 [label="gini = 0.0\nsamples = 1\nvalue = [2, 0, 0, 0, 0]", fillcolor="#e58139"] ;
318 -> 319 ;
320 [label="gini = 0.0\nsamples = 1\nvalue = [0, 2, 0, 0, 0]", fillcolor="#7be539"] ;
318 -> 320 ;
321 [label="resident <= 215.0\ngini = 0.32\nsamples = 8\nvalue = [13, 1, 2, 0, 0]", fillcolor="#eb9c63"] ;
317 -> 321 ;
322 [label="floating <= 1220.0\ngini = 0.571\nsamples = 4\nvalue = [4, 1, 2, 0, 0]", fillcolor="#f5cdb0"] ;
321 -> 322 ;
323 [label="gini = 0.0\nsamples = 1\nvalue = [0, 1, 0, 0, 0]", fillcolor="#7be539"] ;
322 -> 323 ;
324 [label="floating <= 1385.0\ngini = 0.444\nsamples = 3\nvalue = [4, 0, 2, 0, 0]", fillcolor="#f2c09c"] ;
322 -> 324 ;
325 [label="gini = 0.0\nsamples = 1\nvalue = [3, 0, 0, 0, 0]", fillcolor="#e58139"] ;
324 -> 325 ;
326 [label="floating <= 1545.0\ngini = 0.444\nsamples = 2\nvalue = [1, 0, 2, 0, 0]", fillcolor="#9cf2e2"] ;
324 -> 326 ;
327 [label="gini = 0.0\nsamples = 1\nvalue = [0, 0, 2, 0, 0]", fillcolor="#39e5c5"] ;
326 -> 327 ;
328 [label="gini = 0.0\nsamples = 1\nvalue = [1, 0, 0, 0, 0]", fillcolor="#e58139"] ;
326 -> 328 ;
329 [label="gini = 0.0\nsamples = 4\nvalue = [9, 0, 0, 0, 0]", fillcolor="#e58139"] ;
321 -> 329 ;
330 [label="floating <= 1835.0\ngini = 0.498\nsamples = 8\nvalue = [7, 8, 0, 0, 0]", fillcolor="#eefce6"] ;
314 -> 330 ;
331 [label="floating <= 1640.0\ngini = 0.397\nsamples = 6\nvalue = [3, 8, 0, 0, 0]", fillcolor="#acef83"] ;
330 -> 331 ;
332 [label="gini = 0.0\nsamples = 2\nvalue = [0, 4, 0, 0, 0]", fillcolor="#7be539"] ;
331 -> 332 ;
333 [label="floating <= 1715.0\ngini = 0.49\nsamples = 4\nvalue = [3, 4, 0, 0, 0]", fillcolor="#def8ce"] ;
331 -> 333 ;
334 [label="gini = 0.0\nsamples = 2\nvalue = [3, 0, 0, 0, 0]", fillcolor="#e58139"] ;
333 -> 334 ;
335 [label="gini = 0.0\nsamples = 2\nvalue = [0, 4, 0, 0, 0]", fillcolor="#7be539"] ;
333 -> 335 ;
336 [label="gini = 0.0\nsamples = 2\nvalue = [4, 0, 0, 0, 0]", fillcolor="#e58139"] ;
330 -> 336 ;
337 [label="floating <= 1610.0\ngini = 0.62\nsamples = 15\nvalue = [3, 8, 8, 0, 0]", fillcolor="#ffffff"] ;
305 -> 337 ;
338 [label="floating <= 1340.0\ngini = 0.494\nsamples = 8\nvalue = [1, 6, 2, 0, 0]", fillcolor="#b4f08e"] ;
337 -> 338 ;
339 [label="gini = 0.0\nsamples = 1\nvalue = [1, 0, 0, 0, 0]", fillcolor="#e58139"] ;
338 -> 339 ;
340 [label="resident <= 290.0\ngini = 0.375\nsamples = 7\nvalue = [0, 6, 2, 0, 0]", fillcolor="#a7ee7b"] ;
338 -> 340 ;
341 [label="gini = 0.0\nsamples = 2\nvalue = [0, 0, 2, 0, 0]", fillcolor="#39e5c5"] ;
340 -> 341 ;
342 [label="gini = 0.0\nsamples = 5\nvalue = [0, 6, 0, 0, 0]", fillcolor="#7be539"] ;
340 -> 342 ;
343 [label="resident <= 285.0\ngini = 0.56\nsamples = 7\nvalue = [2, 2, 6, 0, 0]", fillcolor="#9cf2e2"] ;
337 -> 343 ;
344 [label="gini = 0.0\nsamples = 1\nvalue = [0, 2, 0, 0, 0]", fillcolor="#7be539"] ;
343 -> 344 ;
345 [label="CCTV_num <= 6.5\ngini = 0.375\nsamples = 6\nvalue = [2, 0, 6, 0, 0]", fillcolor="#7beed8"] ;
343 -> 345 ;
346 [label="CCTV_num <= 5.0\ngini = 0.245\nsamples = 5\nvalue = [1, 0, 6, 0, 0]", fillcolor="#5ae9cf"] ;
345 -> 346 ;
347 [label="resident <= 310.0\ngini = 0.444\nsamples = 2\nvalue = [1, 0, 2, 0, 0]", fillcolor="#9cf2e2"] ;
346 -> 347 ;
348 [label="gini = 0.0\nsamples = 1\nvalue = [1, 0, 0, 0, 0]", fillcolor="#e58139"] ;
347 -> 348 ;
349 [label="gini = 0.0\nsamples = 1\nvalue = [0, 0, 2, 0, 0]", fillcolor="#39e5c5"] ;
347 -> 349 ;
350 [label="gini = 0.0\nsamples = 3\nvalue = [0, 0, 4, 0, 0]", fillcolor="#39e5c5"] ;
346 -> 350 ;
351 [label="gini = 0.0\nsamples = 1\nvalue = [1, 0, 0, 0, 0]", fillcolor="#e58139"] ;
345 -> 351 ;
352 [label="gini = 0.0\nsamples = 4\nvalue = [8, 0, 0, 0, 0]", fillcolor="#e58139"] ;
304 -> 352 ;
353 [label="floating <= 1595.0\ngini = 0.165\nsamples = 8\nvalue = [10, 0, 1, 0, 0]", fillcolor="#e88e4d"] ;
301 -> 353 ;
354 [label="gini = 0.0\nsamples = 6\nvalue = [9, 0, 0, 0, 0]", fillcolor="#e58139"] ;
353 -> 354 ;
355 [label="floating <= 1750.0\ngini = 0.5\nsamples = 2\nvalue = [1, 0, 1, 0, 0]", fillcolor="#ffffff"] ;
353 -> 355 ;
356 [label="gini = 0.0\nsamples = 1\nvalue = [0, 0, 1, 0, 0]", fillcolor="#39e5c5"] ;
355 -> 356 ;
357 [label="gini = 0.0\nsamples = 1\nvalue = [1, 0, 0, 0, 0]", fillcolor="#e58139"] ;
355 -> 357 ;
358 [label="resident <= 135.0\ngini = 0.408\nsamples = 6\nvalue = [2, 5, 0, 0, 0]", fillcolor="#b0ef88"] ;
300 -> 358 ;
359 [label="gini = 0.0\nsamples = 1\nvalue = [1, 0, 0, 0, 0]", fillcolor="#e58139"] ;
358 -> 359 ;
360 [label="resident <= 315.0\ngini = 0.278\nsamples = 5\nvalue = [1, 5, 0, 0, 0]", fillcolor="#95ea61"] ;
358 -> 360 ;
361 [label="gini = 0.0\nsamples = 4\nvalue = [0, 5, 0, 0, 0]", fillcolor="#7be539"] ;
360 -> 361 ;
362 [label="gini = 0.0\nsamples = 1\nvalue = [1, 0, 0, 0, 0]", fillcolor="#e58139"] ;
360 -> 362 ;
363 [label="CCTV_num <= 3.5\ngini = 0.245\nsamples = 11\nvalue = [2, 12, 0, 0, 0]", fillcolor="#91e95a"] ;
295 -> 363 ;
364 [label="resident <= 300.0\ngini = 0.444\nsamples = 3\nvalue = [2, 1, 0, 0, 0]", fillcolor="#f2c09c"] ;
363 -> 364 ;
365 [label="gini = 0.0\nsamples = 1\nvalue = [0, 1, 0, 0, 0]", fillcolor="#7be539"] ;
364 -> 365 ;
366 [label="gini = 0.0\nsamples = 2\nvalue = [2, 0, 0, 0, 0]", fillcolor="#e58139"] ;
364 -> 366 ;
367 [label="gini = 0.0\nsamples = 8\nvalue = [0, 11, 0, 0, 0]", fillcolor="#7be539"] ;
363 -> 367 ;
368 [label="resident <= 40.0\ngini = 0.595\nsamples = 17\nvalue = [12, 3, 0, 10, 0]", fillcolor="#fceee5"] ;
0 -> 368 [labeldistance=2.5, labelangle=-45, headlabel="False"] ;
369 [label="floating <= 220.0\ngini = 0.37\nsamples = 6\nvalue = [1, 1, 0, 7, 0]", fillcolor="#6d6aec"] ;
368 -> 369 ;
370 [label="CCTV_num <= 10.0\ngini = 0.5\nsamples = 2\nvalue = [1, 1, 0, 0, 0]", fillcolor="#ffffff"] ;
369 -> 370 ;
371 [label="gini = 0.0\nsamples = 1\nvalue = [1, 0, 0, 0, 0]", fillcolor="#e58139"] ;
370 -> 371 ;
372 [label="gini = 0.0\nsamples = 1\nvalue = [0, 1, 0, 0, 0]", fillcolor="#7be539"] ;
370 -> 372 ;
373 [label="gini = 0.0\nsamples = 4\nvalue = [0, 0, 0, 7, 0]", fillcolor="#3c39e5"] ;
369 -> 373 ;
374 [label="resident <= 240.0\ngini = 0.477\nsamples = 11\nvalue = [11, 2, 0, 3, 0]", fillcolor="#efb185"] ;
368 -> 374 ;
375 [label="floating <= 955.0\ngini = 0.594\nsamples = 6\nvalue = [4, 1, 0, 3, 0]", fillcolor="#fae6d7"] ;
374 -> 375 ;
376 [label="gini = 0.0\nsamples = 3\nvalue = [4, 0, 0, 0, 0]", fillcolor="#e58139"] ;
375 -> 376 ;
377 [label="resident <= 205.0\ngini = 0.375\nsamples = 3\nvalue = [0, 1, 0, 3, 0]", fillcolor="#7d7bee"] ;
375 -> 377 ;
378 [label="gini = 0.0\nsamples = 1\nvalue = [0, 1, 0, 0, 0]", fillcolor="#7be539"] ;
377 -> 378 ;
379 [label="gini = 0.0\nsamples = 2\nvalue = [0, 0, 0, 3, 0]", fillcolor="#3c39e5"] ;
377 -> 379 ;
380 [label="CCTV_num <= 11.5\ngini = 0.219\nsamples = 5\nvalue = [7, 1, 0, 0, 0]", fillcolor="#e99355"] ;
374 -> 380 ;
381 [label="floating <= 1790.0\ngini = 0.5\nsamples = 2\nvalue = [1, 1, 0, 0, 0]", fillcolor="#ffffff"] ;
380 -> 381 ;
382 [label="gini = 0.0\nsamples = 1\nvalue = [0, 1, 0, 0, 0]", fillcolor="#7be539"] ;
381 -> 382 ;
383 [label="gini = 0.0\nsamples = 1\nvalue = [1, 0, 0, 0, 0]", fillcolor="#e58139"] ;
381 -> 383 ;
384 [label="gini = 0.0\nsamples = 3\nvalue = [6, 0, 0, 0, 0]", fillcolor="#e58139"] ;
380 -> 384 ;
}