digraph Tree {
node [shape=box, style="filled, rounded", color="black", fontname=helvetica] ;
edge [fontname=helvetica] ;
0 [label="police_value <= 0.5\ngini = 0.604\nsamples = 278\nvalue = [225, 144, 39, 13, 9]", fillcolor="#f8dbc7"] ;
1 [label="CCTV_num <= 1.5\ngini = 0.63\nsamples = 230\nvalue = [168, 135, 35, 13, 9]", fillcolor="#fbede2"] ;
0 -> 1 [labeldistance=2.5, labelangle=45, headlabel="True"] ;
2 [label="floating <= 525.0\ngini = 0.65\nsamples = 180\nvalue = [118, 111, 28, 13, 9]", fillcolor="#fefaf7"] ;
1 -> 2 ;
3 [label="floating <= 265.0\ngini = 0.436\nsamples = 40\nvalue = [46, 16, 3, 0, 0]", fillcolor="#efb286"] ;
2 -> 3 ;
4 [label="floating <= 250.0\ngini = 0.5\nsamples = 18\nvalue = [15, 15, 0, 0, 0]", fillcolor="#ffffff"] ;
3 -> 4 ;
5 [label="floating <= 235.0\ngini = 0.48\nsamples = 15\nvalue = [15, 10, 0, 0, 0]", fillcolor="#f6d5bd"] ;
4 -> 5 ;
6 [label="floating <= 215.0\ngini = 0.499\nsamples = 12\nvalue = [9, 10, 0, 0, 0]", fillcolor="#f2fceb"] ;
5 -> 6 ;
7 [label="floating <= 200.0\ngini = 0.459\nsamples = 7\nvalue = [9, 5, 0, 0, 0]", fillcolor="#f3c7a7"] ;
6 -> 7 ;
8 [label="resident <= 5.0\ngini = 0.494\nsamples = 5\nvalue = [4, 5, 0, 0, 0]", fillcolor="#e5fad7"] ;
7 -> 8 ;
9 [label="gini = 0.0\nsamples = 1\nvalue = [2, 0, 0, 0, 0]", fillcolor="#e58139"] ;
8 -> 9 ;
10 [label="resident <= 15.0\ngini = 0.408\nsamples = 4\nvalue = [2, 5, 0, 0, 0]", fillcolor="#b0ef88"] ;
8 -> 10 ;
11 [label="gini = 0.0\nsamples = 2\nvalue = [0, 4, 0, 0, 0]", fillcolor="#7be539"] ;
10 -> 11 ;
12 [label="floating <= 125.0\ngini = 0.444\nsamples = 2\nvalue = [2, 1, 0, 0, 0]", fillcolor="#f2c09c"] ;
10 -> 12 ;
13 [label="gini = 0.0\nsamples = 1\nvalue = [0, 1, 0, 0, 0]", fillcolor="#7be539"] ;
12 -> 13 ;
14 [label="gini = 0.0\nsamples = 1\nvalue = [2, 0, 0, 0, 0]", fillcolor="#e58139"] ;
12 -> 14 ;
15 [label="gini = 0.0\nsamples = 2\nvalue = [5, 0, 0, 0, 0]", fillcolor="#e58139"] ;
7 -> 15 ;
16 [label="gini = 0.0\nsamples = 5\nvalue = [0, 5, 0, 0, 0]", fillcolor="#7be539"] ;
6 -> 16 ;
17 [label="gini = 0.0\nsamples = 3\nvalue = [6, 0, 0, 0, 0]", fillcolor="#e58139"] ;
5 -> 17 ;
18 [label="gini = 0.0\nsamples = 3\nvalue = [0, 5, 0, 0, 0]", fillcolor="#7be539"] ;
4 -> 18 ;
19 [label="resident <= 45.0\ngini = 0.207\nsamples = 22\nvalue = [31, 1, 3, 0, 0]", fillcolor="#e89152"] ;
3 -> 19 ;
20 [label="resident <= 25.0\ngini = 0.185\nsamples = 19\nvalue = [26, 0, 3, 0, 0]", fillcolor="#e89050"] ;
19 -> 20 ;
21 [label="resident <= 15.0\ngini = 0.111\nsamples = 10\nvalue = [16, 0, 1, 0, 0]", fillcolor="#e78945"] ;
20 -> 21 ;
22 [label="gini = 0.0\nsamples = 3\nvalue = [4, 0, 0, 0, 0]", fillcolor="#e58139"] ;
21 -> 22 ;
23 [label="floating <= 505.0\ngini = 0.142\nsamples = 7\nvalue = [12, 0, 1, 0, 0]", fillcolor="#e78c49"] ;
21 -> 23 ;
24 [label="gini = 0.0\nsamples = 4\nvalue = [10, 0, 0, 0, 0]", fillcolor="#e58139"] ;
23 -> 24 ;
25 [label="gini = 0.444\nsamples = 3\nvalue = [2, 0, 1, 0, 0]", fillcolor="#f2c09c"] ;
23 -> 25 ;
26 [label="resident <= 35.0\ngini = 0.278\nsamples = 9\nvalue = [10, 0, 2, 0, 0]", fillcolor="#ea9a61"] ;
20 -> 26 ;
27 [label="floating <= 470.0\ngini = 0.444\nsamples = 3\nvalue = [2, 0, 1, 0, 0]", fillcolor="#f2c09c"] ;
26 -> 27 ;
28 [label="gini = 0.0\nsamples = 1\nvalue = [1, 0, 0, 0, 0]", fillcolor="#e58139"] ;
27 -> 28 ;
29 [label="floating <= 505.0\ngini = 0.5\nsamples = 2\nvalue = [1, 0, 1, 0, 0]", fillcolor="#ffffff"] ;
27 -> 29 ;
30 [label="gini = 0.0\nsamples = 1\nvalue = [0, 0, 1, 0, 0]", fillcolor="#39e5c5"] ;
29 -> 30 ;
31 [label="gini = 0.0\nsamples = 1\nvalue = [1, 0, 0, 0, 0]", fillcolor="#e58139"] ;
29 -> 31 ;
32 [label="floating <= 490.0\ngini = 0.198\nsamples = 6\nvalue = [8, 0, 1, 0, 0]", fillcolor="#e89152"] ;
26 -> 32 ;
33 [label="gini = 0.0\nsamples = 3\nvalue = [5, 0, 0, 0, 0]", fillcolor="#e58139"] ;
32 -> 33 ;
34 [label="floating <= 505.0\ngini = 0.375\nsamples = 3\nvalue = [3, 0, 1, 0, 0]", fillcolor="#eeab7b"] ;
32 -> 34 ;
35 [label="gini = 0.0\nsamples = 1\nvalue = [0, 0, 1, 0, 0]", fillcolor="#39e5c5"] ;
34 -> 35 ;
36 [label="gini = 0.0\nsamples = 2\nvalue = [3, 0, 0, 0, 0]", fillcolor="#e58139"] ;
34 -> 36 ;
37 [label="resident <= 55.0\ngini = 0.278\nsamples = 3\nvalue = [5, 1, 0, 0, 0]", fillcolor="#ea9a61"] ;
19 -> 37 ;
38 [label="floating <= 470.0\ngini = 0.375\nsamples = 2\nvalue = [3, 1, 0, 0, 0]", fillcolor="#eeab7b"] ;
37 -> 38 ;
39 [label="gini = 0.0\nsamples = 1\nvalue = [3, 0, 0, 0, 0]", fillcolor="#e58139"] ;
38 -> 39 ;
40 [label="gini = 0.0\nsamples = 1\nvalue = [0, 1, 0, 0, 0]", fillcolor="#7be539"] ;
38 -> 40 ;
41 [label="gini = 0.0\nsamples = 1\nvalue = [2, 0, 0, 0, 0]", fillcolor="#e58139"] ;
37 -> 41 ;
42 [label="floating <= 5095.0\ngini = 0.671\nsamples = 140\nvalue = [72, 95, 25, 13, 9]", fillcolor="#eafbdf"] ;
2 -> 42 ;
43 [label="CCTV_num <= 0.5\ngini = 0.634\nsamples = 120\nvalue = [60, 93, 22, 5, 7]", fillcolor="#ddf8cc"] ;
42 -> 43 ;
44 [label="resident <= 250.0\ngini = 0.623\nsamples = 116\nvalue = [59, 92, 18, 5, 7]", fillcolor="#dbf8c9"] ;
43 -> 44 ;
45 [label="floating <= 895.0\ngini = 0.633\nsamples = 76\nvalue = [47, 50, 11, 5, 2]", fillcolor="#f9fef6"] ;
44 -> 45 ;
46 [label="floating <= 715.0\ngini = 0.523\nsamples = 33\nvalue = [18, 34, 4, 0, 0]", fillcolor="#c7f4ac"] ;
45 -> 46 ;
47 [label="resident <= 60.0\ngini = 0.557\nsamples = 25\nvalue = [17, 22, 3, 0, 0]", fillcolor="#e5fad7"] ;
46 -> 47 ;
48 [label="floating <= 655.0\ngini = 0.482\nsamples = 22\nvalue = [15, 22, 0, 0, 0]", fillcolor="#d5f7c0"] ;
47 -> 48 ;
49 [label="floating <= 635.0\ngini = 0.457\nsamples = 20\nvalue = [12, 22, 0, 0, 0]", fillcolor="#c3f3a5"] ;
48 -> 49 ;
50 [label="floating <= 600.0\ngini = 0.49\nsamples = 16\nvalue = [12, 16, 0, 0, 0]", fillcolor="#def8ce"] ;
49 -> 50 ;
51 [label="resident <= 35.0\ngini = 0.434\nsamples = 12\nvalue = [7, 15, 0, 0, 0]", fillcolor="#b9f195"] ;
50 -> 51 ;
52 [label="resident <= 25.0\ngini = 0.5\nsamples = 6\nvalue = [5, 5, 0, 0, 0]", fillcolor="#ffffff"] ;
51 -> 52 ;
53 [label="gini = 0.0\nsamples = 2\nvalue = [0, 3, 0, 0, 0]", fillcolor="#7be539"] ;
52 -> 53 ;
54 [label="floating <= 560.0\ngini = 0.408\nsamples = 4\nvalue = [5, 2, 0, 0, 0]", fillcolor="#efb388"] ;
52 -> 54 ;
55 [label="gini = 0.0\nsamples = 2\nvalue = [5, 0, 0, 0, 0]", fillcolor="#e58139"] ;
54 -> 55 ;
56 [label="gini = 0.0\nsamples = 2\nvalue = [0, 2, 0, 0, 0]", fillcolor="#7be539"] ;
54 -> 56 ;
57 [label="resident <= 45.0\ngini = 0.278\nsamples = 6\nvalue = [2, 10, 0, 0, 0]", fillcolor="#95ea61"] ;
51 -> 57 ;
58 [label="gini = 0.0\nsamples = 2\nvalue = [0, 5, 0, 0, 0]", fillcolor="#7be539"] ;
57 -> 58 ;
59 [label="floating <= 545.0\ngini = 0.408\nsamples = 4\nvalue = [2, 5, 0, 0, 0]", fillcolor="#b0ef88"] ;
57 -> 59 ;
60 [label="gini = 0.0\nsamples = 2\nvalue = [0, 3, 0, 0, 0]", fillcolor="#7be539"] ;
59 -> 60 ;
61 [label="floating <= 575.0\ngini = 0.5\nsamples = 2\nvalue = [2, 2, 0, 0, 0]", fillcolor="#ffffff"] ;
59 -> 61 ;
62 [label="gini = 0.0\nsamples = 1\nvalue = [2, 0, 0, 0, 0]", fillcolor="#e58139"] ;
61 -> 62 ;
63 [label="gini = 0.0\nsamples = 1\nvalue = [0, 2, 0, 0, 0]", fillcolor="#7be539"] ;
61 -> 63 ;
64 [label="resident <= 15.0\ngini = 0.278\nsamples = 4\nvalue = [5, 1, 0, 0, 0]", fillcolor="#ea9a61"] ;
50 -> 64 ;
65 [label="gini = 0.0\nsamples = 1\nvalue = [1, 0, 0, 0, 0]", fillcolor="#e58139"] ;
64 -> 65 ;
66 [label="floating <= 615.0\ngini = 0.32\nsamples = 3\nvalue = [4, 1, 0, 0, 0]", fillcolor="#eca06a"] ;
64 -> 66 ;
67 [label="gini = 0.375\nsamples = 2\nvalue = [3, 1, 0, 0, 0]", fillcolor="#eeab7b"] ;
66 -> 67 ;
68 [label="gini = 0.0\nsamples = 1\nvalue = [1, 0, 0, 0, 0]", fillcolor="#e58139"] ;
66 -> 68 ;
69 [label="gini = 0.0\nsamples = 4\nvalue = [0, 6, 0, 0, 0]", fillcolor="#7be539"] ;
49 -> 69 ;
70 [label="gini = 0.0\nsamples = 2\nvalue = [3, 0, 0, 0, 0]", fillcolor="#e58139"] ;
48 -> 70 ;
71 [label="floating <= 675.0\ngini = 0.48\nsamples = 3\nvalue = [2, 0, 3, 0, 0]", fillcolor="#bdf6ec"] ;
47 -> 71 ;
72 [label="gini = 0.0\nsamples = 2\nvalue = [0, 0, 3, 0, 0]", fillcolor="#39e5c5"] ;
71 -> 72 ;
73 [label="gini = 0.0\nsamples = 1\nvalue = [2, 0, 0, 0, 0]", fillcolor="#e58139"] ;
71 -> 73 ;
74 [label="floating <= 765.0\ngini = 0.255\nsamples = 8\nvalue = [1, 12, 1, 0, 0]", fillcolor="#8fe957"] ;
46 -> 74 ;
75 [label="gini = 0.0\nsamples = 4\nvalue = [0, 10, 0, 0, 0]", fillcolor="#7be539"] ;
74 -> 75 ;
76 [label="floating <= 835.0\ngini = 0.625\nsamples = 4\nvalue = [1, 2, 1, 0, 0]", fillcolor="#d3f6bd"] ;
74 -> 76 ;
77 [label="resident <= 65.0\ngini = 0.5\nsamples = 2\nvalue = [1, 0, 1, 0, 0]", fillcolor="#ffffff"] ;
76 -> 77 ;
78 [label="gini = 0.0\nsamples = 1\nvalue = [1, 0, 0, 0, 0]", fillcolor="#e58139"] ;
77 -> 78 ;
79 [label="gini = 0.0\nsamples = 1\nvalue = [0, 0, 1, 0, 0]", fillcolor="#39e5c5"] ;
77 -> 79 ;
80 [label="gini = 0.0\nsamples = 2\nvalue = [0, 2, 0, 0, 0]", fillcolor="#7be539"] ;
76 -> 80 ;
81 [label="resident <= 105.0\ngini = 0.662\nsamples = 43\nvalue = [29, 16, 7, 5, 2]", fillcolor="#f7d9c3"] ;
45 -> 81 ;
82 [label="resident <= 65.0\ngini = 0.346\nsamples = 16\nvalue = [14, 4, 0, 0, 0]", fillcolor="#eca572"] ;
81 -> 82 ;
83 [label="resident <= 55.0\ngini = 0.494\nsamples = 9\nvalue = [5, 4, 0, 0, 0]", fillcolor="#fae6d7"] ;
82 -> 83 ;
84 [label="floating <= 1000.0\ngini = 0.408\nsamples = 7\nvalue = [5, 2, 0, 0, 0]", fillcolor="#efb388"] ;
83 -> 84 ;
85 [label="gini = 0.0\nsamples = 3\nvalue = [3, 0, 0, 0, 0]", fillcolor="#e58139"] ;
84 -> 85 ;
86 [label="floating <= 1080.0\ngini = 0.5\nsamples = 4\nvalue = [2, 2, 0, 0, 0]", fillcolor="#ffffff"] ;
84 -> 86 ;
87 [label="gini = 0.0\nsamples = 2\nvalue = [0, 2, 0, 0, 0]", fillcolor="#7be539"] ;
86 -> 87 ;
88 [label="gini = 0.0\nsamples = 2\nvalue = [2, 0, 0, 0, 0]", fillcolor="#e58139"] ;
86 -> 88 ;
89 [label="gini = 0.0\nsamples = 2\nvalue = [0, 2, 0, 0, 0]", fillcolor="#7be539"] ;
83 -> 89 ;
90 [label="gini = 0.0\nsamples = 7\nvalue = [9, 0, 0, 0, 0]", fillcolor="#e58139"] ;
82 -> 90 ;
91 [label="floating <= 3340.0\ngini = 0.734\nsamples = 27\nvalue = [15, 12, 7, 5, 2]", fillcolor="#fcf2eb"] ;
81 -> 91 ;
92 [label="resident <= 135.0\ngini = 0.754\nsamples = 17\nvalue = [5, 10, 5, 5, 2]", fillcolor="#e1f9d2"] ;
91 -> 92 ;
93 [label="floating <= 1825.0\ngini = 0.62\nsamples = 6\nvalue = [3, 2, 5, 0, 0]", fillcolor="#c6f8ee"] ;
92 -> 93 ;
94 [label="resident <= 115.0\ngini = 0.408\nsamples = 4\nvalue = [0, 2, 5, 0, 0]", fillcolor="#88efdc"] ;
93 -> 94 ;
95 [label="gini = 0.0\nsamples = 1\nvalue = [0, 2, 0, 0, 0]", fillcolor="#7be539"] ;
94 -> 95 ;
96 [label="gini = 0.0\nsamples = 3\nvalue = [0, 0, 5, 0, 0]", fillcolor="#39e5c5"] ;
94 -> 96 ;
97 [label="gini = 0.0\nsamples = 2\nvalue = [3, 0, 0, 0, 0]", fillcolor="#e58139"] ;
93 -> 97 ;
98 [label="floating <= 2390.0\ngini = 0.664\nsamples = 11\nvalue = [2, 8, 0, 5, 2]", fillcolor="#def8ce"] ;
92 -> 98 ;
99 [label="floating <= 1790.0\ngini = 0.531\nsamples = 5\nvalue = [1, 2, 0, 5, 0]", fillcolor="#9e9cf2"] ;
98 -> 99 ;
100 [label="resident <= 155.0\ngini = 0.444\nsamples = 2\nvalue = [1, 2, 0, 0, 0]", fillcolor="#bdf29c"] ;
99 -> 100 ;
101 [label="gini = 0.0\nsamples = 1\nvalue = [0, 2, 0, 0, 0]", fillcolor="#7be539"] ;
100 -> 101 ;
102 [label="gini = 0.0\nsamples = 1\nvalue = [1, 0, 0, 0, 0]", fillcolor="#e58139"] ;
100 -> 102 ;
103 [label="gini = 0.0\nsamples = 3\nvalue = [0, 0, 0, 5, 0]", fillcolor="#3c39e5"] ;
99 -> 103 ;
104 [label="resident <= 185.0\ngini = 0.494\nsamples = 6\nvalue = [1, 6, 0, 0, 2]", fillcolor="#b4f08e"] ;
98 -> 104 ;
105 [label="gini = 0.0\nsamples = 3\nvalue = [0, 6, 0, 0, 0]", fillcolor="#7be539"] ;
104 -> 105 ;
106 [label="resident <= 195.0\ngini = 0.444\nsamples = 3\nvalue = [1, 0, 0, 0, 2]", fillcolor="#f29ce0"] ;
104 -> 106 ;
107 [label="gini = 0.0\nsamples = 1\nvalue = [1, 0, 0, 0, 0]", fillcolor="#e58139"] ;
106 -> 107 ;
108 [label="gini = 0.0\nsamples = 2\nvalue = [0, 0, 0, 0, 2]", fillcolor="#e539c0"] ;
106 -> 108 ;
109 [label="resident <= 135.0\ngini = 0.449\nsamples = 10\nvalue = [10, 2, 2, 0, 0]", fillcolor="#eeab7b"] ;
91 -> 109 ;
110 [label="gini = 0.0\nsamples = 1\nvalue = [0, 1, 0, 0, 0]", fillcolor="#7be539"] ;
109 -> 110 ;
111 [label="floating <= 4855.0\ngini = 0.379\nsamples = 9\nvalue = [10, 1, 2, 0, 0]", fillcolor="#eca36f"] ;
109 -> 111 ;
112 [label="gini = 0.0\nsamples = 6\nvalue = [10, 0, 0, 0, 0]", fillcolor="#e58139"] ;
111 -> 112 ;
113 [label="floating <= 4945.0\ngini = 0.444\nsamples = 3\nvalue = [0, 1, 2, 0, 0]", fillcolor="#9cf2e2"] ;
111 -> 113 ;
114 [label="gini = 0.0\nsamples = 1\nvalue = [0, 1, 0, 0, 0]", fillcolor="#7be539"] ;
113 -> 114 ;
115 [label="gini = 0.0\nsamples = 2\nvalue = [0, 0, 2, 0, 0]", fillcolor="#39e5c5"] ;
113 -> 115 ;
116 [label="floating <= 4590.0\ngini = 0.545\nsamples = 40\nvalue = [12, 42, 7, 0, 5]", fillcolor="#b6f191"] ;
44 -> 116 ;
117 [label="floating <= 4070.0\ngini = 0.226\nsamples = 16\nvalue = [1, 21, 2, 0, 0]", fillcolor="#8de954"] ;
116 -> 117 ;
118 [label="floating <= 3995.0\ngini = 0.32\nsamples = 6\nvalue = [0, 8, 2, 0, 0]", fillcolor="#9cec6a"] ;
117 -> 118 ;
119 [label="gini = 0.0\nsamples = 5\nvalue = [0, 8, 0, 0, 0]", fillcolor="#7be539"] ;
118 -> 119 ;
120 [label="gini = 0.0\nsamples = 1\nvalue = [0, 0, 2, 0, 0]", fillcolor="#39e5c5"] ;
118 -> 120 ;
121 [label="floating <= 4570.0\ngini = 0.133\nsamples = 10\nvalue = [1, 13, 0, 0, 0]", fillcolor="#85e748"] ;
117 -> 121 ;
122 [label="gini = 0.0\nsamples = 7\nvalue = [0, 9, 0, 0, 0]", fillcolor="#7be539"] ;
121 -> 122 ;
123 [label="resident <= 310.0\ngini = 0.32\nsamples = 3\nvalue = [1, 4, 0, 0, 0]", fillcolor="#9cec6a"] ;
121 -> 123 ;
124 [label="gini = 0.0\nsamples = 1\nvalue = [1, 0, 0, 0, 0]", fillcolor="#e58139"] ;
123 -> 124 ;
125 [label="gini = 0.0\nsamples = 2\nvalue = [0, 4, 0, 0, 0]", fillcolor="#7be539"] ;
123 -> 125 ;
126 [label="floating <= 4695.0\ngini = 0.653\nsamples = 24\nvalue = [11, 21, 5, 0, 5]", fillcolor="#d4f7bf"] ;
116 -> 126 ;
127 [label="floating <= 4655.0\ngini = 0.62\nsamples = 5\nvalue = [2, 0, 3, 0, 5]", fillcolor="#f8c6ed"] ;
126 -> 127 ;
128 [label="resident <= 305.0\ngini = 0.48\nsamples = 2\nvalue = [2, 0, 3, 0, 0]", fillcolor="#bdf6ec"] ;
127 -> 128 ;
129 [label="gini = 0.0\nsamples = 1\nvalue = [2, 0, 0, 0, 0]", fillcolor="#e58139"] ;
128 -> 129 ;
130 [label="gini = 0.0\nsamples = 1\nvalue = [0, 0, 3, 0, 0]", fillcolor="#39e5c5"] ;
128 -> 130 ;
131 [label="gini = 0.0\nsamples = 3\nvalue = [0, 0, 0, 0, 5]", fillcolor="#e539c0"] ;
127 -> 131 ;
132 [label="floating <= 4995.0\ngini = 0.486\nsamples = 19\nvalue = [9, 21, 2, 0, 0]", fillcolor="#baf198"] ;
126 -> 132 ;
133 [label="floating <= 4865.0\ngini = 0.586\nsamples = 12\nvalue = [7, 9, 2, 0, 0]", fillcolor="#e7fadb"] ;
132 -> 133 ;
134 [label="resident <= 320.0\ngini = 0.375\nsamples = 8\nvalue = [3, 9, 0, 0, 0]", fillcolor="#a7ee7b"] ;
133 -> 134 ;
135 [label="resident <= 275.0\ngini = 0.18\nsamples = 7\nvalue = [1, 9, 0, 0, 0]", fillcolor="#8ae84f"] ;
134 -> 135 ;
136 [label="resident <= 265.0\ngini = 0.444\nsamples = 2\nvalue = [1, 2, 0, 0, 0]", fillcolor="#bdf29c"] ;
135 -> 136 ;
137 [label="gini = 0.0\nsamples = 1\nvalue = [0, 2, 0, 0, 0]", fillcolor="#7be539"] ;
136 -> 137 ;
138 [label="gini = 0.0\nsamples = 1\nvalue = [1, 0, 0, 0, 0]", fillcolor="#e58139"] ;
136 -> 138 ;
139 [label="gini = 0.0\nsamples = 5\nvalue = [0, 7, 0, 0, 0]", fillcolor="#7be539"] ;
135 -> 139 ;
140 [label="gini = 0.0\nsamples = 1\nvalue = [2, 0, 0, 0, 0]", fillcolor="#e58139"] ;
134 -> 140 ;
141 [label="resident <= 285.0\ngini = 0.444\nsamples = 4\nvalue = [4, 0, 2, 0, 0]", fillcolor="#f2c09c"] ;
133 -> 141 ;
142 [label="gini = 0.0\nsamples = 1\nvalue = [0, 0, 1, 0, 0]", fillcolor="#39e5c5"] ;
141 -> 142 ;
143 [label="resident <= 320.0\ngini = 0.32\nsamples = 3\nvalue = [4, 0, 1, 0, 0]", fillcolor="#eca06a"] ;
141 -> 143 ;
144 [label="gini = 0.0\nsamples = 1\nvalue = [2, 0, 0, 0, 0]", fillcolor="#e58139"] ;
143 -> 144 ;
145 [label="floating <= 4930.0\ngini = 0.444\nsamples = 2\nvalue = [2, 0, 1, 0, 0]", fillcolor="#f2c09c"] ;
143 -> 145 ;
146 [label="gini = 0.0\nsamples = 1\nvalue = [0, 0, 1, 0, 0]", fillcolor="#39e5c5"] ;
145 -> 146 ;
147 [label="gini = 0.0\nsamples = 1\nvalue = [2, 0, 0, 0, 0]", fillcolor="#e58139"] ;
145 -> 147 ;
148 [label="resident <= 335.0\ngini = 0.245\nsamples = 7\nvalue = [2, 12, 0, 0, 0]", fillcolor="#91e95a"] ;
132 -> 148 ;
149 [label="resident <= 295.0\ngini = 0.48\nsamples = 3\nvalue = [2, 3, 0, 0, 0]", fillcolor="#d3f6bd"] ;
148 -> 149 ;
150 [label="gini = 0.0\nsamples = 2\nvalue = [0, 3, 0, 0, 0]", fillcolor="#7be539"] ;
149 -> 150 ;
151 [label="gini = 0.0\nsamples = 1\nvalue = [2, 0, 0, 0, 0]", fillcolor="#e58139"] ;
149 -> 151 ;
152 [label="gini = 0.0\nsamples = 4\nvalue = [0, 9, 0, 0, 0]", fillcolor="#7be539"] ;
148 -> 152 ;
153 [label="floating <= 3950.0\ngini = 0.5\nsamples = 4\nvalue = [1, 1, 4, 0, 0]", fillcolor="#88efdc"] ;
43 -> 153 ;
154 [label="gini = 0.0\nsamples = 2\nvalue = [0, 0, 4, 0, 0]", fillcolor="#39e5c5"] ;
153 -> 154 ;
155 [label="floating <= 4270.0\ngini = 0.5\nsamples = 2\nvalue = [1, 1, 0, 0, 0]", fillcolor="#ffffff"] ;
153 -> 155 ;
156 [label="gini = 0.0\nsamples = 1\nvalue = [1, 0, 0, 0, 0]", fillcolor="#e58139"] ;
155 -> 156 ;
157 [label="gini = 0.0\nsamples = 1\nvalue = [0, 1, 0, 0, 0]", fillcolor="#7be539"] ;
155 -> 157 ;
158 [label="resident <= 350.0\ngini = 0.691\nsamples = 20\nvalue = [12, 2, 3, 8, 2]", fillcolor="#fae4d5"] ;
42 -> 158 ;
159 [label="resident <= 255.0\ngini = 0.554\nsamples = 14\nvalue = [12, 2, 0, 3, 2]", fillcolor="#f0b890"] ;
158 -> 159 ;
160 [label="gini = 0.0\nsamples = 3\nvalue = [5, 0, 0, 0, 0]", fillcolor="#e58139"] ;
159 -> 160 ;
161 [label="resident <= 295.0\ngini = 0.663\nsamples = 11\nvalue = [7, 2, 0, 3, 2]", fillcolor="#f6d1b7"] ;
159 -> 161 ;
162 [label="resident <= 275.0\ngini = 0.611\nsamples = 6\nvalue = [1, 2, 0, 3, 0]", fillcolor="#cecef8"] ;
161 -> 162 ;
163 [label="resident <= 265.0\ngini = 0.5\nsamples = 2\nvalue = [1, 1, 0, 0, 0]", fillcolor="#ffffff"] ;
162 -> 163 ;
164 [label="gini = 0.0\nsamples = 1\nvalue = [0, 1, 0, 0, 0]", fillcolor="#7be539"] ;
163 -> 164 ;
165 [label="gini = 0.0\nsamples = 1\nvalue = [1, 0, 0, 0, 0]", fillcolor="#e58139"] ;
163 -> 165 ;
166 [label="floating <= 5180.0\ngini = 0.375\nsamples = 4\nvalue = [0, 1, 0, 3, 0]", fillcolor="#7d7bee"] ;
162 -> 166 ;
167 [label="gini = 0.0\nsamples = 3\nvalue = [0, 0, 0, 3, 0]", fillcolor="#3c39e5"] ;
166 -> 167 ;
168 [label="gini = 0.0\nsamples = 1\nvalue = [0, 1, 0, 0, 0]", fillcolor="#7be539"] ;
166 -> 168 ;
169 [label="resident <= 315.0\ngini = 0.375\nsamples = 5\nvalue = [6, 0, 0, 0, 2]", fillcolor="#eeab7b"] ;
161 -> 169 ;
170 [label="gini = 0.0\nsamples = 1\nvalue = [1, 0, 0, 0, 0]", fillcolor="#e58139"] ;
169 -> 170 ;
171 [label="floating <= 5380.0\ngini = 0.408\nsamples = 4\nvalue = [5, 0, 0, 0, 2]", fillcolor="#efb388"] ;
169 -> 171 ;
172 [label="floating <= 5175.0\ngini = 0.5\nsamples = 3\nvalue = [2, 0, 0, 0, 2]", fillcolor="#ffffff"] ;
171 -> 172 ;
173 [label="gini = 0.0\nsamples = 1\nvalue = [2, 0, 0, 0, 0]", fillcolor="#e58139"] ;
172 -> 173 ;
174 [label="gini = 0.0\nsamples = 2\nvalue = [0, 0, 0, 0, 2]", fillcolor="#e539c0"] ;
172 -> 174 ;
175 [label="gini = 0.0\nsamples = 1\nvalue = [3, 0, 0, 0, 0]", fillcolor="#e58139"] ;
171 -> 175 ;
176 [label="resident <= 415.0\ngini = 0.469\nsamples = 6\nvalue = [0, 0, 3, 5, 0]", fillcolor="#b1b0f5"] ;
158 -> 176 ;
177 [label="gini = 0.0\nsamples = 3\nvalue = [0, 0, 0, 5, 0]", fillcolor="#3c39e5"] ;
176 -> 177 ;
178 [label="gini = 0.0\nsamples = 3\nvalue = [0, 0, 3, 0, 0]", fillcolor="#39e5c5"] ;
176 -> 178 ;
179 [label="floating <= 2855.0\ngini = 0.524\nsamples = 50\nvalue = [50, 24, 7, 0, 0]", fillcolor="#f3c6a5"] ;
1 -> 179 ;
180 [label="resident <= 15.0\ngini = 0.268\nsamples = 22\nvalue = [28, 3, 2, 0, 0]", fillcolor="#e9965a"] ;
179 -> 180 ;
181 [label="floating <= 275.0\ngini = 0.5\nsamples = 3\nvalue = [2, 2, 0, 0, 0]", fillcolor="#ffffff"] ;
180 -> 181 ;
182 [label="gini = 0.0\nsamples = 1\nvalue = [2, 0, 0, 0, 0]", fillcolor="#e58139"] ;
181 -> 182 ;
183 [label="gini = 0.0\nsamples = 2\nvalue = [0, 2, 0, 0, 0]", fillcolor="#7be539"] ;
181 -> 183 ;
184 [label="floating <= 660.0\ngini = 0.19\nsamples = 19\nvalue = [26, 1, 2, 0, 0]", fillcolor="#e88f4f"] ;
180 -> 184 ;
185 [label="resident <= 50.0\ngini = 0.43\nsamples = 7\nvalue = [8, 1, 2, 0, 0]", fillcolor="#eeab7b"] ;
184 -> 185 ;
186 [label="floating <= 550.0\ngini = 0.198\nsamples = 6\nvalue = [8, 1, 0, 0, 0]", fillcolor="#e89152"] ;
185 -> 186 ;
187 [label="gini = 0.0\nsamples = 5\nvalue = [8, 0, 0, 0, 0]", fillcolor="#e58139"] ;
186 -> 187 ;
188 [label="gini = 0.0\nsamples = 1\nvalue = [0, 1, 0, 0, 0]", fillcolor="#7be539"] ;
186 -> 188 ;
189 [label="gini = 0.0\nsamples = 1\nvalue = [0, 0, 2, 0, 0]", fillcolor="#39e5c5"] ;
185 -> 189 ;
190 [label="gini = 0.0\nsamples = 12\nvalue = [18, 0, 0, 0, 0]", fillcolor="#e58139"] ;
184 -> 190 ;
191 [label="resident <= 275.0\ngini = 0.588\nsamples = 28\nvalue = [22, 21, 5, 0, 0]", fillcolor="#fefaf8"] ;
179 -> 191 ;
192 [label="resident <= 190.0\ngini = 0.551\nsamples = 20\nvalue = [8, 20, 5, 0, 0]", fillcolor="#c0f3a0"] ;
191 -> 192 ;
193 [label="resident <= 155.0\ngini = 0.375\nsamples = 3\nvalue = [1, 0, 3, 0, 0]", fillcolor="#7beed8"] ;
192 -> 193 ;
194 [label="gini = 0.0\nsamples = 1\nvalue = [1, 0, 0, 0, 0]", fillcolor="#e58139"] ;
193 -> 194 ;
195 [label="gini = 0.0\nsamples = 2\nvalue = [0, 0, 3, 0, 0]", fillcolor="#39e5c5"] ;
193 -> 195 ;
196 [label="floating <= 4895.0\ngini = 0.461\nsamples = 17\nvalue = [7, 20, 2, 0, 0]", fillcolor="#b1f08a"] ;
192 -> 196 ;
197 [label="floating <= 3985.0\ngini = 0.565\nsamples = 14\nvalue = [7, 11, 2, 0, 0]", fillcolor="#d6f7c2"] ;
196 -> 197 ;
198 [label="floating <= 3825.0\ngini = 0.245\nsamples = 5\nvalue = [1, 6, 0, 0, 0]", fillcolor="#91e95a"] ;
197 -> 198 ;
199 [label="CCTV_num <= 4.0\ngini = 0.444\nsamples = 3\nvalue = [1, 2, 0, 0, 0]", fillcolor="#bdf29c"] ;
198 -> 199 ;
200 [label="gini = 0.0\nsamples = 2\nvalue = [0, 2, 0, 0, 0]", fillcolor="#7be539"] ;
199 -> 200 ;
201 [label="gini = 0.0\nsamples = 1\nvalue = [1, 0, 0, 0, 0]", fillcolor="#e58139"] ;
199 -> 201 ;
202 [label="gini = 0.0\nsamples = 2\nvalue = [0, 4, 0, 0, 0]", fillcolor="#7be539"] ;
198 -> 202 ;
203 [label="CCTV_num <= 5.5\ngini = 0.615\nsamples = 9\nvalue = [6, 5, 2, 0, 0]", fillcolor="#fcefe6"] ;
197 -> 203 ;
204 [label="floating <= 4205.0\ngini = 0.496\nsamples = 8\nvalue = [6, 5, 0, 0, 0]", fillcolor="#fbeade"] ;
203 -> 204 ;
205 [label="gini = 0.0\nsamples = 2\nvalue = [4, 0, 0, 0, 0]", fillcolor="#e58139"] ;
204 -> 205 ;
206 [label="CCTV_num <= 3.5\ngini = 0.408\nsamples = 6\nvalue = [2, 5, 0, 0, 0]", fillcolor="#b0ef88"] ;
204 -> 206 ;
207 [label="floating <= 4655.0\ngini = 0.5\nsamples = 2\nvalue = [1, 1, 0, 0, 0]", fillcolor="#ffffff"] ;
206 -> 207 ;
208 [label="gini = 0.0\nsamples = 1\nvalue = [1, 0, 0, 0, 0]", fillcolor="#e58139"] ;
207 -> 208 ;
209 [label="gini = 0.0\nsamples = 1\nvalue = [0, 1, 0, 0, 0]", fillcolor="#7be539"] ;
207 -> 209 ;
210 [label="resident <= 245.0\ngini = 0.32\nsamples = 4\nvalue = [1, 4, 0, 0, 0]", fillcolor="#9cec6a"] ;
206 -> 210 ;
211 [label="gini = 0.0\nsamples = 2\nvalue = [0, 3, 0, 0, 0]", fillcolor="#7be539"] ;
210 -> 211 ;
212 [label="floating <= 4635.0\ngini = 0.5\nsamples = 2\nvalue = [1, 1, 0, 0, 0]", fillcolor="#ffffff"] ;
210 -> 212 ;
213 [label="gini = 0.0\nsamples = 1\nvalue = [0, 1, 0, 0, 0]", fillcolor="#7be539"] ;
212 -> 213 ;
214 [label="gini = 0.0\nsamples = 1\nvalue = [1, 0, 0, 0, 0]", fillcolor="#e58139"] ;
212 -> 214 ;
215 [label="gini = 0.0\nsamples = 1\nvalue = [0, 0, 2, 0, 0]", fillcolor="#39e5c5"] ;
203 -> 215 ;
216 [label="gini = 0.0\nsamples = 3\nvalue = [0, 9, 0, 0, 0]", fillcolor="#7be539"] ;
196 -> 216 ;
217 [label="resident <= 355.0\ngini = 0.124\nsamples = 8\nvalue = [14, 1, 0, 0, 0]", fillcolor="#e78a47"] ;
191 -> 217 ;
218 [label="gini = 0.0\nsamples = 6\nvalue = [13, 0, 0, 0, 0]", fillcolor="#e58139"] ;
217 -> 218 ;
219 [label="floating <= 5260.0\ngini = 0.5\nsamples = 2\nvalue = [1, 1, 0, 0, 0]", fillcolor="#ffffff"] ;
217 -> 219 ;
220 [label="gini = 0.0\nsamples = 1\nvalue = [0, 1, 0, 0, 0]", fillcolor="#7be539"] ;
219 -> 220 ;
221 [label="gini = 0.0\nsamples = 1\nvalue = [1, 0, 0, 0, 0]", fillcolor="#e58139"] ;
219 -> 221 ;
222 [label="floating <= 4145.0\ngini = 0.317\nsamples = 48\nvalue = [57, 9, 4, 0, 0]", fillcolor="#eb9c63"] ;
0 -> 222 [labeldistance=2.5, labelangle=-45, headlabel="False"] ;
223 [label="resident <= 25.0\ngini = 0.133\nsamples = 38\nvalue = [52, 4, 0, 0, 0]", fillcolor="#e78b48"] ;
222 -> 223 ;
224 [label="floating <= 785.0\ngini = 0.391\nsamples = 12\nvalue = [11, 4, 0, 0, 0]", fillcolor="#eeaf81"] ;
223 -> 224 ;
225 [label="gini = 0.0\nsamples = 11\nvalue = [11, 0, 0, 0, 0]", fillcolor="#e58139"] ;
224 -> 225 ;
226 [label="gini = 0.0\nsamples = 1\nvalue = [0, 4, 0, 0, 0]", fillcolor="#7be539"] ;
224 -> 226 ;
227 [label="gini = 0.0\nsamples = 26\nvalue = [41, 0, 0, 0, 0]", fillcolor="#e58139"] ;
223 -> 227 ;
228 [label="CCTV_num <= 3.5\ngini = 0.663\nsamples = 10\nvalue = [5, 5, 4, 0, 0]", fillcolor="#ffffff"] ;
222 -> 228 ;
229 [label="CCTV_num <= 1.5\ngini = 0.48\nsamples = 3\nvalue = [0, 3, 2, 0, 0]", fillcolor="#d3f6bd"] ;
228 -> 229 ;
230 [label="gini = 0.0\nsamples = 1\nvalue = [0, 2, 0, 0, 0]", fillcolor="#7be539"] ;
229 -> 230 ;
231 [label="floating <= 4980.0\ngini = 0.444\nsamples = 2\nvalue = [0, 1, 2, 0, 0]", fillcolor="#9cf2e2"] ;
229 -> 231 ;
232 [label="gini = 0.0\nsamples = 1\nvalue = [0, 1, 0, 0, 0]", fillcolor="#7be539"] ;
231 -> 232 ;
233 [label="gini = 0.0\nsamples = 1\nvalue = [0, 0, 2, 0, 0]", fillcolor="#39e5c5"] ;
231 -> 233 ;
234 [label="floating <= 4605.0\ngini = 0.593\nsamples = 7\nvalue = [5, 2, 2, 0, 0]", fillcolor="#f4c9aa"] ;
228 -> 234 ;
235 [label="gini = 0.0\nsamples = 2\nvalue = [0, 2, 0, 0, 0]", fillcolor="#7be539"] ;
234 -> 235 ;
236 [label="police_value <= 1.5\ngini = 0.408\nsamples = 5\nvalue = [5, 0, 2, 0, 0]", fillcolor="#efb388"] ;
234 -> 236 ;
237 [label="gini = 0.0\nsamples = 2\nvalue = [3, 0, 0, 0, 0]", fillcolor="#e58139"] ;
236 -> 237 ;
238 [label="resident <= 300.0\ngini = 0.5\nsamples = 3\nvalue = [2, 0, 2, 0, 0]", fillcolor="#ffffff"] ;
236 -> 238 ;
239 [label="gini = 0.0\nsamples = 1\nvalue = [0, 0, 2, 0, 0]", fillcolor="#39e5c5"] ;
238 -> 239 ;
240 [label="gini = 0.0\nsamples = 2\nvalue = [2, 0, 0, 0, 0]", fillcolor="#e58139"] ;
238 -> 240 ;
}