digraph Tree {
node [shape=box, style="filled, rounded", color="black", fontname=helvetica] ;
edge [fontname=helvetica] ;
0 [label="CCTV_num <= 0.5\ngini = 0.101\nsamples = 71\nvalue = [107, 6]", fillcolor="#e68844"] ;
1 [label="floating <= 6810.0\ngini = 0.147\nsamples = 45\nvalue = [69, 6]", fillcolor="#e78c4a"] ;
0 -> 1 [labeldistance=2.5, labelangle=45, headlabel="True"] ;
2 [label="floating <= 680.0\ngini = 0.104\nsamples = 43\nvalue = [69, 4]", fillcolor="#e78844"] ;
1 -> 2 ;
3 [label="floating <= 665.0\ngini = 0.198\nsamples = 13\nvalue = [16, 2]", fillcolor="#e89152"] ;
2 -> 3 ;
4 [label="gini = 0.0\nsamples = 11\nvalue = [16, 0]", fillcolor="#e58139"] ;
3 -> 4 ;
5 [label="gini = 0.0\nsamples = 2\nvalue = [0, 2]", fillcolor="#399de5"] ;
3 -> 5 ;
6 [label="floating <= 6055.0\ngini = 0.07\nsamples = 30\nvalue = [53, 2]", fillcolor="#e68640"] ;
2 -> 6 ;
7 [label="gini = 0.0\nsamples = 19\nvalue = [35, 0]", fillcolor="#e58139"] ;
6 -> 7 ;
8 [label="resident <= 260.0\ngini = 0.18\nsamples = 11\nvalue = [18, 2]", fillcolor="#e88f4f"] ;
6 -> 8 ;
9 [label="resident <= 240.0\ngini = 0.408\nsamples = 3\nvalue = [5, 2]", fillcolor="#efb388"] ;
8 -> 9 ;
10 [label="gini = 0.0\nsamples = 2\nvalue = [5, 0]", fillcolor="#e58139"] ;
9 -> 10 ;
11 [label="gini = 0.0\nsamples = 1\nvalue = [0, 2]", fillcolor="#399de5"] ;
9 -> 11 ;
12 [label="gini = 0.0\nsamples = 8\nvalue = [13, 0]", fillcolor="#e58139"] ;
8 -> 12 ;
13 [label="gini = 0.0\nsamples = 2\nvalue = [0, 2]", fillcolor="#399de5"] ;
1 -> 13 ;
14 [label="gini = 0.0\nsamples = 26\nvalue = [38, 0]", fillcolor="#e58139"] ;
0 -> 14 [labeldistance=2.5, labelangle=-45, headlabel="False"] ;
}