digraph Tree {
node [shape=box, style="filled, rounded", color="black", fontname=helvetica] ;
edge [fontname=helvetica] ;
0 [label="CCTV_num <= 2.5\ngini = 0.676\nsamples = 414\nvalue = [285, 197, 78, 48, 16, 6]", fillcolor="#fae5d7"] ;
1 [label="police_value <= 0.5\ngini = 0.706\nsamples = 309\nvalue = [180, 159, 61, 43, 16, 6]", fillcolor="#fdf6f1"] ;
0 -> 1 [labeldistance=2.5, labelangle=45, headlabel="True"] ;
2 [label="CCTV_num <= 0.5\ngini = 0.722\nsamples = 273\nvalue = [142, 148, 60, 43, 16, 6]", fillcolor="#fdfefb"] ;
1 -> 2 ;
3 [label="floating <= 630.0\ngini = 0.722\nsamples = 247\nvalue = [131, 135, 56, 43, 11, 6]", fillcolor="#fdfffc"] ;
2 -> 3 ;
4 [label="resident <= 35.0\ngini = 0.589\nsamples = 118\nvalue = [97, 65, 16, 6, 0, 0]", fillcolor="#f8ddca"] ;
3 -> 4 ;
5 [label="floating <= 330.0\ngini = 0.569\nsamples = 68\nvalue = [48, 51, 5, 3, 0, 0]", fillcolor="#fafef5"] ;
4 -> 5 ;
6 [label="floating <= 295.0\ngini = 0.553\nsamples = 66\nvalue = [48, 51, 3, 3, 0, 0]", fillcolor="#fafef5"] ;
5 -> 6 ;
7 [label="floating <= 265.0\ngini = 0.554\nsamples = 64\nvalue = [45, 51, 3, 3, 0, 0]", fillcolor="#f5fcea"] ;
6 -> 7 ;
8 [label="resident <= 15.0\ngini = 0.56\nsamples = 59\nvalue = [45, 43, 3, 3, 0, 0]", fillcolor="#fefaf7"] ;
7 -> 8 ;
9 [label="resident <= 5.0\ngini = 0.605\nsamples = 27\nvalue = [17, 23, 3, 3, 0, 0]", fillcolor="#ebfad6"] ;
8 -> 9 ;
10 [label="floating <= 55.0\ngini = 0.491\nsamples = 11\nvalue = [10, 13, 0, 0, 0, 0]", fillcolor="#e8f9d1"] ;
9 -> 10 ;
11 [label="gini = 0.0\nsamples = 2\nvalue = [0, 4, 0, 0, 0, 0]", fillcolor="#9de539"] ;
10 -> 11 ;
12 [label="floating <= 100.0\ngini = 0.499\nsamples = 9\nvalue = [10, 9, 0, 0, 0, 0]", fillcolor="#fcf2eb"] ;
10 -> 12 ;
13 [label="floating <= 75.0\ngini = 0.444\nsamples = 7\nvalue = [10, 5, 0, 0, 0, 0]", fillcolor="#f2c09c"] ;
12 -> 13 ;
14 [label="floating <= 65.0\ngini = 0.494\nsamples = 4\nvalue = [5, 4, 0, 0, 0, 0]", fillcolor="#fae6d7"] ;
13 -> 14 ;
15 [label="gini = 0.0\nsamples = 1\nvalue = [2, 0, 0, 0, 0, 0]", fillcolor="#e58139"] ;
14 -> 15 ;
16 [label="gini = 0.49\nsamples = 3\nvalue = [3, 4, 0, 0, 0, 0]", fillcolor="#e6f8ce"] ;
14 -> 16 ;
17 [label="floating <= 85.0\ngini = 0.278\nsamples = 3\nvalue = [5, 1, 0, 0, 0, 0]", fillcolor="#ea9a61"] ;
13 -> 17 ;
18 [label="gini = 0.0\nsamples = 1\nvalue = [2, 0, 0, 0, 0, 0]", fillcolor="#e58139"] ;
17 -> 18 ;
19 [label="gini = 0.375\nsamples = 2\nvalue = [3, 1, 0, 0, 0, 0]", fillcolor="#eeab7b"] ;
17 -> 19 ;
20 [label="gini = 0.0\nsamples = 2\nvalue = [0, 4, 0, 0, 0, 0]", fillcolor="#9de539"] ;
12 -> 20 ;
21 [label="floating <= 45.0\ngini = 0.684\nsamples = 16\nvalue = [7, 10, 3, 3, 0, 0]", fillcolor="#edfada"] ;
9 -> 21 ;
22 [label="gini = 0.0\nsamples = 2\nvalue = [0, 5, 0, 0, 0, 0]", fillcolor="#9de539"] ;
21 -> 22 ;
23 [label="floating <= 85.0\ngini = 0.716\nsamples = 14\nvalue = [7, 5, 3, 3, 0, 0]", fillcolor="#fbece1"] ;
21 -> 23 ;
24 [label="gini = 0.0\nsamples = 3\nvalue = [3, 0, 0, 0, 0, 0]", fillcolor="#e58139"] ;
23 -> 24 ;
25 [label="floating <= 105.0\ngini = 0.738\nsamples = 11\nvalue = [4, 5, 3, 3, 0, 0]", fillcolor="#f6fded"] ;
23 -> 25 ;
26 [label="floating <= 95.0\ngini = 0.612\nsamples = 5\nvalue = [0, 1, 3, 3, 0, 0]", fillcolor="#ffffff"] ;
25 -> 26 ;
27 [label="gini = 0.375\nsamples = 3\nvalue = [0, 1, 0, 3, 0, 0]", fillcolor="#7bbeee"] ;
26 -> 27 ;
28 [label="gini = 0.0\nsamples = 2\nvalue = [0, 0, 3, 0, 0, 0]", fillcolor="#39e581"] ;
26 -> 28 ;
29 [label="floating <= 200.0\ngini = 0.5\nsamples = 6\nvalue = [4, 4, 0, 0, 0, 0]", fillcolor="#ffffff"] ;
25 -> 29 ;
30 [label="floating <= 135.0\ngini = 0.32\nsamples = 3\nvalue = [1, 4, 0, 0, 0, 0]", fillcolor="#b6ec6a"] ;
29 -> 30 ;
31 [label="gini = 0.0\nsamples = 1\nvalue = [1, 0, 0, 0, 0, 0]", fillcolor="#e58139"] ;
30 -> 31 ;
32 [label="gini = 0.0\nsamples = 2\nvalue = [0, 4, 0, 0, 0, 0]", fillcolor="#9de539"] ;
30 -> 32 ;
33 [label="gini = 0.0\nsamples = 3\nvalue = [3, 0, 0, 0, 0, 0]", fillcolor="#e58139"] ;
29 -> 33 ;
34 [label="resident <= 25.0\ngini = 0.486\nsamples = 32\nvalue = [28, 20, 0, 0, 0, 0]", fillcolor="#f8dbc6"] ;
8 -> 34 ;
35 [label="floating <= 205.0\ngini = 0.494\nsamples = 17\nvalue = [15, 12, 0, 0, 0, 0]", fillcolor="#fae6d7"] ;
34 -> 35 ;
36 [label="floating <= 60.0\ngini = 0.499\nsamples = 14\nvalue = [10, 11, 0, 0, 0, 0]", fillcolor="#f6fded"] ;
35 -> 36 ;
37 [label="gini = 0.0\nsamples = 1\nvalue = [2, 0, 0, 0, 0, 0]", fillcolor="#e58139"] ;
36 -> 37 ;
38 [label="floating <= 75.0\ngini = 0.488\nsamples = 13\nvalue = [8, 11, 0, 0, 0, 0]", fillcolor="#e4f8c9"] ;
36 -> 38 ;
39 [label="gini = 0.0\nsamples = 1\nvalue = [0, 2, 0, 0, 0, 0]", fillcolor="#9de539"] ;
38 -> 39 ;
40 [label="floating <= 175.0\ngini = 0.498\nsamples = 12\nvalue = [8, 9, 0, 0, 0, 0]", fillcolor="#f4fce9"] ;
38 -> 40 ;
41 [label="floating <= 105.0\ngini = 0.494\nsamples = 7\nvalue = [5, 4, 0, 0, 0, 0]", fillcolor="#fae6d7"] ;
40 -> 41 ;
42 [label="floating <= 90.0\ngini = 0.49\nsamples = 5\nvalue = [3, 4, 0, 0, 0, 0]", fillcolor="#e6f8ce"] ;
41 -> 42 ;
43 [label="gini = 0.5\nsamples = 3\nvalue = [2, 2, 0, 0, 0, 0]", fillcolor="#ffffff"] ;
42 -> 43 ;
44 [label="gini = 0.444\nsamples = 2\nvalue = [1, 2, 0, 0, 0, 0]", fillcolor="#cef29c"] ;
42 -> 44 ;
45 [label="gini = 0.0\nsamples = 2\nvalue = [2, 0, 0, 0, 0, 0]", fillcolor="#e58139"] ;
41 -> 45 ;
46 [label="floating <= 195.0\ngini = 0.469\nsamples = 5\nvalue = [3, 5, 0, 0, 0, 0]", fillcolor="#d8f5b0"] ;
40 -> 46 ;
47 [label="gini = 0.375\nsamples = 3\nvalue = [1, 3, 0, 0, 0, 0]", fillcolor="#beee7b"] ;
46 -> 47 ;
48 [label="gini = 0.5\nsamples = 2\nvalue = [2, 2, 0, 0, 0, 0]", fillcolor="#ffffff"] ;
46 -> 48 ;
49 [label="floating <= 250.0\ngini = 0.278\nsamples = 3\nvalue = [5, 1, 0, 0, 0, 0]", fillcolor="#ea9a61"] ;
35 -> 49 ;
50 [label="gini = 0.0\nsamples = 2\nvalue = [5, 0, 0, 0, 0, 0]", fillcolor="#e58139"] ;
49 -> 50 ;
51 [label="gini = 0.0\nsamples = 1\nvalue = [0, 1, 0, 0, 0, 0]", fillcolor="#9de539"] ;
49 -> 51 ;
52 [label="floating <= 195.0\ngini = 0.472\nsamples = 15\nvalue = [13, 8, 0, 0, 0, 0]", fillcolor="#f5cfb3"] ;
34 -> 52 ;
53 [label="floating <= 95.0\ngini = 0.401\nsamples = 13\nvalue = [13, 5, 0, 0, 0, 0]", fillcolor="#efb185"] ;
52 -> 53 ;
54 [label="floating <= 55.0\ngini = 0.444\nsamples = 3\nvalue = [1, 2, 0, 0, 0, 0]", fillcolor="#cef29c"] ;
53 -> 54 ;
55 [label="gini = 0.0\nsamples = 1\nvalue = [1, 0, 0, 0, 0, 0]", fillcolor="#e58139"] ;
54 -> 55 ;
56 [label="gini = 0.0\nsamples = 2\nvalue = [0, 2, 0, 0, 0, 0]", fillcolor="#9de539"] ;
54 -> 56 ;
57 [label="floating <= 160.0\ngini = 0.32\nsamples = 10\nvalue = [12, 3, 0, 0, 0, 0]", fillcolor="#eca06a"] ;
53 -> 57 ;
58 [label="gini = 0.0\nsamples = 5\nvalue = [7, 0, 0, 0, 0, 0]", fillcolor="#e58139"] ;
57 -> 58 ;
59 [label="floating <= 185.0\ngini = 0.469\nsamples = 5\nvalue = [5, 3, 0, 0, 0, 0]", fillcolor="#f5cdb0"] ;
57 -> 59 ;
60 [label="floating <= 175.0\ngini = 0.49\nsamples = 4\nvalue = [4, 3, 0, 0, 0, 0]", fillcolor="#f8e0ce"] ;
59 -> 60 ;
61 [label="gini = 0.48\nsamples = 2\nvalue = [3, 2, 0, 0, 0, 0]", fillcolor="#f6d5bd"] ;
60 -> 61 ;
62 [label="gini = 0.5\nsamples = 2\nvalue = [1, 1, 0, 0, 0, 0]", fillcolor="#ffffff"] ;
60 -> 62 ;
63 [label="gini = 0.0\nsamples = 1\nvalue = [1, 0, 0, 0, 0, 0]", fillcolor="#e58139"] ;
59 -> 63 ;
64 [label="gini = 0.0\nsamples = 2\nvalue = [0, 3, 0, 0, 0, 0]", fillcolor="#9de539"] ;
52 -> 64 ;
65 [label="gini = 0.0\nsamples = 5\nvalue = [0, 8, 0, 0, 0, 0]", fillcolor="#9de539"] ;
7 -> 65 ;
66 [label="gini = 0.0\nsamples = 2\nvalue = [3, 0, 0, 0, 0, 0]", fillcolor="#e58139"] ;
6 -> 66 ;
67 [label="gini = 0.0\nsamples = 2\nvalue = [0, 0, 2, 0, 0, 0]", fillcolor="#39e581"] ;
5 -> 67 ;
68 [label="floating <= 185.0\ngini = 0.54\nsamples = 50\nvalue = [49, 14, 11, 3, 0, 0]", fillcolor="#f1b991"] ;
4 -> 68 ;
69 [label="resident <= 45.0\ngini = 0.661\nsamples = 20\nvalue = [14, 8, 4, 3, 0, 0]", fillcolor="#f8dbc6"] ;
68 -> 69 ;
70 [label="floating <= 175.0\ngini = 0.355\nsamples = 9\nvalue = [10, 0, 3, 0, 0, 0]", fillcolor="#eda774"] ;
69 -> 70 ;
71 [label="floating <= 150.0\ngini = 0.198\nsamples = 6\nvalue = [8, 0, 1, 0, 0, 0]", fillcolor="#e89152"] ;
70 -> 71 ;
72 [label="gini = 0.0\nsamples = 2\nvalue = [3, 0, 0, 0, 0, 0]", fillcolor="#e58139"] ;
71 -> 72 ;
73 [label="floating <= 165.0\ngini = 0.278\nsamples = 4\nvalue = [5, 0, 1, 0, 0, 0]", fillcolor="#ea9a61"] ;
71 -> 73 ;
74 [label="gini = 0.375\nsamples = 3\nvalue = [3, 0, 1, 0, 0, 0]", fillcolor="#eeab7b"] ;
73 -> 74 ;
75 [label="gini = 0.0\nsamples = 1\nvalue = [2, 0, 0, 0, 0, 0]", fillcolor="#e58139"] ;
73 -> 75 ;
76 [label="gini = 0.5\nsamples = 3\nvalue = [2, 0, 2, 0, 0, 0]", fillcolor="#ffffff"] ;
70 -> 76 ;
77 [label="resident <= 55.0\ngini = 0.648\nsamples = 11\nvalue = [4, 8, 1, 3, 0, 0]", fillcolor="#def6bd"] ;
69 -> 77 ;
78 [label="floating <= 160.0\ngini = 0.62\nsamples = 6\nvalue = [2, 5, 0, 3, 0, 0]", fillcolor="#e3f8c6"] ;
77 -> 78 ;
79 [label="floating <= 145.0\ngini = 0.48\nsamples = 4\nvalue = [2, 0, 0, 3, 0, 0]", fillcolor="#bddef6"] ;
78 -> 79 ;
80 [label="gini = 0.0\nsamples = 2\nvalue = [2, 0, 0, 0, 0, 0]", fillcolor="#e58139"] ;
79 -> 80 ;
81 [label="gini = 0.0\nsamples = 2\nvalue = [0, 0, 0, 3, 0, 0]", fillcolor="#399de5"] ;
79 -> 81 ;
82 [label="gini = 0.0\nsamples = 2\nvalue = [0, 5, 0, 0, 0, 0]", fillcolor="#9de539"] ;
78 -> 82 ;
83 [label="floating <= 175.0\ngini = 0.611\nsamples = 5\nvalue = [2, 3, 1, 0, 0, 0]", fillcolor="#e6f8ce"] ;
77 -> 83 ;
84 [label="floating <= 155.0\ngini = 0.444\nsamples = 3\nvalue = [2, 1, 0, 0, 0, 0]", fillcolor="#f2c09c"] ;
83 -> 84 ;
85 [label="gini = 0.0\nsamples = 1\nvalue = [1, 0, 0, 0, 0, 0]", fillcolor="#e58139"] ;
84 -> 85 ;
86 [label="floating <= 165.0\ngini = 0.5\nsamples = 2\nvalue = [1, 1, 0, 0, 0, 0]", fillcolor="#ffffff"] ;
84 -> 86 ;
87 [label="gini = 0.0\nsamples = 1\nvalue = [0, 1, 0, 0, 0, 0]", fillcolor="#9de539"] ;
86 -> 87 ;
88 [label="gini = 0.0\nsamples = 1\nvalue = [1, 0, 0, 0, 0, 0]", fillcolor="#e58139"] ;
86 -> 88 ;
89 [label="gini = 0.444\nsamples = 2\nvalue = [0, 2, 1, 0, 0, 0]", fillcolor="#cef29c"] ;
83 -> 89 ;
90 [label="floating <= 290.0\ngini = 0.431\nsamples = 30\nvalue = [35, 6, 7, 0, 0, 0]", fillcolor="#eda978"] ;
68 -> 90 ;
91 [label="resident <= 60.0\ngini = 0.219\nsamples = 16\nvalue = [21, 3, 0, 0, 0, 0]", fillcolor="#e99355"] ;
90 -> 91 ;
92 [label="floating <= 205.0\ngini = 0.245\nsamples = 13\nvalue = [18, 3, 0, 0, 0, 0]", fillcolor="#e9965a"] ;
91 -> 92 ;
93 [label="gini = 0.0\nsamples = 6\nvalue = [12, 0, 0, 0, 0, 0]", fillcolor="#e58139"] ;
92 -> 93 ;
94 [label="floating <= 245.0\ngini = 0.444\nsamples = 7\nvalue = [6, 3, 0, 0, 0, 0]", fillcolor="#f2c09c"] ;
92 -> 94 ;
95 [label="resident <= 45.0\ngini = 0.49\nsamples = 5\nvalue = [4, 3, 0, 0, 0, 0]", fillcolor="#f8e0ce"] ;
94 -> 95 ;
96 [label="floating <= 215.0\ngini = 0.5\nsamples = 3\nvalue = [2, 2, 0, 0, 0, 0]", fillcolor="#ffffff"] ;
95 -> 96 ;
97 [label="gini = 0.0\nsamples = 2\nvalue = [0, 2, 0, 0, 0, 0]", fillcolor="#9de539"] ;
96 -> 97 ;
98 [label="gini = 0.0\nsamples = 1\nvalue = [2, 0, 0, 0, 0, 0]", fillcolor="#e58139"] ;
96 -> 98 ;
99 [label="floating <= 225.0\ngini = 0.444\nsamples = 2\nvalue = [2, 1, 0, 0, 0, 0]", fillcolor="#f2c09c"] ;
95 -> 99 ;
100 [label="gini = 0.0\nsamples = 1\nvalue = [2, 0, 0, 0, 0, 0]", fillcolor="#e58139"] ;
99 -> 100 ;
101 [label="gini = 0.0\nsamples = 1\nvalue = [0, 1, 0, 0, 0, 0]", fillcolor="#9de539"] ;
99 -> 101 ;
102 [label="gini = 0.0\nsamples = 2\nvalue = [2, 0, 0, 0, 0, 0]", fillcolor="#e58139"] ;
94 -> 102 ;
103 [label="gini = 0.0\nsamples = 3\nvalue = [3, 0, 0, 0, 0, 0]", fillcolor="#e58139"] ;
91 -> 103 ;
104 [label="resident <= 55.0\ngini = 0.559\nsamples = 14\nvalue = [14, 3, 7, 0, 0, 0]", fillcolor="#f4cbad"] ;
90 -> 104 ;
105 [label="resident <= 45.0\ngini = 0.245\nsamples = 4\nvalue = [1, 0, 6, 0, 0, 0]", fillcolor="#5ae996"] ;
104 -> 105 ;
106 [label="gini = 0.0\nsamples = 1\nvalue = [0, 0, 2, 0, 0, 0]", fillcolor="#39e581"] ;
105 -> 106 ;
107 [label="floating <= 360.0\ngini = 0.32\nsamples = 3\nvalue = [1, 0, 4, 0, 0, 0]", fillcolor="#6aeca0"] ;
105 -> 107 ;
108 [label="gini = 0.0\nsamples = 2\nvalue = [0, 0, 4, 0, 0, 0]", fillcolor="#39e581"] ;
107 -> 108 ;
109 [label="gini = 0.0\nsamples = 1\nvalue = [1, 0, 0, 0, 0, 0]", fillcolor="#e58139"] ;
107 -> 109 ;
110 [label="floating <= 375.0\ngini = 0.381\nsamples = 10\nvalue = [13, 3, 1, 0, 0, 0]", fillcolor="#eca572"] ;
104 -> 110 ;
111 [label="resident <= 85.0\ngini = 0.571\nsamples = 5\nvalue = [4, 2, 1, 0, 0, 0]", fillcolor="#f5cdb0"] ;
110 -> 111 ;
112 [label="resident <= 70.0\ngini = 0.444\nsamples = 4\nvalue = [4, 2, 0, 0, 0, 0]", fillcolor="#f2c09c"] ;
111 -> 112 ;
113 [label="floating <= 320.0\ngini = 0.444\nsamples = 2\nvalue = [1, 2, 0, 0, 0, 0]", fillcolor="#cef29c"] ;
112 -> 113 ;
114 [label="gini = 0.0\nsamples = 1\nvalue = [1, 0, 0, 0, 0, 0]", fillcolor="#e58139"] ;
113 -> 114 ;
115 [label="gini = 0.0\nsamples = 1\nvalue = [0, 2, 0, 0, 0, 0]", fillcolor="#9de539"] ;
113 -> 115 ;
116 [label="gini = 0.0\nsamples = 2\nvalue = [3, 0, 0, 0, 0, 0]", fillcolor="#e58139"] ;
112 -> 116 ;
117 [label="gini = 0.0\nsamples = 1\nvalue = [0, 0, 1, 0, 0, 0]", fillcolor="#39e581"] ;
111 -> 117 ;
118 [label="floating <= 500.0\ngini = 0.18\nsamples = 5\nvalue = [9, 1, 0, 0, 0, 0]", fillcolor="#e88f4f"] ;
110 -> 118 ;
119 [label="gini = 0.0\nsamples = 3\nvalue = [6, 0, 0, 0, 0, 0]", fillcolor="#e58139"] ;
118 -> 119 ;
120 [label="resident <= 115.0\ngini = 0.375\nsamples = 2\nvalue = [3, 1, 0, 0, 0, 0]", fillcolor="#eeab7b"] ;
118 -> 120 ;
121 [label="gini = 0.0\nsamples = 1\nvalue = [3, 0, 0, 0, 0, 0]", fillcolor="#e58139"] ;
120 -> 121 ;
122 [label="gini = 0.0\nsamples = 1\nvalue = [0, 1, 0, 0, 0, 0]", fillcolor="#9de539"] ;
120 -> 122 ;
123 [label="floating <= 1845.0\ngini = 0.766\nsamples = 129\nvalue = [34, 70, 40, 37, 11, 6]", fillcolor="#ecfad9"] ;
3 -> 123 ;
124 [label="floating <= 1625.0\ngini = 0.759\nsamples = 86\nvalue = [21, 48, 33, 12, 11, 6]", fillcolor="#f0fbe1"] ;
123 -> 124 ;
125 [label="floating <= 1530.0\ngini = 0.769\nsamples = 57\nvalue = [16, 27, 25, 10, 11, 0]", fillcolor="#fcfef9"] ;
124 -> 125 ;
126 [label="resident <= 175.0\ngini = 0.752\nsamples = 47\nvalue = [12, 27, 17, 6, 11, 0]", fillcolor="#edfadc"] ;
125 -> 126 ;
127 [label="floating <= 690.0\ngini = 0.565\nsamples = 16\nvalue = [2, 13, 11, 0, 0, 0]", fillcolor="#f2fce5"] ;
126 -> 127 ;
128 [label="resident <= 70.0\ngini = 0.529\nsamples = 6\nvalue = [2, 7, 2, 0, 0, 0]", fillcolor="#c9f191"] ;
127 -> 128 ;
129 [label="gini = 0.0\nsamples = 1\nvalue = [2, 0, 0, 0, 0, 0]", fillcolor="#e58139"] ;
128 -> 129 ;
130 [label="resident <= 100.0\ngini = 0.346\nsamples = 5\nvalue = [0, 7, 2, 0, 0, 0]", fillcolor="#b9ec72"] ;
128 -> 130 ;
131 [label="gini = 0.0\nsamples = 2\nvalue = [0, 4, 0, 0, 0, 0]", fillcolor="#9de539"] ;
130 -> 131 ;
132 [label="floating <= 650.0\ngini = 0.48\nsamples = 3\nvalue = [0, 3, 2, 0, 0, 0]", fillcolor="#def6bd"] ;
130 -> 132 ;
133 [label="gini = 0.0\nsamples = 2\nvalue = [0, 0, 2, 0, 0, 0]", fillcolor="#39e581"] ;
132 -> 133 ;
134 [label="gini = 0.0\nsamples = 1\nvalue = [0, 3, 0, 0, 0, 0]", fillcolor="#9de539"] ;
132 -> 134 ;
135 [label="floating <= 1125.0\ngini = 0.48\nsamples = 10\nvalue = [0, 6, 9, 0, 0, 0]", fillcolor="#bdf6d5"] ;
127 -> 135 ;
136 [label="gini = 0.0\nsamples = 4\nvalue = [0, 0, 6, 0, 0, 0]", fillcolor="#39e581"] ;
135 -> 136 ;
137 [label="floating <= 1340.0\ngini = 0.444\nsamples = 6\nvalue = [0, 6, 3, 0, 0, 0]", fillcolor="#cef29c"] ;
135 -> 137 ;
138 [label="gini = 0.0\nsamples = 3\nvalue = [0, 5, 0, 0, 0, 0]", fillcolor="#9de539"] ;
137 -> 138 ;
139 [label="resident <= 160.0\ngini = 0.375\nsamples = 3\nvalue = [0, 1, 3, 0, 0, 0]", fillcolor="#7beeab"] ;
137 -> 139 ;
140 [label="gini = 0.0\nsamples = 1\nvalue = [0, 1, 0, 0, 0, 0]", fillcolor="#9de539"] ;
139 -> 140 ;
141 [label="gini = 0.0\nsamples = 2\nvalue = [0, 0, 3, 0, 0, 0]", fillcolor="#39e581"] ;
139 -> 141 ;
142 [label="resident <= 250.0\ngini = 0.779\nsamples = 31\nvalue = [10, 14, 6, 6, 11, 0]", fillcolor="#f7fdef"] ;
126 -> 142 ;
143 [label="floating <= 1515.0\ngini = 0.727\nsamples = 21\nvalue = [8, 6, 0, 5, 11, 0]", fillcolor="#eee4fb"] ;
142 -> 143 ;
144 [label="resident <= 210.0\ngini = 0.7\nsamples = 19\nvalue = [8, 3, 0, 5, 11, 0]", fillcolor="#ebe0fb"] ;
143 -> 144 ;
145 [label="floating <= 1220.0\ngini = 0.512\nsamples = 6\nvalue = [7, 1, 0, 0, 3, 0]", fillcolor="#f2c09c"] ;
144 -> 145 ;
146 [label="resident <= 185.0\ngini = 0.56\nsamples = 4\nvalue = [1, 1, 0, 0, 3, 0]", fillcolor="#c09cf2"] ;
145 -> 146 ;
147 [label="floating <= 915.0\ngini = 0.5\nsamples = 2\nvalue = [1, 1, 0, 0, 0, 0]", fillcolor="#ffffff"] ;
146 -> 147 ;
148 [label="gini = 0.0\nsamples = 1\nvalue = [0, 1, 0, 0, 0, 0]", fillcolor="#9de539"] ;
147 -> 148 ;
149 [label="gini = 0.0\nsamples = 1\nvalue = [1, 0, 0, 0, 0, 0]", fillcolor="#e58139"] ;
147 -> 149 ;
150 [label="gini = 0.0\nsamples = 2\nvalue = [0, 0, 0, 0, 3, 0]", fillcolor="#8139e5"] ;
146 -> 150 ;
151 [label="gini = 0.0\nsamples = 2\nvalue = [6, 0, 0, 0, 0, 0]", fillcolor="#e58139"] ;
145 -> 151 ;
152 [label="resident <= 225.0\ngini = 0.633\nsamples = 13\nvalue = [1, 2, 0, 5, 8, 0]", fillcolor="#ddc9f8"] ;
144 -> 152 ;
153 [label="floating <= 1180.0\ngini = 0.5\nsamples = 2\nvalue = [0, 2, 0, 2, 0, 0]", fillcolor="#ffffff"] ;
152 -> 153 ;
154 [label="gini = 0.0\nsamples = 1\nvalue = [0, 0, 0, 2, 0, 0]", fillcolor="#399de5"] ;
153 -> 154 ;
155 [label="gini = 0.0\nsamples = 1\nvalue = [0, 2, 0, 0, 0, 0]", fillcolor="#9de539"] ;
153 -> 155 ;
156 [label="resident <= 235.0\ngini = 0.486\nsamples = 11\nvalue = [1, 0, 0, 3, 8, 0]", fillcolor="#b991f1"] ;
152 -> 156 ;
157 [label="gini = 0.0\nsamples = 4\nvalue = [0, 0, 0, 0, 5, 0]", fillcolor="#8139e5"] ;
156 -> 157 ;
158 [label="floating <= 1380.0\ngini = 0.612\nsamples = 7\nvalue = [1, 0, 0, 3, 3, 0]", fillcolor="#ffffff"] ;
156 -> 158 ;
159 [label="gini = 0.0\nsamples = 3\nvalue = [0, 0, 0, 3, 0, 0]", fillcolor="#399de5"] ;
158 -> 159 ;
160 [label="floating <= 1485.0\ngini = 0.375\nsamples = 4\nvalue = [1, 0, 0, 0, 3, 0]", fillcolor="#ab7bee"] ;
158 -> 160 ;
161 [label="gini = 0.0\nsamples = 3\nvalue = [0, 0, 0, 0, 3, 0]", fillcolor="#8139e5"] ;
160 -> 161 ;
162 [label="gini = 0.0\nsamples = 1\nvalue = [1, 0, 0, 0, 0, 0]", fillcolor="#e58139"] ;
160 -> 162 ;
163 [label="gini = 0.0\nsamples = 2\nvalue = [0, 3, 0, 0, 0, 0]", fillcolor="#9de539"] ;
143 -> 163 ;
164 [label="floating <= 1395.0\ngini = 0.637\nsamples = 10\nvalue = [2, 8, 6, 1, 0, 0]", fillcolor="#edfadb"] ;
142 -> 164 ;
165 [label="floating <= 1250.0\ngini = 0.278\nsamples = 4\nvalue = [1, 0, 5, 0, 0, 0]", fillcolor="#61ea9a"] ;
164 -> 165 ;
166 [label="gini = 0.0\nsamples = 1\nvalue = [1, 0, 0, 0, 0, 0]", fillcolor="#e58139"] ;
165 -> 166 ;
167 [label="gini = 0.0\nsamples = 3\nvalue = [0, 0, 5, 0, 0, 0]", fillcolor="#39e581"] ;
165 -> 167 ;
168 [label="floating <= 1470.0\ngini = 0.446\nsamples = 6\nvalue = [1, 8, 1, 1, 0, 0]", fillcolor="#baed74"] ;
164 -> 168 ;
169 [label="resident <= 275.0\ngini = 0.34\nsamples = 5\nvalue = [1, 8, 0, 1, 0, 0]", fillcolor="#b3eb65"] ;
168 -> 169 ;
170 [label="gini = 0.278\nsamples = 3\nvalue = [0, 5, 0, 1, 0, 0]", fillcolor="#b1ea61"] ;
169 -> 170 ;
171 [label="floating <= 1455.0\ngini = 0.375\nsamples = 2\nvalue = [1, 3, 0, 0, 0, 0]", fillcolor="#beee7b"] ;
169 -> 171 ;
172 [label="gini = 0.0\nsamples = 1\nvalue = [1, 0, 0, 0, 0, 0]", fillcolor="#e58139"] ;
171 -> 172 ;
173 [label="gini = 0.0\nsamples = 1\nvalue = [0, 3, 0, 0, 0, 0]", fillcolor="#9de539"] ;
171 -> 173 ;
174 [label="gini = 0.0\nsamples = 1\nvalue = [0, 0, 1, 0, 0, 0]", fillcolor="#39e581"] ;
168 -> 174 ;
175 [label="floating <= 1605.0\ngini = 0.625\nsamples = 10\nvalue = [4, 0, 8, 4, 0, 0]", fillcolor="#bdf6d5"] ;
125 -> 175 ;
176 [label="resident <= 250.0\ngini = 0.32\nsamples = 7\nvalue = [2, 0, 8, 0, 0, 0]", fillcolor="#6aeca0"] ;
175 -> 176 ;
177 [label="gini = 0.0\nsamples = 3\nvalue = [0, 0, 6, 0, 0, 0]", fillcolor="#39e581"] ;
176 -> 177 ;
178 [label="resident <= 320.0\ngini = 0.5\nsamples = 4\nvalue = [2, 0, 2, 0, 0, 0]", fillcolor="#ffffff"] ;
176 -> 178 ;
179 [label="gini = 0.0\nsamples = 2\nvalue = [2, 0, 0, 0, 0, 0]", fillcolor="#e58139"] ;
178 -> 179 ;
180 [label="gini = 0.0\nsamples = 2\nvalue = [0, 0, 2, 0, 0, 0]", fillcolor="#39e581"] ;
178 -> 180 ;
181 [label="resident <= 220.0\ngini = 0.444\nsamples = 3\nvalue = [2, 0, 0, 4, 0, 0]", fillcolor="#9ccef2"] ;
175 -> 181 ;
182 [label="gini = 0.0\nsamples = 1\nvalue = [2, 0, 0, 0, 0, 0]", fillcolor="#e58139"] ;
181 -> 182 ;
183 [label="gini = 0.0\nsamples = 2\nvalue = [0, 0, 0, 4, 0, 0]", fillcolor="#399de5"] ;
181 -> 183 ;
184 [label="floating <= 1695.0\ngini = 0.677\nsamples = 29\nvalue = [5, 21, 8, 2, 0, 6]", fillcolor="#daf5b3"] ;
124 -> 184 ;
185 [label="gini = 0.0\nsamples = 5\nvalue = [0, 11, 0, 0, 0, 0]", fillcolor="#9de539"] ;
184 -> 185 ;
186 [label="resident <= 355.0\ngini = 0.762\nsamples = 24\nvalue = [5, 10, 8, 2, 0, 6]", fillcolor="#f6fdee"] ;
184 -> 186 ;
187 [label="resident <= 310.0\ngini = 0.744\nsamples = 18\nvalue = [4, 8, 2, 2, 0, 6]", fillcolor="#f3fce6"] ;
186 -> 187 ;
188 [label="floating <= 1730.0\ngini = 0.694\nsamples = 11\nvalue = [0, 4, 2, 2, 0, 6]", fillcolor="#fad7eb"] ;
187 -> 188 ;
189 [label="gini = 0.0\nsamples = 3\nvalue = [0, 0, 0, 0, 0, 6]", fillcolor="#e5399d"] ;
188 -> 189 ;
190 [label="floating <= 1810.0\ngini = 0.625\nsamples = 8\nvalue = [0, 4, 2, 2, 0, 0]", fillcolor="#def6bd"] ;
188 -> 190 ;
191 [label="floating <= 1750.0\ngini = 0.444\nsamples = 6\nvalue = [0, 4, 0, 2, 0, 0]", fillcolor="#cef29c"] ;
190 -> 191 ;
192 [label="resident <= 290.0\ngini = 0.444\nsamples = 3\nvalue = [0, 1, 0, 2, 0, 0]", fillcolor="#9ccef2"] ;
191 -> 192 ;
193 [label="gini = 0.0\nsamples = 1\nvalue = [0, 1, 0, 0, 0, 0]", fillcolor="#9de539"] ;
192 -> 193 ;
194 [label="gini = 0.0\nsamples = 2\nvalue = [0, 0, 0, 2, 0, 0]", fillcolor="#399de5"] ;
192 -> 194 ;
195 [label="gini = 0.0\nsamples = 3\nvalue = [0, 3, 0, 0, 0, 0]", fillcolor="#9de539"] ;
191 -> 195 ;
196 [label="gini = 0.0\nsamples = 2\nvalue = [0, 0, 2, 0, 0, 0]", fillcolor="#39e581"] ;
190 -> 196 ;
197 [label="floating <= 1775.0\ngini = 0.5\nsamples = 7\nvalue = [4, 4, 0, 0, 0, 0]", fillcolor="#ffffff"] ;
187 -> 197 ;
198 [label="gini = 0.0\nsamples = 2\nvalue = [3, 0, 0, 0, 0, 0]", fillcolor="#e58139"] ;
197 -> 198 ;
199 [label="floating <= 1785.0\ngini = 0.32\nsamples = 5\nvalue = [1, 4, 0, 0, 0, 0]", fillcolor="#b6ec6a"] ;
197 -> 199 ;
200 [label="resident <= 330.0\ngini = 0.5\nsamples = 2\nvalue = [1, 1, 0, 0, 0, 0]", fillcolor="#ffffff"] ;
199 -> 200 ;
201 [label="gini = 0.0\nsamples = 1\nvalue = [1, 0, 0, 0, 0, 0]", fillcolor="#e58139"] ;
200 -> 201 ;
202 [label="gini = 0.0\nsamples = 1\nvalue = [0, 1, 0, 0, 0, 0]", fillcolor="#9de539"] ;
200 -> 202 ;
203 [label="gini = 0.0\nsamples = 3\nvalue = [0, 3, 0, 0, 0, 0]", fillcolor="#9de539"] ;
199 -> 203 ;
204 [label="resident <= 365.0\ngini = 0.494\nsamples = 6\nvalue = [1, 2, 6, 0, 0, 0]", fillcolor="#8ef0b7"] ;
186 -> 204 ;
205 [label="gini = 0.0\nsamples = 3\nvalue = [0, 0, 6, 0, 0, 0]", fillcolor="#39e581"] ;
204 -> 205 ;
206 [label="resident <= 395.0\ngini = 0.444\nsamples = 3\nvalue = [1, 2, 0, 0, 0, 0]", fillcolor="#cef29c"] ;
204 -> 206 ;
207 [label="gini = 0.0\nsamples = 2\nvalue = [0, 2, 0, 0, 0, 0]", fillcolor="#9de539"] ;
206 -> 207 ;
208 [label="gini = 0.0\nsamples = 1\nvalue = [1, 0, 0, 0, 0, 0]", fillcolor="#e58139"] ;
206 -> 208 ;
209 [label="floating <= 1870.0\ngini = 0.704\nsamples = 43\nvalue = [13, 22, 7, 25, 0, 0]", fillcolor="#f2f8fd"] ;
123 -> 209 ;
210 [label="resident <= 340.0\ngini = 0.165\nsamples = 7\nvalue = [1, 0, 0, 10, 0, 0]", fillcolor="#4da7e8"] ;
209 -> 210 ;
211 [label="gini = 0.0\nsamples = 6\nvalue = [0, 0, 0, 10, 0, 0]", fillcolor="#399de5"] ;
210 -> 211 ;
212 [label="gini = 0.0\nsamples = 1\nvalue = [1, 0, 0, 0, 0, 0]", fillcolor="#e58139"] ;
210 -> 212 ;
213 [label="floating <= 1980.0\ngini = 0.712\nsamples = 36\nvalue = [12, 22, 7, 15, 0, 0]", fillcolor="#eefbdd"] ;
209 -> 213 ;
214 [label="resident <= 370.0\ngini = 0.693\nsamples = 24\nvalue = [5, 13, 5, 15, 0, 0]", fillcolor="#eff7fd"] ;
213 -> 214 ;
215 [label="resident <= 325.0\ngini = 0.583\nsamples = 20\nvalue = [2, 11, 1, 15, 0, 0]", fillcolor="#d3e9f9"] ;
214 -> 215 ;
216 [label="resident <= 215.0\ngini = 0.521\nsamples = 13\nvalue = [2, 5, 0, 12, 0, 0]", fillcolor="#9ccef2"] ;
215 -> 216 ;
217 [label="gini = 0.0\nsamples = 2\nvalue = [0, 0, 0, 3, 0, 0]", fillcolor="#399de5"] ;
216 -> 217 ;
218 [label="floating <= 1965.0\ngini = 0.57\nsamples = 11\nvalue = [2, 5, 0, 9, 0, 0]", fillcolor="#b7dbf6"] ;
216 -> 218 ;
219 [label="resident <= 295.0\ngini = 0.625\nsamples = 8\nvalue = [2, 5, 0, 5, 0, 0]", fillcolor="#ffffff"] ;
218 -> 219 ;
220 [label="resident <= 230.0\ngini = 0.469\nsamples = 6\nvalue = [0, 3, 0, 5, 0, 0]", fillcolor="#b0d8f5"] ;
219 -> 220 ;
221 [label="gini = 0.0\nsamples = 1\nvalue = [0, 2, 0, 0, 0, 0]", fillcolor="#9de539"] ;
220 -> 221 ;
222 [label="floating <= 1945.0\ngini = 0.278\nsamples = 5\nvalue = [0, 1, 0, 5, 0, 0]", fillcolor="#61b1ea"] ;
220 -> 222 ;
223 [label="floating <= 1910.0\ngini = 0.444\nsamples = 3\nvalue = [0, 1, 0, 2, 0, 0]", fillcolor="#9ccef2"] ;
222 -> 223 ;
224 [label="gini = 0.0\nsamples = 2\nvalue = [0, 0, 0, 2, 0, 0]", fillcolor="#399de5"] ;
223 -> 224 ;
225 [label="gini = 0.0\nsamples = 1\nvalue = [0, 1, 0, 0, 0, 0]", fillcolor="#9de539"] ;
223 -> 225 ;
226 [label="gini = 0.0\nsamples = 2\nvalue = [0, 0, 0, 3, 0, 0]", fillcolor="#399de5"] ;
222 -> 226 ;
227 [label="floating <= 1915.0\ngini = 0.5\nsamples = 2\nvalue = [2, 2, 0, 0, 0, 0]", fillcolor="#ffffff"] ;
219 -> 227 ;
228 [label="gini = 0.0\nsamples = 1\nvalue = [0, 2, 0, 0, 0, 0]", fillcolor="#9de539"] ;
227 -> 228 ;
229 [label="gini = 0.0\nsamples = 1\nvalue = [2, 0, 0, 0, 0, 0]", fillcolor="#e58139"] ;
227 -> 229 ;
230 [label="gini = 0.0\nsamples = 3\nvalue = [0, 0, 0, 4, 0, 0]", fillcolor="#399de5"] ;
218 -> 230 ;
231 [label="floating <= 1935.0\ngini = 0.54\nsamples = 7\nvalue = [0, 6, 1, 3, 0, 0]", fillcolor="#d5f4aa"] ;
215 -> 231 ;
232 [label="floating <= 1915.0\ngini = 0.375\nsamples = 5\nvalue = [0, 6, 0, 2, 0, 0]", fillcolor="#beee7b"] ;
231 -> 232 ;
233 [label="gini = 0.0\nsamples = 1\nvalue = [0, 0, 0, 1, 0, 0]", fillcolor="#399de5"] ;
232 -> 233 ;
234 [label="floating <= 1925.0\ngini = 0.245\nsamples = 4\nvalue = [0, 6, 0, 1, 0, 0]", fillcolor="#ade95a"] ;
232 -> 234 ;
235 [label="resident <= 345.0\ngini = 0.32\nsamples = 3\nvalue = [0, 4, 0, 1, 0, 0]", fillcolor="#b6ec6a"] ;
234 -> 235 ;
236 [label="gini = 0.0\nsamples = 2\nvalue = [0, 4, 0, 0, 0, 0]", fillcolor="#9de539"] ;
235 -> 236 ;
237 [label="gini = 0.0\nsamples = 1\nvalue = [0, 0, 0, 1, 0, 0]", fillcolor="#399de5"] ;
235 -> 237 ;
238 [label="gini = 0.0\nsamples = 1\nvalue = [0, 2, 0, 0, 0, 0]", fillcolor="#9de539"] ;
234 -> 238 ;
239 [label="resident <= 340.0\ngini = 0.5\nsamples = 2\nvalue = [0, 0, 1, 1, 0, 0]", fillcolor="#ffffff"] ;
231 -> 239 ;
240 [label="gini = 0.0\nsamples = 1\nvalue = [0, 0, 1, 0, 0, 0]", fillcolor="#39e581"] ;
239 -> 240 ;
241 [label="gini = 0.0\nsamples = 1\nvalue = [0, 0, 0, 1, 0, 0]", fillcolor="#399de5"] ;
239 -> 241 ;
242 [label="floating <= 1910.0\ngini = 0.642\nsamples = 4\nvalue = [3, 2, 4, 0, 0, 0]", fillcolor="#defbea"] ;
214 -> 242 ;
243 [label="resident <= 415.0\ngini = 0.48\nsamples = 2\nvalue = [3, 2, 0, 0, 0, 0]", fillcolor="#f6d5bd"] ;
242 -> 243 ;
244 [label="gini = 0.0\nsamples = 1\nvalue = [3, 0, 0, 0, 0, 0]", fillcolor="#e58139"] ;
243 -> 244 ;
245 [label="gini = 0.0\nsamples = 1\nvalue = [0, 2, 0, 0, 0, 0]", fillcolor="#9de539"] ;
243 -> 245 ;
246 [label="gini = 0.0\nsamples = 2\nvalue = [0, 0, 4, 0, 0, 0]", fillcolor="#39e581"] ;
242 -> 246 ;
247 [label="resident <= 275.0\ngini = 0.586\nsamples = 12\nvalue = [7, 9, 2, 0, 0, 0]", fillcolor="#edfadb"] ;
213 -> 247 ;
248 [label="resident <= 220.0\ngini = 0.278\nsamples = 5\nvalue = [5, 1, 0, 0, 0, 0]", fillcolor="#ea9a61"] ;
247 -> 248 ;
249 [label="floating <= 2015.0\ngini = 0.5\nsamples = 2\nvalue = [1, 1, 0, 0, 0, 0]", fillcolor="#ffffff"] ;
248 -> 249 ;
250 [label="gini = 0.0\nsamples = 1\nvalue = [1, 0, 0, 0, 0, 0]", fillcolor="#e58139"] ;
249 -> 250 ;
251 [label="gini = 0.0\nsamples = 1\nvalue = [0, 1, 0, 0, 0, 0]", fillcolor="#9de539"] ;
249 -> 251 ;
252 [label="gini = 0.0\nsamples = 3\nvalue = [4, 0, 0, 0, 0, 0]", fillcolor="#e58139"] ;
248 -> 252 ;
253 [label="floating <= 2040.0\ngini = 0.5\nsamples = 7\nvalue = [2, 8, 2, 0, 0, 0]", fillcolor="#c4ef88"] ;
247 -> 253 ;
254 [label="floating <= 2025.0\ngini = 0.444\nsamples = 2\nvalue = [1, 0, 2, 0, 0, 0]", fillcolor="#9cf2c0"] ;
253 -> 254 ;
255 [label="gini = 0.0\nsamples = 1\nvalue = [0, 0, 2, 0, 0, 0]", fillcolor="#39e581"] ;
254 -> 255 ;
256 [label="gini = 0.0\nsamples = 1\nvalue = [1, 0, 0, 0, 0, 0]", fillcolor="#e58139"] ;
254 -> 256 ;
257 [label="floating <= 2135.0\ngini = 0.198\nsamples = 5\nvalue = [1, 8, 0, 0, 0, 0]", fillcolor="#a9e852"] ;
253 -> 257 ;
258 [label="gini = 0.0\nsamples = 4\nvalue = [0, 8, 0, 0, 0, 0]", fillcolor="#9de539"] ;
257 -> 258 ;
259 [label="gini = 0.0\nsamples = 1\nvalue = [1, 0, 0, 0, 0, 0]", fillcolor="#e58139"] ;
257 -> 259 ;
260 [label="resident <= 65.0\ngini = 0.696\nsamples = 26\nvalue = [11, 13, 4, 0, 5, 0]", fillcolor="#f6fded"] ;
2 -> 260 ;
261 [label="resident <= 45.0\ngini = 0.198\nsamples = 7\nvalue = [8, 0, 1, 0, 0, 0]", fillcolor="#e89152"] ;
260 -> 261 ;
262 [label="gini = 0.0\nsamples = 4\nvalue = [5, 0, 0, 0, 0, 0]", fillcolor="#e58139"] ;
261 -> 262 ;
263 [label="floating <= 305.0\ngini = 0.375\nsamples = 3\nvalue = [3, 0, 1, 0, 0, 0]", fillcolor="#eeab7b"] ;
261 -> 263 ;
264 [label="gini = 0.0\nsamples = 2\nvalue = [3, 0, 0, 0, 0, 0]", fillcolor="#e58139"] ;
263 -> 264 ;
265 [label="gini = 0.0\nsamples = 1\nvalue = [0, 0, 1, 0, 0, 0]", fillcolor="#39e581"] ;
263 -> 265 ;
266 [label="resident <= 315.0\ngini = 0.632\nsamples = 19\nvalue = [3, 13, 3, 0, 5, 0]", fillcolor="#d6f4ac"] ;
260 -> 266 ;
267 [label="resident <= 190.0\ngini = 0.438\nsamples = 15\nvalue = [2, 13, 3, 0, 0, 0]", fillcolor="#beee7b"] ;
266 -> 267 ;
268 [label="resident <= 145.0\ngini = 0.611\nsamples = 4\nvalue = [1, 3, 2, 0, 0, 0]", fillcolor="#e6f8ce"] ;
267 -> 268 ;
269 [label="floating <= 580.0\ngini = 0.375\nsamples = 3\nvalue = [1, 3, 0, 0, 0, 0]", fillcolor="#beee7b"] ;
268 -> 269 ;
270 [label="gini = 0.0\nsamples = 1\nvalue = [1, 0, 0, 0, 0, 0]", fillcolor="#e58139"] ;
269 -> 270 ;
271 [label="gini = 0.0\nsamples = 2\nvalue = [0, 3, 0, 0, 0, 0]", fillcolor="#9de539"] ;
269 -> 271 ;
272 [label="gini = 0.0\nsamples = 1\nvalue = [0, 0, 2, 0, 0, 0]", fillcolor="#39e581"] ;
268 -> 272 ;
273 [label="resident <= 275.0\ngini = 0.292\nsamples = 11\nvalue = [1, 10, 1, 0, 0, 0]", fillcolor="#afea5d"] ;
267 -> 273 ;
274 [label="floating <= 1770.0\ngini = 0.18\nsamples = 9\nvalue = [1, 9, 0, 0, 0, 0]", fillcolor="#a8e84f"] ;
273 -> 274 ;
275 [label="resident <= 250.0\ngini = 0.32\nsamples = 5\nvalue = [1, 4, 0, 0, 0, 0]", fillcolor="#b6ec6a"] ;
274 -> 275 ;
276 [label="floating <= 1690.0\ngini = 0.444\nsamples = 3\nvalue = [1, 2, 0, 0, 0, 0]", fillcolor="#cef29c"] ;
275 -> 276 ;
277 [label="gini = 0.0\nsamples = 2\nvalue = [0, 2, 0, 0, 0, 0]", fillcolor="#9de539"] ;
276 -> 277 ;
278 [label="gini = 0.0\nsamples = 1\nvalue = [1, 0, 0, 0, 0, 0]", fillcolor="#e58139"] ;
276 -> 278 ;
279 [label="gini = 0.0\nsamples = 2\nvalue = [0, 2, 0, 0, 0, 0]", fillcolor="#9de539"] ;
275 -> 279 ;
280 [label="gini = 0.0\nsamples = 4\nvalue = [0, 5, 0, 0, 0, 0]", fillcolor="#9de539"] ;
274 -> 280 ;
281 [label="resident <= 295.0\ngini = 0.5\nsamples = 2\nvalue = [0, 1, 1, 0, 0, 0]", fillcolor="#ffffff"] ;
273 -> 281 ;
282 [label="gini = 0.0\nsamples = 1\nvalue = [0, 0, 1, 0, 0, 0]", fillcolor="#39e581"] ;
281 -> 282 ;
283 [label="gini = 0.0\nsamples = 1\nvalue = [0, 1, 0, 0, 0, 0]", fillcolor="#9de539"] ;
281 -> 283 ;
284 [label="floating <= 1630.0\ngini = 0.278\nsamples = 4\nvalue = [1, 0, 0, 0, 5, 0]", fillcolor="#9a61ea"] ;
266 -> 284 ;
285 [label="gini = 0.0\nsamples = 1\nvalue = [1, 0, 0, 0, 0, 0]", fillcolor="#e58139"] ;
284 -> 285 ;
286 [label="gini = 0.0\nsamples = 3\nvalue = [0, 0, 0, 0, 5, 0]", fillcolor="#8139e5"] ;
284 -> 286 ;
287 [label="floating <= 1690.0\ngini = 0.374\nsamples = 36\nvalue = [38, 11, 1, 0, 0, 0]", fillcolor="#eda876"] ;
1 -> 287 ;
288 [label="floating <= 225.0\ngini = 0.343\nsamples = 34\nvalue = [37, 9, 1, 0, 0, 0]", fillcolor="#eca26d"] ;
287 -> 288 ;
289 [label="floating <= 195.0\ngini = 0.426\nsamples = 17\nvalue = [18, 8, 0, 0, 0, 0]", fillcolor="#f1b991"] ;
288 -> 289 ;
290 [label="resident <= 25.0\ngini = 0.231\nsamples = 10\nvalue = [13, 2, 0, 0, 0, 0]", fillcolor="#e99457"] ;
289 -> 290 ;
291 [label="gini = 0.0\nsamples = 5\nvalue = [6, 0, 0, 0, 0, 0]", fillcolor="#e58139"] ;
290 -> 291 ;
292 [label="floating <= 170.0\ngini = 0.346\nsamples = 5\nvalue = [7, 2, 0, 0, 0, 0]", fillcolor="#eca572"] ;
290 -> 292 ;
293 [label="police_value <= 2.5\ngini = 0.5\nsamples = 3\nvalue = [2, 2, 0, 0, 0, 0]", fillcolor="#ffffff"] ;
292 -> 293 ;
294 [label="gini = 0.0\nsamples = 2\nvalue = [2, 0, 0, 0, 0, 0]", fillcolor="#e58139"] ;
293 -> 294 ;
295 [label="gini = 0.0\nsamples = 1\nvalue = [0, 2, 0, 0, 0, 0]", fillcolor="#9de539"] ;
293 -> 295 ;
296 [label="gini = 0.0\nsamples = 2\nvalue = [5, 0, 0, 0, 0, 0]", fillcolor="#e58139"] ;
292 -> 296 ;
297 [label="resident <= 35.0\ngini = 0.496\nsamples = 7\nvalue = [5, 6, 0, 0, 0, 0]", fillcolor="#effbde"] ;
289 -> 297 ;
298 [label="resident <= 25.0\ngini = 0.375\nsamples = 5\nvalue = [2, 6, 0, 0, 0, 0]", fillcolor="#beee7b"] ;
297 -> 298 ;
299 [label="resident <= 15.0\ngini = 0.5\nsamples = 3\nvalue = [2, 2, 0, 0, 0, 0]", fillcolor="#ffffff"] ;
298 -> 299 ;
300 [label="gini = 0.0\nsamples = 2\nvalue = [0, 2, 0, 0, 0, 0]", fillcolor="#9de539"] ;
299 -> 300 ;
301 [label="gini = 0.0\nsamples = 1\nvalue = [2, 0, 0, 0, 0, 0]", fillcolor="#e58139"] ;
299 -> 301 ;
302 [label="gini = 0.0\nsamples = 2\nvalue = [0, 4, 0, 0, 0, 0]", fillcolor="#9de539"] ;
298 -> 302 ;
303 [label="gini = 0.0\nsamples = 2\nvalue = [3, 0, 0, 0, 0, 0]", fillcolor="#e58139"] ;
297 -> 303 ;
304 [label="floating <= 370.0\ngini = 0.177\nsamples = 17\nvalue = [19, 1, 1, 0, 0, 0]", fillcolor="#e88e4d"] ;
288 -> 304 ;
305 [label="gini = 0.0\nsamples = 12\nvalue = [16, 0, 0, 0, 0, 0]", fillcolor="#e58139"] ;
304 -> 305 ;
306 [label="resident <= 50.0\ngini = 0.56\nsamples = 5\nvalue = [3, 1, 1, 0, 0, 0]", fillcolor="#f2c09c"] ;
304 -> 306 ;
307 [label="gini = 0.0\nsamples = 1\nvalue = [0, 0, 1, 0, 0, 0]", fillcolor="#39e581"] ;
306 -> 307 ;
308 [label="resident <= 180.0\ngini = 0.375\nsamples = 4\nvalue = [3, 1, 0, 0, 0, 0]", fillcolor="#eeab7b"] ;
306 -> 308 ;
309 [label="resident <= 110.0\ngini = 0.5\nsamples = 2\nvalue = [1, 1, 0, 0, 0, 0]", fillcolor="#ffffff"] ;
308 -> 309 ;
310 [label="gini = 0.0\nsamples = 1\nvalue = [1, 0, 0, 0, 0, 0]", fillcolor="#e58139"] ;
309 -> 310 ;
311 [label="gini = 0.0\nsamples = 1\nvalue = [0, 1, 0, 0, 0, 0]", fillcolor="#9de539"] ;
309 -> 311 ;
312 [label="gini = 0.0\nsamples = 2\nvalue = [2, 0, 0, 0, 0, 0]", fillcolor="#e58139"] ;
308 -> 312 ;
313 [label="resident <= 300.0\ngini = 0.444\nsamples = 2\nvalue = [1, 2, 0, 0, 0, 0]", fillcolor="#cef29c"] ;
287 -> 313 ;
314 [label="gini = 0.0\nsamples = 1\nvalue = [1, 0, 0, 0, 0, 0]", fillcolor="#e58139"] ;
313 -> 314 ;
315 [label="gini = 0.0\nsamples = 1\nvalue = [0, 2, 0, 0, 0, 0]", fillcolor="#9de539"] ;
313 -> 315 ;
316 [label="floating <= 305.0\ngini = 0.53\nsamples = 105\nvalue = [105, 38, 17, 5, 0, 0]", fillcolor="#f1bd97"] ;
0 -> 316 [labeldistance=2.5, labelangle=-45, headlabel="False"] ;
317 [label="resident <= 35.0\ngini = 0.14\nsamples = 31\nvalue = [49, 4, 0, 0, 0, 0]", fillcolor="#e78b49"] ;
316 -> 317 ;
318 [label="floating <= 230.0\ngini = 0.064\nsamples = 17\nvalue = [29, 1, 0, 0, 0, 0]", fillcolor="#e68540"] ;
317 -> 318 ;
319 [label="gini = 0.0\nsamples = 13\nvalue = [23, 0, 0, 0, 0, 0]", fillcolor="#e58139"] ;
318 -> 319 ;
320 [label="resident <= 15.0\ngini = 0.245\nsamples = 4\nvalue = [6, 1, 0, 0, 0, 0]", fillcolor="#e9965a"] ;
318 -> 320 ;
321 [label="gini = 0.0\nsamples = 1\nvalue = [2, 0, 0, 0, 0, 0]", fillcolor="#e58139"] ;
320 -> 321 ;
322 [label="floating <= 270.0\ngini = 0.32\nsamples = 3\nvalue = [4, 1, 0, 0, 0, 0]", fillcolor="#eca06a"] ;
320 -> 322 ;
323 [label="police_value <= 1.0\ngini = 0.444\nsamples = 2\nvalue = [2, 1, 0, 0, 0, 0]", fillcolor="#f2c09c"] ;
322 -> 323 ;
324 [label="gini = 0.0\nsamples = 1\nvalue = [0, 1, 0, 0, 0, 0]", fillcolor="#9de539"] ;
323 -> 324 ;
325 [label="gini = 0.0\nsamples = 1\nvalue = [2, 0, 0, 0, 0, 0]", fillcolor="#e58139"] ;
323 -> 325 ;
326 [label="gini = 0.0\nsamples = 1\nvalue = [2, 0, 0, 0, 0, 0]", fillcolor="#e58139"] ;
322 -> 326 ;
327 [label="floating <= 195.0\ngini = 0.227\nsamples = 14\nvalue = [20, 3, 0, 0, 0, 0]", fillcolor="#e99457"] ;
317 -> 327 ;
328 [label="gini = 0.0\nsamples = 8\nvalue = [14, 0, 0, 0, 0, 0]", fillcolor="#e58139"] ;
327 -> 328 ;
329 [label="resident <= 45.0\ngini = 0.444\nsamples = 6\nvalue = [6, 3, 0, 0, 0, 0]", fillcolor="#f2c09c"] ;
327 -> 329 ;
330 [label="floating <= 210.0\ngini = 0.375\nsamples = 3\nvalue = [1, 3, 0, 0, 0, 0]", fillcolor="#beee7b"] ;
329 -> 330 ;
331 [label="gini = 0.0\nsamples = 2\nvalue = [0, 3, 0, 0, 0, 0]", fillcolor="#9de539"] ;
330 -> 331 ;
332 [label="gini = 0.0\nsamples = 1\nvalue = [1, 0, 0, 0, 0, 0]", fillcolor="#e58139"] ;
330 -> 332 ;
333 [label="gini = 0.0\nsamples = 3\nvalue = [5, 0, 0, 0, 0, 0]", fillcolor="#e58139"] ;
329 -> 333 ;
334 [label="floating <= 550.0\ngini = 0.633\nsamples = 74\nvalue = [56, 34, 17, 5, 0, 0]", fillcolor="#f8dbc7"] ;
316 -> 334 ;
335 [label="CCTV_num <= 5.5\ngini = 0.41\nsamples = 13\nvalue = [4, 14, 1, 0, 0, 0]", fillcolor="#beee7b"] ;
334 -> 335 ;
336 [label="resident <= 25.0\ngini = 0.124\nsamples = 10\nvalue = [1, 14, 0, 0, 0, 0]", fillcolor="#a4e747"] ;
335 -> 336 ;
337 [label="gini = 0.0\nsamples = 1\nvalue = [1, 0, 0, 0, 0, 0]", fillcolor="#e58139"] ;
336 -> 337 ;
338 [label="gini = 0.0\nsamples = 9\nvalue = [0, 14, 0, 0, 0, 0]", fillcolor="#9de539"] ;
336 -> 338 ;
339 [label="police_value <= 1.0\ngini = 0.375\nsamples = 3\nvalue = [3, 0, 1, 0, 0, 0]", fillcolor="#eeab7b"] ;
335 -> 339 ;
340 [label="gini = 0.0\nsamples = 1\nvalue = [2, 0, 0, 0, 0, 0]", fillcolor="#e58139"] ;
339 -> 340 ;
341 [label="resident <= 40.0\ngini = 0.5\nsamples = 2\nvalue = [1, 0, 1, 0, 0, 0]", fillcolor="#ffffff"] ;
339 -> 341 ;
342 [label="gini = 0.0\nsamples = 1\nvalue = [1, 0, 0, 0, 0, 0]", fillcolor="#e58139"] ;
341 -> 342 ;
343 [label="gini = 0.0\nsamples = 1\nvalue = [0, 0, 1, 0, 0, 0]", fillcolor="#39e581"] ;
341 -> 343 ;
344 [label="CCTV_num <= 8.5\ngini = 0.609\nsamples = 61\nvalue = [52, 20, 16, 5, 0, 0]", fillcolor="#f4c8a8"] ;
334 -> 344 ;
345 [label="CCTV_num <= 6.5\ngini = 0.489\nsamples = 50\nvalue = [50, 14, 10, 0, 0, 0]", fillcolor="#efb388"] ;
344 -> 345 ;
346 [label="police_value <= 1.5\ngini = 0.536\nsamples = 38\nvalue = [32, 14, 6, 0, 0, 0]", fillcolor="#f3c3a1"] ;
345 -> 346 ;
347 [label="CCTV_num <= 3.5\ngini = 0.421\nsamples = 30\nvalue = [30, 11, 1, 0, 0, 0]", fillcolor="#efb286"] ;
346 -> 347 ;
348 [label="police_value <= 0.5\ngini = 0.208\nsamples = 11\nvalue = [15, 2, 0, 0, 0, 0]", fillcolor="#e89253"] ;
347 -> 348 ;
349 [label="floating <= 1765.0\ngini = 0.142\nsamples = 9\nvalue = [12, 1, 0, 0, 0, 0]", fillcolor="#e78c49"] ;
348 -> 349 ;
350 [label="gini = 0.0\nsamples = 7\nvalue = [11, 0, 0, 0, 0, 0]", fillcolor="#e58139"] ;
349 -> 350 ;
351 [label="floating <= 1830.0\ngini = 0.5\nsamples = 2\nvalue = [1, 1, 0, 0, 0, 0]", fillcolor="#ffffff"] ;
349 -> 351 ;
352 [label="gini = 0.0\nsamples = 1\nvalue = [0, 1, 0, 0, 0, 0]", fillcolor="#9de539"] ;
351 -> 352 ;
353 [label="gini = 0.0\nsamples = 1\nvalue = [1, 0, 0, 0, 0, 0]", fillcolor="#e58139"] ;
351 -> 353 ;
354 [label="floating <= 1390.0\ngini = 0.375\nsamples = 2\nvalue = [3, 1, 0, 0, 0, 0]", fillcolor="#eeab7b"] ;
348 -> 354 ;
355 [label="gini = 0.0\nsamples = 1\nvalue = [0, 1, 0, 0, 0, 0]", fillcolor="#9de539"] ;
354 -> 355 ;
356 [label="gini = 0.0\nsamples = 1\nvalue = [3, 0, 0, 0, 0, 0]", fillcolor="#e58139"] ;
354 -> 356 ;
357 [label="CCTV_num <= 4.5\ngini = 0.509\nsamples = 19\nvalue = [15, 9, 1, 0, 0, 0]", fillcolor="#f5d0b5"] ;
347 -> 357 ;
358 [label="resident <= 265.0\ngini = 0.497\nsamples = 10\nvalue = [6, 7, 0, 0, 0, 0]", fillcolor="#f1fbe3"] ;
357 -> 358 ;
359 [label="floating <= 985.0\ngini = 0.278\nsamples = 5\nvalue = [5, 1, 0, 0, 0, 0]", fillcolor="#ea9a61"] ;
358 -> 359 ;
360 [label="police_value <= 0.5\ngini = 0.5\nsamples = 2\nvalue = [1, 1, 0, 0, 0, 0]", fillcolor="#ffffff"] ;
359 -> 360 ;
361 [label="gini = 0.0\nsamples = 1\nvalue = [0, 1, 0, 0, 0, 0]", fillcolor="#9de539"] ;
360 -> 361 ;
362 [label="gini = 0.0\nsamples = 1\nvalue = [1, 0, 0, 0, 0, 0]", fillcolor="#e58139"] ;
360 -> 362 ;
363 [label="gini = 0.0\nsamples = 3\nvalue = [4, 0, 0, 0, 0, 0]", fillcolor="#e58139"] ;
359 -> 363 ;
364 [label="resident <= 335.0\ngini = 0.245\nsamples = 5\nvalue = [1, 6, 0, 0, 0, 0]", fillcolor="#ade95a"] ;
358 -> 364 ;
365 [label="gini = 0.0\nsamples = 4\nvalue = [0, 6, 0, 0, 0, 0]", fillcolor="#9de539"] ;
364 -> 365 ;
366 [label="gini = 0.0\nsamples = 1\nvalue = [1, 0, 0, 0, 0, 0]", fillcolor="#e58139"] ;
364 -> 366 ;
367 [label="resident <= 290.0\ngini = 0.403\nsamples = 9\nvalue = [9, 2, 1, 0, 0, 0]", fillcolor="#eda774"] ;
357 -> 367 ;
368 [label="police_value <= 0.5\ngini = 0.531\nsamples = 6\nvalue = [5, 2, 1, 0, 0, 0]", fillcolor="#f2c09c"] ;
367 -> 368 ;
369 [label="floating <= 1695.0\ngini = 0.611\nsamples = 5\nvalue = [3, 2, 1, 0, 0, 0]", fillcolor="#f8e0ce"] ;
368 -> 369 ;
370 [label="floating <= 1545.0\ngini = 0.5\nsamples = 2\nvalue = [0, 1, 1, 0, 0, 0]", fillcolor="#ffffff"] ;
369 -> 370 ;
371 [label="gini = 0.0\nsamples = 1\nvalue = [0, 1, 0, 0, 0, 0]", fillcolor="#9de539"] ;
370 -> 371 ;
372 [label="gini = 0.0\nsamples = 1\nvalue = [0, 0, 1, 0, 0, 0]", fillcolor="#39e581"] ;
370 -> 372 ;
373 [label="resident <= 265.0\ngini = 0.375\nsamples = 3\nvalue = [3, 1, 0, 0, 0, 0]", fillcolor="#eeab7b"] ;
369 -> 373 ;
374 [label="gini = 0.0\nsamples = 2\nvalue = [3, 0, 0, 0, 0, 0]", fillcolor="#e58139"] ;
373 -> 374 ;
375 [label="gini = 0.0\nsamples = 1\nvalue = [0, 1, 0, 0, 0, 0]", fillcolor="#9de539"] ;
373 -> 375 ;
376 [label="gini = 0.0\nsamples = 1\nvalue = [2, 0, 0, 0, 0, 0]", fillcolor="#e58139"] ;
368 -> 376 ;
377 [label="gini = 0.0\nsamples = 3\nvalue = [4, 0, 0, 0, 0, 0]", fillcolor="#e58139"] ;
367 -> 377 ;
378 [label="CCTV_num <= 3.5\ngini = 0.62\nsamples = 8\nvalue = [2, 3, 5, 0, 0, 0]", fillcolor="#c6f8db"] ;
346 -> 378 ;
379 [label="gini = 0.0\nsamples = 4\nvalue = [0, 0, 5, 0, 0, 0]", fillcolor="#39e581"] ;
378 -> 379 ;
380 [label="floating <= 1865.0\ngini = 0.48\nsamples = 4\nvalue = [2, 3, 0, 0, 0, 0]", fillcolor="#def6bd"] ;
378 -> 380 ;
381 [label="floating <= 1680.0\ngini = 0.375\nsamples = 3\nvalue = [1, 3, 0, 0, 0, 0]", fillcolor="#beee7b"] ;
380 -> 381 ;
382 [label="resident <= 280.0\ngini = 0.5\nsamples = 2\nvalue = [1, 1, 0, 0, 0, 0]", fillcolor="#ffffff"] ;
381 -> 382 ;
383 [label="gini = 0.0\nsamples = 1\nvalue = [0, 1, 0, 0, 0, 0]", fillcolor="#9de539"] ;
382 -> 383 ;
384 [label="gini = 0.0\nsamples = 1\nvalue = [1, 0, 0, 0, 0, 0]", fillcolor="#e58139"] ;
382 -> 384 ;
385 [label="gini = 0.0\nsamples = 1\nvalue = [0, 2, 0, 0, 0, 0]", fillcolor="#9de539"] ;
381 -> 385 ;
386 [label="gini = 0.0\nsamples = 1\nvalue = [1, 0, 0, 0, 0, 0]", fillcolor="#e58139"] ;
380 -> 386 ;
387 [label="floating <= 1715.0\ngini = 0.298\nsamples = 12\nvalue = [18, 0, 4, 0, 0, 0]", fillcolor="#eb9d65"] ;
345 -> 387 ;
388 [label="floating <= 1640.0\ngini = 0.426\nsamples = 7\nvalue = [9, 0, 4, 0, 0, 0]", fillcolor="#f1b991"] ;
387 -> 388 ;
389 [label="gini = 0.0\nsamples = 4\nvalue = [7, 0, 0, 0, 0, 0]", fillcolor="#e58139"] ;
388 -> 389 ;
390 [label="resident <= 275.0\ngini = 0.444\nsamples = 3\nvalue = [2, 0, 4, 0, 0, 0]", fillcolor="#9cf2c0"] ;
388 -> 390 ;
391 [label="gini = 0.0\nsamples = 1\nvalue = [2, 0, 0, 0, 0, 0]", fillcolor="#e58139"] ;
390 -> 391 ;
392 [label="gini = 0.0\nsamples = 2\nvalue = [0, 0, 4, 0, 0, 0]", fillcolor="#39e581"] ;
390 -> 392 ;
393 [label="gini = 0.0\nsamples = 5\nvalue = [9, 0, 0, 0, 0, 0]", fillcolor="#e58139"] ;
387 -> 393 ;
394 [label="police_value <= 0.5\ngini = 0.72\nsamples = 11\nvalue = [2, 6, 6, 5, 0, 0]", fillcolor="#ffffff"] ;
344 -> 394 ;
395 [label="CCTV_num <= 13.5\ngini = 0.693\nsamples = 9\nvalue = [2, 6, 2, 5, 0, 0]", fillcolor="#f5fceb"] ;
394 -> 395 ;
396 [label="resident <= 255.0\ngini = 0.375\nsamples = 5\nvalue = [0, 6, 2, 0, 0, 0]", fillcolor="#beee7b"] ;
395 -> 396 ;
397 [label="gini = 0.0\nsamples = 2\nvalue = [0, 0, 2, 0, 0, 0]", fillcolor="#39e581"] ;
396 -> 397 ;
398 [label="gini = 0.0\nsamples = 3\nvalue = [0, 6, 0, 0, 0, 0]", fillcolor="#9de539"] ;
396 -> 398 ;
399 [label="resident <= 285.0\ngini = 0.408\nsamples = 4\nvalue = [2, 0, 0, 5, 0, 0]", fillcolor="#88c4ef"] ;
395 -> 399 ;
400 [label="gini = 0.0\nsamples = 3\nvalue = [0, 0, 0, 5, 0, 0]", fillcolor="#399de5"] ;
399 -> 400 ;
401 [label="gini = 0.0\nsamples = 1\nvalue = [2, 0, 0, 0, 0, 0]", fillcolor="#e58139"] ;
399 -> 401 ;
402 [label="gini = 0.0\nsamples = 2\nvalue = [0, 0, 4, 0, 0, 0]", fillcolor="#39e581"] ;
394 -> 402 ;
}