digraph Tree {
node [shape=box, style="filled, rounded", color="black", fontname=helvetica] ;
edge [fontname=helvetica] ;
0 [label="police_value <= 0.5\ngini = 0.744\nsamples = 574\nvalue = [264, 306, 164, 87, 52, 12]", fillcolor="#f8fdf2"] ;
1 [label="CCTV_num <= 2.5\ngini = 0.755\nsamples = 473\nvalue = [189, 258, 138, 82, 52, 12]", fillcolor="#f3fce6"] ;
0 -> 1 [labeldistance=2.5, labelangle=45, headlabel="True"] ;
2 [label="floating <= 1015.0\ngini = 0.769\nsamples = 367\nvalue = [133, 197, 109, 77, 49, 12]", fillcolor="#f1fbe2"] ;
1 -> 2 ;
3 [label="floating <= 235.0\ngini = 0.679\nsamples = 211\nvalue = [111, 135, 65, 19, 0, 1]", fillcolor="#f4fce9"] ;
2 -> 3 ;
4 [label="CCTV_num <= 1.5\ngini = 0.643\nsamples = 123\nvalue = [81, 77, 30, 6, 0, 0]", fillcolor="#fefbf8"] ;
3 -> 4 ;
5 [label="resident <= 5.0\ngini = 0.649\nsamples = 117\nvalue = [68, 77, 30, 6, 0, 0]", fillcolor="#f7fdef"] ;
4 -> 5 ;
6 [label="floating <= 75.0\ngini = 0.498\nsamples = 10\nvalue = [10, 3, 2, 0, 0, 0]", fillcolor="#f0b68c"] ;
5 -> 6 ;
7 [label="gini = 0.0\nsamples = 4\nvalue = [7, 0, 0, 0, 0, 0]", fillcolor="#e58139"] ;
6 -> 7 ;
8 [label="floating <= 100.0\ngini = 0.656\nsamples = 6\nvalue = [3, 3, 2, 0, 0, 0]", fillcolor="#ffffff"] ;
6 -> 8 ;
9 [label="floating <= 85.0\ngini = 0.653\nsamples = 5\nvalue = [2, 3, 2, 0, 0, 0]", fillcolor="#ebfad7"] ;
8 -> 9 ;
10 [label="gini = 0.611\nsamples = 4\nvalue = [2, 3, 1, 0, 0, 0]", fillcolor="#e6f8ce"] ;
9 -> 10 ;
11 [label="gini = 0.0\nsamples = 1\nvalue = [0, 0, 1, 0, 0, 0]", fillcolor="#39e581"] ;
9 -> 11 ;
12 [label="gini = 0.0\nsamples = 1\nvalue = [1, 0, 0, 0, 0, 0]", fillcolor="#e58139"] ;
8 -> 12 ;
13 [label="resident <= 15.0\ngini = 0.649\nsamples = 107\nvalue = [58, 74, 28, 6, 0, 0]", fillcolor="#f0fbe2"] ;
5 -> 13 ;
14 [label="floating <= 150.0\ngini = 0.66\nsamples = 25\nvalue = [6, 16, 13, 2, 0, 0]", fillcolor="#f3fce6"] ;
13 -> 14 ;
15 [label="floating <= 85.0\ngini = 0.641\nsamples = 22\nvalue = [6, 16, 7, 2, 0, 0]", fillcolor="#daf5b5"] ;
14 -> 15 ;
16 [label="floating <= 75.0\ngini = 0.711\nsamples = 16\nvalue = [6, 8, 7, 2, 0, 0]", fillcolor="#f9fdf3"] ;
15 -> 16 ;
17 [label="floating <= 65.0\ngini = 0.7\nsamples = 13\nvalue = [6, 8, 4, 2, 0, 0]", fillcolor="#f1fbe3"] ;
16 -> 17 ;
18 [label="floating <= 50.0\ngini = 0.64\nsamples = 7\nvalue = [2, 4, 4, 0, 0, 0]", fillcolor="#ffffff"] ;
17 -> 18 ;
19 [label="floating <= 35.0\ngini = 0.375\nsamples = 2\nvalue = [1, 3, 0, 0, 0, 0]", fillcolor="#beee7b"] ;
18 -> 19 ;
20 [label="gini = 0.0\nsamples = 1\nvalue = [1, 0, 0, 0, 0, 0]", fillcolor="#e58139"] ;
19 -> 20 ;
21 [label="gini = 0.0\nsamples = 1\nvalue = [0, 3, 0, 0, 0, 0]", fillcolor="#9de539"] ;
19 -> 21 ;
22 [label="gini = 0.5\nsamples = 5\nvalue = [1, 1, 4, 0, 0, 0]", fillcolor="#88efb3"] ;
18 -> 22 ;
23 [label="gini = 0.64\nsamples = 6\nvalue = [4, 4, 0, 2, 0, 0]", fillcolor="#ffffff"] ;
17 -> 23 ;
24 [label="gini = 0.0\nsamples = 3\nvalue = [0, 0, 3, 0, 0, 0]", fillcolor="#39e581"] ;
16 -> 24 ;
25 [label="gini = 0.0\nsamples = 6\nvalue = [0, 8, 0, 0, 0, 0]", fillcolor="#9de539"] ;
15 -> 25 ;
26 [label="gini = 0.0\nsamples = 3\nvalue = [0, 0, 6, 0, 0, 0]", fillcolor="#39e581"] ;
14 -> 26 ;
27 [label="resident <= 65.0\ngini = 0.621\nsamples = 82\nvalue = [52, 58, 15, 4, 0, 0]", fillcolor="#f7fdf0"] ;
13 -> 27 ;
28 [label="resident <= 45.0\ngini = 0.631\nsamples = 75\nvalue = [49, 50, 15, 4, 0, 0]", fillcolor="#fefffc"] ;
27 -> 28 ;
29 [label="resident <= 35.0\ngini = 0.63\nsamples = 63\nvalue = [38, 45, 12, 4, 0, 0]", fillcolor="#f4fce8"] ;
28 -> 29 ;
30 [label="floating <= 40.0\ngini = 0.666\nsamples = 41\nvalue = [24, 23, 9, 4, 0, 0]", fillcolor="#fefcfa"] ;
29 -> 30 ;
31 [label="gini = 0.0\nsamples = 3\nvalue = [0, 6, 0, 0, 0, 0]", fillcolor="#9de539"] ;
30 -> 31 ;
32 [label="floating <= 155.0\ngini = 0.67\nsamples = 38\nvalue = [24, 17, 9, 4, 0, 0]", fillcolor="#fae7da"] ;
30 -> 32 ;
33 [label="resident <= 25.0\ngini = 0.541\nsamples = 11\nvalue = [9, 2, 1, 2, 0, 0]", fillcolor="#f0b68c"] ;
32 -> 33 ;
34 [label="floating <= 115.0\ngini = 0.449\nsamples = 7\nvalue = [5, 1, 1, 0, 0, 0]", fillcolor="#eeab7b"] ;
33 -> 34 ;
35 [label="floating <= 95.0\ngini = 0.56\nsamples = 5\nvalue = [3, 1, 1, 0, 0, 0]", fillcolor="#f2c09c"] ;
34 -> 35 ;
36 [label="floating <= 65.0\ngini = 0.375\nsamples = 4\nvalue = [3, 0, 1, 0, 0, 0]", fillcolor="#eeab7b"] ;
35 -> 36 ;
37 [label="gini = 0.0\nsamples = 1\nvalue = [1, 0, 0, 0, 0, 0]", fillcolor="#e58139"] ;
36 -> 37 ;
38 [label="floating <= 75.0\ngini = 0.444\nsamples = 3\nvalue = [2, 0, 1, 0, 0, 0]", fillcolor="#f2c09c"] ;
36 -> 38 ;
39 [label="gini = 0.5\nsamples = 2\nvalue = [1, 0, 1, 0, 0, 0]", fillcolor="#ffffff"] ;
38 -> 39 ;
40 [label="gini = 0.0\nsamples = 1\nvalue = [1, 0, 0, 0, 0, 0]", fillcolor="#e58139"] ;
38 -> 40 ;
41 [label="gini = 0.0\nsamples = 1\nvalue = [0, 1, 0, 0, 0, 0]", fillcolor="#9de539"] ;
35 -> 41 ;
42 [label="gini = 0.0\nsamples = 2\nvalue = [2, 0, 0, 0, 0, 0]", fillcolor="#e58139"] ;
34 -> 42 ;
43 [label="floating <= 110.0\ngini = 0.571\nsamples = 4\nvalue = [4, 1, 0, 2, 0, 0]", fillcolor="#f5cdb0"] ;
33 -> 43 ;
44 [label="floating <= 85.0\ngini = 0.444\nsamples = 2\nvalue = [0, 1, 0, 2, 0, 0]", fillcolor="#9ccef2"] ;
43 -> 44 ;
45 [label="gini = 0.0\nsamples = 1\nvalue = [0, 0, 0, 2, 0, 0]", fillcolor="#399de5"] ;
44 -> 45 ;
46 [label="gini = 0.0\nsamples = 1\nvalue = [0, 1, 0, 0, 0, 0]", fillcolor="#9de539"] ;
44 -> 46 ;
47 [label="gini = 0.0\nsamples = 2\nvalue = [4, 0, 0, 0, 0, 0]", fillcolor="#e58139"] ;
43 -> 47 ;
48 [label="resident <= 25.0\ngini = 0.676\nsamples = 27\nvalue = [15, 15, 8, 2, 0, 0]", fillcolor="#ffffff"] ;
32 -> 48 ;
49 [label="floating <= 205.0\ngini = 0.645\nsamples = 17\nvalue = [11, 12, 3, 2, 0, 0]", fillcolor="#f9fdf3"] ;
48 -> 49 ;
50 [label="floating <= 195.0\ngini = 0.459\nsamples = 7\nvalue = [5, 9, 0, 0, 0, 0]", fillcolor="#d3f3a7"] ;
49 -> 50 ;
51 [label="floating <= 180.0\ngini = 0.496\nsamples = 6\nvalue = [5, 6, 0, 0, 0, 0]", fillcolor="#effbde"] ;
50 -> 51 ;
52 [label="floating <= 165.0\ngini = 0.375\nsamples = 4\nvalue = [2, 6, 0, 0, 0, 0]", fillcolor="#beee7b"] ;
51 -> 52 ;
53 [label="gini = 0.0\nsamples = 1\nvalue = [1, 0, 0, 0, 0, 0]", fillcolor="#e58139"] ;
52 -> 53 ;
54 [label="gini = 0.245\nsamples = 3\nvalue = [1, 6, 0, 0, 0, 0]", fillcolor="#ade95a"] ;
52 -> 54 ;
55 [label="gini = 0.0\nsamples = 2\nvalue = [3, 0, 0, 0, 0, 0]", fillcolor="#e58139"] ;
51 -> 55 ;
56 [label="gini = 0.0\nsamples = 1\nvalue = [0, 3, 0, 0, 0, 0]", fillcolor="#9de539"] ;
50 -> 56 ;
57 [label="floating <= 215.0\ngini = 0.704\nsamples = 10\nvalue = [6, 3, 3, 2, 0, 0]", fillcolor="#f8ddc9"] ;
49 -> 57 ;
58 [label="gini = 0.611\nsamples = 5\nvalue = [1, 0, 3, 2, 0, 0]", fillcolor="#cef8e0"] ;
57 -> 58 ;
59 [label="floating <= 225.0\ngini = 0.469\nsamples = 5\nvalue = [5, 3, 0, 0, 0, 0]", fillcolor="#f5cdb0"] ;
57 -> 59 ;
60 [label="gini = 0.5\nsamples = 3\nvalue = [3, 3, 0, 0, 0, 0]", fillcolor="#ffffff"] ;
59 -> 60 ;
61 [label="gini = 0.0\nsamples = 2\nvalue = [2, 0, 0, 0, 0, 0]", fillcolor="#e58139"] ;
59 -> 61 ;
62 [label="floating <= 165.0\ngini = 0.653\nsamples = 10\nvalue = [4, 3, 5, 0, 0, 0]", fillcolor="#e6fcef"] ;
48 -> 62 ;
63 [label="gini = 0.5\nsamples = 4\nvalue = [0, 3, 3, 0, 0, 0]", fillcolor="#ffffff"] ;
62 -> 63 ;
64 [label="floating <= 190.0\ngini = 0.444\nsamples = 6\nvalue = [4, 0, 2, 0, 0, 0]", fillcolor="#f2c09c"] ;
62 -> 64 ;
65 [label="floating <= 175.0\ngini = 0.5\nsamples = 4\nvalue = [2, 0, 2, 0, 0, 0]", fillcolor="#ffffff"] ;
64 -> 65 ;
66 [label="gini = 0.5\nsamples = 2\nvalue = [1, 0, 1, 0, 0, 0]", fillcolor="#ffffff"] ;
65 -> 66 ;
67 [label="gini = 0.5\nsamples = 2\nvalue = [1, 0, 1, 0, 0, 0]", fillcolor="#ffffff"] ;
65 -> 67 ;
68 [label="gini = 0.0\nsamples = 2\nvalue = [2, 0, 0, 0, 0, 0]", fillcolor="#e58139"] ;
64 -> 68 ;
69 [label="floating <= 215.0\ngini = 0.547\nsamples = 22\nvalue = [14, 22, 3, 0, 0, 0]", fillcolor="#e0f7c0"] ;
29 -> 69 ;
70 [label="floating <= 165.0\ngini = 0.475\nsamples = 20\nvalue = [14, 22, 0, 0, 0, 0]", fillcolor="#dbf6b7"] ;
69 -> 70 ;
71 [label="floating <= 155.0\ngini = 0.475\nsamples = 10\nvalue = [11, 7, 0, 0, 0, 0]", fillcolor="#f6d1b7"] ;
70 -> 71 ;
72 [label="floating <= 70.0\ngini = 0.346\nsamples = 6\nvalue = [2, 7, 0, 0, 0, 0]", fillcolor="#b9ec72"] ;
71 -> 72 ;
73 [label="gini = 0.5\nsamples = 2\nvalue = [1, 1, 0, 0, 0, 0]", fillcolor="#ffffff"] ;
72 -> 73 ;
74 [label="floating <= 95.0\ngini = 0.245\nsamples = 4\nvalue = [1, 6, 0, 0, 0, 0]", fillcolor="#ade95a"] ;
72 -> 74 ;
75 [label="gini = 0.0\nsamples = 2\nvalue = [0, 5, 0, 0, 0, 0]", fillcolor="#9de539"] ;
74 -> 75 ;
76 [label="floating <= 130.0\ngini = 0.5\nsamples = 2\nvalue = [1, 1, 0, 0, 0, 0]", fillcolor="#ffffff"] ;
74 -> 76 ;
77 [label="gini = 0.0\nsamples = 1\nvalue = [1, 0, 0, 0, 0, 0]", fillcolor="#e58139"] ;
76 -> 77 ;
78 [label="gini = 0.0\nsamples = 1\nvalue = [0, 1, 0, 0, 0, 0]", fillcolor="#9de539"] ;
76 -> 78 ;
79 [label="gini = 0.0\nsamples = 4\nvalue = [9, 0, 0, 0, 0, 0]", fillcolor="#e58139"] ;
71 -> 79 ;
80 [label="floating <= 195.0\ngini = 0.278\nsamples = 10\nvalue = [3, 15, 0, 0, 0, 0]", fillcolor="#b1ea61"] ;
70 -> 80 ;
81 [label="floating <= 175.0\ngini = 0.42\nsamples = 6\nvalue = [3, 7, 0, 0, 0, 0]", fillcolor="#c7f08e"] ;
80 -> 81 ;
82 [label="gini = 0.0\nsamples = 2\nvalue = [0, 4, 0, 0, 0, 0]", fillcolor="#9de539"] ;
81 -> 82 ;
83 [label="floating <= 185.0\ngini = 0.5\nsamples = 4\nvalue = [3, 3, 0, 0, 0, 0]", fillcolor="#ffffff"] ;
81 -> 83 ;
84 [label="gini = 0.48\nsamples = 3\nvalue = [2, 3, 0, 0, 0, 0]", fillcolor="#def6bd"] ;
83 -> 84 ;
85 [label="gini = 0.0\nsamples = 1\nvalue = [1, 0, 0, 0, 0, 0]", fillcolor="#e58139"] ;
83 -> 85 ;
86 [label="gini = 0.0\nsamples = 4\nvalue = [0, 8, 0, 0, 0, 0]", fillcolor="#9de539"] ;
80 -> 86 ;
87 [label="gini = 0.0\nsamples = 2\nvalue = [0, 0, 3, 0, 0, 0]", fillcolor="#39e581"] ;
69 -> 87 ;
88 [label="resident <= 55.0\ngini = 0.571\nsamples = 12\nvalue = [11, 5, 3, 0, 0, 0]", fillcolor="#f4c9aa"] ;
28 -> 88 ;
89 [label="floating <= 165.0\ngini = 0.219\nsamples = 6\nvalue = [7, 1, 0, 0, 0, 0]", fillcolor="#e99355"] ;
88 -> 89 ;
90 [label="floating <= 110.0\ngini = 0.375\nsamples = 3\nvalue = [3, 1, 0, 0, 0, 0]", fillcolor="#eeab7b"] ;
89 -> 90 ;
91 [label="gini = 0.0\nsamples = 1\nvalue = [2, 0, 0, 0, 0, 0]", fillcolor="#e58139"] ;
90 -> 91 ;
92 [label="CCTV_num <= 0.5\ngini = 0.5\nsamples = 2\nvalue = [1, 1, 0, 0, 0, 0]", fillcolor="#ffffff"] ;
90 -> 92 ;
93 [label="gini = 0.0\nsamples = 1\nvalue = [1, 0, 0, 0, 0, 0]", fillcolor="#e58139"] ;
92 -> 93 ;
94 [label="gini = 0.0\nsamples = 1\nvalue = [0, 1, 0, 0, 0, 0]", fillcolor="#9de539"] ;
92 -> 94 ;
95 [label="gini = 0.0\nsamples = 3\nvalue = [4, 0, 0, 0, 0, 0]", fillcolor="#e58139"] ;
89 -> 95 ;
96 [label="floating <= 160.0\ngini = 0.661\nsamples = 6\nvalue = [4, 4, 3, 0, 0, 0]", fillcolor="#ffffff"] ;
88 -> 96 ;
97 [label="gini = 0.0\nsamples = 2\nvalue = [0, 4, 0, 0, 0, 0]", fillcolor="#9de539"] ;
96 -> 97 ;
98 [label="floating <= 185.0\ngini = 0.49\nsamples = 4\nvalue = [4, 0, 3, 0, 0, 0]", fillcolor="#f8e0ce"] ;
96 -> 98 ;
99 [label="gini = 0.0\nsamples = 1\nvalue = [2, 0, 0, 0, 0, 0]", fillcolor="#e58139"] ;
98 -> 99 ;
100 [label="floating <= 205.0\ngini = 0.48\nsamples = 3\nvalue = [2, 0, 3, 0, 0, 0]", fillcolor="#bdf6d5"] ;
98 -> 100 ;
101 [label="gini = 0.0\nsamples = 2\nvalue = [0, 0, 3, 0, 0, 0]", fillcolor="#39e581"] ;
100 -> 101 ;
102 [label="gini = 0.0\nsamples = 1\nvalue = [2, 0, 0, 0, 0, 0]", fillcolor="#e58139"] ;
100 -> 102 ;
103 [label="floating <= 185.0\ngini = 0.397\nsamples = 7\nvalue = [3, 8, 0, 0, 0, 0]", fillcolor="#c2ef83"] ;
27 -> 103 ;
104 [label="gini = 0.0\nsamples = 2\nvalue = [0, 4, 0, 0, 0, 0]", fillcolor="#9de539"] ;
103 -> 104 ;
105 [label="floating <= 210.0\ngini = 0.49\nsamples = 5\nvalue = [3, 4, 0, 0, 0, 0]", fillcolor="#e6f8ce"] ;
103 -> 105 ;
106 [label="floating <= 195.0\ngini = 0.375\nsamples = 3\nvalue = [3, 1, 0, 0, 0, 0]", fillcolor="#eeab7b"] ;
105 -> 106 ;
107 [label="gini = 0.0\nsamples = 1\nvalue = [1, 0, 0, 0, 0, 0]", fillcolor="#e58139"] ;
106 -> 107 ;
108 [label="gini = 0.444\nsamples = 2\nvalue = [2, 1, 0, 0, 0, 0]", fillcolor="#f2c09c"] ;
106 -> 108 ;
109 [label="gini = 0.0\nsamples = 2\nvalue = [0, 3, 0, 0, 0, 0]", fillcolor="#9de539"] ;
105 -> 109 ;
110 [label="gini = 0.0\nsamples = 6\nvalue = [13, 0, 0, 0, 0, 0]", fillcolor="#e58139"] ;
4 -> 110 ;
111 [label="CCTV_num <= 0.5\ngini = 0.698\nsamples = 88\nvalue = [30, 58, 35, 13, 0, 1]", fillcolor="#e9f9d2"] ;
3 -> 111 ;
112 [label="resident <= 55.0\ngini = 0.719\nsamples = 67\nvalue = [22, 40, 30, 13, 0, 1]", fillcolor="#f2fce5"] ;
111 -> 112 ;
113 [label="floating <= 245.0\ngini = 0.649\nsamples = 38\nvalue = [10, 21, 26, 2, 0, 0]", fillcolor="#e5fcee"] ;
112 -> 113 ;
114 [label="resident <= 15.0\ngini = 0.46\nsamples = 6\nvalue = [0, 7, 1, 2, 0, 0]", fillcolor="#c2ef83"] ;
113 -> 114 ;
115 [label="gini = 0.375\nsamples = 2\nvalue = [0, 3, 1, 0, 0, 0]", fillcolor="#beee7b"] ;
114 -> 115 ;
116 [label="gini = 0.444\nsamples = 4\nvalue = [0, 4, 0, 2, 0, 0]", fillcolor="#cef29c"] ;
114 -> 116 ;
117 [label="floating <= 295.0\ngini = 0.616\nsamples = 32\nvalue = [10, 14, 25, 0, 0, 0]", fillcolor="#c1f7d7"] ;
113 -> 117 ;
118 [label="resident <= 25.0\ngini = 0.556\nsamples = 17\nvalue = [2, 10, 14, 0, 0, 0]", fillcolor="#cef8e0"] ;
117 -> 118 ;
119 [label="floating <= 275.0\ngini = 0.346\nsamples = 11\nvalue = [0, 4, 14, 0, 0, 0]", fillcolor="#72eca5"] ;
118 -> 119 ;
120 [label="floating <= 265.0\ngini = 0.408\nsamples = 8\nvalue = [0, 4, 10, 0, 0, 0]", fillcolor="#88efb3"] ;
119 -> 120 ;
121 [label="floating <= 255.0\ngini = 0.355\nsamples = 7\nvalue = [0, 3, 10, 0, 0, 0]", fillcolor="#74eda7"] ;
120 -> 121 ;
122 [label="gini = 0.219\nsamples = 4\nvalue = [0, 1, 7, 0, 0, 0]", fillcolor="#55e993"] ;
121 -> 122 ;
123 [label="gini = 0.48\nsamples = 3\nvalue = [0, 2, 3, 0, 0, 0]", fillcolor="#bdf6d5"] ;
121 -> 123 ;
124 [label="gini = 0.0\nsamples = 1\nvalue = [0, 1, 0, 0, 0, 0]", fillcolor="#9de539"] ;
120 -> 124 ;
125 [label="gini = 0.0\nsamples = 3\nvalue = [0, 0, 4, 0, 0, 0]", fillcolor="#39e581"] ;
119 -> 125 ;
126 [label="resident <= 45.0\ngini = 0.375\nsamples = 6\nvalue = [2, 6, 0, 0, 0, 0]", fillcolor="#beee7b"] ;
118 -> 126 ;
127 [label="floating <= 255.0\ngini = 0.245\nsamples = 5\nvalue = [1, 6, 0, 0, 0, 0]", fillcolor="#ade95a"] ;
126 -> 127 ;
128 [label="gini = 0.0\nsamples = 2\nvalue = [0, 3, 0, 0, 0, 0]", fillcolor="#9de539"] ;
127 -> 128 ;
129 [label="floating <= 265.0\ngini = 0.375\nsamples = 3\nvalue = [1, 3, 0, 0, 0, 0]", fillcolor="#beee7b"] ;
127 -> 129 ;
130 [label="gini = 0.0\nsamples = 1\nvalue = [1, 0, 0, 0, 0, 0]", fillcolor="#e58139"] ;
129 -> 130 ;
131 [label="gini = 0.0\nsamples = 2\nvalue = [0, 3, 0, 0, 0, 0]", fillcolor="#9de539"] ;
129 -> 131 ;
132 [label="gini = 0.0\nsamples = 1\nvalue = [1, 0, 0, 0, 0, 0]", fillcolor="#e58139"] ;
126 -> 132 ;
133 [label="floating <= 320.0\ngini = 0.62\nsamples = 15\nvalue = [8, 4, 11, 0, 0, 0]", fillcolor="#d7fae6"] ;
117 -> 133 ;
134 [label="resident <= 40.0\ngini = 0.408\nsamples = 4\nvalue = [5, 2, 0, 0, 0, 0]", fillcolor="#efb388"] ;
133 -> 134 ;
135 [label="gini = 0.0\nsamples = 3\nvalue = [5, 0, 0, 0, 0, 0]", fillcolor="#e58139"] ;
134 -> 135 ;
136 [label="gini = 0.0\nsamples = 1\nvalue = [0, 2, 0, 0, 0, 0]", fillcolor="#9de539"] ;
134 -> 136 ;
137 [label="floating <= 360.0\ngini = 0.477\nsamples = 11\nvalue = [3, 2, 11, 0, 0, 0]", fillcolor="#85efb1"] ;
133 -> 137 ;
138 [label="floating <= 345.0\ngini = 0.165\nsamples = 7\nvalue = [0, 1, 10, 0, 0, 0]", fillcolor="#4de88e"] ;
137 -> 138 ;
139 [label="floating <= 335.0\ngini = 0.32\nsamples = 4\nvalue = [0, 1, 4, 0, 0, 0]", fillcolor="#6aeca0"] ;
138 -> 139 ;
140 [label="gini = 0.0\nsamples = 3\nvalue = [0, 0, 4, 0, 0, 0]", fillcolor="#39e581"] ;
139 -> 140 ;
141 [label="gini = 0.0\nsamples = 1\nvalue = [0, 1, 0, 0, 0, 0]", fillcolor="#9de539"] ;
139 -> 141 ;
142 [label="gini = 0.0\nsamples = 3\nvalue = [0, 0, 6, 0, 0, 0]", fillcolor="#39e581"] ;
138 -> 142 ;
143 [label="floating <= 455.0\ngini = 0.56\nsamples = 4\nvalue = [3, 1, 1, 0, 0, 0]", fillcolor="#f2c09c"] ;
137 -> 143 ;
144 [label="gini = 0.0\nsamples = 2\nvalue = [3, 0, 0, 0, 0, 0]", fillcolor="#e58139"] ;
143 -> 144 ;
145 [label="resident <= 35.0\ngini = 0.5\nsamples = 2\nvalue = [0, 1, 1, 0, 0, 0]", fillcolor="#ffffff"] ;
143 -> 145 ;
146 [label="gini = 0.0\nsamples = 1\nvalue = [0, 1, 0, 0, 0, 0]", fillcolor="#9de539"] ;
145 -> 146 ;
147 [label="gini = 0.0\nsamples = 1\nvalue = [0, 0, 1, 0, 0, 0]", fillcolor="#39e581"] ;
145 -> 147 ;
148 [label="resident <= 155.0\ngini = 0.709\nsamples = 29\nvalue = [12, 19, 4, 11, 0, 1]", fillcolor="#ebfad7"] ;
112 -> 148 ;
149 [label="floating <= 345.0\ngini = 0.72\nsamples = 26\nvalue = [12, 14, 3, 11, 0, 1]", fillcolor="#f8fdf1"] ;
148 -> 149 ;
150 [label="floating <= 255.0\ngini = 0.615\nsamples = 12\nvalue = [4, 4, 0, 11, 0, 1]", fillcolor="#a8d4f4"] ;
149 -> 150 ;
151 [label="resident <= 75.0\ngini = 0.375\nsamples = 3\nvalue = [1, 3, 0, 0, 0, 0]", fillcolor="#beee7b"] ;
150 -> 151 ;
152 [label="gini = 0.0\nsamples = 2\nvalue = [0, 3, 0, 0, 0, 0]", fillcolor="#9de539"] ;
151 -> 152 ;
153 [label="gini = 0.0\nsamples = 1\nvalue = [1, 0, 0, 0, 0, 0]", fillcolor="#e58139"] ;
151 -> 153 ;
154 [label="resident <= 75.0\ngini = 0.484\nsamples = 9\nvalue = [3, 1, 0, 11, 0, 1]", fillcolor="#85c3ef"] ;
150 -> 154 ;
155 [label="floating <= 295.0\ngini = 0.375\nsamples = 3\nvalue = [3, 0, 0, 0, 0, 1]", fillcolor="#eeab7b"] ;
154 -> 155 ;
156 [label="gini = 0.0\nsamples = 2\nvalue = [3, 0, 0, 0, 0, 0]", fillcolor="#e58139"] ;
155 -> 156 ;
157 [label="gini = 0.0\nsamples = 1\nvalue = [0, 0, 0, 0, 0, 1]", fillcolor="#e5399d"] ;
155 -> 157 ;
158 [label="floating <= 295.0\ngini = 0.153\nsamples = 6\nvalue = [0, 1, 0, 11, 0, 0]", fillcolor="#4ba6e7"] ;
154 -> 158 ;
159 [label="gini = 0.0\nsamples = 3\nvalue = [0, 0, 0, 7, 0, 0]", fillcolor="#399de5"] ;
158 -> 159 ;
160 [label="resident <= 95.0\ngini = 0.32\nsamples = 3\nvalue = [0, 1, 0, 4, 0, 0]", fillcolor="#6ab6ec"] ;
158 -> 160 ;
161 [label="gini = 0.0\nsamples = 2\nvalue = [0, 0, 0, 4, 0, 0]", fillcolor="#399de5"] ;
160 -> 161 ;
162 [label="gini = 0.0\nsamples = 1\nvalue = [0, 1, 0, 0, 0, 0]", fillcolor="#9de539"] ;
160 -> 162 ;
163 [label="floating <= 645.0\ngini = 0.608\nsamples = 14\nvalue = [8, 10, 3, 0, 0, 0]", fillcolor="#f0fbe1"] ;
149 -> 163 ;
164 [label="floating <= 630.0\ngini = 0.498\nsamples = 11\nvalue = [8, 9, 0, 0, 0, 0]", fillcolor="#f4fce9"] ;
163 -> 164 ;
165 [label="resident <= 115.0\ngini = 0.459\nsamples = 10\nvalue = [5, 9, 0, 0, 0, 0]", fillcolor="#d3f3a7"] ;
164 -> 165 ;
166 [label="floating <= 370.0\ngini = 0.298\nsamples = 8\nvalue = [2, 9, 0, 0, 0, 0]", fillcolor="#b3eb65"] ;
165 -> 166 ;
167 [label="gini = 0.0\nsamples = 1\nvalue = [1, 0, 0, 0, 0, 0]", fillcolor="#e58139"] ;
166 -> 167 ;
168 [label="resident <= 95.0\ngini = 0.18\nsamples = 7\nvalue = [1, 9, 0, 0, 0, 0]", fillcolor="#a8e84f"] ;
166 -> 168 ;
169 [label="resident <= 85.0\ngini = 0.375\nsamples = 4\nvalue = [1, 3, 0, 0, 0, 0]", fillcolor="#beee7b"] ;
168 -> 169 ;
170 [label="gini = 0.0\nsamples = 3\nvalue = [0, 3, 0, 0, 0, 0]", fillcolor="#9de539"] ;
169 -> 170 ;
171 [label="gini = 0.0\nsamples = 1\nvalue = [1, 0, 0, 0, 0, 0]", fillcolor="#e58139"] ;
169 -> 171 ;
172 [label="gini = 0.0\nsamples = 3\nvalue = [0, 6, 0, 0, 0, 0]", fillcolor="#9de539"] ;
168 -> 172 ;
173 [label="gini = 0.0\nsamples = 2\nvalue = [3, 0, 0, 0, 0, 0]", fillcolor="#e58139"] ;
165 -> 173 ;
174 [label="gini = 0.0\nsamples = 1\nvalue = [3, 0, 0, 0, 0, 0]", fillcolor="#e58139"] ;
164 -> 174 ;
175 [label="floating <= 685.0\ngini = 0.375\nsamples = 3\nvalue = [0, 1, 3, 0, 0, 0]", fillcolor="#7beeab"] ;
163 -> 175 ;
176 [label="gini = 0.0\nsamples = 2\nvalue = [0, 0, 3, 0, 0, 0]", fillcolor="#39e581"] ;
175 -> 176 ;
177 [label="gini = 0.0\nsamples = 1\nvalue = [0, 1, 0, 0, 0, 0]", fillcolor="#9de539"] ;
175 -> 177 ;
178 [label="floating <= 710.0\ngini = 0.278\nsamples = 3\nvalue = [0, 5, 1, 0, 0, 0]", fillcolor="#b1ea61"] ;
148 -> 178 ;
179 [label="gini = 0.0\nsamples = 1\nvalue = [0, 0, 1, 0, 0, 0]", fillcolor="#39e581"] ;
178 -> 179 ;
180 [label="gini = 0.0\nsamples = 2\nvalue = [0, 5, 0, 0, 0, 0]", fillcolor="#9de539"] ;
178 -> 180 ;
181 [label="floating <= 725.0\ngini = 0.57\nsamples = 21\nvalue = [8, 18, 5, 0, 0, 0]", fillcolor="#d4f4a9"] ;
111 -> 181 ;
182 [label="resident <= 65.0\ngini = 0.499\nsamples = 20\nvalue = [4, 18, 5, 0, 0, 0]", fillcolor="#c5f08a"] ;
181 -> 182 ;
183 [label="resident <= 45.0\ngini = 0.64\nsamples = 11\nvalue = [4, 7, 4, 0, 0, 0]", fillcolor="#e4f8c9"] ;
182 -> 183 ;
184 [label="resident <= 25.0\ngini = 0.375\nsamples = 5\nvalue = [2, 6, 0, 0, 0, 0]", fillcolor="#beee7b"] ;
183 -> 184 ;
185 [label="gini = 0.0\nsamples = 2\nvalue = [0, 4, 0, 0, 0, 0]", fillcolor="#9de539"] ;
184 -> 185 ;
186 [label="floating <= 380.0\ngini = 0.5\nsamples = 3\nvalue = [2, 2, 0, 0, 0, 0]", fillcolor="#ffffff"] ;
184 -> 186 ;
187 [label="gini = 0.0\nsamples = 2\nvalue = [2, 0, 0, 0, 0, 0]", fillcolor="#e58139"] ;
186 -> 187 ;
188 [label="gini = 0.0\nsamples = 1\nvalue = [0, 2, 0, 0, 0, 0]", fillcolor="#9de539"] ;
186 -> 188 ;
189 [label="floating <= 350.0\ngini = 0.571\nsamples = 6\nvalue = [2, 1, 4, 0, 0, 0]", fillcolor="#b0f5cd"] ;
183 -> 189 ;
190 [label="floating <= 260.0\ngini = 0.444\nsamples = 3\nvalue = [2, 1, 0, 0, 0, 0]", fillcolor="#f2c09c"] ;
189 -> 190 ;
191 [label="gini = 0.0\nsamples = 1\nvalue = [0, 1, 0, 0, 0, 0]", fillcolor="#9de539"] ;
190 -> 191 ;
192 [label="gini = 0.0\nsamples = 2\nvalue = [2, 0, 0, 0, 0, 0]", fillcolor="#e58139"] ;
190 -> 192 ;
193 [label="gini = 0.0\nsamples = 3\nvalue = [0, 0, 4, 0, 0, 0]", fillcolor="#39e581"] ;
189 -> 193 ;
194 [label="floating <= 535.0\ngini = 0.153\nsamples = 9\nvalue = [0, 11, 1, 0, 0, 0]", fillcolor="#a6e74b"] ;
182 -> 194 ;
195 [label="floating <= 465.0\ngini = 0.278\nsamples = 4\nvalue = [0, 5, 1, 0, 0, 0]", fillcolor="#b1ea61"] ;
194 -> 195 ;
196 [label="gini = 0.0\nsamples = 3\nvalue = [0, 5, 0, 0, 0, 0]", fillcolor="#9de539"] ;
195 -> 196 ;
197 [label="gini = 0.0\nsamples = 1\nvalue = [0, 0, 1, 0, 0, 0]", fillcolor="#39e581"] ;
195 -> 197 ;
198 [label="gini = 0.0\nsamples = 5\nvalue = [0, 6, 0, 0, 0, 0]", fillcolor="#9de539"] ;
194 -> 198 ;
199 [label="gini = 0.0\nsamples = 1\nvalue = [4, 0, 0, 0, 0, 0]", fillcolor="#e58139"] ;
181 -> 199 ;
200 [label="resident <= 275.0\ngini = 0.799\nsamples = 156\nvalue = [22, 62, 44, 58, 49, 11]", fillcolor="#fdfefb"] ;
2 -> 200 ;
201 [label="floating <= 1970.0\ngini = 0.755\nsamples = 78\nvalue = [8, 15, 23, 47, 20, 6]", fillcolor="#cee6f8"] ;
200 -> 201 ;
202 [label="floating <= 1740.0\ngini = 0.762\nsamples = 59\nvalue = [7, 11, 23, 28, 20, 0]", fillcolor="#f0f8fd"] ;
201 -> 202 ;
203 [label="CCTV_num <= 1.0\ngini = 0.721\nsamples = 45\nvalue = [2, 7, 19, 27, 15, 0]", fillcolor="#e0f0fb"] ;
202 -> 203 ;
204 [label="floating <= 1305.0\ngini = 0.737\nsamples = 36\nvalue = [2, 6, 18, 11, 15, 0]", fillcolor="#effdf5"] ;
203 -> 204 ;
205 [label="resident <= 225.0\ngini = 0.692\nsamples = 20\nvalue = [1, 1, 6, 10, 11, 0]", fillcolor="#f8f5fe"] ;
204 -> 205 ;
206 [label="resident <= 205.0\ngini = 0.582\nsamples = 13\nvalue = [1, 1, 0, 10, 7, 0]", fillcolor="#cee6f8"] ;
205 -> 206 ;
207 [label="floating <= 1155.0\ngini = 0.519\nsamples = 7\nvalue = [1, 1, 0, 1, 6, 0]", fillcolor="#b083ef"] ;
206 -> 207 ;
208 [label="floating <= 1085.0\ngini = 0.5\nsamples = 2\nvalue = [0, 1, 0, 1, 0, 0]", fillcolor="#ffffff"] ;
207 -> 208 ;
209 [label="gini = 0.0\nsamples = 1\nvalue = [0, 0, 0, 1, 0, 0]", fillcolor="#399de5"] ;
208 -> 209 ;
210 [label="gini = 0.0\nsamples = 1\nvalue = [0, 1, 0, 0, 0, 0]", fillcolor="#9de539"] ;
208 -> 210 ;
211 [label="floating <= 1225.0\ngini = 0.245\nsamples = 5\nvalue = [1, 0, 0, 0, 6, 0]", fillcolor="#965ae9"] ;
207 -> 211 ;
212 [label="gini = 0.0\nsamples = 4\nvalue = [0, 0, 0, 0, 6, 0]", fillcolor="#8139e5"] ;
211 -> 212 ;
213 [label="gini = 0.0\nsamples = 1\nvalue = [1, 0, 0, 0, 0, 0]", fillcolor="#e58139"] ;
211 -> 213 ;
214 [label="floating <= 1080.0\ngini = 0.18\nsamples = 6\nvalue = [0, 0, 0, 9, 1, 0]", fillcolor="#4fa8e8"] ;
206 -> 214 ;
215 [label="gini = 0.0\nsamples = 1\nvalue = [0, 0, 0, 0, 1, 0]", fillcolor="#8139e5"] ;
214 -> 215 ;
216 [label="gini = 0.0\nsamples = 5\nvalue = [0, 0, 0, 9, 0, 0]", fillcolor="#399de5"] ;
214 -> 216 ;
217 [label="floating <= 1245.0\ngini = 0.48\nsamples = 7\nvalue = [0, 0, 6, 0, 4, 0]", fillcolor="#bdf6d5"] ;
205 -> 217 ;
218 [label="gini = 0.0\nsamples = 4\nvalue = [0, 0, 6, 0, 0, 0]", fillcolor="#39e581"] ;
217 -> 218 ;
219 [label="gini = 0.0\nsamples = 3\nvalue = [0, 0, 0, 0, 4, 0]", fillcolor="#8139e5"] ;
217 -> 219 ;
220 [label="floating <= 1560.0\ngini = 0.647\nsamples = 16\nvalue = [1, 5, 12, 1, 4, 0]", fillcolor="#b2f5ce"] ;
204 -> 220 ;
221 [label="resident <= 210.0\ngini = 0.485\nsamples = 9\nvalue = [1, 2, 9, 1, 0, 0]", fillcolor="#81eeaf"] ;
220 -> 221 ;
222 [label="resident <= 145.0\ngini = 0.667\nsamples = 3\nvalue = [1, 1, 0, 1, 0, 0]", fillcolor="#ffffff"] ;
221 -> 222 ;
223 [label="gini = 0.0\nsamples = 1\nvalue = [1, 0, 0, 0, 0, 0]", fillcolor="#e58139"] ;
222 -> 223 ;
224 [label="resident <= 195.0\ngini = 0.5\nsamples = 2\nvalue = [0, 1, 0, 1, 0, 0]", fillcolor="#ffffff"] ;
222 -> 224 ;
225 [label="gini = 0.0\nsamples = 1\nvalue = [0, 1, 0, 0, 0, 0]", fillcolor="#9de539"] ;
224 -> 225 ;
226 [label="gini = 0.0\nsamples = 1\nvalue = [0, 0, 0, 1, 0, 0]", fillcolor="#399de5"] ;
224 -> 226 ;
227 [label="resident <= 235.0\ngini = 0.18\nsamples = 6\nvalue = [0, 1, 9, 0, 0, 0]", fillcolor="#4fe88f"] ;
221 -> 227 ;
228 [label="floating <= 1330.0\ngini = 0.375\nsamples = 3\nvalue = [0, 1, 3, 0, 0, 0]", fillcolor="#7beeab"] ;
227 -> 228 ;
229 [label="gini = 0.0\nsamples = 2\nvalue = [0, 0, 3, 0, 0, 0]", fillcolor="#39e581"] ;
228 -> 229 ;
230 [label="gini = 0.0\nsamples = 1\nvalue = [0, 1, 0, 0, 0, 0]", fillcolor="#9de539"] ;
228 -> 230 ;
231 [label="gini = 0.0\nsamples = 3\nvalue = [0, 0, 6, 0, 0, 0]", fillcolor="#39e581"] ;
227 -> 231 ;
232 [label="floating <= 1605.0\ngini = 0.66\nsamples = 7\nvalue = [0, 3, 3, 0, 4, 0]", fillcolor="#ede3fb"] ;
220 -> 232 ;
233 [label="gini = 0.0\nsamples = 3\nvalue = [0, 0, 0, 0, 4, 0]", fillcolor="#8139e5"] ;
232 -> 233 ;
234 [label="resident <= 265.0\ngini = 0.5\nsamples = 4\nvalue = [0, 3, 3, 0, 0, 0]", fillcolor="#ffffff"] ;
232 -> 234 ;
235 [label="gini = 0.0\nsamples = 2\nvalue = [0, 3, 0, 0, 0, 0]", fillcolor="#9de539"] ;
234 -> 235 ;
236 [label="gini = 0.0\nsamples = 2\nvalue = [0, 0, 3, 0, 0, 0]", fillcolor="#39e581"] ;
234 -> 236 ;
237 [label="resident <= 250.0\ngini = 0.204\nsamples = 9\nvalue = [0, 1, 1, 16, 0, 0]", fillcolor="#50a9e8"] ;
203 -> 237 ;
238 [label="gini = 0.0\nsamples = 7\nvalue = [0, 0, 0, 16, 0, 0]", fillcolor="#399de5"] ;
237 -> 238 ;
239 [label="floating <= 1535.0\ngini = 0.5\nsamples = 2\nvalue = [0, 1, 1, 0, 0, 0]", fillcolor="#ffffff"] ;
237 -> 239 ;
240 [label="gini = 0.0\nsamples = 1\nvalue = [0, 1, 0, 0, 0, 0]", fillcolor="#9de539"] ;
239 -> 240 ;
241 [label="gini = 0.0\nsamples = 1\nvalue = [0, 0, 1, 0, 0, 0]", fillcolor="#39e581"] ;
239 -> 241 ;
242 [label="resident <= 245.0\ngini = 0.77\nsamples = 14\nvalue = [5, 4, 4, 1, 5, 0]", fillcolor="#ffffff"] ;
202 -> 242 ;
243 [label="floating <= 1900.0\ngini = 0.562\nsamples = 5\nvalue = [1, 1, 0, 1, 5, 0]", fillcolor="#b78ef0"] ;
242 -> 243 ;
244 [label="resident <= 235.0\ngini = 0.278\nsamples = 3\nvalue = [1, 0, 0, 0, 5, 0]", fillcolor="#9a61ea"] ;
243 -> 244 ;
245 [label="gini = 0.0\nsamples = 1\nvalue = [1, 0, 0, 0, 0, 0]", fillcolor="#e58139"] ;
244 -> 245 ;
246 [label="gini = 0.0\nsamples = 2\nvalue = [0, 0, 0, 0, 5, 0]", fillcolor="#8139e5"] ;
244 -> 246 ;
247 [label="floating <= 1940.0\ngini = 0.5\nsamples = 2\nvalue = [0, 1, 0, 1, 0, 0]", fillcolor="#ffffff"] ;
243 -> 247 ;
248 [label="gini = 0.0\nsamples = 1\nvalue = [0, 0, 0, 1, 0, 0]", fillcolor="#399de5"] ;
247 -> 248 ;
249 [label="gini = 0.0\nsamples = 1\nvalue = [0, 1, 0, 0, 0, 0]", fillcolor="#9de539"] ;
247 -> 249 ;
250 [label="resident <= 255.0\ngini = 0.661\nsamples = 9\nvalue = [4, 3, 4, 0, 0, 0]", fillcolor="#ffffff"] ;
242 -> 250 ;
251 [label="floating <= 1880.0\ngini = 0.444\nsamples = 2\nvalue = [1, 0, 2, 0, 0, 0]", fillcolor="#9cf2c0"] ;
250 -> 251 ;
252 [label="gini = 0.0\nsamples = 1\nvalue = [1, 0, 0, 0, 0, 0]", fillcolor="#e58139"] ;
251 -> 252 ;
253 [label="gini = 0.0\nsamples = 1\nvalue = [0, 0, 2, 0, 0, 0]", fillcolor="#39e581"] ;
251 -> 253 ;
254 [label="CCTV_num <= 0.5\ngini = 0.656\nsamples = 7\nvalue = [3, 3, 2, 0, 0, 0]", fillcolor="#ffffff"] ;
250 -> 254 ;
255 [label="resident <= 265.0\ngini = 0.653\nsamples = 6\nvalue = [2, 3, 2, 0, 0, 0]", fillcolor="#ebfad7"] ;
254 -> 255 ;
256 [label="floating <= 1845.0\ngini = 0.667\nsamples = 5\nvalue = [2, 2, 2, 0, 0, 0]", fillcolor="#ffffff"] ;
255 -> 256 ;
257 [label="gini = 0.5\nsamples = 3\nvalue = [0, 2, 2, 0, 0, 0]", fillcolor="#ffffff"] ;
256 -> 257 ;
258 [label="gini = 0.0\nsamples = 2\nvalue = [2, 0, 0, 0, 0, 0]", fillcolor="#e58139"] ;
256 -> 258 ;
259 [label="gini = 0.0\nsamples = 1\nvalue = [0, 1, 0, 0, 0, 0]", fillcolor="#9de539"] ;
255 -> 259 ;
260 [label="gini = 0.0\nsamples = 1\nvalue = [1, 0, 0, 0, 0, 0]", fillcolor="#e58139"] ;
254 -> 260 ;
261 [label="floating <= 2000.0\ngini = 0.54\nsamples = 19\nvalue = [1, 4, 0, 19, 0, 6]", fillcolor="#94caf1"] ;
201 -> 261 ;
262 [label="gini = 0.0\nsamples = 10\nvalue = [0, 0, 0, 17, 0, 0]", fillcolor="#399de5"] ;
261 -> 262 ;
263 [label="resident <= 255.0\ngini = 0.663\nsamples = 9\nvalue = [1, 4, 0, 2, 0, 6]", fillcolor="#f9d3e9"] ;
261 -> 263 ;
264 [label="resident <= 240.0\ngini = 0.406\nsamples = 7\nvalue = [1, 1, 0, 0, 0, 6]", fillcolor="#ec72b9"] ;
263 -> 264 ;
265 [label="floating <= 2050.0\ngini = 0.5\nsamples = 2\nvalue = [1, 1, 0, 0, 0, 0]", fillcolor="#ffffff"] ;
264 -> 265 ;
266 [label="gini = 0.0\nsamples = 1\nvalue = [1, 0, 0, 0, 0, 0]", fillcolor="#e58139"] ;
265 -> 266 ;
267 [label="gini = 0.0\nsamples = 1\nvalue = [0, 1, 0, 0, 0, 0]", fillcolor="#9de539"] ;
265 -> 267 ;
268 [label="gini = 0.0\nsamples = 5\nvalue = [0, 0, 0, 0, 0, 6]", fillcolor="#e5399d"] ;
264 -> 268 ;
269 [label="resident <= 265.0\ngini = 0.48\nsamples = 2\nvalue = [0, 3, 0, 2, 0, 0]", fillcolor="#def6bd"] ;
263 -> 269 ;
270 [label="gini = 0.0\nsamples = 1\nvalue = [0, 3, 0, 0, 0, 0]", fillcolor="#9de539"] ;
269 -> 270 ;
271 [label="gini = 0.0\nsamples = 1\nvalue = [0, 0, 0, 2, 0, 0]", fillcolor="#399de5"] ;
269 -> 271 ;
272 [label="floating <= 1955.0\ngini = 0.762\nsamples = 78\nvalue = [14, 47, 21, 11, 29, 5]", fillcolor="#edfadb"] ;
200 -> 272 ;
273 [label="floating <= 1785.0\ngini = 0.745\nsamples = 59\nvalue = [13, 40, 18, 9, 10, 5]", fillcolor="#e3f8c6"] ;
272 -> 273 ;
274 [label="resident <= 325.0\ngini = 0.595\nsamples = 33\nvalue = [9, 34, 5, 0, 10, 0]", fillcolor="#cef29c"] ;
273 -> 274 ;
275 [label="CCTV_num <= 0.5\ngini = 0.628\nsamples = 18\nvalue = [7, 16, 0, 0, 10, 0]", fillcolor="#e5f8cb"] ;
274 -> 275 ;
276 [label="floating <= 1495.0\ngini = 0.662\nsamples = 13\nvalue = [7, 9, 0, 0, 7, 0]", fillcolor="#f3fce6"] ;
275 -> 276 ;
277 [label="gini = 0.0\nsamples = 4\nvalue = [0, 0, 0, 0, 5, 0]", fillcolor="#8139e5"] ;
276 -> 277 ;
278 [label="resident <= 310.0\ngini = 0.586\nsamples = 9\nvalue = [7, 9, 0, 0, 2, 0]", fillcolor="#edfadb"] ;
276 -> 278 ;
279 [label="floating <= 1750.0\ngini = 0.492\nsamples = 8\nvalue = [7, 9, 0, 0, 0, 0]", fillcolor="#e9f9d3"] ;
278 -> 279 ;
280 [label="resident <= 295.0\ngini = 0.426\nsamples = 7\nvalue = [4, 9, 0, 0, 0, 0]", fillcolor="#c9f191"] ;
279 -> 280 ;
281 [label="floating <= 1645.0\ngini = 0.375\nsamples = 6\nvalue = [3, 9, 0, 0, 0, 0]", fillcolor="#beee7b"] ;
280 -> 281 ;
282 [label="floating <= 1565.0\ngini = 0.49\nsamples = 3\nvalue = [3, 4, 0, 0, 0, 0]", fillcolor="#e6f8ce"] ;
281 -> 282 ;
283 [label="gini = 0.0\nsamples = 2\nvalue = [0, 4, 0, 0, 0, 0]", fillcolor="#9de539"] ;
282 -> 283 ;
284 [label="gini = 0.0\nsamples = 1\nvalue = [3, 0, 0, 0, 0, 0]", fillcolor="#e58139"] ;
282 -> 284 ;
285 [label="gini = 0.0\nsamples = 3\nvalue = [0, 5, 0, 0, 0, 0]", fillcolor="#9de539"] ;
281 -> 285 ;
286 [label="gini = 0.0\nsamples = 1\nvalue = [1, 0, 0, 0, 0, 0]", fillcolor="#e58139"] ;
280 -> 286 ;
287 [label="gini = 0.0\nsamples = 1\nvalue = [3, 0, 0, 0, 0, 0]", fillcolor="#e58139"] ;
279 -> 287 ;
288 [label="gini = 0.0\nsamples = 1\nvalue = [0, 0, 0, 0, 2, 0]", fillcolor="#8139e5"] ;
278 -> 288 ;
289 [label="floating <= 1715.0\ngini = 0.42\nsamples = 5\nvalue = [0, 7, 0, 0, 3, 0]", fillcolor="#c7f08e"] ;
275 -> 289 ;
290 [label="gini = 0.0\nsamples = 3\nvalue = [0, 7, 0, 0, 0, 0]", fillcolor="#9de539"] ;
289 -> 290 ;
291 [label="gini = 0.0\nsamples = 2\nvalue = [0, 0, 0, 0, 3, 0]", fillcolor="#8139e5"] ;
289 -> 291 ;
292 [label="resident <= 335.0\ngini = 0.435\nsamples = 15\nvalue = [2, 18, 5, 0, 0, 0]", fillcolor="#bfee7e"] ;
274 -> 292 ;
293 [label="floating <= 1760.0\ngini = 0.48\nsamples = 5\nvalue = [0, 2, 3, 0, 0, 0]", fillcolor="#bdf6d5"] ;
292 -> 293 ;
294 [label="gini = 0.0\nsamples = 3\nvalue = [0, 0, 3, 0, 0, 0]", fillcolor="#39e581"] ;
293 -> 294 ;
295 [label="gini = 0.0\nsamples = 2\nvalue = [0, 2, 0, 0, 0, 0]", fillcolor="#9de539"] ;
293 -> 295 ;
296 [label="floating <= 1645.0\ngini = 0.34\nsamples = 10\nvalue = [2, 16, 2, 0, 0, 0]", fillcolor="#b3eb65"] ;
292 -> 296 ;
297 [label="gini = 0.0\nsamples = 1\nvalue = [2, 0, 0, 0, 0, 0]", fillcolor="#e58139"] ;
296 -> 297 ;
298 [label="resident <= 355.0\ngini = 0.198\nsamples = 9\nvalue = [0, 16, 2, 0, 0, 0]", fillcolor="#a9e852"] ;
296 -> 298 ;
299 [label="floating <= 1755.0\ngini = 0.32\nsamples = 6\nvalue = [0, 8, 2, 0, 0, 0]", fillcolor="#b6ec6a"] ;
298 -> 299 ;
300 [label="gini = 0.0\nsamples = 2\nvalue = [0, 0, 2, 0, 0, 0]", fillcolor="#39e581"] ;
299 -> 300 ;
301 [label="gini = 0.0\nsamples = 4\nvalue = [0, 8, 0, 0, 0, 0]", fillcolor="#9de539"] ;
299 -> 301 ;
302 [label="gini = 0.0\nsamples = 3\nvalue = [0, 8, 0, 0, 0, 0]", fillcolor="#9de539"] ;
298 -> 302 ;
303 [label="floating <= 1885.0\ngini = 0.761\nsamples = 26\nvalue = [4, 6, 13, 9, 0, 5]", fillcolor="#e3fbed"] ;
273 -> 303 ;
304 [label="floating <= 1865.0\ngini = 0.648\nsamples = 11\nvalue = [2, 2, 9, 0, 0, 5]", fillcolor="#c2f7d8"] ;
303 -> 304 ;
305 [label="floating <= 1810.0\ngini = 0.708\nsamples = 7\nvalue = [2, 2, 3, 0, 0, 5]", fillcolor="#f9d3e9"] ;
304 -> 305 ;
306 [label="gini = 0.0\nsamples = 2\nvalue = [0, 0, 3, 0, 0, 0]", fillcolor="#39e581"] ;
305 -> 306 ;
307 [label="floating <= 1845.0\ngini = 0.593\nsamples = 5\nvalue = [2, 2, 0, 0, 0, 5]", fillcolor="#f4aad5"] ;
305 -> 307 ;
308 [label="gini = 0.0\nsamples = 3\nvalue = [0, 0, 0, 0, 0, 5]", fillcolor="#e5399d"] ;
307 -> 308 ;
309 [label="resident <= 345.0\ngini = 0.5\nsamples = 2\nvalue = [2, 2, 0, 0, 0, 0]", fillcolor="#ffffff"] ;
307 -> 309 ;
310 [label="gini = 0.0\nsamples = 1\nvalue = [0, 2, 0, 0, 0, 0]", fillcolor="#9de539"] ;
309 -> 310 ;
311 [label="gini = 0.0\nsamples = 1\nvalue = [2, 0, 0, 0, 0, 0]", fillcolor="#e58139"] ;
309 -> 311 ;
312 [label="gini = 0.0\nsamples = 4\nvalue = [0, 0, 6, 0, 0, 0]", fillcolor="#39e581"] ;
304 -> 312 ;
313 [label="floating <= 1945.0\ngini = 0.676\nsamples = 15\nvalue = [2, 4, 4, 9, 0, 0]", fillcolor="#bddef6"] ;
303 -> 313 ;
314 [label="resident <= 325.0\ngini = 0.63\nsamples = 13\nvalue = [1, 4, 3, 9, 0, 0]", fillcolor="#b3d9f5"] ;
313 -> 314 ;
315 [label="resident <= 290.0\ngini = 0.18\nsamples = 7\nvalue = [0, 0, 1, 9, 0, 0]", fillcolor="#4fa8e8"] ;
314 -> 315 ;
316 [label="gini = 0.0\nsamples = 1\nvalue = [0, 0, 1, 0, 0, 0]", fillcolor="#39e581"] ;
315 -> 316 ;
317 [label="gini = 0.0\nsamples = 6\nvalue = [0, 0, 0, 9, 0, 0]", fillcolor="#399de5"] ;
315 -> 317 ;
318 [label="resident <= 395.0\ngini = 0.571\nsamples = 6\nvalue = [1, 4, 2, 0, 0, 0]", fillcolor="#d8f5b0"] ;
314 -> 318 ;
319 [label="floating <= 1925.0\ngini = 0.444\nsamples = 5\nvalue = [0, 4, 2, 0, 0, 0]", fillcolor="#cef29c"] ;
318 -> 319 ;
320 [label="floating <= 1905.0\ngini = 0.32\nsamples = 4\nvalue = [0, 4, 1, 0, 0, 0]", fillcolor="#b6ec6a"] ;
319 -> 320 ;
321 [label="gini = 0.0\nsamples = 1\nvalue = [0, 1, 0, 0, 0, 0]", fillcolor="#9de539"] ;
320 -> 321 ;
322 [label="resident <= 345.0\ngini = 0.375\nsamples = 3\nvalue = [0, 3, 1, 0, 0, 0]", fillcolor="#beee7b"] ;
320 -> 322 ;
323 [label="gini = 0.0\nsamples = 1\nvalue = [0, 0, 1, 0, 0, 0]", fillcolor="#39e581"] ;
322 -> 323 ;
324 [label="gini = 0.0\nsamples = 2\nvalue = [0, 3, 0, 0, 0, 0]", fillcolor="#9de539"] ;
322 -> 324 ;
325 [label="gini = 0.0\nsamples = 1\nvalue = [0, 0, 1, 0, 0, 0]", fillcolor="#39e581"] ;
319 -> 325 ;
326 [label="gini = 0.0\nsamples = 1\nvalue = [1, 0, 0, 0, 0, 0]", fillcolor="#e58139"] ;
318 -> 326 ;
327 [label="resident <= 285.0\ngini = 0.5\nsamples = 2\nvalue = [1, 0, 1, 0, 0, 0]", fillcolor="#ffffff"] ;
313 -> 327 ;
328 [label="gini = 0.0\nsamples = 1\nvalue = [1, 0, 0, 0, 0, 0]", fillcolor="#e58139"] ;
327 -> 328 ;
329 [label="gini = 0.0\nsamples = 1\nvalue = [0, 0, 1, 0, 0, 0]", fillcolor="#39e581"] ;
327 -> 329 ;
330 [label="floating <= 1965.0\ngini = 0.586\nsamples = 19\nvalue = [1, 7, 3, 2, 19, 0]", fillcolor="#c3a0f3"] ;
272 -> 330 ;
331 [label="gini = 0.0\nsamples = 8\nvalue = [0, 0, 0, 0, 15, 0]", fillcolor="#8139e5"] ;
330 -> 331 ;
332 [label="CCTV_num <= 0.5\ngini = 0.727\nsamples = 11\nvalue = [1, 7, 3, 2, 4, 0]", fillcolor="#e8f9d1"] ;
330 -> 332 ;
333 [label="resident <= 300.0\ngini = 0.742\nsamples = 10\nvalue = [1, 6, 3, 2, 4, 0]", fillcolor="#effbde"] ;
332 -> 333 ;
334 [label="floating <= 2040.0\ngini = 0.594\nsamples = 5\nvalue = [1, 0, 3, 0, 4, 0]", fillcolor="#e6d7fa"] ;
333 -> 334 ;
335 [label="gini = 0.0\nsamples = 2\nvalue = [0, 0, 0, 0, 4, 0]", fillcolor="#8139e5"] ;
334 -> 335 ;
336 [label="floating <= 2095.0\ngini = 0.375\nsamples = 3\nvalue = [1, 0, 3, 0, 0, 0]", fillcolor="#7beeab"] ;
334 -> 336 ;
337 [label="gini = 0.0\nsamples = 2\nvalue = [0, 0, 3, 0, 0, 0]", fillcolor="#39e581"] ;
336 -> 337 ;
338 [label="gini = 0.0\nsamples = 1\nvalue = [1, 0, 0, 0, 0, 0]", fillcolor="#e58139"] ;
336 -> 338 ;
339 [label="resident <= 335.0\ngini = 0.375\nsamples = 5\nvalue = [0, 6, 0, 2, 0, 0]", fillcolor="#beee7b"] ;
333 -> 339 ;
340 [label="floating <= 2000.0\ngini = 0.5\nsamples = 3\nvalue = [0, 2, 0, 2, 0, 0]", fillcolor="#ffffff"] ;
339 -> 340 ;
341 [label="gini = 0.0\nsamples = 1\nvalue = [0, 0, 0, 2, 0, 0]", fillcolor="#399de5"] ;
340 -> 341 ;
342 [label="gini = 0.0\nsamples = 2\nvalue = [0, 2, 0, 0, 0, 0]", fillcolor="#9de539"] ;
340 -> 342 ;
343 [label="gini = 0.0\nsamples = 2\nvalue = [0, 4, 0, 0, 0, 0]", fillcolor="#9de539"] ;
339 -> 343 ;
344 [label="gini = 0.0\nsamples = 1\nvalue = [0, 1, 0, 0, 0, 0]", fillcolor="#9de539"] ;
332 -> 344 ;
345 [label="CCTV_num <= 12.0\ngini = 0.674\nsamples = 106\nvalue = [56, 61, 29, 5, 3, 0]", fillcolor="#fafef5"] ;
1 -> 345 ;
346 [label="resident <= 470.0\ngini = 0.677\nsamples = 103\nvalue = [56, 57, 29, 5, 3, 0]", fillcolor="#fefffd"] ;
345 -> 346 ;
347 [label="floating <= 1790.0\ngini = 0.672\nsamples = 101\nvalue = [56, 57, 26, 5, 3, 0]", fillcolor="#fefffd"] ;
346 -> 347 ;
348 [label="CCTV_num <= 4.5\ngini = 0.664\nsamples = 85\nvalue = [52, 43, 26, 4, 0, 0]", fillcolor="#fcf1e9"] ;
347 -> 348 ;
349 [label="CCTV_num <= 3.5\ngini = 0.659\nsamples = 45\nvalue = [23, 26, 18, 0, 0, 0]", fillcolor="#f8fdf1"] ;
348 -> 349 ;
350 [label="resident <= 275.0\ngini = 0.624\nsamples = 21\nvalue = [12, 13, 5, 0, 0, 0]", fillcolor="#fafef4"] ;
349 -> 350 ;
351 [label="resident <= 150.0\ngini = 0.622\nsamples = 17\nvalue = [12, 7, 5, 0, 0, 0]", fillcolor="#f7dac5"] ;
350 -> 351 ;
352 [label="floating <= 150.0\ngini = 0.498\nsamples = 11\nvalue = [8, 7, 0, 0, 0, 0]", fillcolor="#fcefe6"] ;
351 -> 352 ;
353 [label="gini = 0.0\nsamples = 1\nvalue = [2, 0, 0, 0, 0, 0]", fillcolor="#e58139"] ;
352 -> 353 ;
354 [label="resident <= 95.0\ngini = 0.497\nsamples = 10\nvalue = [6, 7, 0, 0, 0, 0]", fillcolor="#f1fbe3"] ;
352 -> 354 ;
355 [label="floating <= 185.0\ngini = 0.463\nsamples = 8\nvalue = [4, 7, 0, 0, 0, 0]", fillcolor="#d5f4aa"] ;
354 -> 355 ;
356 [label="gini = 0.0\nsamples = 2\nvalue = [0, 3, 0, 0, 0, 0]", fillcolor="#9de539"] ;
355 -> 356 ;
357 [label="resident <= 40.0\ngini = 0.5\nsamples = 6\nvalue = [4, 4, 0, 0, 0, 0]", fillcolor="#ffffff"] ;
355 -> 357 ;
358 [label="gini = 0.0\nsamples = 2\nvalue = [2, 0, 0, 0, 0, 0]", fillcolor="#e58139"] ;
357 -> 358 ;
359 [label="resident <= 70.0\ngini = 0.444\nsamples = 4\nvalue = [2, 4, 0, 0, 0, 0]", fillcolor="#cef29c"] ;
357 -> 359 ;
360 [label="floating <= 240.0\ngini = 0.5\nsamples = 3\nvalue = [2, 2, 0, 0, 0, 0]", fillcolor="#ffffff"] ;
359 -> 360 ;
361 [label="gini = 0.0\nsamples = 2\nvalue = [0, 2, 0, 0, 0, 0]", fillcolor="#9de539"] ;
360 -> 361 ;
362 [label="gini = 0.0\nsamples = 1\nvalue = [2, 0, 0, 0, 0, 0]", fillcolor="#e58139"] ;
360 -> 362 ;
363 [label="gini = 0.0\nsamples = 1\nvalue = [0, 2, 0, 0, 0, 0]", fillcolor="#9de539"] ;
359 -> 363 ;
364 [label="gini = 0.0\nsamples = 2\nvalue = [2, 0, 0, 0, 0, 0]", fillcolor="#e58139"] ;
354 -> 364 ;
365 [label="resident <= 190.0\ngini = 0.494\nsamples = 6\nvalue = [4, 0, 5, 0, 0, 0]", fillcolor="#d7fae6"] ;
351 -> 365 ;
366 [label="gini = 0.0\nsamples = 2\nvalue = [0, 0, 5, 0, 0, 0]", fillcolor="#39e581"] ;
365 -> 366 ;
367 [label="gini = 0.0\nsamples = 4\nvalue = [4, 0, 0, 0, 0, 0]", fillcolor="#e58139"] ;
365 -> 367 ;
368 [label="gini = 0.0\nsamples = 4\nvalue = [0, 6, 0, 0, 0, 0]", fillcolor="#9de539"] ;
350 -> 368 ;
369 [label="floating <= 1565.0\ngini = 0.665\nsamples = 24\nvalue = [11, 13, 13, 0, 0, 0]", fillcolor="#ffffff"] ;
349 -> 369 ;
370 [label="resident <= 15.0\ngini = 0.601\nsamples = 16\nvalue = [9, 11, 3, 0, 0, 0]", fillcolor="#f1fbe3"] ;
369 -> 370 ;
371 [label="gini = 0.0\nsamples = 1\nvalue = [0, 0, 3, 0, 0, 0]", fillcolor="#39e581"] ;
370 -> 371 ;
372 [label="resident <= 55.0\ngini = 0.495\nsamples = 15\nvalue = [9, 11, 0, 0, 0, 0]", fillcolor="#edfadb"] ;
370 -> 372 ;
373 [label="floating <= 225.0\ngini = 0.444\nsamples = 6\nvalue = [3, 6, 0, 0, 0, 0]", fillcolor="#cef29c"] ;
372 -> 373 ;
374 [label="resident <= 25.0\ngini = 0.375\nsamples = 4\nvalue = [3, 1, 0, 0, 0, 0]", fillcolor="#eeab7b"] ;
373 -> 374 ;
375 [label="gini = 0.0\nsamples = 1\nvalue = [0, 1, 0, 0, 0, 0]", fillcolor="#9de539"] ;
374 -> 375 ;
376 [label="gini = 0.0\nsamples = 3\nvalue = [3, 0, 0, 0, 0, 0]", fillcolor="#e58139"] ;
374 -> 376 ;
377 [label="gini = 0.0\nsamples = 2\nvalue = [0, 5, 0, 0, 0, 0]", fillcolor="#9de539"] ;
373 -> 377 ;
378 [label="floating <= 905.0\ngini = 0.496\nsamples = 9\nvalue = [6, 5, 0, 0, 0, 0]", fillcolor="#fbeade"] ;
372 -> 378 ;
379 [label="gini = 0.0\nsamples = 3\nvalue = [3, 0, 0, 0, 0, 0]", fillcolor="#e58139"] ;
378 -> 379 ;
380 [label="floating <= 1380.0\ngini = 0.469\nsamples = 6\nvalue = [3, 5, 0, 0, 0, 0]", fillcolor="#d8f5b0"] ;
378 -> 380 ;
381 [label="gini = 0.0\nsamples = 4\nvalue = [0, 5, 0, 0, 0, 0]", fillcolor="#9de539"] ;
380 -> 381 ;
382 [label="gini = 0.0\nsamples = 2\nvalue = [3, 0, 0, 0, 0, 0]", fillcolor="#e58139"] ;
380 -> 382 ;
383 [label="resident <= 265.0\ngini = 0.449\nsamples = 8\nvalue = [2, 2, 10, 0, 0, 0]", fillcolor="#7beeab"] ;
369 -> 383 ;
384 [label="gini = 0.0\nsamples = 4\nvalue = [0, 0, 10, 0, 0, 0]", fillcolor="#39e581"] ;
383 -> 384 ;
385 [label="resident <= 300.0\ngini = 0.5\nsamples = 4\nvalue = [2, 2, 0, 0, 0, 0]", fillcolor="#ffffff"] ;
383 -> 385 ;
386 [label="gini = 0.0\nsamples = 2\nvalue = [2, 0, 0, 0, 0, 0]", fillcolor="#e58139"] ;
385 -> 386 ;
387 [label="gini = 0.0\nsamples = 2\nvalue = [0, 2, 0, 0, 0, 0]", fillcolor="#9de539"] ;
385 -> 387 ;
388 [label="floating <= 1530.0\ngini = 0.64\nsamples = 40\nvalue = [29, 17, 8, 4, 0, 0]", fillcolor="#f7dac5"] ;
348 -> 388 ;
389 [label="floating <= 300.0\ngini = 0.619\nsamples = 29\nvalue = [20, 16, 7, 0, 0, 0]", fillcolor="#fbece2"] ;
388 -> 389 ;
390 [label="resident <= 5.0\ngini = 0.355\nsamples = 10\nvalue = [10, 3, 0, 0, 0, 0]", fillcolor="#eda774"] ;
389 -> 390 ;
391 [label="gini = 0.0\nsamples = 1\nvalue = [0, 2, 0, 0, 0, 0]", fillcolor="#9de539"] ;
390 -> 391 ;
392 [label="CCTV_num <= 7.5\ngini = 0.165\nsamples = 9\nvalue = [10, 1, 0, 0, 0, 0]", fillcolor="#e88e4d"] ;
390 -> 392 ;
393 [label="gini = 0.0\nsamples = 5\nvalue = [7, 0, 0, 0, 0, 0]", fillcolor="#e58139"] ;
392 -> 393 ;
394 [label="CCTV_num <= 8.5\ngini = 0.375\nsamples = 4\nvalue = [3, 1, 0, 0, 0, 0]", fillcolor="#eeab7b"] ;
392 -> 394 ;
395 [label="floating <= 130.0\ngini = 0.5\nsamples = 2\nvalue = [1, 1, 0, 0, 0, 0]", fillcolor="#ffffff"] ;
394 -> 395 ;
396 [label="gini = 0.0\nsamples = 1\nvalue = [1, 0, 0, 0, 0, 0]", fillcolor="#e58139"] ;
395 -> 396 ;
397 [label="gini = 0.0\nsamples = 1\nvalue = [0, 1, 0, 0, 0, 0]", fillcolor="#9de539"] ;
395 -> 397 ;
398 [label="gini = 0.0\nsamples = 2\nvalue = [2, 0, 0, 0, 0, 0]", fillcolor="#e58139"] ;
394 -> 398 ;
399 [label="floating <= 1475.0\ngini = 0.647\nsamples = 19\nvalue = [10, 13, 7, 0, 0, 0]", fillcolor="#f0fbe1"] ;
389 -> 399 ;
400 [label="resident <= 235.0\ngini = 0.625\nsamples = 18\nvalue = [10, 13, 5, 0, 0, 0]", fillcolor="#effbde"] ;
399 -> 400 ;
401 [label="resident <= 195.0\ngini = 0.64\nsamples = 15\nvalue = [10, 7, 5, 0, 0, 0]", fillcolor="#fae6d7"] ;
400 -> 401 ;
402 [label="floating <= 780.0\ngini = 0.657\nsamples = 13\nvalue = [5, 7, 5, 0, 0, 0]", fillcolor="#effbde"] ;
401 -> 402 ;
403 [label="CCTV_num <= 6.5\ngini = 0.615\nsamples = 9\nvalue = [2, 6, 5, 0, 0, 0]", fillcolor="#f3fce6"] ;
402 -> 403 ;
404 [label="resident <= 95.0\ngini = 0.531\nsamples = 6\nvalue = [2, 1, 5, 0, 0, 0]", fillcolor="#9cf2c0"] ;
403 -> 404 ;
405 [label="resident <= 45.0\ngini = 0.625\nsamples = 3\nvalue = [2, 1, 1, 0, 0, 0]", fillcolor="#f6d5bd"] ;
404 -> 405 ;
406 [label="gini = 0.0\nsamples = 1\nvalue = [0, 0, 1, 0, 0, 0]", fillcolor="#39e581"] ;
405 -> 406 ;
407 [label="floating <= 535.0\ngini = 0.444\nsamples = 2\nvalue = [2, 1, 0, 0, 0, 0]", fillcolor="#f2c09c"] ;
405 -> 407 ;
408 [label="gini = 0.0\nsamples = 1\nvalue = [2, 0, 0, 0, 0, 0]", fillcolor="#e58139"] ;
407 -> 408 ;
409 [label="gini = 0.0\nsamples = 1\nvalue = [0, 1, 0, 0, 0, 0]", fillcolor="#9de539"] ;
407 -> 409 ;
410 [label="gini = 0.0\nsamples = 3\nvalue = [0, 0, 4, 0, 0, 0]", fillcolor="#39e581"] ;
404 -> 410 ;
411 [label="gini = 0.0\nsamples = 3\nvalue = [0, 5, 0, 0, 0, 0]", fillcolor="#9de539"] ;
403 -> 411 ;
412 [label="resident <= 160.0\ngini = 0.375\nsamples = 4\nvalue = [3, 1, 0, 0, 0, 0]", fillcolor="#eeab7b"] ;
402 -> 412 ;
413 [label="gini = 0.0\nsamples = 3\nvalue = [3, 0, 0, 0, 0, 0]", fillcolor="#e58139"] ;
412 -> 413 ;
414 [label="gini = 0.0\nsamples = 1\nvalue = [0, 1, 0, 0, 0, 0]", fillcolor="#9de539"] ;
412 -> 414 ;
415 [label="gini = 0.0\nsamples = 2\nvalue = [5, 0, 0, 0, 0, 0]", fillcolor="#e58139"] ;
401 -> 415 ;
416 [label="gini = 0.0\nsamples = 3\nvalue = [0, 6, 0, 0, 0, 0]", fillcolor="#9de539"] ;
400 -> 416 ;
417 [label="gini = 0.0\nsamples = 1\nvalue = [0, 0, 2, 0, 0, 0]", fillcolor="#39e581"] ;
399 -> 417 ;
418 [label="resident <= 270.0\ngini = 0.56\nsamples = 11\nvalue = [9, 1, 1, 4, 0, 0]", fillcolor="#f3c6a5"] ;
388 -> 418 ;
419 [label="gini = 0.0\nsamples = 1\nvalue = [0, 1, 0, 0, 0, 0]", fillcolor="#9de539"] ;
418 -> 419 ;
420 [label="CCTV_num <= 6.5\ngini = 0.5\nsamples = 10\nvalue = [9, 0, 1, 4, 0, 0]", fillcolor="#f2c09c"] ;
418 -> 420 ;
421 [label="CCTV_num <= 5.5\ngini = 0.278\nsamples = 4\nvalue = [5, 0, 1, 0, 0, 0]", fillcolor="#ea9a61"] ;
420 -> 421 ;
422 [label="gini = 0.0\nsamples = 2\nvalue = [4, 0, 0, 0, 0, 0]", fillcolor="#e58139"] ;
421 -> 422 ;
423 [label="resident <= 295.0\ngini = 0.5\nsamples = 2\nvalue = [1, 0, 1, 0, 0, 0]", fillcolor="#ffffff"] ;
421 -> 423 ;
424 [label="gini = 0.0\nsamples = 1\nvalue = [1, 0, 0, 0, 0, 0]", fillcolor="#e58139"] ;
423 -> 424 ;
425 [label="gini = 0.0\nsamples = 1\nvalue = [0, 0, 1, 0, 0, 0]", fillcolor="#39e581"] ;
423 -> 425 ;
426 [label="CCTV_num <= 7.5\ngini = 0.5\nsamples = 6\nvalue = [4, 0, 0, 4, 0, 0]", fillcolor="#ffffff"] ;
420 -> 426 ;
427 [label="gini = 0.0\nsamples = 3\nvalue = [0, 0, 0, 4, 0, 0]", fillcolor="#399de5"] ;
426 -> 427 ;
428 [label="gini = 0.0\nsamples = 3\nvalue = [4, 0, 0, 0, 0, 0]", fillcolor="#e58139"] ;
426 -> 428 ;
429 [label="CCTV_num <= 8.5\ngini = 0.541\nsamples = 16\nvalue = [4, 14, 0, 1, 3, 0]", fillcolor="#c9f191"] ;
347 -> 429 ;
430 [label="CCTV_num <= 4.5\ngini = 0.475\nsamples = 14\nvalue = [2, 14, 0, 1, 3, 0]", fillcolor="#c0ee7f"] ;
429 -> 430 ;
431 [label="resident <= 285.0\ngini = 0.198\nsamples = 5\nvalue = [0, 8, 0, 1, 0, 0]", fillcolor="#a9e852"] ;
430 -> 431 ;
432 [label="gini = 0.0\nsamples = 2\nvalue = [0, 4, 0, 0, 0, 0]", fillcolor="#9de539"] ;
431 -> 432 ;
433 [label="CCTV_num <= 3.5\ngini = 0.32\nsamples = 3\nvalue = [0, 4, 0, 1, 0, 0]", fillcolor="#b6ec6a"] ;
431 -> 433 ;
434 [label="gini = 0.0\nsamples = 1\nvalue = [0, 2, 0, 0, 0, 0]", fillcolor="#9de539"] ;
433 -> 434 ;
435 [label="resident <= 335.0\ngini = 0.444\nsamples = 2\nvalue = [0, 2, 0, 1, 0, 0]", fillcolor="#cef29c"] ;
433 -> 435 ;
436 [label="gini = 0.0\nsamples = 1\nvalue = [0, 0, 0, 1, 0, 0]", fillcolor="#399de5"] ;
435 -> 436 ;
437 [label="gini = 0.0\nsamples = 1\nvalue = [0, 2, 0, 0, 0, 0]", fillcolor="#9de539"] ;
435 -> 437 ;
438 [label="CCTV_num <= 7.5\ngini = 0.595\nsamples = 9\nvalue = [2, 6, 0, 0, 3, 0]", fillcolor="#daf5b5"] ;
430 -> 438 ;
439 [label="resident <= 335.0\ngini = 0.653\nsamples = 6\nvalue = [2, 2, 0, 0, 3, 0]", fillcolor="#e6d7fa"] ;
438 -> 439 ;
440 [label="gini = 0.0\nsamples = 2\nvalue = [2, 0, 0, 0, 0, 0]", fillcolor="#e58139"] ;
439 -> 440 ;
441 [label="floating <= 1920.0\ngini = 0.48\nsamples = 4\nvalue = [0, 2, 0, 0, 3, 0]", fillcolor="#d5bdf6"] ;
439 -> 441 ;
442 [label="gini = 0.0\nsamples = 2\nvalue = [0, 2, 0, 0, 0, 0]", fillcolor="#9de539"] ;
441 -> 442 ;
443 [label="gini = 0.0\nsamples = 2\nvalue = [0, 0, 0, 0, 3, 0]", fillcolor="#8139e5"] ;
441 -> 443 ;
444 [label="gini = 0.0\nsamples = 3\nvalue = [0, 4, 0, 0, 0, 0]", fillcolor="#9de539"] ;
438 -> 444 ;
445 [label="gini = 0.0\nsamples = 2\nvalue = [2, 0, 0, 0, 0, 0]", fillcolor="#e58139"] ;
429 -> 445 ;
446 [label="gini = 0.0\nsamples = 2\nvalue = [0, 0, 3, 0, 0, 0]", fillcolor="#39e581"] ;
346 -> 446 ;
447 [label="gini = 0.0\nsamples = 3\nvalue = [0, 4, 0, 0, 0, 0]", fillcolor="#9de539"] ;
345 -> 447 ;
448 [label="resident <= 265.0\ngini = 0.636\nsamples = 101\nvalue = [75, 48, 26, 5, 0, 0]", fillcolor="#f8dfcd"] ;
0 -> 448 [labeldistance=2.5, labelangle=-45, headlabel="False"] ;
449 [label="CCTV_num <= 3.5\ngini = 0.629\nsamples = 87\nvalue = [70, 34, 26, 5, 0, 0]", fillcolor="#f6d2b8"] ;
448 -> 449 ;
450 [label="resident <= 55.0\ngini = 0.58\nsamples = 62\nvalue = [57, 29, 9, 5, 0, 0]", fillcolor="#f5cdb1"] ;
449 -> 450 ;
451 [label="CCTV_num <= 0.5\ngini = 0.509\nsamples = 40\nvalue = [38, 25, 2, 0, 0, 0]", fillcolor="#f7d6bf"] ;
450 -> 451 ;
452 [label="police_value <= 1.5\ngini = 0.536\nsamples = 29\nvalue = [26, 24, 2, 0, 0, 0]", fillcolor="#fdf6f1"] ;
451 -> 452 ;
453 [label="resident <= 35.0\ngini = 0.558\nsamples = 18\nvalue = [14, 15, 2, 0, 0, 0]", fillcolor="#f9fdf3"] ;
452 -> 453 ;
454 [label="resident <= 5.0\ngini = 0.498\nsamples = 10\nvalue = [10, 3, 2, 0, 0, 0]", fillcolor="#f0b68c"] ;
453 -> 454 ;
455 [label="floating <= 190.0\ngini = 0.444\nsamples = 2\nvalue = [1, 2, 0, 0, 0, 0]", fillcolor="#cef29c"] ;
454 -> 455 ;
456 [label="gini = 0.0\nsamples = 1\nvalue = [1, 0, 0, 0, 0, 0]", fillcolor="#e58139"] ;
455 -> 456 ;
457 [label="gini = 0.0\nsamples = 1\nvalue = [0, 2, 0, 0, 0, 0]", fillcolor="#9de539"] ;
455 -> 457 ;
458 [label="floating <= 265.0\ngini = 0.403\nsamples = 8\nvalue = [9, 1, 2, 0, 0, 0]", fillcolor="#eda774"] ;
454 -> 458 ;
459 [label="resident <= 25.0\ngini = 0.571\nsamples = 5\nvalue = [4, 1, 2, 0, 0, 0]", fillcolor="#f5cdb0"] ;
458 -> 459 ;
460 [label="floating <= 220.0\ngini = 0.444\nsamples = 4\nvalue = [4, 0, 2, 0, 0, 0]", fillcolor="#f2c09c"] ;
459 -> 460 ;
461 [label="gini = 0.0\nsamples = 3\nvalue = [4, 0, 0, 0, 0, 0]", fillcolor="#e58139"] ;
460 -> 461 ;
462 [label="gini = 0.0\nsamples = 1\nvalue = [0, 0, 2, 0, 0, 0]", fillcolor="#39e581"] ;
460 -> 462 ;
463 [label="gini = 0.0\nsamples = 1\nvalue = [0, 1, 0, 0, 0, 0]", fillcolor="#9de539"] ;
459 -> 463 ;
464 [label="gini = 0.0\nsamples = 3\nvalue = [5, 0, 0, 0, 0, 0]", fillcolor="#e58139"] ;
458 -> 464 ;
465 [label="resident <= 45.0\ngini = 0.375\nsamples = 8\nvalue = [4, 12, 0, 0, 0, 0]", fillcolor="#beee7b"] ;
453 -> 465 ;
466 [label="floating <= 165.0\ngini = 0.463\nsamples = 5\nvalue = [4, 7, 0, 0, 0, 0]", fillcolor="#d5f4aa"] ;
465 -> 466 ;
467 [label="gini = 0.0\nsamples = 1\nvalue = [0, 3, 0, 0, 0, 0]", fillcolor="#9de539"] ;
466 -> 467 ;
468 [label="floating <= 200.0\ngini = 0.5\nsamples = 4\nvalue = [4, 4, 0, 0, 0, 0]", fillcolor="#ffffff"] ;
466 -> 468 ;
469 [label="gini = 0.0\nsamples = 1\nvalue = [3, 0, 0, 0, 0, 0]", fillcolor="#e58139"] ;
468 -> 469 ;
470 [label="floating <= 230.0\ngini = 0.32\nsamples = 3\nvalue = [1, 4, 0, 0, 0, 0]", fillcolor="#b6ec6a"] ;
468 -> 470 ;
471 [label="gini = 0.0\nsamples = 2\nvalue = [0, 4, 0, 0, 0, 0]", fillcolor="#9de539"] ;
470 -> 471 ;
472 [label="gini = 0.0\nsamples = 1\nvalue = [1, 0, 0, 0, 0, 0]", fillcolor="#e58139"] ;
470 -> 472 ;
473 [label="gini = 0.0\nsamples = 3\nvalue = [0, 5, 0, 0, 0, 0]", fillcolor="#9de539"] ;
465 -> 473 ;
474 [label="resident <= 25.0\ngini = 0.49\nsamples = 11\nvalue = [12, 9, 0, 0, 0, 0]", fillcolor="#f8e0ce"] ;
452 -> 474 ;
475 [label="police_value <= 2.5\ngini = 0.444\nsamples = 4\nvalue = [3, 6, 0, 0, 0, 0]", fillcolor="#cef29c"] ;
474 -> 475 ;
476 [label="gini = 0.0\nsamples = 1\nvalue = [0, 2, 0, 0, 0, 0]", fillcolor="#9de539"] ;
475 -> 476 ;
477 [label="floating <= 140.0\ngini = 0.49\nsamples = 3\nvalue = [3, 4, 0, 0, 0, 0]", fillcolor="#e6f8ce"] ;
475 -> 477 ;
478 [label="gini = 0.0\nsamples = 1\nvalue = [3, 0, 0, 0, 0, 0]", fillcolor="#e58139"] ;
477 -> 478 ;
479 [label="gini = 0.0\nsamples = 2\nvalue = [0, 4, 0, 0, 0, 0]", fillcolor="#9de539"] ;
477 -> 479 ;
480 [label="police_value <= 2.5\ngini = 0.375\nsamples = 7\nvalue = [9, 3, 0, 0, 0, 0]", fillcolor="#eeab7b"] ;
474 -> 480 ;
481 [label="floating <= 225.0\ngini = 0.444\nsamples = 5\nvalue = [6, 3, 0, 0, 0, 0]", fillcolor="#f2c09c"] ;
480 -> 481 ;
482 [label="gini = 0.0\nsamples = 2\nvalue = [3, 0, 0, 0, 0, 0]", fillcolor="#e58139"] ;
481 -> 482 ;
483 [label="floating <= 235.0\ngini = 0.5\nsamples = 3\nvalue = [3, 3, 0, 0, 0, 0]", fillcolor="#ffffff"] ;
481 -> 483 ;
484 [label="gini = 0.0\nsamples = 1\nvalue = [0, 3, 0, 0, 0, 0]", fillcolor="#9de539"] ;
483 -> 484 ;
485 [label="gini = 0.0\nsamples = 2\nvalue = [3, 0, 0, 0, 0, 0]", fillcolor="#e58139"] ;
483 -> 485 ;
486 [label="gini = 0.0\nsamples = 2\nvalue = [3, 0, 0, 0, 0, 0]", fillcolor="#e58139"] ;
480 -> 486 ;
487 [label="floating <= 370.0\ngini = 0.142\nsamples = 11\nvalue = [12, 1, 0, 0, 0, 0]", fillcolor="#e78c49"] ;
451 -> 487 ;
488 [label="gini = 0.0\nsamples = 9\nvalue = [11, 0, 0, 0, 0, 0]", fillcolor="#e58139"] ;
487 -> 488 ;
489 [label="CCTV_num <= 1.5\ngini = 0.5\nsamples = 2\nvalue = [1, 1, 0, 0, 0, 0]", fillcolor="#ffffff"] ;
487 -> 489 ;
490 [label="gini = 0.0\nsamples = 1\nvalue = [1, 0, 0, 0, 0, 0]", fillcolor="#e58139"] ;
489 -> 490 ;
491 [label="gini = 0.0\nsamples = 1\nvalue = [0, 1, 0, 0, 0, 0]", fillcolor="#9de539"] ;
489 -> 491 ;
492 [label="floating <= 255.0\ngini = 0.632\nsamples = 22\nvalue = [19, 4, 7, 5, 0, 0]", fillcolor="#f4c9aa"] ;
450 -> 492 ;
493 [label="floating <= 220.0\ngini = 0.278\nsamples = 5\nvalue = [1, 0, 0, 5, 0, 0]", fillcolor="#61b1ea"] ;
492 -> 493 ;
494 [label="gini = 0.0\nsamples = 1\nvalue = [1, 0, 0, 0, 0, 0]", fillcolor="#e58139"] ;
493 -> 494 ;
495 [label="gini = 0.0\nsamples = 4\nvalue = [0, 0, 0, 5, 0, 0]", fillcolor="#399de5"] ;
493 -> 495 ;
496 [label="CCTV_num <= 0.5\ngini = 0.537\nsamples = 17\nvalue = [18, 4, 7, 0, 0, 0]", fillcolor="#f2c09c"] ;
492 -> 496 ;
497 [label="resident <= 155.0\ngini = 0.626\nsamples = 13\nvalue = [10, 4, 7, 0, 0, 0]", fillcolor="#f9e4d5"] ;
496 -> 497 ;
498 [label="resident <= 105.0\ngini = 0.663\nsamples = 8\nvalue = [4, 4, 5, 0, 0, 0]", fillcolor="#e9fcf1"] ;
497 -> 498 ;
499 [label="resident <= 90.0\ngini = 0.58\nsamples = 6\nvalue = [4, 1, 5, 0, 0, 0]", fillcolor="#defbea"] ;
498 -> 499 ;
500 [label="police_value <= 2.0\ngini = 0.571\nsamples = 4\nvalue = [4, 1, 2, 0, 0, 0]", fillcolor="#f5cdb0"] ;
499 -> 500 ;
501 [label="floating <= 360.0\ngini = 0.32\nsamples = 3\nvalue = [4, 1, 0, 0, 0, 0]", fillcolor="#eca06a"] ;
500 -> 501 ;
502 [label="gini = 0.0\nsamples = 1\nvalue = [2, 0, 0, 0, 0, 0]", fillcolor="#e58139"] ;
501 -> 502 ;
503 [label="floating <= 525.0\ngini = 0.444\nsamples = 2\nvalue = [2, 1, 0, 0, 0, 0]", fillcolor="#f2c09c"] ;
501 -> 503 ;
504 [label="gini = 0.0\nsamples = 1\nvalue = [0, 1, 0, 0, 0, 0]", fillcolor="#9de539"] ;
503 -> 504 ;
505 [label="gini = 0.0\nsamples = 1\nvalue = [2, 0, 0, 0, 0, 0]", fillcolor="#e58139"] ;
503 -> 505 ;
506 [label="gini = 0.0\nsamples = 1\nvalue = [0, 0, 2, 0, 0, 0]", fillcolor="#39e581"] ;
500 -> 506 ;
507 [label="gini = 0.0\nsamples = 2\nvalue = [0, 0, 3, 0, 0, 0]", fillcolor="#39e581"] ;
499 -> 507 ;
508 [label="gini = 0.0\nsamples = 2\nvalue = [0, 3, 0, 0, 0, 0]", fillcolor="#9de539"] ;
498 -> 508 ;
509 [label="resident <= 245.0\ngini = 0.375\nsamples = 5\nvalue = [6, 0, 2, 0, 0, 0]", fillcolor="#eeab7b"] ;
497 -> 509 ;
510 [label="gini = 0.0\nsamples = 2\nvalue = [2, 0, 0, 0, 0, 0]", fillcolor="#e58139"] ;
509 -> 510 ;
511 [label="floating <= 1805.0\ngini = 0.444\nsamples = 3\nvalue = [4, 0, 2, 0, 0, 0]", fillcolor="#f2c09c"] ;
509 -> 511 ;
512 [label="gini = 0.0\nsamples = 2\nvalue = [4, 0, 0, 0, 0, 0]", fillcolor="#e58139"] ;
511 -> 512 ;
513 [label="gini = 0.0\nsamples = 1\nvalue = [0, 0, 2, 0, 0, 0]", fillcolor="#39e581"] ;
511 -> 513 ;
514 [label="gini = 0.0\nsamples = 4\nvalue = [8, 0, 0, 0, 0, 0]", fillcolor="#e58139"] ;
496 -> 514 ;
515 [label="CCTV_num <= 9.5\ngini = 0.606\nsamples = 25\nvalue = [13, 5, 17, 0, 0, 0]", fillcolor="#dbfae8"] ;
449 -> 515 ;
516 [label="resident <= 155.0\ngini = 0.568\nsamples = 23\nvalue = [12, 3, 17, 0, 0, 0]", fillcolor="#cef8e0"] ;
515 -> 516 ;
517 [label="resident <= 75.0\ngini = 0.48\nsamples = 14\nvalue = [12, 0, 8, 0, 0, 0]", fillcolor="#f6d5bd"] ;
516 -> 517 ;
518 [label="CCTV_num <= 4.5\ngini = 0.49\nsamples = 10\nvalue = [6, 0, 8, 0, 0, 0]", fillcolor="#cef8e0"] ;
517 -> 518 ;
519 [label="police_value <= 2.5\ngini = 0.408\nsamples = 5\nvalue = [5, 0, 2, 0, 0, 0]", fillcolor="#efb388"] ;
518 -> 519 ;
520 [label="gini = 0.0\nsamples = 2\nvalue = [3, 0, 0, 0, 0, 0]", fillcolor="#e58139"] ;
519 -> 520 ;
521 [label="resident <= 20.0\ngini = 0.5\nsamples = 3\nvalue = [2, 0, 2, 0, 0, 0]", fillcolor="#ffffff"] ;
519 -> 521 ;
522 [label="gini = 0.0\nsamples = 1\nvalue = [1, 0, 0, 0, 0, 0]", fillcolor="#e58139"] ;
521 -> 522 ;
523 [label="police_value <= 3.5\ngini = 0.444\nsamples = 2\nvalue = [1, 0, 2, 0, 0, 0]", fillcolor="#9cf2c0"] ;
521 -> 523 ;
524 [label="gini = 0.0\nsamples = 1\nvalue = [0, 0, 2, 0, 0, 0]", fillcolor="#39e581"] ;
523 -> 524 ;
525 [label="gini = 0.0\nsamples = 1\nvalue = [1, 0, 0, 0, 0, 0]", fillcolor="#e58139"] ;
523 -> 525 ;
526 [label="police_value <= 1.5\ngini = 0.245\nsamples = 5\nvalue = [1, 0, 6, 0, 0, 0]", fillcolor="#5ae996"] ;
518 -> 526 ;
527 [label="floating <= 255.0\ngini = 0.375\nsamples = 3\nvalue = [1, 0, 3, 0, 0, 0]", fillcolor="#7beeab"] ;
526 -> 527 ;
528 [label="gini = 0.0\nsamples = 2\nvalue = [0, 0, 3, 0, 0, 0]", fillcolor="#39e581"] ;
527 -> 528 ;
529 [label="gini = 0.0\nsamples = 1\nvalue = [1, 0, 0, 0, 0, 0]", fillcolor="#e58139"] ;
527 -> 529 ;
530 [label="gini = 0.0\nsamples = 2\nvalue = [0, 0, 3, 0, 0, 0]", fillcolor="#39e581"] ;
526 -> 530 ;
531 [label="gini = 0.0\nsamples = 4\nvalue = [6, 0, 0, 0, 0, 0]", fillcolor="#e58139"] ;
517 -> 531 ;
532 [label="floating <= 1285.0\ngini = 0.375\nsamples = 9\nvalue = [0, 3, 9, 0, 0, 0]", fillcolor="#7beeab"] ;
516 -> 532 ;
533 [label="gini = 0.0\nsamples = 1\nvalue = [0, 2, 0, 0, 0, 0]", fillcolor="#9de539"] ;
532 -> 533 ;
534 [label="resident <= 230.0\ngini = 0.18\nsamples = 8\nvalue = [0, 1, 9, 0, 0, 0]", fillcolor="#4fe88f"] ;
532 -> 534 ;
535 [label="resident <= 200.0\ngini = 0.375\nsamples = 3\nvalue = [0, 1, 3, 0, 0, 0]", fillcolor="#7beeab"] ;
534 -> 535 ;
536 [label="gini = 0.0\nsamples = 2\nvalue = [0, 0, 3, 0, 0, 0]", fillcolor="#39e581"] ;
535 -> 536 ;
537 [label="gini = 0.0\nsamples = 1\nvalue = [0, 1, 0, 0, 0, 0]", fillcolor="#9de539"] ;
535 -> 537 ;
538 [label="gini = 0.0\nsamples = 5\nvalue = [0, 0, 6, 0, 0, 0]", fillcolor="#39e581"] ;
534 -> 538 ;
539 [label="floating <= 275.0\ngini = 0.444\nsamples = 2\nvalue = [1, 2, 0, 0, 0, 0]", fillcolor="#cef29c"] ;
515 -> 539 ;
540 [label="gini = 0.0\nsamples = 1\nvalue = [1, 0, 0, 0, 0, 0]", fillcolor="#e58139"] ;
539 -> 540 ;
541 [label="gini = 0.0\nsamples = 1\nvalue = [0, 2, 0, 0, 0, 0]", fillcolor="#9de539"] ;
539 -> 541 ;
542 [label="floating <= 1985.0\ngini = 0.388\nsamples = 14\nvalue = [5, 14, 0, 0, 0, 0]", fillcolor="#c0ee80"] ;
448 -> 542 ;
543 [label="resident <= 340.0\ngini = 0.219\nsamples = 12\nvalue = [2, 14, 0, 0, 0, 0]", fillcolor="#abe955"] ;
542 -> 543 ;
544 [label="police_value <= 1.5\ngini = 0.124\nsamples = 11\nvalue = [1, 14, 0, 0, 0, 0]", fillcolor="#a4e747"] ;
543 -> 544 ;
545 [label="CCTV_num <= 4.0\ngini = 0.32\nsamples = 5\nvalue = [1, 4, 0, 0, 0, 0]", fillcolor="#b6ec6a"] ;
544 -> 545 ;
546 [label="gini = 0.0\nsamples = 4\nvalue = [0, 4, 0, 0, 0, 0]", fillcolor="#9de539"] ;
545 -> 546 ;
547 [label="gini = 0.0\nsamples = 1\nvalue = [1, 0, 0, 0, 0, 0]", fillcolor="#e58139"] ;
545 -> 547 ;
548 [label="gini = 0.0\nsamples = 6\nvalue = [0, 10, 0, 0, 0, 0]", fillcolor="#9de539"] ;
544 -> 548 ;
549 [label="gini = 0.0\nsamples = 1\nvalue = [1, 0, 0, 0, 0, 0]", fillcolor="#e58139"] ;
543 -> 549 ;
550 [label="gini = 0.0\nsamples = 2\nvalue = [3, 0, 0, 0, 0, 0]", fillcolor="#e58139"] ;
542 -> 550 ;
}