digraph Tree {
node [shape=box, style="filled, rounded", color="black", fontname=helvetica] ;
edge [fontname=helvetica] ;
0 [label="CCTV_num <= 2.5\ngini = 0.82\nsamples = 833\nvalue = [252, 340, 281, 204, 98, 43, 70, 29, 9]", fillcolor="#fdfef4"] ;
1 [label="police_value <= 0.5\ngini = 0.836\nsamples = 629\nvalue = [143, 215, 206, 190, 96, 43, 70, 21, 9]", fillcolor="#fffffd"] ;
0 -> 1 [labeldistance=2.5, labelangle=45, headlabel="True"] ;
2 [label="CCTV_num <= 0.5\ngini = 0.834\nsamples = 555\nvalue = [77, 189, 184, 190, 92, 43, 70, 21, 9]", fillcolor="#ffffff"] ;
1 -> 2 ;
3 [label="floating <= 3040.0\ngini = 0.838\nsamples = 486\nvalue = [70, 166, 146, 158, 82, 32, 70, 21, 9]", fillcolor="#fefffc"] ;
2 -> 3 ;
4 [label="floating <= 175.0\ngini = 0.749\nsamples = 254\nvalue = [65, 150, 94, 63, 22, 3, 2, 0, 0]", fillcolor="#f8fadb"] ;
3 -> 4 ;
5 [label="floating <= 100.0\ngini = 0.254\nsamples = 12\nvalue = [1, 18, 2, 0, 0, 0, 0, 0, 0]", fillcolor="#dde958"] ;
4 -> 5 ;
6 [label="gini = 0.0\nsamples = 2\nvalue = [0, 9, 0, 0, 0, 0, 0, 0, 0]", fillcolor="#d7e539"] ;
5 -> 6 ;
7 [label="floating <= 155.0\ngini = 0.403\nsamples = 10\nvalue = [1, 9, 2, 0, 0, 0, 0, 0, 0]", fillcolor="#e3ed74"] ;
5 -> 7 ;
8 [label="floating <= 130.0\ngini = 0.444\nsamples = 3\nvalue = [1, 0, 2, 0, 0, 0, 0, 0, 0]", fillcolor="#b2f29c"] ;
7 -> 8 ;
9 [label="gini = 0.0\nsamples = 1\nvalue = [1, 0, 0, 0, 0, 0, 0, 0, 0]", fillcolor="#e58139"] ;
8 -> 9 ;
10 [label="gini = 0.0\nsamples = 2\nvalue = [0, 0, 2, 0, 0, 0, 0, 0, 0]", fillcolor="#64e539"] ;
8 -> 10 ;
11 [label="gini = 0.0\nsamples = 7\nvalue = [0, 9, 0, 0, 0, 0, 0, 0, 0]", fillcolor="#d7e539"] ;
7 -> 11 ;
12 [label="resident <= 175.0\ngini = 0.759\nsamples = 242\nvalue = [64, 132, 92, 63, 22, 3, 2, 0, 0]", fillcolor="#f9fbe3"] ;
4 -> 12 ;
13 [label="resident <= 75.0\ngini = 0.755\nsamples = 235\nvalue = [64, 127, 92, 63, 18, 3, 0, 0, 0]", fillcolor="#fafce6"] ;
12 -> 13 ;
14 [label="floating <= 725.0\ngini = 0.752\nsamples = 185\nvalue = [52, 105, 59, 49, 15, 3, 0, 0, 0]", fillcolor="#f7fad6"] ;
13 -> 14 ;
15 [label="resident <= 65.0\ngini = 0.751\nsamples = 149\nvalue = [37, 83, 56, 40, 14, 0, 0, 0, 0]", fillcolor="#f9fbe0"] ;
14 -> 15 ;
16 [label="resident <= 45.0\ngini = 0.744\nsamples = 146\nvalue = [30, 83, 56, 40, 14, 0, 0, 0, 0]", fillcolor="#f9fbdf"] ;
15 -> 16 ;
17 [label="resident <= 15.0\ngini = 0.742\nsamples = 122\nvalue = [28, 66, 54, 22, 14, 0, 0, 0, 0]", fillcolor="#fbfded"] ;
16 -> 17 ;
18 [label="floating <= 205.0\ngini = 0.76\nsamples = 44\nvalue = [6, 16, 18, 19, 6, 0, 0, 0, 0]", fillcolor="#fbfefc"] ;
17 -> 18 ;
19 [label="floating <= 195.0\ngini = 0.418\nsamples = 9\nvalue = [0, 3, 11, 0, 1, 0, 0, 0, 0]", fillcolor="#98ee7b"] ;
18 -> 19 ;
20 [label="floating <= 185.0\ngini = 0.219\nsamples = 6\nvalue = [0, 0, 7, 0, 1, 0, 0, 0, 0]", fillcolor="#7ae955"] ;
19 -> 20 ;
21 [label="gini = 0.0\nsamples = 3\nvalue = [0, 0, 4, 0, 0, 0, 0, 0, 0]", fillcolor="#64e539"] ;
20 -> 21 ;
22 [label="resident <= 5.0\ngini = 0.375\nsamples = 3\nvalue = [0, 0, 3, 0, 1, 0, 0, 0, 0]", fillcolor="#98ee7b"] ;
20 -> 22 ;
23 [label="gini = 0.0\nsamples = 2\nvalue = [0, 0, 3, 0, 0, 0, 0, 0, 0]", fillcolor="#64e539"] ;
22 -> 23 ;
24 [label="gini = 0.0\nsamples = 1\nvalue = [0, 0, 0, 0, 1, 0, 0, 0, 0]", fillcolor="#39d7e5"] ;
22 -> 24 ;
25 [label="resident <= 5.0\ngini = 0.49\nsamples = 3\nvalue = [0, 3, 4, 0, 0, 0, 0, 0, 0]", fillcolor="#d8f8ce"] ;
19 -> 25 ;
26 [label="gini = 0.0\nsamples = 2\nvalue = [0, 3, 0, 0, 0, 0, 0, 0, 0]", fillcolor="#d7e539"] ;
25 -> 26 ;
27 [label="gini = 0.0\nsamples = 1\nvalue = [0, 0, 4, 0, 0, 0, 0, 0, 0]", fillcolor="#64e539"] ;
25 -> 27 ;
28 [label="floating <= 655.0\ngini = 0.744\nsamples = 35\nvalue = [6, 13, 7, 19, 5, 0, 0, 0, 0]", fillcolor="#dffbeb"] ;
18 -> 28 ;
29 [label="resident <= 5.0\ngini = 0.67\nsamples = 30\nvalue = [6, 13, 4, 19, 0, 0, 0, 0, 0]", fillcolor="#d6fae5"] ;
28 -> 29 ;
30 [label="floating <= 215.0\ngini = 0.627\nsamples = 9\nvalue = [1, 6, 1, 5, 0, 0, 0, 0, 0]", fillcolor="#fafce6"] ;
29 -> 30 ;
31 [label="gini = 0.0\nsamples = 1\nvalue = [0, 3, 0, 0, 0, 0, 0, 0, 0]", fillcolor="#d7e539"] ;
30 -> 31 ;
32 [label="floating <= 230.0\ngini = 0.64\nsamples = 8\nvalue = [1, 3, 1, 5, 0, 0, 0, 0, 0]", fillcolor="#c6f8db"] ;
30 -> 32 ;
33 [label="gini = 0.0\nsamples = 4\nvalue = [0, 0, 0, 5, 0, 0, 0, 0, 0]", fillcolor="#39e581"] ;
32 -> 33 ;
34 [label="floating <= 250.0\ngini = 0.56\nsamples = 4\nvalue = [1, 3, 1, 0, 0, 0, 0, 0, 0]", fillcolor="#ebf29c"] ;
32 -> 34 ;
35 [label="gini = 0.0\nsamples = 2\nvalue = [0, 3, 0, 0, 0, 0, 0, 0, 0]", fillcolor="#d7e539"] ;
34 -> 35 ;
36 [label="gini = 0.5\nsamples = 2\nvalue = [1, 0, 1, 0, 0, 0, 0, 0, 0]", fillcolor="#ffffff"] ;
34 -> 36 ;
37 [label="floating <= 515.0\ngini = 0.668\nsamples = 21\nvalue = [5, 7, 3, 14, 0, 0, 0, 0, 0]", fillcolor="#c0f7d7"] ;
29 -> 37 ;
38 [label="floating <= 230.0\ngini = 0.657\nsamples = 13\nvalue = [5, 5, 0, 7, 0, 0, 0, 0, 0]", fillcolor="#defbea"] ;
37 -> 38 ;
39 [label="floating <= 215.0\ngini = 0.444\nsamples = 7\nvalue = [0, 3, 0, 6, 0, 0, 0, 0, 0]", fillcolor="#9cf2c0"] ;
38 -> 39 ;
40 [label="gini = 0.48\nsamples = 4\nvalue = [0, 3, 0, 2, 0, 0, 0, 0, 0]", fillcolor="#f2f6bd"] ;
39 -> 40 ;
41 [label="gini = 0.0\nsamples = 3\nvalue = [0, 0, 0, 4, 0, 0, 0, 0, 0]", fillcolor="#39e581"] ;
39 -> 41 ;
42 [label="floating <= 265.0\ngini = 0.531\nsamples = 6\nvalue = [5, 2, 0, 1, 0, 0, 0, 0, 0]", fillcolor="#f2c09c"] ;
38 -> 42 ;
43 [label="floating <= 245.0\ngini = 0.32\nsamples = 4\nvalue = [4, 0, 0, 1, 0, 0, 0, 0, 0]", fillcolor="#eca06a"] ;
42 -> 43 ;
44 [label="gini = 0.0\nsamples = 1\nvalue = [2, 0, 0, 0, 0, 0, 0, 0, 0]", fillcolor="#e58139"] ;
43 -> 44 ;
45 [label="floating <= 255.0\ngini = 0.444\nsamples = 3\nvalue = [2, 0, 0, 1, 0, 0, 0, 0, 0]", fillcolor="#f2c09c"] ;
43 -> 45 ;
46 [label="gini = 0.0\nsamples = 1\nvalue = [0, 0, 0, 1, 0, 0, 0, 0, 0]", fillcolor="#39e581"] ;
45 -> 46 ;
47 [label="gini = 0.0\nsamples = 2\nvalue = [2, 0, 0, 0, 0, 0, 0, 0, 0]", fillcolor="#e58139"] ;
45 -> 47 ;
48 [label="floating <= 385.0\ngini = 0.444\nsamples = 2\nvalue = [1, 2, 0, 0, 0, 0, 0, 0, 0]", fillcolor="#ebf29c"] ;
42 -> 48 ;
49 [label="gini = 0.0\nsamples = 1\nvalue = [0, 2, 0, 0, 0, 0, 0, 0, 0]", fillcolor="#d7e539"] ;
48 -> 49 ;
50 [label="gini = 0.0\nsamples = 1\nvalue = [1, 0, 0, 0, 0, 0, 0, 0, 0]", fillcolor="#e58139"] ;
48 -> 50 ;
51 [label="floating <= 565.0\ngini = 0.569\nsamples = 8\nvalue = [0, 2, 3, 7, 0, 0, 0, 0, 0]", fillcolor="#a7f3c7"] ;
37 -> 51 ;
52 [label="gini = 0.48\nsamples = 3\nvalue = [0, 0, 3, 2, 0, 0, 0, 0, 0]", fillcolor="#cbf6bd"] ;
51 -> 52 ;
53 [label="floating <= 645.0\ngini = 0.408\nsamples = 5\nvalue = [0, 2, 0, 5, 0, 0, 0, 0, 0]", fillcolor="#88efb3"] ;
51 -> 53 ;
54 [label="floating <= 625.0\ngini = 0.278\nsamples = 4\nvalue = [0, 1, 0, 5, 0, 0, 0, 0, 0]", fillcolor="#61ea9a"] ;
53 -> 54 ;
55 [label="floating <= 605.0\ngini = 0.5\nsamples = 2\nvalue = [0, 1, 0, 1, 0, 0, 0, 0, 0]", fillcolor="#ffffff"] ;
54 -> 55 ;
56 [label="gini = 0.0\nsamples = 1\nvalue = [0, 0, 0, 1, 0, 0, 0, 0, 0]", fillcolor="#39e581"] ;
55 -> 56 ;
57 [label="gini = 0.0\nsamples = 1\nvalue = [0, 1, 0, 0, 0, 0, 0, 0, 0]", fillcolor="#d7e539"] ;
55 -> 57 ;
58 [label="gini = 0.0\nsamples = 2\nvalue = [0, 0, 0, 4, 0, 0, 0, 0, 0]", fillcolor="#39e581"] ;
54 -> 58 ;
59 [label="gini = 0.0\nsamples = 1\nvalue = [0, 1, 0, 0, 0, 0, 0, 0, 0]", fillcolor="#d7e539"] ;
53 -> 59 ;
60 [label="resident <= 5.0\ngini = 0.469\nsamples = 5\nvalue = [0, 0, 3, 0, 5, 0, 0, 0, 0]", fillcolor="#b0eff5"] ;
28 -> 60 ;
61 [label="gini = 0.0\nsamples = 1\nvalue = [0, 0, 3, 0, 0, 0, 0, 0, 0]", fillcolor="#64e539"] ;
60 -> 61 ;
62 [label="gini = 0.0\nsamples = 4\nvalue = [0, 0, 0, 0, 5, 0, 0, 0, 0]", fillcolor="#39d7e5"] ;
60 -> 62 ;
63 [label="resident <= 25.0\ngini = 0.693\nsamples = 78\nvalue = [22, 50, 36, 3, 8, 0, 0, 0, 0]", fillcolor="#f8fbde"] ;
17 -> 63 ;
64 [label="floating <= 325.0\ngini = 0.677\nsamples = 31\nvalue = [9, 23, 7, 3, 4, 0, 0, 0, 0]", fillcolor="#f0f5b4"] ;
63 -> 64 ;
65 [label="floating <= 195.0\ngini = 0.639\nsamples = 8\nvalue = [6, 4, 0, 0, 3, 0, 0, 0, 0]", fillcolor="#f9e3d3"] ;
64 -> 65 ;
66 [label="floating <= 185.0\ngini = 0.5\nsamples = 4\nvalue = [4, 4, 0, 0, 0, 0, 0, 0, 0]", fillcolor="#ffffff"] ;
65 -> 66 ;
67 [label="gini = 0.32\nsamples = 2\nvalue = [4, 1, 0, 0, 0, 0, 0, 0, 0]", fillcolor="#eca06a"] ;
66 -> 67 ;
68 [label="gini = 0.0\nsamples = 2\nvalue = [0, 3, 0, 0, 0, 0, 0, 0, 0]", fillcolor="#d7e539"] ;
66 -> 68 ;
69 [label="floating <= 210.0\ngini = 0.48\nsamples = 4\nvalue = [2, 0, 0, 0, 3, 0, 0, 0, 0]", fillcolor="#bdf2f6"] ;
65 -> 69 ;
70 [label="gini = 0.375\nsamples = 3\nvalue = [1, 0, 0, 0, 3, 0, 0, 0, 0]", fillcolor="#7be4ee"] ;
69 -> 70 ;
71 [label="gini = 0.0\nsamples = 1\nvalue = [1, 0, 0, 0, 0, 0, 0, 0, 0]", fillcolor="#e58139"] ;
69 -> 71 ;
72 [label="floating <= 590.0\ngini = 0.606\nsamples = 23\nvalue = [3, 19, 7, 3, 1, 0, 0, 0, 0]", fillcolor="#edf3a4"] ;
64 -> 72 ;
73 [label="floating <= 525.0\ngini = 0.545\nsamples = 20\nvalue = [3, 18, 7, 0, 1, 0, 0, 0, 0]", fillcolor="#ebf29c"] ;
72 -> 73 ;
74 [label="floating <= 460.0\ngini = 0.639\nsamples = 15\nvalue = [3, 10, 7, 0, 1, 0, 0, 0, 0]", fillcolor="#f6f9d5"] ;
73 -> 74 ;
75 [label="floating <= 445.0\ngini = 0.37\nsamples = 7\nvalue = [0, 7, 1, 0, 1, 0, 0, 0, 0]", fillcolor="#e1ec6a"] ;
74 -> 75 ;
76 [label="gini = 0.0\nsamples = 3\nvalue = [0, 4, 0, 0, 0, 0, 0, 0, 0]", fillcolor="#d7e539"] ;
75 -> 76 ;
77 [label="gini = 0.56\nsamples = 4\nvalue = [0, 3, 1, 0, 1, 0, 0, 0, 0]", fillcolor="#ebf29c"] ;
75 -> 77 ;
78 [label="floating <= 490.0\ngini = 0.625\nsamples = 8\nvalue = [3, 3, 6, 0, 0, 0, 0, 0, 0]", fillcolor="#cbf6bd"] ;
74 -> 78 ;
79 [label="gini = 0.408\nsamples = 3\nvalue = [2, 0, 5, 0, 0, 0, 0, 0, 0]", fillcolor="#a2ef88"] ;
78 -> 79 ;
80 [label="floating <= 515.0\ngini = 0.56\nsamples = 5\nvalue = [1, 3, 1, 0, 0, 0, 0, 0, 0]", fillcolor="#ebf29c"] ;
78 -> 80 ;
81 [label="gini = 0.0\nsamples = 1\nvalue = [0, 1, 0, 0, 0, 0, 0, 0, 0]", fillcolor="#d7e539"] ;
80 -> 81 ;
82 [label="gini = 0.625\nsamples = 4\nvalue = [1, 2, 1, 0, 0, 0, 0, 0, 0]", fillcolor="#f2f6bd"] ;
80 -> 82 ;
83 [label="gini = 0.0\nsamples = 5\nvalue = [0, 8, 0, 0, 0, 0, 0, 0, 0]", fillcolor="#d7e539"] ;
73 -> 83 ;
84 [label="gini = 0.375\nsamples = 3\nvalue = [0, 1, 0, 3, 0, 0, 0, 0, 0]", fillcolor="#7beeab"] ;
72 -> 84 ;
85 [label="floating <= 450.0\ngini = 0.671\nsamples = 47\nvalue = [13, 27, 29, 0, 4, 0, 0, 0, 0]", fillcolor="#f8fef6"] ;
63 -> 85 ;
86 [label="floating <= 355.0\ngini = 0.5\nsamples = 9\nvalue = [2, 8, 0, 0, 2, 0, 0, 0, 0]", fillcolor="#e7ef88"] ;
85 -> 86 ;
87 [label="floating <= 280.0\ngini = 0.625\nsamples = 3\nvalue = [1, 1, 0, 0, 2, 0, 0, 0, 0]", fillcolor="#bdf2f6"] ;
86 -> 87 ;
88 [label="floating <= 210.0\ngini = 0.5\nsamples = 2\nvalue = [1, 1, 0, 0, 0, 0, 0, 0, 0]", fillcolor="#ffffff"] ;
87 -> 88 ;
89 [label="gini = 0.0\nsamples = 1\nvalue = [0, 1, 0, 0, 0, 0, 0, 0, 0]", fillcolor="#d7e539"] ;
88 -> 89 ;
90 [label="gini = 0.0\nsamples = 1\nvalue = [1, 0, 0, 0, 0, 0, 0, 0, 0]", fillcolor="#e58139"] ;
88 -> 90 ;
91 [label="gini = 0.0\nsamples = 1\nvalue = [0, 0, 0, 0, 2, 0, 0, 0, 0]", fillcolor="#39d7e5"] ;
87 -> 91 ;
92 [label="resident <= 35.0\ngini = 0.219\nsamples = 6\nvalue = [1, 7, 0, 0, 0, 0, 0, 0, 0]", fillcolor="#dde955"] ;
86 -> 92 ;
93 [label="gini = 0.0\nsamples = 4\nvalue = [0, 5, 0, 0, 0, 0, 0, 0, 0]", fillcolor="#d7e539"] ;
92 -> 93 ;
94 [label="floating <= 385.0\ngini = 0.444\nsamples = 2\nvalue = [1, 2, 0, 0, 0, 0, 0, 0, 0]", fillcolor="#ebf29c"] ;
92 -> 94 ;
95 [label="gini = 0.0\nsamples = 1\nvalue = [0, 2, 0, 0, 0, 0, 0, 0, 0]", fillcolor="#d7e539"] ;
94 -> 95 ;
96 [label="gini = 0.0\nsamples = 1\nvalue = [1, 0, 0, 0, 0, 0, 0, 0, 0]", fillcolor="#e58139"] ;
94 -> 96 ;
97 [label="floating <= 640.0\ngini = 0.643\nsamples = 38\nvalue = [11, 19, 29, 0, 2, 0, 0, 0, 0]", fillcolor="#daf9d0"] ;
85 -> 97 ;
98 [label="resident <= 35.0\ngini = 0.618\nsamples = 30\nvalue = [10, 10, 26, 0, 2, 0, 0, 0, 0]", fillcolor="#bef4ac"] ;
97 -> 98 ;
99 [label="floating <= 525.0\ngini = 0.554\nsamples = 16\nvalue = [6, 5, 17, 0, 0, 0, 0, 0, 0]", fillcolor="#b2f29c"] ;
98 -> 99 ;
100 [label="floating <= 470.0\ngini = 0.663\nsamples = 8\nvalue = [4, 5, 4, 0, 0, 0, 0, 0, 0]", fillcolor="#fbfce9"] ;
99 -> 100 ;
101 [label="gini = 0.0\nsamples = 3\nvalue = [0, 0, 4, 0, 0, 0, 0, 0, 0]", fillcolor="#64e539"] ;
100 -> 101 ;
102 [label="floating <= 505.0\ngini = 0.494\nsamples = 5\nvalue = [4, 5, 0, 0, 0, 0, 0, 0, 0]", fillcolor="#f7fad7"] ;
100 -> 102 ;
103 [label="floating <= 490.0\ngini = 0.278\nsamples = 3\nvalue = [1, 5, 0, 0, 0, 0, 0, 0, 0]", fillcolor="#dfea61"] ;
102 -> 103 ;
104 [label="gini = 0.0\nsamples = 1\nvalue = [0, 3, 0, 0, 0, 0, 0, 0, 0]", fillcolor="#d7e539"] ;
103 -> 104 ;
105 [label="gini = 0.444\nsamples = 2\nvalue = [1, 2, 0, 0, 0, 0, 0, 0, 0]", fillcolor="#ebf29c"] ;
103 -> 105 ;
106 [label="gini = 0.0\nsamples = 2\nvalue = [3, 0, 0, 0, 0, 0, 0, 0, 0]", fillcolor="#e58139"] ;
102 -> 106 ;
107 [label="floating <= 585.0\ngini = 0.231\nsamples = 8\nvalue = [2, 0, 13, 0, 0, 0, 0, 0, 0]", fillcolor="#7ce957"] ;
99 -> 107 ;
108 [label="floating <= 555.0\ngini = 0.153\nsamples = 6\nvalue = [1, 0, 11, 0, 0, 0, 0, 0, 0]", fillcolor="#72e74b"] ;
107 -> 108 ;
109 [label="gini = 0.245\nsamples = 3\nvalue = [1, 0, 6, 0, 0, 0, 0, 0, 0]", fillcolor="#7ee95a"] ;
108 -> 109 ;
110 [label="gini = 0.0\nsamples = 3\nvalue = [0, 0, 5, 0, 0, 0, 0, 0, 0]", fillcolor="#64e539"] ;
108 -> 110 ;
111 [label="floating <= 610.0\ngini = 0.444\nsamples = 2\nvalue = [1, 0, 2, 0, 0, 0, 0, 0, 0]", fillcolor="#b2f29c"] ;
107 -> 111 ;
112 [label="gini = 0.0\nsamples = 1\nvalue = [1, 0, 0, 0, 0, 0, 0, 0, 0]", fillcolor="#e58139"] ;
111 -> 112 ;
113 [label="gini = 0.0\nsamples = 1\nvalue = [0, 0, 2, 0, 0, 0, 0, 0, 0]", fillcolor="#64e539"] ;
111 -> 113 ;
114 [label="floating <= 605.0\ngini = 0.685\nsamples = 14\nvalue = [4, 5, 9, 0, 2, 0, 0, 0, 0]", fillcolor="#d6f8ca"] ;
98 -> 114 ;
115 [label="floating <= 545.0\ngini = 0.637\nsamples = 12\nvalue = [2, 4, 9, 0, 2, 0, 0, 0, 0]", fillcolor="#c3f5b3"] ;
114 -> 115 ;
116 [label="floating <= 525.0\ngini = 0.694\nsamples = 7\nvalue = [1, 4, 4, 0, 2, 0, 0, 0, 0]", fillcolor="#ffffff"] ;
115 -> 116 ;
117 [label="floating <= 515.0\ngini = 0.571\nsamples = 5\nvalue = [1, 2, 4, 0, 0, 0, 0, 0, 0]", fillcolor="#c1f5b0"] ;
116 -> 117 ;
118 [label="floating <= 505.0\ngini = 0.625\nsamples = 3\nvalue = [1, 2, 1, 0, 0, 0, 0, 0, 0]", fillcolor="#f2f6bd"] ;
117 -> 118 ;
119 [label="floating <= 480.0\ngini = 0.5\nsamples = 2\nvalue = [1, 0, 1, 0, 0, 0, 0, 0, 0]", fillcolor="#ffffff"] ;
118 -> 119 ;
120 [label="gini = 0.0\nsamples = 1\nvalue = [0, 0, 1, 0, 0, 0, 0, 0, 0]", fillcolor="#64e539"] ;
119 -> 120 ;
121 [label="gini = 0.0\nsamples = 1\nvalue = [1, 0, 0, 0, 0, 0, 0, 0, 0]", fillcolor="#e58139"] ;
119 -> 121 ;
122 [label="gini = 0.0\nsamples = 1\nvalue = [0, 2, 0, 0, 0, 0, 0, 0, 0]", fillcolor="#d7e539"] ;
118 -> 122 ;
123 [label="gini = 0.0\nsamples = 2\nvalue = [0, 0, 3, 0, 0, 0, 0, 0, 0]", fillcolor="#64e539"] ;
117 -> 123 ;
124 [label="gini = 0.5\nsamples = 2\nvalue = [0, 2, 0, 0, 2, 0, 0, 0, 0]", fillcolor="#ffffff"] ;
116 -> 124 ;
125 [label="floating <= 580.0\ngini = 0.278\nsamples = 5\nvalue = [1, 0, 5, 0, 0, 0, 0, 0, 0]", fillcolor="#83ea61"] ;
115 -> 125 ;
126 [label="gini = 0.375\nsamples = 4\nvalue = [1, 0, 3, 0, 0, 0, 0, 0, 0]", fillcolor="#98ee7b"] ;
125 -> 126 ;
127 [label="gini = 0.0\nsamples = 1\nvalue = [0, 0, 2, 0, 0, 0, 0, 0, 0]", fillcolor="#64e539"] ;
125 -> 127 ;
128 [label="floating <= 615.0\ngini = 0.444\nsamples = 2\nvalue = [2, 1, 0, 0, 0, 0, 0, 0, 0]", fillcolor="#f2c09c"] ;
114 -> 128 ;
129 [label="gini = 0.0\nsamples = 1\nvalue = [2, 0, 0, 0, 0, 0, 0, 0, 0]", fillcolor="#e58139"] ;
128 -> 129 ;
130 [label="gini = 0.0\nsamples = 1\nvalue = [0, 1, 0, 0, 0, 0, 0, 0, 0]", fillcolor="#d7e539"] ;
128 -> 130 ;
131 [label="resident <= 35.0\ngini = 0.462\nsamples = 8\nvalue = [1, 9, 3, 0, 0, 0, 0, 0, 0]", fillcolor="#e7ef88"] ;
97 -> 131 ;
132 [label="floating <= 690.0\ngini = 0.444\nsamples = 2\nvalue = [1, 2, 0, 0, 0, 0, 0, 0, 0]", fillcolor="#ebf29c"] ;
131 -> 132 ;
133 [label="gini = 0.0\nsamples = 1\nvalue = [0, 2, 0, 0, 0, 0, 0, 0, 0]", fillcolor="#d7e539"] ;
132 -> 133 ;
134 [label="gini = 0.0\nsamples = 1\nvalue = [1, 0, 0, 0, 0, 0, 0, 0, 0]", fillcolor="#e58139"] ;
132 -> 134 ;
135 [label="floating <= 695.0\ngini = 0.42\nsamples = 6\nvalue = [0, 7, 3, 0, 0, 0, 0, 0, 0]", fillcolor="#e8f08e"] ;
131 -> 135 ;
136 [label="gini = 0.0\nsamples = 4\nvalue = [0, 7, 0, 0, 0, 0, 0, 0, 0]", fillcolor="#d7e539"] ;
135 -> 136 ;
137 [label="gini = 0.0\nsamples = 2\nvalue = [0, 0, 3, 0, 0, 0, 0, 0, 0]", fillcolor="#64e539"] ;
135 -> 137 ;
138 [label="resident <= 55.0\ngini = 0.592\nsamples = 24\nvalue = [2, 17, 2, 18, 0, 0, 0, 0, 0]", fillcolor="#f6fef9"] ;
16 -> 138 ;
139 [label="floating <= 495.0\ngini = 0.521\nsamples = 15\nvalue = [0, 8, 2, 16, 0, 0, 0, 0, 0]", fillcolor="#a7f3c7"] ;
138 -> 139 ;
140 [label="floating <= 335.0\ngini = 0.497\nsamples = 6\nvalue = [0, 7, 0, 6, 0, 0, 0, 0, 0]", fillcolor="#f9fbe3"] ;
139 -> 140 ;
141 [label="gini = 0.0\nsamples = 2\nvalue = [0, 0, 0, 6, 0, 0, 0, 0, 0]", fillcolor="#39e581"] ;
140 -> 141 ;
142 [label="gini = 0.0\nsamples = 4\nvalue = [0, 7, 0, 0, 0, 0, 0, 0, 0]", fillcolor="#d7e539"] ;
140 -> 142 ;
143 [label="floating <= 545.0\ngini = 0.379\nsamples = 9\nvalue = [0, 1, 2, 10, 0, 0, 0, 0, 0]", fillcolor="#6feca3"] ;
139 -> 143 ;
144 [label="floating <= 520.0\ngini = 0.5\nsamples = 2\nvalue = [0, 0, 2, 2, 0, 0, 0, 0, 0]", fillcolor="#ffffff"] ;
143 -> 144 ;
145 [label="gini = 0.0\nsamples = 1\nvalue = [0, 0, 0, 2, 0, 0, 0, 0, 0]", fillcolor="#39e581"] ;
144 -> 145 ;
146 [label="gini = 0.0\nsamples = 1\nvalue = [0, 0, 2, 0, 0, 0, 0, 0, 0]", fillcolor="#64e539"] ;
144 -> 146 ;
147 [label="floating <= 565.0\ngini = 0.198\nsamples = 7\nvalue = [0, 1, 0, 8, 0, 0, 0, 0, 0]", fillcolor="#52e891"] ;
143 -> 147 ;
148 [label="gini = 0.0\nsamples = 4\nvalue = [0, 0, 0, 5, 0, 0, 0, 0, 0]", fillcolor="#39e581"] ;
147 -> 148 ;
149 [label="floating <= 580.0\ngini = 0.375\nsamples = 3\nvalue = [0, 1, 0, 3, 0, 0, 0, 0, 0]", fillcolor="#7beeab"] ;
147 -> 149 ;
150 [label="gini = 0.0\nsamples = 1\nvalue = [0, 1, 0, 0, 0, 0, 0, 0, 0]", fillcolor="#d7e539"] ;
149 -> 150 ;
151 [label="gini = 0.0\nsamples = 2\nvalue = [0, 0, 0, 3, 0, 0, 0, 0, 0]", fillcolor="#39e581"] ;
149 -> 151 ;
152 [label="floating <= 485.0\ngini = 0.473\nsamples = 9\nvalue = [2, 9, 0, 2, 0, 0, 0, 0, 0]", fillcolor="#e6ee81"] ;
138 -> 152 ;
153 [label="floating <= 455.0\ngini = 0.444\nsamples = 3\nvalue = [1, 0, 0, 2, 0, 0, 0, 0, 0]", fillcolor="#9cf2c0"] ;
152 -> 153 ;
154 [label="gini = 0.0\nsamples = 2\nvalue = [0, 0, 0, 2, 0, 0, 0, 0, 0]", fillcolor="#39e581"] ;
153 -> 154 ;
155 [label="gini = 0.0\nsamples = 1\nvalue = [1, 0, 0, 0, 0, 0, 0, 0, 0]", fillcolor="#e58139"] ;
153 -> 155 ;
156 [label="floating <= 550.0\ngini = 0.18\nsamples = 6\nvalue = [1, 9, 0, 0, 0, 0, 0, 0, 0]", fillcolor="#dbe84f"] ;
152 -> 156 ;
157 [label="gini = 0.0\nsamples = 3\nvalue = [0, 5, 0, 0, 0, 0, 0, 0, 0]", fillcolor="#d7e539"] ;
156 -> 157 ;
158 [label="floating <= 570.0\ngini = 0.32\nsamples = 3\nvalue = [1, 4, 0, 0, 0, 0, 0, 0, 0]", fillcolor="#e1ec6a"] ;
156 -> 158 ;
159 [label="gini = 0.0\nsamples = 1\nvalue = [1, 0, 0, 0, 0, 0, 0, 0, 0]", fillcolor="#e58139"] ;
158 -> 159 ;
160 [label="gini = 0.0\nsamples = 2\nvalue = [0, 4, 0, 0, 0, 0, 0, 0, 0]", fillcolor="#d7e539"] ;
158 -> 160 ;
161 [label="gini = 0.0\nsamples = 3\nvalue = [7, 0, 0, 0, 0, 0, 0, 0, 0]", fillcolor="#e58139"] ;
15 -> 161 ;
162 [label="resident <= 65.0\ngini = 0.712\nsamples = 36\nvalue = [15, 22, 3, 9, 1, 3, 0, 0, 0]", fillcolor="#f8fadb"] ;
14 -> 162 ;
163 [label="floating <= 960.0\ngini = 0.683\nsamples = 29\nvalue = [12, 19, 3, 3, 1, 3, 0, 0, 0]", fillcolor="#f5f9cf"] ;
162 -> 163 ;
164 [label="floating <= 740.0\ngini = 0.676\nsamples = 13\nvalue = [9, 5, 1, 1, 0, 3, 0, 0, 0]", fillcolor="#f8dbc6"] ;
163 -> 164 ;
165 [label="gini = 0.0\nsamples = 1\nvalue = [0, 1, 0, 0, 0, 0, 0, 0, 0]", fillcolor="#d7e539"] ;
164 -> 165 ;
166 [label="resident <= 55.0\ngini = 0.667\nsamples = 12\nvalue = [9, 4, 1, 1, 0, 3, 0, 0, 0]", fillcolor="#f6d2b8"] ;
164 -> 166 ;
167 [label="floating <= 920.0\ngini = 0.485\nsamples = 10\nvalue = [9, 2, 1, 1, 0, 0, 0, 0, 0]", fillcolor="#eeaf81"] ;
166 -> 167 ;
168 [label="resident <= 15.0\ngini = 0.58\nsamples = 8\nvalue = [6, 2, 1, 1, 0, 0, 0, 0, 0]", fillcolor="#f2c09c"] ;
167 -> 168 ;
169 [label="gini = 0.0\nsamples = 1\nvalue = [0, 1, 0, 0, 0, 0, 0, 0, 0]", fillcolor="#d7e539"] ;
168 -> 169 ;
170 [label="resident <= 30.0\ngini = 0.519\nsamples = 7\nvalue = [6, 1, 1, 1, 0, 0, 0, 0, 0]", fillcolor="#efb083"] ;
168 -> 170 ;
171 [label="gini = 0.0\nsamples = 1\nvalue = [2, 0, 0, 0, 0, 0, 0, 0, 0]", fillcolor="#e58139"] ;
170 -> 171 ;
172 [label="floating <= 815.0\ngini = 0.612\nsamples = 6\nvalue = [4, 1, 1, 1, 0, 0, 0, 0, 0]", fillcolor="#f2c09c"] ;
170 -> 172 ;
173 [label="gini = 0.0\nsamples = 3\nvalue = [4, 0, 0, 0, 0, 0, 0, 0, 0]", fillcolor="#e58139"] ;
172 -> 173 ;
174 [label="floating <= 870.0\ngini = 0.667\nsamples = 3\nvalue = [0, 1, 1, 1, 0, 0, 0, 0, 0]", fillcolor="#ffffff"] ;
172 -> 174 ;
175 [label="gini = 0.0\nsamples = 1\nvalue = [0, 0, 0, 1, 0, 0, 0, 0, 0]", fillcolor="#39e581"] ;
174 -> 175 ;
176 [label="floating <= 890.0\ngini = 0.5\nsamples = 2\nvalue = [0, 1, 1, 0, 0, 0, 0, 0, 0]", fillcolor="#ffffff"] ;
174 -> 176 ;
177 [label="gini = 0.0\nsamples = 1\nvalue = [0, 1, 0, 0, 0, 0, 0, 0, 0]", fillcolor="#d7e539"] ;
176 -> 177 ;
178 [label="gini = 0.0\nsamples = 1\nvalue = [0, 0, 1, 0, 0, 0, 0, 0, 0]", fillcolor="#64e539"] ;
176 -> 178 ;
179 [label="gini = 0.0\nsamples = 2\nvalue = [3, 0, 0, 0, 0, 0, 0, 0, 0]", fillcolor="#e58139"] ;
167 -> 179 ;
180 [label="floating <= 890.0\ngini = 0.48\nsamples = 2\nvalue = [0, 2, 0, 0, 0, 3, 0, 0, 0]", fillcolor="#bdcbf6"] ;
166 -> 180 ;
181 [label="gini = 0.0\nsamples = 1\nvalue = [0, 0, 0, 0, 0, 3, 0, 0, 0]", fillcolor="#3964e5"] ;
180 -> 181 ;
182 [label="gini = 0.0\nsamples = 1\nvalue = [0, 2, 0, 0, 0, 0, 0, 0, 0]", fillcolor="#d7e539"] ;
180 -> 182 ;
183 [label="floating <= 1860.0\ngini = 0.558\nsamples = 16\nvalue = [3, 14, 2, 2, 1, 0, 0, 0, 0]", fillcolor="#e8f08c"] ;
163 -> 183 ;
184 [label="resident <= 25.0\ngini = 0.526\nsamples = 15\nvalue = [2, 14, 2, 2, 1, 0, 0, 0, 0]", fillcolor="#e6ef82"] ;
183 -> 184 ;
185 [label="floating <= 1055.0\ngini = 0.667\nsamples = 5\nvalue = [2, 2, 0, 2, 0, 0, 0, 0, 0]", fillcolor="#ffffff"] ;
184 -> 185 ;
186 [label="gini = 0.0\nsamples = 2\nvalue = [0, 2, 0, 0, 0, 0, 0, 0, 0]", fillcolor="#d7e539"] ;
185 -> 186 ;
187 [label="floating <= 1145.0\ngini = 0.5\nsamples = 3\nvalue = [2, 0, 0, 2, 0, 0, 0, 0, 0]", fillcolor="#ffffff"] ;
185 -> 187 ;
188 [label="gini = 0.0\nsamples = 1\nvalue = [2, 0, 0, 0, 0, 0, 0, 0, 0]", fillcolor="#e58139"] ;
187 -> 188 ;
189 [label="gini = 0.0\nsamples = 2\nvalue = [0, 0, 0, 2, 0, 0, 0, 0, 0]", fillcolor="#39e581"] ;
187 -> 189 ;
190 [label="floating <= 1010.0\ngini = 0.338\nsamples = 10\nvalue = [0, 12, 2, 0, 1, 0, 0, 0, 0]", fillcolor="#e0eb67"] ;
184 -> 190 ;
191 [label="resident <= 45.0\ngini = 0.625\nsamples = 3\nvalue = [0, 1, 2, 0, 1, 0, 0, 0, 0]", fillcolor="#cbf6bd"] ;
190 -> 191 ;
192 [label="gini = 0.0\nsamples = 1\nvalue = [0, 0, 0, 0, 1, 0, 0, 0, 0]", fillcolor="#39d7e5"] ;
191 -> 192 ;
193 [label="floating <= 980.0\ngini = 0.444\nsamples = 2\nvalue = [0, 1, 2, 0, 0, 0, 0, 0, 0]", fillcolor="#b2f29c"] ;
191 -> 193 ;
194 [label="gini = 0.0\nsamples = 1\nvalue = [0, 1, 0, 0, 0, 0, 0, 0, 0]", fillcolor="#d7e539"] ;
193 -> 194 ;
195 [label="gini = 0.0\nsamples = 1\nvalue = [0, 0, 2, 0, 0, 0, 0, 0, 0]", fillcolor="#64e539"] ;
193 -> 195 ;
196 [label="gini = 0.0\nsamples = 7\nvalue = [0, 11, 0, 0, 0, 0, 0, 0, 0]", fillcolor="#d7e539"] ;
190 -> 196 ;
197 [label="gini = 0.0\nsamples = 1\nvalue = [1, 0, 0, 0, 0, 0, 0, 0, 0]", fillcolor="#e58139"] ;
183 -> 197 ;
198 [label="floating <= 890.0\ngini = 0.625\nsamples = 7\nvalue = [3, 3, 0, 6, 0, 0, 0, 0, 0]", fillcolor="#bdf6d5"] ;
162 -> 198 ;
199 [label="gini = 0.0\nsamples = 3\nvalue = [0, 3, 0, 0, 0, 0, 0, 0, 0]", fillcolor="#d7e539"] ;
198 -> 199 ;
200 [label="floating <= 1005.0\ngini = 0.444\nsamples = 4\nvalue = [3, 0, 0, 6, 0, 0, 0, 0, 0]", fillcolor="#9cf2c0"] ;
198 -> 200 ;
201 [label="gini = 0.0\nsamples = 2\nvalue = [0, 0, 0, 6, 0, 0, 0, 0, 0]", fillcolor="#39e581"] ;
200 -> 201 ;
202 [label="gini = 0.0\nsamples = 2\nvalue = [3, 0, 0, 0, 0, 0, 0, 0, 0]", fillcolor="#e58139"] ;
200 -> 202 ;
203 [label="resident <= 115.0\ngini = 0.728\nsamples = 50\nvalue = [12, 22, 33, 14, 3, 0, 0, 0, 0]", fillcolor="#e4fadc"] ;
13 -> 203 ;
204 [label="floating <= 925.0\ngini = 0.668\nsamples = 27\nvalue = [9, 9, 21, 3, 1, 0, 0, 0, 0]", fillcolor="#c8f6b9"] ;
203 -> 204 ;
205 [label="resident <= 95.0\ngini = 0.54\nsamples = 6\nvalue = [3, 6, 0, 0, 1, 0, 0, 0, 0]", fillcolor="#eef4aa"] ;
204 -> 205 ;
206 [label="floating <= 605.0\ngini = 0.494\nsamples = 5\nvalue = [2, 6, 0, 0, 1, 0, 0, 0, 0]", fillcolor="#e8f08e"] ;
205 -> 206 ;
207 [label="gini = 0.0\nsamples = 2\nvalue = [0, 5, 0, 0, 0, 0, 0, 0, 0]", fillcolor="#d7e539"] ;
206 -> 207 ;
208 [label="floating <= 790.0\ngini = 0.625\nsamples = 3\nvalue = [2, 1, 0, 0, 1, 0, 0, 0, 0]", fillcolor="#f6d5bd"] ;
206 -> 208 ;
209 [label="gini = 0.0\nsamples = 1\nvalue = [2, 0, 0, 0, 0, 0, 0, 0, 0]", fillcolor="#e58139"] ;
208 -> 209 ;
210 [label="floating <= 850.0\ngini = 0.5\nsamples = 2\nvalue = [0, 1, 0, 0, 1, 0, 0, 0, 0]", fillcolor="#ffffff"] ;
208 -> 210 ;
211 [label="gini = 0.0\nsamples = 1\nvalue = [0, 0, 0, 0, 1, 0, 0, 0, 0]", fillcolor="#39d7e5"] ;
210 -> 211 ;
212 [label="gini = 0.0\nsamples = 1\nvalue = [0, 1, 0, 0, 0, 0, 0, 0, 0]", fillcolor="#d7e539"] ;
210 -> 212 ;
213 [label="gini = 0.0\nsamples = 1\nvalue = [1, 0, 0, 0, 0, 0, 0, 0, 0]", fillcolor="#e58139"] ;
205 -> 213 ;
214 [label="resident <= 85.0\ngini = 0.545\nsamples = 21\nvalue = [6, 3, 21, 3, 0, 0, 0, 0, 0]", fillcolor="#a9f191"] ;
204 -> 214 ;
215 [label="floating <= 1035.0\ngini = 0.617\nsamples = 8\nvalue = [5, 0, 8, 3, 0, 0, 0, 0, 0]", fillcolor="#d5f8c9"] ;
214 -> 215 ;
216 [label="gini = 0.375\nsamples = 3\nvalue = [2, 0, 6, 0, 0, 0, 0, 0, 0]", fillcolor="#98ee7b"] ;
215 -> 216 ;
217 [label="floating <= 1115.0\ngini = 0.656\nsamples = 5\nvalue = [3, 0, 2, 3, 0, 0, 0, 0, 0]", fillcolor="#ffffff"] ;
215 -> 217 ;
218 [label="gini = 0.0\nsamples = 2\nvalue = [0, 0, 0, 3, 0, 0, 0, 0, 0]", fillcolor="#39e581"] ;
217 -> 218 ;
219 [label="floating <= 1515.0\ngini = 0.48\nsamples = 3\nvalue = [3, 0, 2, 0, 0, 0, 0, 0, 0]", fillcolor="#f6d5bd"] ;
217 -> 219 ;
220 [label="gini = 0.0\nsamples = 1\nvalue = [2, 0, 0, 0, 0, 0, 0, 0, 0]", fillcolor="#e58139"] ;
219 -> 220 ;
221 [label="floating <= 1940.0\ngini = 0.444\nsamples = 2\nvalue = [1, 0, 2, 0, 0, 0, 0, 0, 0]", fillcolor="#b2f29c"] ;
219 -> 221 ;
222 [label="gini = 0.0\nsamples = 1\nvalue = [0, 0, 2, 0, 0, 0, 0, 0, 0]", fillcolor="#64e539"] ;
221 -> 222 ;
223 [label="gini = 0.0\nsamples = 1\nvalue = [1, 0, 0, 0, 0, 0, 0, 0, 0]", fillcolor="#e58139"] ;
221 -> 223 ;
224 [label="resident <= 95.0\ngini = 0.381\nsamples = 13\nvalue = [1, 3, 13, 0, 0, 0, 0, 0, 0]", fillcolor="#90ec72"] ;
214 -> 224 ;
225 [label="floating <= 1460.0\ngini = 0.5\nsamples = 4\nvalue = [0, 3, 3, 0, 0, 0, 0, 0, 0]", fillcolor="#ffffff"] ;
224 -> 225 ;
226 [label="gini = 0.0\nsamples = 2\nvalue = [0, 0, 3, 0, 0, 0, 0, 0, 0]", fillcolor="#64e539"] ;
225 -> 226 ;
227 [label="gini = 0.0\nsamples = 2\nvalue = [0, 3, 0, 0, 0, 0, 0, 0, 0]", fillcolor="#d7e539"] ;
225 -> 227 ;
228 [label="resident <= 105.0\ngini = 0.165\nsamples = 9\nvalue = [1, 0, 10, 0, 0, 0, 0, 0, 0]", fillcolor="#74e84d"] ;
224 -> 228 ;
229 [label="floating <= 1385.0\ngini = 0.278\nsamples = 6\nvalue = [1, 0, 5, 0, 0, 0, 0, 0, 0]", fillcolor="#83ea61"] ;
228 -> 229 ;
230 [label="gini = 0.0\nsamples = 3\nvalue = [0, 0, 3, 0, 0, 0, 0, 0, 0]", fillcolor="#64e539"] ;
229 -> 230 ;
231 [label="floating <= 1835.0\ngini = 0.444\nsamples = 3\nvalue = [1, 0, 2, 0, 0, 0, 0, 0, 0]", fillcolor="#b2f29c"] ;
229 -> 231 ;
232 [label="gini = 0.0\nsamples = 1\nvalue = [1, 0, 0, 0, 0, 0, 0, 0, 0]", fillcolor="#e58139"] ;
231 -> 232 ;
233 [label="gini = 0.0\nsamples = 2\nvalue = [0, 0, 2, 0, 0, 0, 0, 0, 0]", fillcolor="#64e539"] ;
231 -> 233 ;
234 [label="gini = 0.0\nsamples = 3\nvalue = [0, 0, 5, 0, 0, 0, 0, 0, 0]", fillcolor="#64e539"] ;
228 -> 234 ;
235 [label="resident <= 155.0\ngini = 0.734\nsamples = 23\nvalue = [3, 13, 12, 11, 2, 0, 0, 0, 0]", fillcolor="#fefef8"] ;
203 -> 235 ;
236 [label="floating <= 1395.0\ngini = 0.709\nsamples = 15\nvalue = [2, 10, 4, 11, 2, 0, 0, 0, 0]", fillcolor="#f5fef8"] ;
235 -> 236 ;
237 [label="gini = 0.0\nsamples = 4\nvalue = [0, 7, 0, 0, 0, 0, 0, 0, 0]", fillcolor="#d7e539"] ;
236 -> 237 ;
238 [label="resident <= 125.0\ngini = 0.682\nsamples = 11\nvalue = [2, 3, 4, 11, 2, 0, 0, 0, 0]", fillcolor="#b2f5ce"] ;
236 -> 238 ;
239 [label="gini = 0.0\nsamples = 1\nvalue = [0, 3, 0, 0, 0, 0, 0, 0, 0]", fillcolor="#d7e539"] ;
238 -> 239 ;
240 [label="floating <= 1800.0\ngini = 0.598\nsamples = 10\nvalue = [2, 0, 4, 11, 2, 0, 0, 0, 0]", fillcolor="#a3f3c4"] ;
238 -> 240 ;
241 [label="resident <= 135.0\ngini = 0.26\nsamples = 7\nvalue = [2, 0, 0, 11, 0, 0, 0, 0, 0]", fillcolor="#5dea98"] ;
240 -> 241 ;
242 [label="gini = 0.0\nsamples = 3\nvalue = [0, 0, 0, 5, 0, 0, 0, 0, 0]", fillcolor="#39e581"] ;
241 -> 242 ;
243 [label="floating <= 1700.0\ngini = 0.375\nsamples = 4\nvalue = [2, 0, 0, 6, 0, 0, 0, 0, 0]", fillcolor="#7beeab"] ;
241 -> 243 ;
244 [label="gini = 0.0\nsamples = 3\nvalue = [0, 0, 0, 6, 0, 0, 0, 0, 0]", fillcolor="#39e581"] ;
243 -> 244 ;
245 [label="gini = 0.0\nsamples = 1\nvalue = [2, 0, 0, 0, 0, 0, 0, 0, 0]", fillcolor="#e58139"] ;
243 -> 245 ;
246 [label="floating <= 1895.0\ngini = 0.444\nsamples = 3\nvalue = [0, 0, 4, 0, 2, 0, 0, 0, 0]", fillcolor="#b2f29c"] ;
240 -> 246 ;
247 [label="gini = 0.0\nsamples = 2\nvalue = [0, 0, 4, 0, 0, 0, 0, 0, 0]", fillcolor="#64e539"] ;
246 -> 247 ;
248 [label="gini = 0.0\nsamples = 1\nvalue = [0, 0, 0, 0, 2, 0, 0, 0, 0]", fillcolor="#39d7e5"] ;
246 -> 248 ;
249 [label="floating <= 1880.0\ngini = 0.486\nsamples = 8\nvalue = [1, 3, 8, 0, 0, 0, 0, 0, 0]", fillcolor="#a9f191"] ;
235 -> 249 ;
250 [label="floating <= 1785.0\ngini = 0.198\nsamples = 6\nvalue = [1, 0, 8, 0, 0, 0, 0, 0, 0]", fillcolor="#77e852"] ;
249 -> 250 ;
251 [label="floating <= 1695.0\ngini = 0.375\nsamples = 3\nvalue = [1, 0, 3, 0, 0, 0, 0, 0, 0]", fillcolor="#98ee7b"] ;
250 -> 251 ;
252 [label="gini = 0.0\nsamples = 2\nvalue = [0, 0, 3, 0, 0, 0, 0, 0, 0]", fillcolor="#64e539"] ;
251 -> 252 ;
253 [label="gini = 0.0\nsamples = 1\nvalue = [1, 0, 0, 0, 0, 0, 0, 0, 0]", fillcolor="#e58139"] ;
251 -> 253 ;
254 [label="gini = 0.0\nsamples = 3\nvalue = [0, 0, 5, 0, 0, 0, 0, 0, 0]", fillcolor="#64e539"] ;
250 -> 254 ;
255 [label="gini = 0.0\nsamples = 2\nvalue = [0, 3, 0, 0, 0, 0, 0, 0, 0]", fillcolor="#d7e539"] ;
249 -> 255 ;
256 [label="floating <= 2950.0\ngini = 0.628\nsamples = 7\nvalue = [0, 5, 0, 0, 4, 0, 2, 0, 0]", fillcolor="#f9fbe3"] ;
12 -> 256 ;
257 [label="resident <= 240.0\ngini = 0.571\nsamples = 5\nvalue = [0, 1, 0, 0, 4, 0, 2, 0, 0]", fillcolor="#b0eff5"] ;
256 -> 257 ;
258 [label="floating <= 2900.0\ngini = 0.32\nsamples = 3\nvalue = [0, 1, 0, 0, 4, 0, 0, 0, 0]", fillcolor="#6ae1ec"] ;
257 -> 258 ;
259 [label="gini = 0.0\nsamples = 1\nvalue = [0, 1, 0, 0, 0, 0, 0, 0, 0]", fillcolor="#d7e539"] ;
258 -> 259 ;
260 [label="gini = 0.0\nsamples = 2\nvalue = [0, 0, 0, 0, 4, 0, 0, 0, 0]", fillcolor="#39d7e5"] ;
258 -> 260 ;
261 [label="gini = 0.0\nsamples = 2\nvalue = [0, 0, 0, 0, 0, 0, 2, 0, 0]", fillcolor="#8139e5"] ;
257 -> 261 ;
262 [label="gini = 0.0\nsamples = 2\nvalue = [0, 4, 0, 0, 0, 0, 0, 0, 0]", fillcolor="#d7e539"] ;
256 -> 262 ;
263 [label="resident <= 215.0\ngini = 0.829\nsamples = 232\nvalue = [5, 16, 52, 95, 60, 29, 68, 21, 9]", fillcolor="#ecfdf3"] ;
3 -> 263 ;
264 [label="floating <= 3130.0\ngini = 0.672\nsamples = 25\nvalue = [1, 0, 1, 17, 0, 6, 1, 11, 0]", fillcolor="#d1f9e2"] ;
263 -> 264 ;
265 [label="gini = 0.0\nsamples = 6\nvalue = [0, 0, 0, 0, 0, 0, 0, 10, 0]", fillcolor="#e539d7"] ;
264 -> 265 ;
266 [label="resident <= 170.0\ngini = 0.549\nsamples = 19\nvalue = [1, 0, 1, 17, 0, 6, 1, 1, 0]", fillcolor="#97f1bd"] ;
264 -> 266 ;
267 [label="floating <= 4075.0\ngini = 0.272\nsamples = 8\nvalue = [1, 0, 0, 11, 0, 0, 1, 0, 0]", fillcolor="#5ae996"] ;
266 -> 267 ;
268 [label="resident <= 155.0\ngini = 0.153\nsamples = 7\nvalue = [0, 0, 0, 11, 0, 0, 1, 0, 0]", fillcolor="#4be78c"] ;
267 -> 268 ;
269 [label="floating <= 3605.0\ngini = 0.444\nsamples = 2\nvalue = [0, 0, 0, 2, 0, 0, 1, 0, 0]", fillcolor="#9cf2c0"] ;
268 -> 269 ;
270 [label="gini = 0.0\nsamples = 1\nvalue = [0, 0, 0, 0, 0, 0, 1, 0, 0]", fillcolor="#8139e5"] ;
269 -> 270 ;
271 [label="gini = 0.0\nsamples = 1\nvalue = [0, 0, 0, 2, 0, 0, 0, 0, 0]", fillcolor="#39e581"] ;
269 -> 271 ;
272 [label="gini = 0.0\nsamples = 5\nvalue = [0, 0, 0, 9, 0, 0, 0, 0, 0]", fillcolor="#39e581"] ;
268 -> 272 ;
273 [label="gini = 0.0\nsamples = 1\nvalue = [1, 0, 0, 0, 0, 0, 0, 0, 0]", fillcolor="#e58139"] ;
267 -> 273 ;
274 [label="floating <= 3250.0\ngini = 0.622\nsamples = 11\nvalue = [0, 0, 1, 6, 0, 6, 0, 1, 0]", fillcolor="#ffffff"] ;
266 -> 274 ;
275 [label="gini = 0.0\nsamples = 3\nvalue = [0, 0, 0, 0, 0, 4, 0, 0, 0]", fillcolor="#3964e5"] ;
274 -> 275 ;
276 [label="floating <= 4665.0\ngini = 0.58\nsamples = 8\nvalue = [0, 0, 1, 6, 0, 2, 0, 1, 0]", fillcolor="#9cf2c0"] ;
274 -> 276 ;
277 [label="floating <= 3340.0\ngini = 0.406\nsamples = 6\nvalue = [0, 0, 1, 6, 0, 0, 0, 1, 0]", fillcolor="#72eca5"] ;
276 -> 277 ;
278 [label="floating <= 3310.0\ngini = 0.444\nsamples = 2\nvalue = [0, 0, 0, 2, 0, 0, 0, 1, 0]", fillcolor="#9cf2c0"] ;
277 -> 278 ;
279 [label="gini = 0.0\nsamples = 1\nvalue = [0, 0, 0, 2, 0, 0, 0, 0, 0]", fillcolor="#39e581"] ;
278 -> 279 ;
280 [label="gini = 0.0\nsamples = 1\nvalue = [0, 0, 0, 0, 0, 0, 0, 1, 0]", fillcolor="#e539d7"] ;
278 -> 280 ;
281 [label="floating <= 3670.0\ngini = 0.32\nsamples = 4\nvalue = [0, 0, 1, 4, 0, 0, 0, 0, 0]", fillcolor="#6aeca0"] ;
277 -> 281 ;
282 [label="gini = 0.0\nsamples = 2\nvalue = [0, 0, 0, 2, 0, 0, 0, 0, 0]", fillcolor="#39e581"] ;
281 -> 282 ;
283 [label="resident <= 205.0\ngini = 0.444\nsamples = 2\nvalue = [0, 0, 1, 2, 0, 0, 0, 0, 0]", fillcolor="#9cf2c0"] ;
281 -> 283 ;
284 [label="gini = 0.0\nsamples = 1\nvalue = [0, 0, 1, 0, 0, 0, 0, 0, 0]", fillcolor="#64e539"] ;
283 -> 284 ;
285 [label="gini = 0.0\nsamples = 1\nvalue = [0, 0, 0, 2, 0, 0, 0, 0, 0]", fillcolor="#39e581"] ;
283 -> 285 ;
286 [label="gini = 0.0\nsamples = 2\nvalue = [0, 0, 0, 0, 0, 2, 0, 0, 0]", fillcolor="#3964e5"] ;
276 -> 286 ;
287 [label="floating <= 4575.0\ngini = 0.824\nsamples = 207\nvalue = [4, 16, 51, 78, 60, 23, 67, 10, 9]", fillcolor="#f6fef9"] ;
263 -> 287 ;
288 [label="floating <= 4500.0\ngini = 0.769\nsamples = 57\nvalue = [2, 10, 6, 30, 20, 4, 0, 10, 0]", fillcolor="#dffbeb"] ;
287 -> 288 ;
289 [label="floating <= 4395.0\ngini = 0.699\nsamples = 48\nvalue = [2, 6, 6, 30, 20, 4, 0, 0, 0]", fillcolor="#d6fae5"] ;
288 -> 289 ;
290 [label="floating <= 4160.0\ngini = 0.732\nsamples = 43\nvalue = [2, 6, 6, 21, 20, 4, 0, 0, 0]", fillcolor="#fafefc"] ;
289 -> 290 ;
291 [label="resident <= 275.0\ngini = 0.697\nsamples = 40\nvalue = [2, 6, 6, 21, 20, 0, 0, 0, 0]", fillcolor="#f9fefb"] ;
290 -> 291 ;
292 [label="resident <= 235.0\ngini = 0.67\nsamples = 31\nvalue = [1, 4, 6, 21, 12, 0, 0, 0, 0]", fillcolor="#c7f8dc"] ;
291 -> 292 ;
293 [label="resident <= 225.0\ngini = 0.685\nsamples = 14\nvalue = [1, 2, 2, 6, 9, 0, 0, 0, 0]", fillcolor="#d5f6f9"] ;
292 -> 293 ;
294 [label="floating <= 3175.0\ngini = 0.625\nsamples = 8\nvalue = [0, 0, 2, 5, 5, 0, 0, 0, 0]", fillcolor="#ffffff"] ;
293 -> 294 ;
295 [label="gini = 0.0\nsamples = 3\nvalue = [0, 0, 0, 5, 0, 0, 0, 0, 0]", fillcolor="#39e581"] ;
294 -> 295 ;
296 [label="floating <= 3255.0\ngini = 0.408\nsamples = 5\nvalue = [0, 0, 2, 0, 5, 0, 0, 0, 0]", fillcolor="#88e7ef"] ;
294 -> 296 ;
297 [label="gini = 0.0\nsamples = 3\nvalue = [0, 0, 0, 0, 5, 0, 0, 0, 0]", fillcolor="#39d7e5"] ;
296 -> 297 ;
298 [label="gini = 0.0\nsamples = 2\nvalue = [0, 0, 2, 0, 0, 0, 0, 0, 0]", fillcolor="#64e539"] ;
296 -> 298 ;
299 [label="floating <= 4070.0\ngini = 0.656\nsamples = 6\nvalue = [1, 2, 0, 1, 4, 0, 0, 0, 0]", fillcolor="#bdf2f6"] ;
293 -> 299 ;
300 [label="floating <= 3575.0\ngini = 0.444\nsamples = 2\nvalue = [1, 2, 0, 0, 0, 0, 0, 0, 0]", fillcolor="#ebf29c"] ;
299 -> 300 ;
301 [label="gini = 0.0\nsamples = 1\nvalue = [1, 0, 0, 0, 0, 0, 0, 0, 0]", fillcolor="#e58139"] ;
300 -> 301 ;
302 [label="gini = 0.0\nsamples = 1\nvalue = [0, 2, 0, 0, 0, 0, 0, 0, 0]", fillcolor="#d7e539"] ;
300 -> 302 ;
303 [label="floating <= 4110.0\ngini = 0.32\nsamples = 4\nvalue = [0, 0, 0, 1, 4, 0, 0, 0, 0]", fillcolor="#6ae1ec"] ;
299 -> 303 ;
304 [label="gini = 0.0\nsamples = 3\nvalue = [0, 0, 0, 0, 4, 0, 0, 0, 0]", fillcolor="#39d7e5"] ;
303 -> 304 ;
305 [label="gini = 0.0\nsamples = 1\nvalue = [0, 0, 0, 1, 0, 0, 0, 0, 0]", fillcolor="#39e581"] ;
303 -> 305 ;
306 [label="resident <= 245.0\ngini = 0.559\nsamples = 17\nvalue = [0, 2, 4, 15, 3, 0, 0, 0, 0]", fillcolor="#92f1ba"] ;
292 -> 306 ;
307 [label="floating <= 3985.0\ngini = 0.298\nsamples = 8\nvalue = [0, 0, 2, 9, 0, 0, 0, 0, 0]", fillcolor="#65eb9d"] ;
306 -> 307 ;
308 [label="gini = 0.0\nsamples = 6\nvalue = [0, 0, 0, 9, 0, 0, 0, 0, 0]", fillcolor="#39e581"] ;
307 -> 308 ;
309 [label="gini = 0.0\nsamples = 2\nvalue = [0, 0, 2, 0, 0, 0, 0, 0, 0]", fillcolor="#64e539"] ;
307 -> 309 ;
310 [label="floating <= 3925.0\ngini = 0.686\nsamples = 9\nvalue = [0, 2, 2, 6, 3, 0, 0, 0, 0]", fillcolor="#c4f7d9"] ;
306 -> 310 ;
311 [label="floating <= 3380.0\ngini = 0.653\nsamples = 5\nvalue = [0, 2, 2, 0, 3, 0, 0, 0, 0]", fillcolor="#d7f7fa"] ;
310 -> 311 ;
312 [label="gini = 0.0\nsamples = 2\nvalue = [0, 0, 0, 0, 3, 0, 0, 0, 0]", fillcolor="#39d7e5"] ;
311 -> 312 ;
313 [label="resident <= 255.0\ngini = 0.5\nsamples = 3\nvalue = [0, 2, 2, 0, 0, 0, 0, 0, 0]", fillcolor="#ffffff"] ;
311 -> 313 ;
314 [label="floating <= 3820.0\ngini = 0.444\nsamples = 2\nvalue = [0, 2, 1, 0, 0, 0, 0, 0, 0]", fillcolor="#ebf29c"] ;
313 -> 314 ;
315 [label="gini = 0.0\nsamples = 1\nvalue = [0, 2, 0, 0, 0, 0, 0, 0, 0]", fillcolor="#d7e539"] ;
314 -> 315 ;
316 [label="gini = 0.0\nsamples = 1\nvalue = [0, 0, 1, 0, 0, 0, 0, 0, 0]", fillcolor="#64e539"] ;
314 -> 316 ;
317 [label="gini = 0.0\nsamples = 1\nvalue = [0, 0, 1, 0, 0, 0, 0, 0, 0]", fillcolor="#64e539"] ;
313 -> 317 ;
318 [label="gini = 0.0\nsamples = 4\nvalue = [0, 0, 0, 6, 0, 0, 0, 0, 0]", fillcolor="#39e581"] ;
310 -> 318 ;
319 [label="resident <= 295.0\ngini = 0.43\nsamples = 9\nvalue = [1, 2, 0, 0, 8, 0, 0, 0, 0]", fillcolor="#7be4ee"] ;
291 -> 319 ;
320 [label="floating <= 3815.0\ngini = 0.245\nsamples = 6\nvalue = [1, 0, 0, 0, 6, 0, 0, 0, 0]", fillcolor="#5adee9"] ;
319 -> 320 ;
321 [label="gini = 0.0\nsamples = 5\nvalue = [0, 0, 0, 0, 6, 0, 0, 0, 0]", fillcolor="#39d7e5"] ;
320 -> 321 ;
322 [label="gini = 0.0\nsamples = 1\nvalue = [1, 0, 0, 0, 0, 0, 0, 0, 0]", fillcolor="#e58139"] ;
320 -> 322 ;
323 [label="floating <= 4075.0\ngini = 0.5\nsamples = 3\nvalue = [0, 2, 0, 0, 2, 0, 0, 0, 0]", fillcolor="#ffffff"] ;
319 -> 323 ;
324 [label="gini = 0.0\nsamples = 2\nvalue = [0, 0, 0, 0, 2, 0, 0, 0, 0]", fillcolor="#39d7e5"] ;
323 -> 324 ;
325 [label="gini = 0.0\nsamples = 1\nvalue = [0, 2, 0, 0, 0, 0, 0, 0, 0]", fillcolor="#d7e539"] ;
323 -> 325 ;
326 [label="gini = 0.0\nsamples = 3\nvalue = [0, 0, 0, 0, 0, 4, 0, 0, 0]", fillcolor="#3964e5"] ;
290 -> 326 ;
327 [label="gini = 0.0\nsamples = 5\nvalue = [0, 0, 0, 9, 0, 0, 0, 0, 0]", fillcolor="#39e581"] ;
289 -> 327 ;
328 [label="resident <= 310.0\ngini = 0.408\nsamples = 9\nvalue = [0, 4, 0, 0, 0, 0, 0, 10, 0]", fillcolor="#ef88e7"] ;
288 -> 328 ;
329 [label="floating <= 4530.0\ngini = 0.278\nsamples = 8\nvalue = [0, 2, 0, 0, 0, 0, 0, 10, 0]", fillcolor="#ea61df"] ;
328 -> 329 ;
330 [label="gini = 0.0\nsamples = 1\nvalue = [0, 1, 0, 0, 0, 0, 0, 0, 0]", fillcolor="#d7e539"] ;
329 -> 330 ;
331 [label="floating <= 4550.0\ngini = 0.165\nsamples = 7\nvalue = [0, 1, 0, 0, 0, 0, 0, 10, 0]", fillcolor="#e84ddb"] ;
329 -> 331 ;
332 [label="gini = 0.0\nsamples = 6\nvalue = [0, 0, 0, 0, 0, 0, 0, 10, 0]", fillcolor="#e539d7"] ;
331 -> 332 ;
333 [label="gini = 0.0\nsamples = 1\nvalue = [0, 1, 0, 0, 0, 0, 0, 0, 0]", fillcolor="#d7e539"] ;
331 -> 333 ;
334 [label="gini = 0.0\nsamples = 1\nvalue = [0, 2, 0, 0, 0, 0, 0, 0, 0]", fillcolor="#d7e539"] ;
328 -> 334 ;
335 [label="floating <= 5310.0\ngini = 0.804\nsamples = 150\nvalue = [2, 6, 45, 48, 40, 19, 67, 0, 9]", fillcolor="#f2ebfc"] ;
287 -> 335 ;
336 [label="floating <= 5140.0\ngini = 0.803\nsamples = 142\nvalue = [2, 6, 43, 37, 40, 19, 67, 0, 9]", fillcolor="#eee5fc"] ;
335 -> 336 ;
337 [label="floating <= 5095.0\ngini = 0.808\nsamples = 105\nvalue = [2, 5, 36, 37, 30, 19, 34, 0, 0]", fillcolor="#fdfffe"] ;
336 -> 337 ;
338 [label="resident <= 405.0\ngini = 0.81\nsamples = 96\nvalue = [2, 5, 33, 27, 30, 19, 34, 0, 0]", fillcolor="#fefdff"] ;
337 -> 338 ;
339 [label="resident <= 255.0\ngini = 0.808\nsamples = 91\nvalue = [2, 3, 33, 27, 30, 19, 27, 0, 0]", fillcolor="#fbfefa"] ;
338 -> 339 ;
340 [label="resident <= 225.0\ngini = 0.71\nsamples = 19\nvalue = [0, 0, 2, 2, 4, 11, 6, 0, 0]", fillcolor="#cbd6f8"] ;
339 -> 340 ;
341 [label="floating <= 4950.0\ngini = 0.375\nsamples = 5\nvalue = [0, 0, 2, 0, 0, 0, 6, 0, 0]", fillcolor="#ab7bee"] ;
340 -> 341 ;
342 [label="gini = 0.0\nsamples = 1\nvalue = [0, 0, 2, 0, 0, 0, 0, 0, 0]", fillcolor="#64e539"] ;
341 -> 342 ;
343 [label="gini = 0.0\nsamples = 4\nvalue = [0, 0, 0, 0, 0, 0, 6, 0, 0]", fillcolor="#8139e5"] ;
341 -> 343 ;
344 [label="floating <= 4860.0\ngini = 0.512\nsamples = 14\nvalue = [0, 0, 0, 2, 4, 11, 0, 0, 0]", fillcolor="#94acf1"] ;
340 -> 344 ;
345 [label="floating <= 4750.0\ngini = 0.444\nsamples = 5\nvalue = [0, 0, 0, 2, 4, 0, 0, 0, 0]", fillcolor="#9cebf2"] ;
344 -> 345 ;
346 [label="gini = 0.0\nsamples = 3\nvalue = [0, 0, 0, 0, 4, 0, 0, 0, 0]", fillcolor="#39d7e5"] ;
345 -> 346 ;
347 [label="gini = 0.0\nsamples = 2\nvalue = [0, 0, 0, 2, 0, 0, 0, 0, 0]", fillcolor="#39e581"] ;
345 -> 347 ;
348 [label="gini = 0.0\nsamples = 9\nvalue = [0, 0, 0, 0, 0, 11, 0, 0, 0]", fillcolor="#3964e5"] ;
344 -> 348 ;
349 [label="resident <= 275.0\ngini = 0.793\nsamples = 72\nvalue = [2, 3, 31, 25, 26, 8, 21, 0, 0]", fillcolor="#f6fef4"] ;
339 -> 349 ;
350 [label="floating <= 4680.0\ngini = 0.718\nsamples = 18\nvalue = [2, 0, 9, 3, 14, 0, 6, 0, 0]", fillcolor="#d7f7fa"] ;
349 -> 350 ;
351 [label="gini = 0.0\nsamples = 4\nvalue = [0, 0, 0, 0, 0, 0, 5, 0, 0]", fillcolor="#8139e5"] ;
350 -> 351 ;
352 [label="floating <= 5040.0\ngini = 0.654\nsamples = 14\nvalue = [2, 0, 9, 3, 14, 0, 1, 0, 0]", fillcolor="#cef5f8"] ;
350 -> 352 ;
353 [label="floating <= 4880.0\ngini = 0.675\nsamples = 9\nvalue = [2, 0, 9, 3, 6, 0, 0, 0, 0]", fillcolor="#def9d5"] ;
352 -> 353 ;
354 [label="floating <= 4820.0\ngini = 0.595\nsamples = 5\nvalue = [2, 0, 0, 3, 6, 0, 0, 0, 0]", fillcolor="#b5f0f5"] ;
353 -> 354 ;
355 [label="gini = 0.0\nsamples = 1\nvalue = [2, 0, 0, 0, 0, 0, 0, 0, 0]", fillcolor="#e58139"] ;
354 -> 355 ;
356 [label="resident <= 265.0\ngini = 0.444\nsamples = 4\nvalue = [0, 0, 0, 3, 6, 0, 0, 0, 0]", fillcolor="#9cebf2"] ;
354 -> 356 ;
357 [label="gini = 0.0\nsamples = 1\nvalue = [0, 0, 0, 3, 0, 0, 0, 0, 0]", fillcolor="#39e581"] ;
356 -> 357 ;
358 [label="gini = 0.0\nsamples = 3\nvalue = [0, 0, 0, 0, 6, 0, 0, 0, 0]", fillcolor="#39d7e5"] ;
356 -> 358 ;
359 [label="gini = 0.0\nsamples = 4\nvalue = [0, 0, 9, 0, 0, 0, 0, 0, 0]", fillcolor="#64e539"] ;
353 -> 359 ;
360 [label="gini = 0.198\nsamples = 5\nvalue = [0, 0, 0, 0, 8, 0, 1, 0, 0]", fillcolor="#52dce8"] ;
352 -> 360 ;
361 [label="floating <= 4690.0\ngini = 0.79\nsamples = 54\nvalue = [0, 3, 22, 22, 12, 8, 15, 0, 0]", fillcolor="#ffffff"] ;
349 -> 361 ;
362 [label="resident <= 340.0\ngini = 0.571\nsamples = 19\nvalue = [0, 0, 4, 15, 0, 7, 0, 0, 0]", fillcolor="#acf4ca"] ;
361 -> 362 ;
363 [label="resident <= 285.0\ngini = 0.455\nsamples = 15\nvalue = [0, 0, 0, 13, 0, 7, 0, 0, 0]", fillcolor="#a4f3c5"] ;
362 -> 363 ;
364 [label="gini = 0.0\nsamples = 4\nvalue = [0, 0, 0, 7, 0, 0, 0, 0, 0]", fillcolor="#39e581"] ;
363 -> 364 ;
365 [label="resident <= 325.0\ngini = 0.497\nsamples = 11\nvalue = [0, 0, 0, 6, 0, 7, 0, 0, 0]", fillcolor="#e3e9fb"] ;
363 -> 365 ;
366 [label="gini = 0.0\nsamples = 7\nvalue = [0, 0, 0, 0, 0, 7, 0, 0, 0]", fillcolor="#3964e5"] ;
365 -> 366 ;
367 [label="gini = 0.0\nsamples = 4\nvalue = [0, 0, 0, 6, 0, 0, 0, 0, 0]", fillcolor="#39e581"] ;
365 -> 367 ;
368 [label="floating <= 4615.0\ngini = 0.444\nsamples = 4\nvalue = [0, 0, 4, 2, 0, 0, 0, 0, 0]", fillcolor="#b2f29c"] ;
362 -> 368 ;
369 [label="gini = 0.0\nsamples = 1\nvalue = [0, 0, 2, 0, 0, 0, 0, 0, 0]", fillcolor="#64e539"] ;
368 -> 369 ;
370 [label="floating <= 4665.0\ngini = 0.5\nsamples = 3\nvalue = [0, 0, 2, 2, 0, 0, 0, 0, 0]", fillcolor="#ffffff"] ;
368 -> 370 ;
371 [label="gini = 0.0\nsamples = 2\nvalue = [0, 0, 0, 2, 0, 0, 0, 0, 0]", fillcolor="#39e581"] ;
370 -> 371 ;
372 [label="gini = 0.0\nsamples = 1\nvalue = [0, 0, 2, 0, 0, 0, 0, 0, 0]", fillcolor="#64e539"] ;
370 -> 372 ;
373 [label="resident <= 285.0\ngini = 0.76\nsamples = 35\nvalue = [0, 3, 18, 7, 12, 1, 15, 0, 0]", fillcolor="#f4fdf1"] ;
361 -> 373 ;
374 [label="gini = 0.0\nsamples = 4\nvalue = [0, 0, 0, 0, 0, 0, 6, 0, 0]", fillcolor="#8139e5"] ;
373 -> 374 ;
375 [label="floating <= 4960.0\ngini = 0.757\nsamples = 31\nvalue = [0, 3, 18, 7, 12, 1, 9, 0, 0]", fillcolor="#e7fbe0"] ;
373 -> 375 ;
376 [label="resident <= 340.0\ngini = 0.663\nsamples = 20\nvalue = [0, 1, 16, 2, 5, 0, 9, 0, 0]", fillcolor="#d2f7c5"] ;
375 -> 376 ;
377 [label="floating <= 4730.0\ngini = 0.512\nsamples = 13\nvalue = [0, 1, 12, 2, 3, 0, 0, 0, 0]", fillcolor="#a2ef88"] ;
376 -> 377 ;
378 [label="gini = 0.0\nsamples = 5\nvalue = [0, 0, 6, 0, 0, 0, 0, 0, 0]", fillcolor="#64e539"] ;
377 -> 378 ;
379 [label="floating <= 4805.0\ngini = 0.653\nsamples = 8\nvalue = [0, 1, 6, 2, 3, 0, 0, 0, 0]", fillcolor="#cbf6bd"] ;
377 -> 379 ;
380 [label="resident <= 300.0\ngini = 0.48\nsamples = 4\nvalue = [0, 0, 0, 2, 3, 0, 0, 0, 0]", fillcolor="#bdf2f6"] ;
379 -> 380 ;
381 [label="gini = 0.0\nsamples = 2\nvalue = [0, 0, 0, 2, 0, 0, 0, 0, 0]", fillcolor="#39e581"] ;
380 -> 381 ;
382 [label="gini = 0.0\nsamples = 2\nvalue = [0, 0, 0, 0, 3, 0, 0, 0, 0]", fillcolor="#39d7e5"] ;
380 -> 382 ;
383 [label="floating <= 4875.0\ngini = 0.245\nsamples = 4\nvalue = [0, 1, 6, 0, 0, 0, 0, 0, 0]", fillcolor="#7ee95a"] ;
379 -> 383 ;
384 [label="floating <= 4845.0\ngini = 0.444\nsamples = 2\nvalue = [0, 1, 2, 0, 0, 0, 0, 0, 0]", fillcolor="#b2f29c"] ;
383 -> 384 ;
385 [label="gini = 0.0\nsamples = 1\nvalue = [0, 0, 2, 0, 0, 0, 0, 0, 0]", fillcolor="#64e539"] ;
384 -> 385 ;
386 [label="gini = 0.0\nsamples = 1\nvalue = [0, 1, 0, 0, 0, 0, 0, 0, 0]", fillcolor="#d7e539"] ;
384 -> 386 ;
387 [label="gini = 0.0\nsamples = 2\nvalue = [0, 0, 4, 0, 0, 0, 0, 0, 0]", fillcolor="#64e539"] ;
383 -> 387 ;
388 [label="resident <= 355.0\ngini = 0.551\nsamples = 7\nvalue = [0, 0, 4, 0, 2, 0, 9, 0, 0]", fillcolor="#c6a5f3"] ;
376 -> 388 ;
389 [label="floating <= 4825.0\ngini = 0.298\nsamples = 5\nvalue = [0, 0, 0, 0, 2, 0, 9, 0, 0]", fillcolor="#9d65eb"] ;
388 -> 389 ;
390 [label="gini = 0.0\nsamples = 4\nvalue = [0, 0, 0, 0, 0, 0, 9, 0, 0]", fillcolor="#8139e5"] ;
389 -> 390 ;
391 [label="gini = 0.0\nsamples = 1\nvalue = [0, 0, 0, 0, 2, 0, 0, 0, 0]", fillcolor="#39d7e5"] ;
389 -> 391 ;
392 [label="gini = 0.0\nsamples = 2\nvalue = [0, 0, 4, 0, 0, 0, 0, 0, 0]", fillcolor="#64e539"] ;
388 -> 392 ;
393 [label="floating <= 4975.0\ngini = 0.713\nsamples = 11\nvalue = [0, 2, 2, 5, 7, 1, 0, 0, 0]", fillcolor="#def8fb"] ;
375 -> 393 ;
394 [label="gini = 0.0\nsamples = 2\nvalue = [0, 0, 0, 4, 0, 0, 0, 0, 0]", fillcolor="#39e581"] ;
393 -> 394 ;
395 [label="floating <= 4995.0\ngini = 0.651\nsamples = 9\nvalue = [0, 2, 2, 1, 7, 1, 0, 0, 0]", fillcolor="#a5edf3"] ;
393 -> 395 ;
396 [label="gini = 0.0\nsamples = 4\nvalue = [0, 0, 0, 0, 7, 0, 0, 0, 0]", fillcolor="#39d7e5"] ;
395 -> 396 ;
397 [label="resident <= 300.0\ngini = 0.722\nsamples = 5\nvalue = [0, 2, 2, 1, 0, 1, 0, 0, 0]", fillcolor="#ffffff"] ;
395 -> 397 ;
398 [label="gini = 0.0\nsamples = 1\nvalue = [0, 0, 2, 0, 0, 0, 0, 0, 0]", fillcolor="#64e539"] ;
397 -> 398 ;
399 [label="floating <= 5030.0\ngini = 0.625\nsamples = 4\nvalue = [0, 2, 0, 1, 0, 1, 0, 0, 0]", fillcolor="#f2f6bd"] ;
397 -> 399 ;
400 [label="resident <= 395.0\ngini = 0.5\nsamples = 2\nvalue = [0, 0, 0, 1, 0, 1, 0, 0, 0]", fillcolor="#ffffff"] ;
399 -> 400 ;
401 [label="gini = 0.0\nsamples = 1\nvalue = [0, 0, 0, 1, 0, 0, 0, 0, 0]", fillcolor="#39e581"] ;
400 -> 401 ;
402 [label="gini = 0.0\nsamples = 1\nvalue = [0, 0, 0, 0, 0, 1, 0, 0, 0]", fillcolor="#3964e5"] ;
400 -> 402 ;
403 [label="gini = 0.0\nsamples = 2\nvalue = [0, 2, 0, 0, 0, 0, 0, 0, 0]", fillcolor="#d7e539"] ;
399 -> 403 ;
404 [label="floating <= 4835.0\ngini = 0.346\nsamples = 5\nvalue = [0, 2, 0, 0, 0, 0, 7, 0, 0]", fillcolor="#a572ec"] ;
338 -> 404 ;
405 [label="gini = 0.0\nsamples = 4\nvalue = [0, 0, 0, 0, 0, 0, 7, 0, 0]", fillcolor="#8139e5"] ;
404 -> 405 ;
406 [label="gini = 0.0\nsamples = 1\nvalue = [0, 2, 0, 0, 0, 0, 0, 0, 0]", fillcolor="#d7e539"] ;
404 -> 406 ;
407 [label="floating <= 5125.0\ngini = 0.355\nsamples = 9\nvalue = [0, 0, 3, 10, 0, 0, 0, 0, 0]", fillcolor="#74eda7"] ;
337 -> 407 ;
408 [label="resident <= 315.0\ngini = 0.165\nsamples = 7\nvalue = [0, 0, 1, 10, 0, 0, 0, 0, 0]", fillcolor="#4de88e"] ;
407 -> 408 ;
409 [label="gini = 0.0\nsamples = 4\nvalue = [0, 0, 0, 6, 0, 0, 0, 0, 0]", fillcolor="#39e581"] ;
408 -> 409 ;
410 [label="resident <= 330.0\ngini = 0.32\nsamples = 3\nvalue = [0, 0, 1, 4, 0, 0, 0, 0, 0]", fillcolor="#6aeca0"] ;
408 -> 410 ;
411 [label="gini = 0.0\nsamples = 1\nvalue = [0, 0, 1, 0, 0, 0, 0, 0, 0]", fillcolor="#64e539"] ;
410 -> 411 ;
412 [label="gini = 0.0\nsamples = 2\nvalue = [0, 0, 0, 4, 0, 0, 0, 0, 0]", fillcolor="#39e581"] ;
410 -> 412 ;
413 [label="gini = 0.0\nsamples = 2\nvalue = [0, 0, 2, 0, 0, 0, 0, 0, 0]", fillcolor="#64e539"] ;
407 -> 413 ;
414 [label="floating <= 5200.0\ngini = 0.633\nsamples = 37\nvalue = [0, 1, 7, 0, 10, 0, 33, 0, 9]", fillcolor="#c5a4f3"] ;
336 -> 414 ;
415 [label="resident <= 315.0\ngini = 0.492\nsamples = 9\nvalue = [0, 0, 0, 0, 0, 0, 7, 0, 9]", fillcolor="#f9d3dd"] ;
414 -> 415 ;
416 [label="gini = 0.0\nsamples = 3\nvalue = [0, 0, 0, 0, 0, 0, 7, 0, 0]", fillcolor="#8139e5"] ;
415 -> 416 ;
417 [label="gini = 0.0\nsamples = 6\nvalue = [0, 0, 0, 0, 0, 0, 0, 0, 9]", fillcolor="#e53964"] ;
415 -> 417 ;
418 [label="floating <= 5270.0\ngini = 0.573\nsamples = 28\nvalue = [0, 1, 7, 0, 10, 0, 26, 0, 0]", fillcolor="#c4a2f3"] ;
414 -> 418 ;
419 [label="resident <= 300.0\ngini = 0.642\nsamples = 22\nvalue = [0, 1, 7, 0, 10, 0, 17, 0, 0]", fillcolor="#dcc8f8"] ;
418 -> 419 ;
420 [label="floating <= 5240.0\ngini = 0.537\nsamples = 12\nvalue = [0, 1, 7, 0, 10, 0, 0, 0, 0]", fillcolor="#c9f4f8"] ;
419 -> 420 ;
421 [label="resident <= 265.0\ngini = 0.484\nsamples = 11\nvalue = [0, 0, 7, 0, 10, 0, 0, 0, 0]", fillcolor="#c4f3f7"] ;
420 -> 421 ;
422 [label="gini = 0.0\nsamples = 3\nvalue = [0, 0, 7, 0, 0, 0, 0, 0, 0]", fillcolor="#64e539"] ;
421 -> 422 ;
423 [label="gini = 0.0\nsamples = 8\nvalue = [0, 0, 0, 0, 10, 0, 0, 0, 0]", fillcolor="#39d7e5"] ;
421 -> 423 ;
424 [label="gini = 0.0\nsamples = 1\nvalue = [0, 1, 0, 0, 0, 0, 0, 0, 0]", fillcolor="#d7e539"] ;
420 -> 424 ;
425 [label="gini = 0.0\nsamples = 10\nvalue = [0, 0, 0, 0, 0, 0, 17, 0, 0]", fillcolor="#8139e5"] ;
419 -> 425 ;
426 [label="gini = 0.0\nsamples = 6\nvalue = [0, 0, 0, 0, 0, 0, 9, 0, 0]", fillcolor="#8139e5"] ;
418 -> 426 ;
427 [label="floating <= 5475.0\ngini = 0.26\nsamples = 8\nvalue = [0, 0, 2, 11, 0, 0, 0, 0, 0]", fillcolor="#5dea98"] ;
335 -> 427 ;
428 [label="gini = 0.0\nsamples = 7\nvalue = [0, 0, 0, 11, 0, 0, 0, 0, 0]", fillcolor="#39e581"] ;
427 -> 428 ;
429 [label="gini = 0.0\nsamples = 1\nvalue = [0, 0, 2, 0, 0, 0, 0, 0, 0]", fillcolor="#64e539"] ;
427 -> 429 ;
430 [label="resident <= 295.0\ngini = 0.777\nsamples = 69\nvalue = [7, 23, 38, 32, 10, 11, 0, 0, 0]", fillcolor="#f5fdf2"] ;
2 -> 430 ;
431 [label="resident <= 105.0\ngini = 0.742\nsamples = 58\nvalue = [7, 23, 34, 28, 8, 0, 0, 0, 0]", fillcolor="#f2fdee"] ;
430 -> 431 ;
432 [label="resident <= 95.0\ngini = 0.764\nsamples = 41\nvalue = [7, 23, 18, 15, 8, 0, 0, 0, 0]", fillcolor="#fbfdec"] ;
431 -> 432 ;
433 [label="floating <= 515.0\ngini = 0.775\nsamples = 39\nvalue = [7, 17, 18, 15, 8, 0, 0, 0, 0]", fillcolor="#fcfefb"] ;
432 -> 433 ;
434 [label="resident <= 15.0\ngini = 0.702\nsamples = 17\nvalue = [4, 12, 7, 0, 5, 0, 0, 0, 0]", fillcolor="#f5f9d0"] ;
433 -> 434 ;
435 [label="resident <= 5.0\ngini = 0.649\nsamples = 9\nvalue = [1, 2, 7, 0, 5, 0, 0, 0, 0]", fillcolor="#e0fad7"] ;
434 -> 435 ;
436 [label="floating <= 195.0\ngini = 0.46\nsamples = 7\nvalue = [1, 2, 7, 0, 0, 0, 0, 0, 0]", fillcolor="#9eef83"] ;
435 -> 436 ;
437 [label="gini = 0.0\nsamples = 2\nvalue = [0, 2, 0, 0, 0, 0, 0, 0, 0]", fillcolor="#d7e539"] ;
436 -> 437 ;
438 [label="floating <= 275.0\ngini = 0.219\nsamples = 5\nvalue = [1, 0, 7, 0, 0, 0, 0, 0, 0]", fillcolor="#7ae955"] ;
436 -> 438 ;
439 [label="floating <= 235.0\ngini = 0.444\nsamples = 3\nvalue = [1, 0, 2, 0, 0, 0, 0, 0, 0]", fillcolor="#b2f29c"] ;
438 -> 439 ;
440 [label="gini = 0.0\nsamples = 2\nvalue = [0, 0, 2, 0, 0, 0, 0, 0, 0]", fillcolor="#64e539"] ;
439 -> 440 ;
441 [label="gini = 0.0\nsamples = 1\nvalue = [1, 0, 0, 0, 0, 0, 0, 0, 0]", fillcolor="#e58139"] ;
439 -> 441 ;
442 [label="gini = 0.0\nsamples = 2\nvalue = [0, 0, 5, 0, 0, 0, 0, 0, 0]", fillcolor="#64e539"] ;
438 -> 442 ;
443 [label="gini = 0.0\nsamples = 2\nvalue = [0, 0, 0, 0, 5, 0, 0, 0, 0]", fillcolor="#39d7e5"] ;
435 -> 443 ;
444 [label="floating <= 475.0\ngini = 0.355\nsamples = 8\nvalue = [3, 10, 0, 0, 0, 0, 0, 0, 0]", fillcolor="#e3ed74"] ;
434 -> 444 ;
445 [label="gini = 0.0\nsamples = 4\nvalue = [0, 7, 0, 0, 0, 0, 0, 0, 0]", fillcolor="#d7e539"] ;
444 -> 445 ;
446 [label="floating <= 505.0\ngini = 0.5\nsamples = 4\nvalue = [3, 3, 0, 0, 0, 0, 0, 0, 0]", fillcolor="#ffffff"] ;
444 -> 446 ;
447 [label="gini = 0.0\nsamples = 2\nvalue = [3, 0, 0, 0, 0, 0, 0, 0, 0]", fillcolor="#e58139"] ;
446 -> 447 ;
448 [label="gini = 0.0\nsamples = 2\nvalue = [0, 3, 0, 0, 0, 0, 0, 0, 0]", fillcolor="#d7e539"] ;
446 -> 448 ;
449 [label="CCTV_num <= 1.5\ngini = 0.716\nsamples = 22\nvalue = [3, 5, 11, 15, 3, 0, 0, 0, 0]", fillcolor="#e1fbec"] ;
433 -> 449 ;
450 [label="resident <= 30.0\ngini = 0.642\nsamples = 6\nvalue = [0, 0, 2, 4, 3, 0, 0, 0, 0]", fillcolor="#defbea"] ;
449 -> 450 ;
451 [label="gini = 0.0\nsamples = 2\nvalue = [0, 0, 0, 4, 0, 0, 0, 0, 0]", fillcolor="#39e581"] ;
450 -> 451 ;
452 [label="floating <= 1380.0\ngini = 0.48\nsamples = 4\nvalue = [0, 0, 2, 0, 3, 0, 0, 0, 0]", fillcolor="#bdf2f6"] ;
450 -> 452 ;
453 [label="gini = 0.0\nsamples = 1\nvalue = [0, 0, 2, 0, 0, 0, 0, 0, 0]", fillcolor="#64e539"] ;
452 -> 453 ;
454 [label="gini = 0.0\nsamples = 3\nvalue = [0, 0, 0, 0, 3, 0, 0, 0, 0]", fillcolor="#39d7e5"] ;
452 -> 454 ;
455 [label="resident <= 35.0\ngini = 0.699\nsamples = 16\nvalue = [3, 5, 9, 11, 0, 0, 0, 0, 0]", fillcolor="#eafcf2"] ;
449 -> 455 ;
456 [label="resident <= 25.0\ngini = 0.611\nsamples = 4\nvalue = [2, 1, 3, 0, 0, 0, 0, 0, 0]", fillcolor="#d8f8ce"] ;
455 -> 456 ;
457 [label="floating <= 605.0\ngini = 0.375\nsamples = 3\nvalue = [0, 1, 3, 0, 0, 0, 0, 0, 0]", fillcolor="#98ee7b"] ;
456 -> 457 ;
458 [label="gini = 0.0\nsamples = 2\nvalue = [0, 0, 3, 0, 0, 0, 0, 0, 0]", fillcolor="#64e539"] ;
457 -> 458 ;
459 [label="gini = 0.0\nsamples = 1\nvalue = [0, 1, 0, 0, 0, 0, 0, 0, 0]", fillcolor="#d7e539"] ;
457 -> 459 ;
460 [label="gini = 0.0\nsamples = 1\nvalue = [2, 0, 0, 0, 0, 0, 0, 0, 0]", fillcolor="#e58139"] ;
456 -> 460 ;
461 [label="floating <= 970.0\ngini = 0.64\nsamples = 12\nvalue = [1, 4, 6, 11, 0, 0, 0, 0, 0]", fillcolor="#c1f7d8"] ;
455 -> 461 ;
462 [label="floating <= 645.0\ngini = 0.337\nsamples = 8\nvalue = [0, 3, 0, 11, 0, 0, 0, 0, 0]", fillcolor="#6feca3"] ;
461 -> 462 ;
463 [label="gini = 0.0\nsamples = 1\nvalue = [0, 3, 0, 0, 0, 0, 0, 0, 0]", fillcolor="#d7e539"] ;
462 -> 463 ;
464 [label="gini = 0.0\nsamples = 7\nvalue = [0, 0, 0, 11, 0, 0, 0, 0, 0]", fillcolor="#39e581"] ;
462 -> 464 ;
465 [label="floating <= 1105.0\ngini = 0.406\nsamples = 4\nvalue = [1, 1, 6, 0, 0, 0, 0, 0, 0]", fillcolor="#90ec72"] ;
461 -> 465 ;
466 [label="gini = 0.0\nsamples = 2\nvalue = [0, 0, 6, 0, 0, 0, 0, 0, 0]", fillcolor="#64e539"] ;
465 -> 466 ;
467 [label="resident <= 60.0\ngini = 0.5\nsamples = 2\nvalue = [1, 1, 0, 0, 0, 0, 0, 0, 0]", fillcolor="#ffffff"] ;
465 -> 467 ;
468 [label="gini = 0.0\nsamples = 1\nvalue = [0, 1, 0, 0, 0, 0, 0, 0, 0]", fillcolor="#d7e539"] ;
467 -> 468 ;
469 [label="gini = 0.0\nsamples = 1\nvalue = [1, 0, 0, 0, 0, 0, 0, 0, 0]", fillcolor="#e58139"] ;
467 -> 469 ;
470 [label="gini = 0.0\nsamples = 2\nvalue = [0, 6, 0, 0, 0, 0, 0, 0, 0]", fillcolor="#d7e539"] ;
432 -> 470 ;
471 [label="floating <= 4030.0\ngini = 0.495\nsamples = 17\nvalue = [0, 0, 16, 13, 0, 0, 0, 0, 0]", fillcolor="#e2fada"] ;
431 -> 471 ;
472 [label="resident <= 160.0\ngini = 0.142\nsamples = 7\nvalue = [0, 0, 12, 1, 0, 0, 0, 0, 0]", fillcolor="#71e749"] ;
471 -> 472 ;
473 [label="gini = 0.0\nsamples = 4\nvalue = [0, 0, 9, 0, 0, 0, 0, 0, 0]", fillcolor="#64e539"] ;
472 -> 473 ;
474 [label="floating <= 3405.0\ngini = 0.375\nsamples = 3\nvalue = [0, 0, 3, 1, 0, 0, 0, 0, 0]", fillcolor="#98ee7b"] ;
472 -> 474 ;
475 [label="gini = 0.0\nsamples = 1\nvalue = [0, 0, 0, 1, 0, 0, 0, 0, 0]", fillcolor="#39e581"] ;
474 -> 475 ;
476 [label="gini = 0.0\nsamples = 2\nvalue = [0, 0, 3, 0, 0, 0, 0, 0, 0]", fillcolor="#64e539"] ;
474 -> 476 ;
477 [label="resident <= 250.0\ngini = 0.375\nsamples = 10\nvalue = [0, 0, 4, 12, 0, 0, 0, 0, 0]", fillcolor="#7beeab"] ;
471 -> 477 ;
478 [label="gini = 0.0\nsamples = 5\nvalue = [0, 0, 0, 9, 0, 0, 0, 0, 0]", fillcolor="#39e581"] ;
477 -> 478 ;
479 [label="resident <= 275.0\ngini = 0.49\nsamples = 5\nvalue = [0, 0, 4, 3, 0, 0, 0, 0, 0]", fillcolor="#d8f8ce"] ;
477 -> 479 ;
480 [label="CCTV_num <= 1.5\ngini = 0.444\nsamples = 4\nvalue = [0, 0, 4, 2, 0, 0, 0, 0, 0]", fillcolor="#b2f29c"] ;
479 -> 480 ;
481 [label="gini = 0.0\nsamples = 2\nvalue = [0, 0, 4, 0, 0, 0, 0, 0, 0]", fillcolor="#64e539"] ;
480 -> 481 ;
482 [label="gini = 0.0\nsamples = 2\nvalue = [0, 0, 0, 2, 0, 0, 0, 0, 0]", fillcolor="#39e581"] ;
480 -> 482 ;
483 [label="gini = 0.0\nsamples = 1\nvalue = [0, 0, 0, 1, 0, 0, 0, 0, 0]", fillcolor="#39e581"] ;
479 -> 483 ;
484 [label="floating <= 4295.0\ngini = 0.644\nsamples = 11\nvalue = [0, 0, 4, 4, 2, 11, 0, 0, 0]", fillcolor="#adbff4"] ;
430 -> 484 ;
485 [label="gini = 0.0\nsamples = 4\nvalue = [0, 0, 0, 0, 0, 11, 0, 0, 0]", fillcolor="#3964e5"] ;
484 -> 485 ;
486 [label="floating <= 4795.0\ngini = 0.64\nsamples = 7\nvalue = [0, 0, 4, 4, 2, 0, 0, 0, 0]", fillcolor="#ffffff"] ;
484 -> 486 ;
487 [label="gini = 0.0\nsamples = 3\nvalue = [0, 0, 0, 4, 0, 0, 0, 0, 0]", fillcolor="#39e581"] ;
486 -> 487 ;
488 [label="resident <= 345.0\ngini = 0.444\nsamples = 4\nvalue = [0, 0, 4, 0, 2, 0, 0, 0, 0]", fillcolor="#b2f29c"] ;
486 -> 488 ;
489 [label="gini = 0.0\nsamples = 2\nvalue = [0, 0, 0, 0, 2, 0, 0, 0, 0]", fillcolor="#39d7e5"] ;
488 -> 489 ;
490 [label="gini = 0.0\nsamples = 2\nvalue = [0, 0, 4, 0, 0, 0, 0, 0, 0]", fillcolor="#64e539"] ;
488 -> 490 ;
491 [label="floating <= 635.0\ngini = 0.603\nsamples = 74\nvalue = [66, 26, 22, 0, 4, 0, 0, 0, 0]", fillcolor="#f4c8a9"] ;
1 -> 491 ;
492 [label="resident <= 25.0\ngini = 0.442\nsamples = 30\nvalue = [36, 6, 8, 0, 0, 0, 0, 0, 0]", fillcolor="#eeab7b"] ;
491 -> 492 ;
493 [label="police_value <= 1.5\ngini = 0.594\nsamples = 12\nvalue = [6, 2, 8, 0, 0, 0, 0, 0, 0]", fillcolor="#e0fad7"] ;
492 -> 493 ;
494 [label="resident <= 5.0\ngini = 0.611\nsamples = 9\nvalue = [4, 2, 6, 0, 0, 0, 0, 0, 0]", fillcolor="#d8f8ce"] ;
493 -> 494 ;
495 [label="gini = 0.0\nsamples = 3\nvalue = [0, 0, 4, 0, 0, 0, 0, 0, 0]", fillcolor="#64e539"] ;
494 -> 495 ;
496 [label="floating <= 250.0\ngini = 0.625\nsamples = 6\nvalue = [4, 2, 2, 0, 0, 0, 0, 0, 0]", fillcolor="#f6d5bd"] ;
494 -> 496 ;
497 [label="gini = 0.0\nsamples = 1\nvalue = [2, 0, 0, 0, 0, 0, 0, 0, 0]", fillcolor="#e58139"] ;
496 -> 497 ;
498 [label="floating <= 330.0\ngini = 0.667\nsamples = 5\nvalue = [2, 2, 2, 0, 0, 0, 0, 0, 0]", fillcolor="#ffffff"] ;
496 -> 498 ;
499 [label="gini = 0.0\nsamples = 2\nvalue = [0, 2, 0, 0, 0, 0, 0, 0, 0]", fillcolor="#d7e539"] ;
498 -> 499 ;
500 [label="floating <= 425.0\ngini = 0.5\nsamples = 3\nvalue = [2, 0, 2, 0, 0, 0, 0, 0, 0]", fillcolor="#ffffff"] ;
498 -> 500 ;
501 [label="gini = 0.0\nsamples = 1\nvalue = [0, 0, 2, 0, 0, 0, 0, 0, 0]", fillcolor="#64e539"] ;
500 -> 501 ;
502 [label="gini = 0.0\nsamples = 2\nvalue = [2, 0, 0, 0, 0, 0, 0, 0, 0]", fillcolor="#e58139"] ;
500 -> 502 ;
503 [label="floating <= 405.0\ngini = 0.5\nsamples = 3\nvalue = [2, 0, 2, 0, 0, 0, 0, 0, 0]", fillcolor="#ffffff"] ;
493 -> 503 ;
504 [label="gini = 0.0\nsamples = 1\nvalue = [1, 0, 0, 0, 0, 0, 0, 0, 0]", fillcolor="#e58139"] ;
503 -> 504 ;
505 [label="floating <= 585.0\ngini = 0.444\nsamples = 2\nvalue = [1, 0, 2, 0, 0, 0, 0, 0, 0]", fillcolor="#b2f29c"] ;
503 -> 505 ;
506 [label="gini = 0.0\nsamples = 1\nvalue = [0, 0, 2, 0, 0, 0, 0, 0, 0]", fillcolor="#64e539"] ;
505 -> 506 ;
507 [label="gini = 0.0\nsamples = 1\nvalue = [1, 0, 0, 0, 0, 0, 0, 0, 0]", fillcolor="#e58139"] ;
505 -> 507 ;
508 [label="resident <= 45.0\ngini = 0.208\nsamples = 18\nvalue = [30, 4, 0, 0, 0, 0, 0, 0, 0]", fillcolor="#e89253"] ;
492 -> 508 ;
509 [label="resident <= 35.0\ngini = 0.069\nsamples = 14\nvalue = [27, 1, 0, 0, 0, 0, 0, 0, 0]", fillcolor="#e68640"] ;
508 -> 509 ;
510 [label="gini = 0.0\nsamples = 7\nvalue = [12, 0, 0, 0, 0, 0, 0, 0, 0]", fillcolor="#e58139"] ;
509 -> 510 ;
511 [label="CCTV_num <= 1.0\ngini = 0.117\nsamples = 7\nvalue = [15, 1, 0, 0, 0, 0, 0, 0, 0]", fillcolor="#e78946"] ;
509 -> 511 ;
512 [label="floating <= 605.0\ngini = 0.198\nsamples = 4\nvalue = [8, 1, 0, 0, 0, 0, 0, 0, 0]", fillcolor="#e89152"] ;
511 -> 512 ;
513 [label="police_value <= 1.5\ngini = 0.444\nsamples = 3\nvalue = [2, 1, 0, 0, 0, 0, 0, 0, 0]", fillcolor="#f2c09c"] ;
512 -> 513 ;
514 [label="floating <= 540.0\ngini = 0.5\nsamples = 2\nvalue = [1, 1, 0, 0, 0, 0, 0, 0, 0]", fillcolor="#ffffff"] ;
513 -> 514 ;
515 [label="gini = 0.0\nsamples = 1\nvalue = [1, 0, 0, 0, 0, 0, 0, 0, 0]", fillcolor="#e58139"] ;
514 -> 515 ;
516 [label="gini = 0.0\nsamples = 1\nvalue = [0, 1, 0, 0, 0, 0, 0, 0, 0]", fillcolor="#d7e539"] ;
514 -> 516 ;
517 [label="gini = 0.0\nsamples = 1\nvalue = [1, 0, 0, 0, 0, 0, 0, 0, 0]", fillcolor="#e58139"] ;
513 -> 517 ;
518 [label="gini = 0.0\nsamples = 1\nvalue = [6, 0, 0, 0, 0, 0, 0, 0, 0]", fillcolor="#e58139"] ;
512 -> 518 ;
519 [label="gini = 0.0\nsamples = 3\nvalue = [7, 0, 0, 0, 0, 0, 0, 0, 0]", fillcolor="#e58139"] ;
511 -> 519 ;
520 [label="floating <= 560.0\ngini = 0.5\nsamples = 4\nvalue = [3, 3, 0, 0, 0, 0, 0, 0, 0]", fillcolor="#ffffff"] ;
508 -> 520 ;
521 [label="gini = 0.0\nsamples = 2\nvalue = [3, 0, 0, 0, 0, 0, 0, 0, 0]", fillcolor="#e58139"] ;
520 -> 521 ;
522 [label="gini = 0.0\nsamples = 2\nvalue = [0, 3, 0, 0, 0, 0, 0, 0, 0]", fillcolor="#d7e539"] ;
520 -> 522 ;
523 [label="floating <= 695.0\ngini = 0.673\nsamples = 44\nvalue = [30, 20, 14, 0, 4, 0, 0, 0, 0]", fillcolor="#fae5d6"] ;
491 -> 523 ;
524 [label="police_value <= 2.0\ngini = 0.198\nsamples = 5\nvalue = [1, 8, 0, 0, 0, 0, 0, 0, 0]", fillcolor="#dce852"] ;
523 -> 524 ;
525 [label="gini = 0.0\nsamples = 3\nvalue = [0, 5, 0, 0, 0, 0, 0, 0, 0]", fillcolor="#d7e539"] ;
524 -> 525 ;
526 [label="CCTV_num <= 0.5\ngini = 0.375\nsamples = 2\nvalue = [1, 3, 0, 0, 0, 0, 0, 0, 0]", fillcolor="#e4ee7b"] ;
524 -> 526 ;
527 [label="gini = 0.0\nsamples = 1\nvalue = [1, 0, 0, 0, 0, 0, 0, 0, 0]", fillcolor="#e58139"] ;
526 -> 527 ;
528 [label="gini = 0.0\nsamples = 1\nvalue = [0, 3, 0, 0, 0, 0, 0, 0, 0]", fillcolor="#d7e539"] ;
526 -> 528 ;
529 [label="resident <= 95.0\ngini = 0.656\nsamples = 39\nvalue = [29, 12, 14, 0, 4, 0, 0, 0, 0]", fillcolor="#f6d5bd"] ;
523 -> 529 ;
530 [label="resident <= 75.0\ngini = 0.458\nsamples = 19\nvalue = [19, 5, 3, 0, 0, 0, 0, 0, 0]", fillcolor="#eeaf81"] ;
529 -> 530 ;
531 [label="floating <= 955.0\ngini = 0.555\nsamples = 15\nvalue = [12, 5, 3, 0, 0, 0, 0, 0, 0]", fillcolor="#f3c4a3"] ;
530 -> 531 ;
532 [label="gini = 0.0\nsamples = 7\nvalue = [11, 0, 0, 0, 0, 0, 0, 0, 0]", fillcolor="#e58139"] ;
531 -> 532 ;
533 [label="floating <= 995.0\ngini = 0.568\nsamples = 8\nvalue = [1, 5, 3, 0, 0, 0, 0, 0, 0]", fillcolor="#f2f6bd"] ;
531 -> 533 ;
534 [label="gini = 0.0\nsamples = 2\nvalue = [0, 0, 2, 0, 0, 0, 0, 0, 0]", fillcolor="#64e539"] ;
533 -> 534 ;
535 [label="resident <= 65.0\ngini = 0.449\nsamples = 6\nvalue = [1, 5, 1, 0, 0, 0, 0, 0, 0]", fillcolor="#e4ee7b"] ;
533 -> 535 ;
536 [label="CCTV_num <= 1.0\ngini = 0.32\nsamples = 4\nvalue = [1, 4, 0, 0, 0, 0, 0, 0, 0]", fillcolor="#e1ec6a"] ;
535 -> 536 ;
537 [label="police_value <= 1.5\ngini = 0.444\nsamples = 2\nvalue = [1, 2, 0, 0, 0, 0, 0, 0, 0]", fillcolor="#ebf29c"] ;
536 -> 537 ;
538 [label="gini = 0.0\nsamples = 1\nvalue = [0, 2, 0, 0, 0, 0, 0, 0, 0]", fillcolor="#d7e539"] ;
537 -> 538 ;
539 [label="gini = 0.0\nsamples = 1\nvalue = [1, 0, 0, 0, 0, 0, 0, 0, 0]", fillcolor="#e58139"] ;
537 -> 539 ;
540 [label="gini = 0.0\nsamples = 2\nvalue = [0, 2, 0, 0, 0, 0, 0, 0, 0]", fillcolor="#d7e539"] ;
536 -> 540 ;
541 [label="floating <= 1030.0\ngini = 0.5\nsamples = 2\nvalue = [0, 1, 1, 0, 0, 0, 0, 0, 0]", fillcolor="#ffffff"] ;
535 -> 541 ;
542 [label="gini = 0.0\nsamples = 1\nvalue = [0, 1, 0, 0, 0, 0, 0, 0, 0]", fillcolor="#d7e539"] ;
541 -> 542 ;
543 [label="gini = 0.0\nsamples = 1\nvalue = [0, 0, 1, 0, 0, 0, 0, 0, 0]", fillcolor="#64e539"] ;
541 -> 543 ;
544 [label="gini = 0.0\nsamples = 4\nvalue = [7, 0, 0, 0, 0, 0, 0, 0, 0]", fillcolor="#e58139"] ;
530 -> 544 ;
545 [label="floating <= 2705.0\ngini = 0.721\nsamples = 20\nvalue = [10, 7, 11, 0, 4, 0, 0, 0, 0]", fillcolor="#f8fef6"] ;
529 -> 545 ;
546 [label="gini = 0.0\nsamples = 3\nvalue = [0, 0, 9, 0, 0, 0, 0, 0, 0]", fillcolor="#64e539"] ;
545 -> 546 ;
547 [label="CCTV_num <= 1.5\ngini = 0.681\nsamples = 17\nvalue = [10, 7, 2, 0, 4, 0, 0, 0, 0]", fillcolor="#fae7da"] ;
545 -> 547 ;
548 [label="floating <= 4990.0\ngini = 0.473\nsamples = 9\nvalue = [9, 2, 2, 0, 0, 0, 0, 0, 0]", fillcolor="#eeaf81"] ;
547 -> 548 ;
549 [label="police_value <= 2.0\ngini = 0.32\nsamples = 6\nvalue = [8, 2, 0, 0, 0, 0, 0, 0, 0]", fillcolor="#eca06a"] ;
548 -> 549 ;
550 [label="floating <= 4650.0\ngini = 0.48\nsamples = 4\nvalue = [3, 2, 0, 0, 0, 0, 0, 0, 0]", fillcolor="#f6d5bd"] ;
549 -> 550 ;
551 [label="resident <= 235.0\ngini = 0.444\nsamples = 3\nvalue = [1, 2, 0, 0, 0, 0, 0, 0, 0]", fillcolor="#ebf29c"] ;
550 -> 551 ;
552 [label="gini = 0.0\nsamples = 1\nvalue = [1, 0, 0, 0, 0, 0, 0, 0, 0]", fillcolor="#e58139"] ;
551 -> 552 ;
553 [label="gini = 0.0\nsamples = 2\nvalue = [0, 2, 0, 0, 0, 0, 0, 0, 0]", fillcolor="#d7e539"] ;
551 -> 553 ;
554 [label="gini = 0.0\nsamples = 1\nvalue = [2, 0, 0, 0, 0, 0, 0, 0, 0]", fillcolor="#e58139"] ;
550 -> 554 ;
555 [label="gini = 0.0\nsamples = 2\nvalue = [5, 0, 0, 0, 0, 0, 0, 0, 0]", fillcolor="#e58139"] ;
549 -> 555 ;
556 [label="CCTV_num <= 0.5\ngini = 0.444\nsamples = 3\nvalue = [1, 0, 2, 0, 0, 0, 0, 0, 0]", fillcolor="#b2f29c"] ;
548 -> 556 ;
557 [label="gini = 0.0\nsamples = 2\nvalue = [0, 0, 2, 0, 0, 0, 0, 0, 0]", fillcolor="#64e539"] ;
556 -> 557 ;
558 [label="gini = 0.0\nsamples = 1\nvalue = [1, 0, 0, 0, 0, 0, 0, 0, 0]", fillcolor="#e58139"] ;
556 -> 558 ;
559 [label="floating <= 4165.0\ngini = 0.58\nsamples = 8\nvalue = [1, 5, 0, 0, 4, 0, 0, 0, 0]", fillcolor="#f8fbde"] ;
547 -> 559 ;
560 [label="resident <= 255.0\ngini = 0.32\nsamples = 5\nvalue = [1, 0, 0, 0, 4, 0, 0, 0, 0]", fillcolor="#6ae1ec"] ;
559 -> 560 ;
561 [label="gini = 0.0\nsamples = 4\nvalue = [0, 0, 0, 0, 4, 0, 0, 0, 0]", fillcolor="#39d7e5"] ;
560 -> 561 ;
562 [label="gini = 0.0\nsamples = 1\nvalue = [1, 0, 0, 0, 0, 0, 0, 0, 0]", fillcolor="#e58139"] ;
560 -> 562 ;
563 [label="gini = 0.0\nsamples = 3\nvalue = [0, 5, 0, 0, 0, 0, 0, 0, 0]", fillcolor="#d7e539"] ;
559 -> 563 ;
564 [label="CCTV_num <= 8.5\ngini = 0.699\nsamples = 204\nvalue = [109, 125, 75, 14, 2, 0, 0, 8, 0]", fillcolor="#fcfdf1"] ;
0 -> 564 [labeldistance=2.5, labelangle=-45, headlabel="False"] ;
565 [label="floating <= 410.0\ngini = 0.678\nsamples = 179\nvalue = [97, 117, 65, 11, 2, 0, 0, 0, 0]", fillcolor="#fbfceb"] ;
564 -> 565 ;
566 [label="gini = 0.0\nsamples = 4\nvalue = [7, 0, 0, 0, 0, 0, 0, 0, 0]", fillcolor="#e58139"] ;
565 -> 566 ;
567 [label="resident <= 285.0\ngini = 0.678\nsamples = 175\nvalue = [90, 117, 65, 11, 2, 0, 0, 0, 0]", fillcolor="#f9fbe4"] ;
565 -> 567 ;
568 [label="floating <= 455.0\ngini = 0.653\nsamples = 131\nvalue = [69, 100, 45, 4, 2, 0, 0, 0, 0]", fillcolor="#f7fad6"] ;
567 -> 568 ;
569 [label="CCTV_num <= 4.5\ngini = 0.473\nsamples = 6\nvalue = [2, 2, 9, 0, 0, 0, 0, 0, 0]", fillcolor="#9cee81"] ;
568 -> 569 ;
570 [label="police_value <= 0.5\ngini = 0.298\nsamples = 5\nvalue = [0, 2, 9, 0, 0, 0, 0, 0, 0]", fillcolor="#86eb65"] ;
569 -> 570 ;
571 [label="gini = 0.0\nsamples = 1\nvalue = [0, 2, 0, 0, 0, 0, 0, 0, 0]", fillcolor="#d7e539"] ;
570 -> 571 ;
572 [label="gini = 0.0\nsamples = 4\nvalue = [0, 0, 9, 0, 0, 0, 0, 0, 0]", fillcolor="#64e539"] ;
570 -> 572 ;
573 [label="gini = 0.0\nsamples = 1\nvalue = [2, 0, 0, 0, 0, 0, 0, 0, 0]", fillcolor="#e58139"] ;
569 -> 573 ;
574 [label="resident <= 85.0\ngini = 0.64\nsamples = 125\nvalue = [67, 98, 36, 4, 2, 0, 0, 0, 0]", fillcolor="#f6f9d3"] ;
568 -> 574 ;
575 [label="CCTV_num <= 5.5\ngini = 0.573\nsamples = 48\nvalue = [36, 40, 7, 0, 0, 0, 0, 0, 0]", fillcolor="#fcfdee"] ;
574 -> 575 ;
576 [label="CCTV_num <= 4.5\ngini = 0.568\nsamples = 35\nvalue = [30, 23, 5, 0, 0, 0, 0, 0, 0]", fillcolor="#fae6d7"] ;
575 -> 576 ;
577 [label="floating <= 545.0\ngini = 0.527\nsamples = 29\nvalue = [28, 21, 2, 0, 0, 0, 0, 0, 0]", fillcolor="#f9e2d1"] ;
576 -> 577 ;
578 [label="floating <= 470.0\ngini = 0.529\nsamples = 7\nvalue = [2, 7, 2, 0, 0, 0, 0, 0, 0]", fillcolor="#e9f191"] ;
577 -> 578 ;
579 [label="gini = 0.0\nsamples = 2\nvalue = [2, 0, 0, 0, 0, 0, 0, 0, 0]", fillcolor="#e58139"] ;
578 -> 579 ;
580 [label="police_value <= 0.5\ngini = 0.346\nsamples = 5\nvalue = [0, 7, 2, 0, 0, 0, 0, 0, 0]", fillcolor="#e2ec72"] ;
578 -> 580 ;
581 [label="gini = 0.0\nsamples = 2\nvalue = [0, 5, 0, 0, 0, 0, 0, 0, 0]", fillcolor="#d7e539"] ;
580 -> 581 ;
582 [label="police_value <= 2.0\ngini = 0.5\nsamples = 3\nvalue = [0, 2, 2, 0, 0, 0, 0, 0, 0]", fillcolor="#ffffff"] ;
580 -> 582 ;
583 [label="gini = 0.0\nsamples = 1\nvalue = [0, 0, 2, 0, 0, 0, 0, 0, 0]", fillcolor="#64e539"] ;
582 -> 583 ;
584 [label="gini = 0.0\nsamples = 2\nvalue = [0, 2, 0, 0, 0, 0, 0, 0, 0]", fillcolor="#d7e539"] ;
582 -> 584 ;
585 [label="police_value <= 2.5\ngini = 0.455\nsamples = 22\nvalue = [26, 14, 0, 0, 0, 0, 0, 0, 0]", fillcolor="#f3c5a4"] ;
577 -> 585 ;
586 [label="floating <= 740.0\ngini = 0.431\nsamples = 20\nvalue = [24, 11, 0, 0, 0, 0, 0, 0, 0]", fillcolor="#f1bb94"] ;
585 -> 586 ;
587 [label="resident <= 35.0\ngini = 0.266\nsamples = 12\nvalue = [16, 3, 0, 0, 0, 0, 0, 0, 0]", fillcolor="#ea995e"] ;
586 -> 587 ;
588 [label="gini = 0.0\nsamples = 6\nvalue = [9, 0, 0, 0, 0, 0, 0, 0, 0]", fillcolor="#e58139"] ;
587 -> 588 ;
589 [label="floating <= 635.0\ngini = 0.42\nsamples = 6\nvalue = [7, 3, 0, 0, 0, 0, 0, 0, 0]", fillcolor="#f0b78e"] ;
587 -> 589 ;
590 [label="gini = 0.0\nsamples = 2\nvalue = [0, 3, 0, 0, 0, 0, 0, 0, 0]", fillcolor="#d7e539"] ;
589 -> 590 ;
591 [label="gini = 0.0\nsamples = 4\nvalue = [7, 0, 0, 0, 0, 0, 0, 0, 0]", fillcolor="#e58139"] ;
589 -> 591 ;
592 [label="police_value <= 1.5\ngini = 0.5\nsamples = 8\nvalue = [8, 8, 0, 0, 0, 0, 0, 0, 0]", fillcolor="#ffffff"] ;
586 -> 592 ;
593 [label="CCTV_num <= 3.5\ngini = 0.498\nsamples = 7\nvalue = [7, 8, 0, 0, 0, 0, 0, 0, 0]", fillcolor="#fafce6"] ;
592 -> 593 ;
594 [label="police_value <= 0.5\ngini = 0.497\nsamples = 6\nvalue = [7, 6, 0, 0, 0, 0, 0, 0, 0]", fillcolor="#fbede3"] ;
593 -> 594 ;
595 [label="floating <= 850.0\ngini = 0.48\nsamples = 4\nvalue = [6, 4, 0, 0, 0, 0, 0, 0, 0]", fillcolor="#f6d5bd"] ;
594 -> 595 ;
596 [label="gini = 0.0\nsamples = 1\nvalue = [0, 3, 0, 0, 0, 0, 0, 0, 0]", fillcolor="#d7e539"] ;
595 -> 596 ;
597 [label="resident <= 75.0\ngini = 0.245\nsamples = 3\nvalue = [6, 1, 0, 0, 0, 0, 0, 0, 0]", fillcolor="#e9965a"] ;
595 -> 597 ;
598 [label="gini = 0.0\nsamples = 2\nvalue = [6, 0, 0, 0, 0, 0, 0, 0, 0]", fillcolor="#e58139"] ;
597 -> 598 ;
599 [label="gini = 0.0\nsamples = 1\nvalue = [0, 1, 0, 0, 0, 0, 0, 0, 0]", fillcolor="#d7e539"] ;
597 -> 599 ;
600 [label="floating <= 1000.0\ngini = 0.444\nsamples = 2\nvalue = [1, 2, 0, 0, 0, 0, 0, 0, 0]", fillcolor="#ebf29c"] ;
594 -> 600 ;
601 [label="gini = 0.0\nsamples = 1\nvalue = [1, 0, 0, 0, 0, 0, 0, 0, 0]", fillcolor="#e58139"] ;
600 -> 601 ;
602 [label="gini = 0.0\nsamples = 1\nvalue = [0, 2, 0, 0, 0, 0, 0, 0, 0]", fillcolor="#d7e539"] ;
600 -> 602 ;
603 [label="gini = 0.0\nsamples = 1\nvalue = [0, 2, 0, 0, 0, 0, 0, 0, 0]", fillcolor="#d7e539"] ;
593 -> 603 ;
604 [label="gini = 0.0\nsamples = 1\nvalue = [1, 0, 0, 0, 0, 0, 0, 0, 0]", fillcolor="#e58139"] ;
592 -> 604 ;
605 [label="resident <= 50.0\ngini = 0.48\nsamples = 2\nvalue = [2, 3, 0, 0, 0, 0, 0, 0, 0]", fillcolor="#f2f6bd"] ;
585 -> 605 ;
606 [label="gini = 0.0\nsamples = 1\nvalue = [0, 3, 0, 0, 0, 0, 0, 0, 0]", fillcolor="#d7e539"] ;
605 -> 606 ;
607 [label="gini = 0.0\nsamples = 1\nvalue = [2, 0, 0, 0, 0, 0, 0, 0, 0]", fillcolor="#e58139"] ;
605 -> 607 ;
608 [label="floating <= 835.0\ngini = 0.653\nsamples = 6\nvalue = [2, 2, 3, 0, 0, 0, 0, 0, 0]", fillcolor="#e0fad7"] ;
576 -> 608 ;
609 [label="police_value <= 0.5\ngini = 0.375\nsamples = 3\nvalue = [0, 1, 3, 0, 0, 0, 0, 0, 0]", fillcolor="#98ee7b"] ;
608 -> 609 ;
610 [label="gini = 0.0\nsamples = 2\nvalue = [0, 0, 3, 0, 0, 0, 0, 0, 0]", fillcolor="#64e539"] ;
609 -> 610 ;
611 [label="gini = 0.0\nsamples = 1\nvalue = [0, 1, 0, 0, 0, 0, 0, 0, 0]", fillcolor="#d7e539"] ;
609 -> 611 ;
612 [label="floating <= 940.0\ngini = 0.444\nsamples = 3\nvalue = [2, 1, 0, 0, 0, 0, 0, 0, 0]", fillcolor="#f2c09c"] ;
608 -> 612 ;
613 [label="gini = 0.0\nsamples = 1\nvalue = [1, 0, 0, 0, 0, 0, 0, 0, 0]", fillcolor="#e58139"] ;
612 -> 613 ;
614 [label="floating <= 1105.0\ngini = 0.5\nsamples = 2\nvalue = [1, 1, 0, 0, 0, 0, 0, 0, 0]", fillcolor="#ffffff"] ;
612 -> 614 ;
615 [label="gini = 0.0\nsamples = 1\nvalue = [0, 1, 0, 0, 0, 0, 0, 0, 0]", fillcolor="#d7e539"] ;
614 -> 615 ;
616 [label="gini = 0.0\nsamples = 1\nvalue = [1, 0, 0, 0, 0, 0, 0, 0, 0]", fillcolor="#e58139"] ;
614 -> 616 ;
617 [label="floating <= 860.0\ngini = 0.474\nsamples = 13\nvalue = [6, 17, 2, 0, 0, 0, 0, 0, 0]", fillcolor="#e8f08c"] ;
575 -> 617 ;
618 [label="police_value <= 0.5\ngini = 0.416\nsamples = 11\nvalue = [4, 17, 2, 0, 0, 0, 0, 0, 0]", fillcolor="#e4ed78"] ;
617 -> 618 ;
619 [label="CCTV_num <= 7.5\ngini = 0.444\nsamples = 5\nvalue = [3, 6, 0, 0, 0, 0, 0, 0, 0]", fillcolor="#ebf29c"] ;
618 -> 619 ;
620 [label="floating <= 600.0\ngini = 0.5\nsamples = 4\nvalue = [3, 3, 0, 0, 0, 0, 0, 0, 0]", fillcolor="#ffffff"] ;
619 -> 620 ;
621 [label="gini = 0.0\nsamples = 1\nvalue = [2, 0, 0, 0, 0, 0, 0, 0, 0]", fillcolor="#e58139"] ;
620 -> 621 ;
622 [label="resident <= 35.0\ngini = 0.375\nsamples = 3\nvalue = [1, 3, 0, 0, 0, 0, 0, 0, 0]", fillcolor="#e4ee7b"] ;
620 -> 622 ;
623 [label="gini = 0.0\nsamples = 1\nvalue = [1, 0, 0, 0, 0, 0, 0, 0, 0]", fillcolor="#e58139"] ;
622 -> 623 ;
624 [label="gini = 0.0\nsamples = 2\nvalue = [0, 3, 0, 0, 0, 0, 0, 0, 0]", fillcolor="#d7e539"] ;
622 -> 624 ;
625 [label="gini = 0.0\nsamples = 1\nvalue = [0, 3, 0, 0, 0, 0, 0, 0, 0]", fillcolor="#d7e539"] ;
619 -> 625 ;
626 [label="resident <= 60.0\ngini = 0.357\nsamples = 6\nvalue = [1, 11, 2, 0, 0, 0, 0, 0, 0]", fillcolor="#e1ec6b"] ;
618 -> 626 ;
627 [label="floating <= 535.0\ngini = 0.165\nsamples = 4\nvalue = [1, 10, 0, 0, 0, 0, 0, 0, 0]", fillcolor="#dbe84d"] ;
626 -> 627 ;
628 [label="resident <= 30.0\ngini = 0.5\nsamples = 2\nvalue = [1, 1, 0, 0, 0, 0, 0, 0, 0]", fillcolor="#ffffff"] ;
627 -> 628 ;
629 [label="gini = 0.0\nsamples = 1\nvalue = [1, 0, 0, 0, 0, 0, 0, 0, 0]", fillcolor="#e58139"] ;
628 -> 629 ;
630 [label="gini = 0.0\nsamples = 1\nvalue = [0, 1, 0, 0, 0, 0, 0, 0, 0]", fillcolor="#d7e539"] ;
628 -> 630 ;
631 [label="gini = 0.0\nsamples = 2\nvalue = [0, 9, 0, 0, 0, 0, 0, 0, 0]", fillcolor="#d7e539"] ;
627 -> 631 ;
632 [label="CCTV_num <= 7.0\ngini = 0.444\nsamples = 2\nvalue = [0, 1, 2, 0, 0, 0, 0, 0, 0]", fillcolor="#b2f29c"] ;
626 -> 632 ;
633 [label="gini = 0.0\nsamples = 1\nvalue = [0, 1, 0, 0, 0, 0, 0, 0, 0]", fillcolor="#d7e539"] ;
632 -> 633 ;
634 [label="gini = 0.0\nsamples = 1\nvalue = [0, 0, 2, 0, 0, 0, 0, 0, 0]", fillcolor="#64e539"] ;
632 -> 634 ;
635 [label="gini = 0.0\nsamples = 2\nvalue = [2, 0, 0, 0, 0, 0, 0, 0, 0]", fillcolor="#e58139"] ;
617 -> 635 ;
636 [label="floating <= 3000.0\ngini = 0.663\nsamples = 77\nvalue = [31, 58, 29, 4, 2, 0, 0, 0, 0]", fillcolor="#f3f7c6"] ;
574 -> 636 ;
637 [label="floating <= 1270.0\ngini = 0.584\nsamples = 23\nvalue = [4, 13, 18, 0, 0, 0, 0, 0, 0]", fillcolor="#dcf9d2"] ;
636 -> 637 ;
638 [label="floating <= 815.0\ngini = 0.42\nsamples = 6\nvalue = [0, 7, 3, 0, 0, 0, 0, 0, 0]", fillcolor="#e8f08e"] ;
637 -> 638 ;
639 [label="gini = 0.0\nsamples = 2\nvalue = [0, 0, 3, 0, 0, 0, 0, 0, 0]", fillcolor="#64e539"] ;
638 -> 639 ;
640 [label="gini = 0.0\nsamples = 4\nvalue = [0, 7, 0, 0, 0, 0, 0, 0, 0]", fillcolor="#d7e539"] ;
638 -> 640 ;
641 [label="police_value <= 0.5\ngini = 0.557\nsamples = 17\nvalue = [4, 6, 15, 0, 0, 0, 0, 0, 0]", fillcolor="#b6f3a1"] ;
637 -> 641 ;
642 [label="CCTV_num <= 3.5\ngini = 0.444\nsamples = 14\nvalue = [4, 2, 15, 0, 0, 0, 0, 0, 0]", fillcolor="#9bee7f"] ;
641 -> 642 ;
643 [label="floating <= 1905.0\ngini = 0.542\nsamples = 8\nvalue = [4, 1, 7, 0, 0, 0, 0, 0, 0]", fillcolor="#c5f5b5"] ;
642 -> 643 ;
644 [label="gini = 0.0\nsamples = 4\nvalue = [0, 0, 7, 0, 0, 0, 0, 0, 0]", fillcolor="#64e539"] ;
643 -> 644 ;
645 [label="floating <= 1955.0\ngini = 0.32\nsamples = 4\nvalue = [4, 1, 0, 0, 0, 0, 0, 0, 0]", fillcolor="#eca06a"] ;
643 -> 645 ;
646 [label="gini = 0.0\nsamples = 1\nvalue = [0, 1, 0, 0, 0, 0, 0, 0, 0]", fillcolor="#d7e539"] ;
645 -> 646 ;
647 [label="gini = 0.0\nsamples = 3\nvalue = [4, 0, 0, 0, 0, 0, 0, 0, 0]", fillcolor="#e58139"] ;
645 -> 647 ;
648 [label="resident <= 135.0\ngini = 0.198\nsamples = 6\nvalue = [0, 1, 8, 0, 0, 0, 0, 0, 0]", fillcolor="#77e852"] ;
642 -> 648 ;
649 [label="floating <= 2345.0\ngini = 0.444\nsamples = 2\nvalue = [0, 1, 2, 0, 0, 0, 0, 0, 0]", fillcolor="#b2f29c"] ;
648 -> 649 ;
650 [label="gini = 0.0\nsamples = 1\nvalue = [0, 0, 2, 0, 0, 0, 0, 0, 0]", fillcolor="#64e539"] ;
649 -> 650 ;
651 [label="gini = 0.0\nsamples = 1\nvalue = [0, 1, 0, 0, 0, 0, 0, 0, 0]", fillcolor="#d7e539"] ;
649 -> 651 ;
652 [label="gini = 0.0\nsamples = 4\nvalue = [0, 0, 6, 0, 0, 0, 0, 0, 0]", fillcolor="#64e539"] ;
648 -> 652 ;
653 [label="gini = 0.0\nsamples = 3\nvalue = [0, 4, 0, 0, 0, 0, 0, 0, 0]", fillcolor="#d7e539"] ;
641 -> 653 ;
654 [label="police_value <= 1.5\ngini = 0.635\nsamples = 54\nvalue = [27, 45, 11, 4, 2, 0, 0, 0, 0]", fillcolor="#f3f7c6"] ;
636 -> 654 ;
655 [label="resident <= 185.0\ngini = 0.611\nsamples = 51\nvalue = [23, 45, 11, 2, 2, 0, 0, 0, 0]", fillcolor="#f0f5b6"] ;
654 -> 655 ;
656 [label="CCTV_num <= 7.0\ngini = 0.266\nsamples = 10\nvalue = [3, 16, 0, 0, 0, 0, 0, 0, 0]", fillcolor="#deea5e"] ;
655 -> 656 ;
657 [label="CCTV_num <= 5.5\ngini = 0.337\nsamples = 7\nvalue = [3, 11, 0, 0, 0, 0, 0, 0, 0]", fillcolor="#e2ec6f"] ;
656 -> 657 ;
658 [label="floating <= 3285.0\ngini = 0.219\nsamples = 4\nvalue = [1, 7, 0, 0, 0, 0, 0, 0, 0]", fillcolor="#dde955"] ;
657 -> 658 ;
659 [label="gini = 0.0\nsamples = 1\nvalue = [1, 0, 0, 0, 0, 0, 0, 0, 0]", fillcolor="#e58139"] ;
658 -> 659 ;
660 [label="gini = 0.0\nsamples = 3\nvalue = [0, 7, 0, 0, 0, 0, 0, 0, 0]", fillcolor="#d7e539"] ;
658 -> 660 ;
661 [label="resident <= 145.0\ngini = 0.444\nsamples = 3\nvalue = [2, 4, 0, 0, 0, 0, 0, 0, 0]", fillcolor="#ebf29c"] ;
657 -> 661 ;
662 [label="gini = 0.0\nsamples = 1\nvalue = [2, 0, 0, 0, 0, 0, 0, 0, 0]", fillcolor="#e58139"] ;
661 -> 662 ;
663 [label="gini = 0.0\nsamples = 2\nvalue = [0, 4, 0, 0, 0, 0, 0, 0, 0]", fillcolor="#d7e539"] ;
661 -> 663 ;
664 [label="gini = 0.0\nsamples = 3\nvalue = [0, 5, 0, 0, 0, 0, 0, 0, 0]", fillcolor="#d7e539"] ;
656 -> 664 ;
665 [label="floating <= 3220.0\ngini = 0.666\nsamples = 41\nvalue = [20, 29, 11, 2, 2, 0, 0, 0, 0]", fillcolor="#f7fad6"] ;
655 -> 665 ;
666 [label="gini = 0.0\nsamples = 2\nvalue = [5, 0, 0, 0, 0, 0, 0, 0, 0]", fillcolor="#e58139"] ;
665 -> 666 ;
667 [label="CCTV_num <= 3.5\ngini = 0.657\nsamples = 39\nvalue = [15, 29, 11, 2, 2, 0, 0, 0, 0]", fillcolor="#f2f7c0"] ;
665 -> 667 ;
668 [label="resident <= 260.0\ngini = 0.408\nsamples = 4\nvalue = [5, 2, 0, 0, 0, 0, 0, 0, 0]", fillcolor="#efb388"] ;
667 -> 668 ;
669 [label="gini = 0.0\nsamples = 1\nvalue = [2, 0, 0, 0, 0, 0, 0, 0, 0]", fillcolor="#e58139"] ;
668 -> 669 ;
670 [label="floating <= 4595.0\ngini = 0.48\nsamples = 3\nvalue = [3, 2, 0, 0, 0, 0, 0, 0, 0]", fillcolor="#f6d5bd"] ;
668 -> 670 ;
671 [label="gini = 0.0\nsamples = 1\nvalue = [3, 0, 0, 0, 0, 0, 0, 0, 0]", fillcolor="#e58139"] ;
670 -> 671 ;
672 [label="gini = 0.0\nsamples = 2\nvalue = [0, 2, 0, 0, 0, 0, 0, 0, 0]", fillcolor="#d7e539"] ;
670 -> 672 ;
673 [label="CCTV_num <= 5.5\ngini = 0.646\nsamples = 35\nvalue = [10, 27, 11, 2, 2, 0, 0, 0, 0]", fillcolor="#eff5b2"] ;
667 -> 673 ;
674 [label="resident <= 245.0\ngini = 0.609\nsamples = 19\nvalue = [2, 14, 9, 0, 2, 0, 0, 0, 0]", fillcolor="#f4f8c8"] ;
673 -> 674 ;
675 [label="floating <= 4710.0\ngini = 0.43\nsamples = 10\nvalue = [1, 0, 8, 0, 2, 0, 0, 0, 0]", fillcolor="#98ee7b"] ;
674 -> 675 ;
676 [label="CCTV_num <= 4.5\ngini = 0.198\nsamples = 8\nvalue = [1, 0, 8, 0, 0, 0, 0, 0, 0]", fillcolor="#77e852"] ;
675 -> 676 ;
677 [label="floating <= 4175.0\ngini = 0.278\nsamples = 6\nvalue = [1, 0, 5, 0, 0, 0, 0, 0, 0]", fillcolor="#83ea61"] ;
676 -> 677 ;
678 [label="gini = 0.0\nsamples = 3\nvalue = [0, 0, 3, 0, 0, 0, 0, 0, 0]", fillcolor="#64e539"] ;
677 -> 678 ;
679 [label="resident <= 210.0\ngini = 0.444\nsamples = 3\nvalue = [1, 0, 2, 0, 0, 0, 0, 0, 0]", fillcolor="#b2f29c"] ;
677 -> 679 ;
680 [label="gini = 0.0\nsamples = 1\nvalue = [1, 0, 0, 0, 0, 0, 0, 0, 0]", fillcolor="#e58139"] ;
679 -> 680 ;
681 [label="gini = 0.0\nsamples = 2\nvalue = [0, 0, 2, 0, 0, 0, 0, 0, 0]", fillcolor="#64e539"] ;
679 -> 681 ;
682 [label="gini = 0.0\nsamples = 2\nvalue = [0, 0, 3, 0, 0, 0, 0, 0, 0]", fillcolor="#64e539"] ;
676 -> 682 ;
683 [label="gini = 0.0\nsamples = 2\nvalue = [0, 0, 0, 0, 2, 0, 0, 0, 0]", fillcolor="#39d7e5"] ;
675 -> 683 ;
684 [label="resident <= 265.0\ngini = 0.227\nsamples = 9\nvalue = [1, 14, 1, 0, 0, 0, 0, 0, 0]", fillcolor="#dce853"] ;
674 -> 684 ;
685 [label="gini = 0.0\nsamples = 5\nvalue = [0, 9, 0, 0, 0, 0, 0, 0, 0]", fillcolor="#d7e539"] ;
684 -> 685 ;
686 [label="floating <= 5070.0\ngini = 0.449\nsamples = 4\nvalue = [1, 5, 1, 0, 0, 0, 0, 0, 0]", fillcolor="#e4ee7b"] ;
684 -> 686 ;
687 [label="floating <= 4795.0\ngini = 0.278\nsamples = 3\nvalue = [1, 5, 0, 0, 0, 0, 0, 0, 0]", fillcolor="#dfea61"] ;
686 -> 687 ;
688 [label="gini = 0.0\nsamples = 1\nvalue = [0, 3, 0, 0, 0, 0, 0, 0, 0]", fillcolor="#d7e539"] ;
687 -> 688 ;
689 [label="gini = 0.444\nsamples = 2\nvalue = [1, 2, 0, 0, 0, 0, 0, 0, 0]", fillcolor="#ebf29c"] ;
687 -> 689 ;
690 [label="gini = 0.0\nsamples = 1\nvalue = [0, 0, 1, 0, 0, 0, 0, 0, 0]", fillcolor="#64e539"] ;
686 -> 690 ;
691 [label="resident <= 245.0\ngini = 0.614\nsamples = 16\nvalue = [8, 13, 2, 2, 0, 0, 0, 0, 0]", fillcolor="#f3f7c5"] ;
673 -> 691 ;
692 [label="CCTV_num <= 6.5\ngini = 0.26\nsamples = 8\nvalue = [2, 11, 0, 0, 0, 0, 0, 0, 0]", fillcolor="#deea5d"] ;
691 -> 692 ;
693 [label="gini = 0.0\nsamples = 3\nvalue = [0, 6, 0, 0, 0, 0, 0, 0, 0]", fillcolor="#d7e539"] ;
692 -> 693 ;
694 [label="floating <= 3960.0\ngini = 0.408\nsamples = 5\nvalue = [2, 5, 0, 0, 0, 0, 0, 0, 0]", fillcolor="#e7ef88"] ;
692 -> 694 ;
695 [label="gini = 0.0\nsamples = 4\nvalue = [0, 5, 0, 0, 0, 0, 0, 0, 0]", fillcolor="#d7e539"] ;
694 -> 695 ;
696 [label="gini = 0.0\nsamples = 1\nvalue = [2, 0, 0, 0, 0, 0, 0, 0, 0]", fillcolor="#e58139"] ;
694 -> 696 ;
697 [label="resident <= 255.0\ngini = 0.667\nsamples = 8\nvalue = [6, 2, 2, 2, 0, 0, 0, 0, 0]", fillcolor="#f5cdb0"] ;
691 -> 697 ;
698 [label="gini = 0.0\nsamples = 2\nvalue = [0, 0, 0, 2, 0, 0, 0, 0, 0]", fillcolor="#39e581"] ;
697 -> 698 ;
699 [label="floating <= 3650.0\ngini = 0.56\nsamples = 6\nvalue = [6, 2, 2, 0, 0, 0, 0, 0, 0]", fillcolor="#f2c09c"] ;
697 -> 699 ;
700 [label="gini = 0.0\nsamples = 2\nvalue = [0, 2, 0, 0, 0, 0, 0, 0, 0]", fillcolor="#d7e539"] ;
699 -> 700 ;
701 [label="floating <= 4270.0\ngini = 0.375\nsamples = 4\nvalue = [6, 0, 2, 0, 0, 0, 0, 0, 0]", fillcolor="#eeab7b"] ;
699 -> 701 ;
702 [label="gini = 0.0\nsamples = 1\nvalue = [0, 0, 1, 0, 0, 0, 0, 0, 0]", fillcolor="#64e539"] ;
701 -> 702 ;
703 [label="resident <= 270.0\ngini = 0.245\nsamples = 3\nvalue = [6, 0, 1, 0, 0, 0, 0, 0, 0]", fillcolor="#e9965a"] ;
701 -> 703 ;
704 [label="CCTV_num <= 6.5\ngini = 0.375\nsamples = 2\nvalue = [3, 0, 1, 0, 0, 0, 0, 0, 0]", fillcolor="#eeab7b"] ;
703 -> 704 ;
705 [label="gini = 0.0\nsamples = 1\nvalue = [3, 0, 0, 0, 0, 0, 0, 0, 0]", fillcolor="#e58139"] ;
704 -> 705 ;
706 [label="gini = 0.0\nsamples = 1\nvalue = [0, 0, 1, 0, 0, 0, 0, 0, 0]", fillcolor="#64e539"] ;
704 -> 706 ;
707 [label="gini = 0.0\nsamples = 1\nvalue = [3, 0, 0, 0, 0, 0, 0, 0, 0]", fillcolor="#e58139"] ;
703 -> 707 ;
708 [label="floating <= 3955.0\ngini = 0.444\nsamples = 3\nvalue = [4, 0, 0, 2, 0, 0, 0, 0, 0]", fillcolor="#f2c09c"] ;
654 -> 708 ;
709 [label="gini = 0.0\nsamples = 1\nvalue = [0, 0, 0, 2, 0, 0, 0, 0, 0]", fillcolor="#39e581"] ;
708 -> 709 ;
710 [label="gini = 0.0\nsamples = 2\nvalue = [4, 0, 0, 0, 0, 0, 0, 0, 0]", fillcolor="#e58139"] ;
708 -> 710 ;
711 [label="resident <= 375.0\ngini = 0.721\nsamples = 44\nvalue = [21, 17, 20, 7, 0, 0, 0, 0, 0]", fillcolor="#fefcfb"] ;
567 -> 711 ;
712 [label="floating <= 4845.0\ngini = 0.708\nsamples = 38\nvalue = [20, 10, 20, 7, 0, 0, 0, 0, 0]", fillcolor="#ffffff"] ;
711 -> 712 ;
713 [label="police_value <= 1.5\ngini = 0.653\nsamples = 24\nvalue = [6, 7, 18, 4, 0, 0, 0, 0, 0]", fillcolor="#c2f5b1"] ;
712 -> 713 ;
714 [label="floating <= 4835.0\ngini = 0.621\nsamples = 23\nvalue = [6, 7, 18, 2, 0, 0, 0, 0, 0]", fillcolor="#bdf4ab"] ;
713 -> 714 ;
715 [label="floating <= 4755.0\ngini = 0.689\nsamples = 20\nvalue = [6, 7, 11, 2, 0, 0, 0, 0, 0]", fillcolor="#defad5"] ;
714 -> 715 ;
716 [label="police_value <= 0.5\ngini = 0.639\nsamples = 16\nvalue = [5, 3, 11, 2, 0, 0, 0, 0, 0]", fillcolor="#c5f5b5"] ;
715 -> 716 ;
717 [label="CCTV_num <= 3.5\ngini = 0.602\nsamples = 10\nvalue = [5, 2, 7, 0, 0, 0, 0, 0, 0]", fillcolor="#ddf9d3"] ;
716 -> 717 ;
718 [label="gini = 0.0\nsamples = 1\nvalue = [0, 1, 0, 0, 0, 0, 0, 0, 0]", fillcolor="#d7e539"] ;
717 -> 718 ;
719 [label="resident <= 295.0\ngini = 0.556\nsamples = 9\nvalue = [5, 1, 7, 0, 0, 0, 0, 0, 0]", fillcolor="#d8f8ce"] ;
717 -> 719 ;
720 [label="floating <= 4360.0\ngini = 0.444\nsamples = 2\nvalue = [0, 1, 2, 0, 0, 0, 0, 0, 0]", fillcolor="#b2f29c"] ;
719 -> 720 ;
721 [label="gini = 0.0\nsamples = 1\nvalue = [0, 1, 0, 0, 0, 0, 0, 0, 0]", fillcolor="#d7e539"] ;
720 -> 721 ;
722 [label="gini = 0.0\nsamples = 1\nvalue = [0, 0, 2, 0, 0, 0, 0, 0, 0]", fillcolor="#64e539"] ;
720 -> 722 ;
723 [label="CCTV_num <= 5.5\ngini = 0.5\nsamples = 7\nvalue = [5, 0, 5, 0, 0, 0, 0, 0, 0]", fillcolor="#ffffff"] ;
719 -> 723 ;
724 [label="floating <= 4015.0\ngini = 0.408\nsamples = 5\nvalue = [2, 0, 5, 0, 0, 0, 0, 0, 0]", fillcolor="#a2ef88"] ;
723 -> 724 ;
725 [label="gini = 0.0\nsamples = 3\nvalue = [0, 0, 4, 0, 0, 0, 0, 0, 0]", fillcolor="#64e539"] ;
724 -> 725 ;
726 [label="CCTV_num <= 4.5\ngini = 0.444\nsamples = 2\nvalue = [2, 0, 1, 0, 0, 0, 0, 0, 0]", fillcolor="#f2c09c"] ;
724 -> 726 ;
727 [label="gini = 0.0\nsamples = 1\nvalue = [2, 0, 0, 0, 0, 0, 0, 0, 0]", fillcolor="#e58139"] ;
726 -> 727 ;
728 [label="gini = 0.0\nsamples = 1\nvalue = [0, 0, 1, 0, 0, 0, 0, 0, 0]", fillcolor="#64e539"] ;
726 -> 728 ;
729 [label="gini = 0.0\nsamples = 2\nvalue = [3, 0, 0, 0, 0, 0, 0, 0, 0]", fillcolor="#e58139"] ;
723 -> 729 ;
730 [label="CCTV_num <= 5.0\ngini = 0.571\nsamples = 6\nvalue = [0, 1, 4, 2, 0, 0, 0, 0, 0]", fillcolor="#c1f5b0"] ;
716 -> 730 ;
731 [label="resident <= 320.0\ngini = 0.444\nsamples = 3\nvalue = [0, 1, 0, 2, 0, 0, 0, 0, 0]", fillcolor="#9cf2c0"] ;
730 -> 731 ;
732 [label="gini = 0.0\nsamples = 1\nvalue = [0, 1, 0, 0, 0, 0, 0, 0, 0]", fillcolor="#d7e539"] ;
731 -> 732 ;
733 [label="gini = 0.0\nsamples = 2\nvalue = [0, 0, 0, 2, 0, 0, 0, 0, 0]", fillcolor="#39e581"] ;
731 -> 733 ;
734 [label="gini = 0.0\nsamples = 3\nvalue = [0, 0, 4, 0, 0, 0, 0, 0, 0]", fillcolor="#64e539"] ;
730 -> 734 ;
735 [label="resident <= 315.0\ngini = 0.32\nsamples = 4\nvalue = [1, 4, 0, 0, 0, 0, 0, 0, 0]", fillcolor="#e1ec6a"] ;
715 -> 735 ;
736 [label="gini = 0.0\nsamples = 1\nvalue = [1, 0, 0, 0, 0, 0, 0, 0, 0]", fillcolor="#e58139"] ;
735 -> 736 ;
737 [label="gini = 0.0\nsamples = 3\nvalue = [0, 4, 0, 0, 0, 0, 0, 0, 0]", fillcolor="#d7e539"] ;
735 -> 737 ;
738 [label="gini = 0.0\nsamples = 3\nvalue = [0, 0, 7, 0, 0, 0, 0, 0, 0]", fillcolor="#64e539"] ;
714 -> 738 ;
739 [label="gini = 0.0\nsamples = 1\nvalue = [0, 0, 0, 2, 0, 0, 0, 0, 0]", fillcolor="#39e581"] ;
713 -> 739 ;
740 [label="floating <= 5190.0\ngini = 0.55\nsamples = 14\nvalue = [14, 3, 2, 3, 0, 0, 0, 0, 0]", fillcolor="#f0b68c"] ;
712 -> 740 ;
741 [label="CCTV_num <= 3.5\ngini = 0.482\nsamples = 11\nvalue = [13, 3, 0, 3, 0, 0, 0, 0, 0]", fillcolor="#efb083"] ;
740 -> 741 ;
742 [label="gini = 0.0\nsamples = 1\nvalue = [0, 2, 0, 0, 0, 0, 0, 0, 0]", fillcolor="#d7e539"] ;
741 -> 742 ;
743 [label="CCTV_num <= 4.5\ngini = 0.381\nsamples = 10\nvalue = [13, 1, 0, 3, 0, 0, 0, 0, 0]", fillcolor="#eca572"] ;
741 -> 743 ;
744 [label="floating <= 5120.0\ngini = 0.469\nsamples = 4\nvalue = [5, 0, 0, 3, 0, 0, 0, 0, 0]", fillcolor="#f5cdb0"] ;
743 -> 744 ;
745 [label="gini = 0.48\nsamples = 3\nvalue = [2, 0, 0, 3, 0, 0, 0, 0, 0]", fillcolor="#bdf6d5"] ;
744 -> 745 ;
746 [label="gini = 0.0\nsamples = 1\nvalue = [3, 0, 0, 0, 0, 0, 0, 0, 0]", fillcolor="#e58139"] ;
744 -> 746 ;
747 [label="CCTV_num <= 5.5\ngini = 0.198\nsamples = 6\nvalue = [8, 1, 0, 0, 0, 0, 0, 0, 0]", fillcolor="#e89152"] ;
743 -> 747 ;
748 [label="resident <= 325.0\ngini = 0.444\nsamples = 3\nvalue = [2, 1, 0, 0, 0, 0, 0, 0, 0]", fillcolor="#f2c09c"] ;
747 -> 748 ;
749 [label="gini = 0.0\nsamples = 1\nvalue = [1, 0, 0, 0, 0, 0, 0, 0, 0]", fillcolor="#e58139"] ;
748 -> 749 ;
750 [label="police_value <= 2.5\ngini = 0.5\nsamples = 2\nvalue = [1, 1, 0, 0, 0, 0, 0, 0, 0]", fillcolor="#ffffff"] ;
748 -> 750 ;
751 [label="gini = 0.0\nsamples = 1\nvalue = [0, 1, 0, 0, 0, 0, 0, 0, 0]", fillcolor="#d7e539"] ;
750 -> 751 ;
752 [label="gini = 0.0\nsamples = 1\nvalue = [1, 0, 0, 0, 0, 0, 0, 0, 0]", fillcolor="#e58139"] ;
750 -> 752 ;
753 [label="gini = 0.0\nsamples = 3\nvalue = [6, 0, 0, 0, 0, 0, 0, 0, 0]", fillcolor="#e58139"] ;
747 -> 753 ;
754 [label="resident <= 340.0\ngini = 0.444\nsamples = 3\nvalue = [1, 0, 2, 0, 0, 0, 0, 0, 0]", fillcolor="#b2f29c"] ;
740 -> 754 ;
755 [label="gini = 0.0\nsamples = 2\nvalue = [0, 0, 2, 0, 0, 0, 0, 0, 0]", fillcolor="#64e539"] ;
754 -> 755 ;
756 [label="gini = 0.0\nsamples = 1\nvalue = [1, 0, 0, 0, 0, 0, 0, 0, 0]", fillcolor="#e58139"] ;
754 -> 756 ;
757 [label="resident <= 445.0\ngini = 0.219\nsamples = 6\nvalue = [1, 7, 0, 0, 0, 0, 0, 0, 0]", fillcolor="#dde955"] ;
711 -> 757 ;
758 [label="gini = 0.0\nsamples = 5\nvalue = [0, 7, 0, 0, 0, 0, 0, 0, 0]", fillcolor="#d7e539"] ;
757 -> 758 ;
759 [label="gini = 0.0\nsamples = 1\nvalue = [1, 0, 0, 0, 0, 0, 0, 0, 0]", fillcolor="#e58139"] ;
757 -> 759 ;
760 [label="police_value <= 0.5\ngini = 0.773\nsamples = 25\nvalue = [12, 8, 10, 3, 0, 0, 0, 8, 0]", fillcolor="#fdf7f2"] ;
564 -> 760 ;
761 [label="CCTV_num <= 13.5\ngini = 0.697\nsamples = 19\nvalue = [11, 5, 10, 3, 0, 0, 0, 0, 0]", fillcolor="#fef8f5"] ;
760 -> 761 ;
762 [label="resident <= 245.0\ngini = 0.605\nsamples = 14\nvalue = [7, 3, 10, 0, 0, 0, 0, 0, 0]", fillcolor="#dbf9d1"] ;
761 -> 762 ;
763 [label="resident <= 100.0\ngini = 0.469\nsamples = 6\nvalue = [5, 3, 0, 0, 0, 0, 0, 0, 0]", fillcolor="#f5cdb0"] ;
762 -> 763 ;
764 [label="resident <= 35.0\ngini = 0.5\nsamples = 4\nvalue = [3, 3, 0, 0, 0, 0, 0, 0, 0]", fillcolor="#ffffff"] ;
763 -> 764 ;
765 [label="floating <= 465.0\ngini = 0.375\nsamples = 3\nvalue = [3, 1, 0, 0, 0, 0, 0, 0, 0]", fillcolor="#eeab7b"] ;
764 -> 765 ;
766 [label="gini = 0.0\nsamples = 1\nvalue = [0, 1, 0, 0, 0, 0, 0, 0, 0]", fillcolor="#d7e539"] ;
765 -> 766 ;
767 [label="gini = 0.0\nsamples = 2\nvalue = [3, 0, 0, 0, 0, 0, 0, 0, 0]", fillcolor="#e58139"] ;
765 -> 767 ;
768 [label="gini = 0.0\nsamples = 1\nvalue = [0, 2, 0, 0, 0, 0, 0, 0, 0]", fillcolor="#d7e539"] ;
764 -> 768 ;
769 [label="gini = 0.0\nsamples = 2\nvalue = [2, 0, 0, 0, 0, 0, 0, 0, 0]", fillcolor="#e58139"] ;
763 -> 769 ;
770 [label="CCTV_num <= 12.0\ngini = 0.278\nsamples = 8\nvalue = [2, 0, 10, 0, 0, 0, 0, 0, 0]", fillcolor="#83ea61"] ;
762 -> 770 ;
771 [label="resident <= 315.0\ngini = 0.18\nsamples = 6\nvalue = [1, 0, 9, 0, 0, 0, 0, 0, 0]", fillcolor="#75e84f"] ;
770 -> 771 ;
772 [label="floating <= 4925.0\ngini = 0.375\nsamples = 3\nvalue = [1, 0, 3, 0, 0, 0, 0, 0, 0]", fillcolor="#98ee7b"] ;
771 -> 772 ;
773 [label="gini = 0.0\nsamples = 1\nvalue = [1, 0, 0, 0, 0, 0, 0, 0, 0]", fillcolor="#e58139"] ;
772 -> 773 ;
774 [label="gini = 0.0\nsamples = 2\nvalue = [0, 0, 3, 0, 0, 0, 0, 0, 0]", fillcolor="#64e539"] ;
772 -> 774 ;
775 [label="gini = 0.0\nsamples = 3\nvalue = [0, 0, 6, 0, 0, 0, 0, 0, 0]", fillcolor="#64e539"] ;
771 -> 775 ;
776 [label="floating <= 5120.0\ngini = 0.5\nsamples = 2\nvalue = [1, 0, 1, 0, 0, 0, 0, 0, 0]", fillcolor="#ffffff"] ;
770 -> 776 ;
777 [label="gini = 0.0\nsamples = 1\nvalue = [1, 0, 0, 0, 0, 0, 0, 0, 0]", fillcolor="#e58139"] ;
776 -> 777 ;
778 [label="gini = 0.0\nsamples = 1\nvalue = [0, 0, 1, 0, 0, 0, 0, 0, 0]", fillcolor="#64e539"] ;
776 -> 778 ;
779 [label="floating <= 4535.0\ngini = 0.642\nsamples = 5\nvalue = [4, 2, 0, 3, 0, 0, 0, 0, 0]", fillcolor="#fbeade"] ;
761 -> 779 ;
780 [label="floating <= 2985.0\ngini = 0.611\nsamples = 3\nvalue = [1, 2, 0, 3, 0, 0, 0, 0, 0]", fillcolor="#cef8e0"] ;
779 -> 780 ;
781 [label="floating <= 1145.0\ngini = 0.375\nsamples = 2\nvalue = [1, 0, 0, 3, 0, 0, 0, 0, 0]", fillcolor="#7beeab"] ;
780 -> 781 ;
782 [label="gini = 0.0\nsamples = 1\nvalue = [1, 0, 0, 0, 0, 0, 0, 0, 0]", fillcolor="#e58139"] ;
781 -> 782 ;
783 [label="gini = 0.0\nsamples = 1\nvalue = [0, 0, 0, 3, 0, 0, 0, 0, 0]", fillcolor="#39e581"] ;
781 -> 783 ;
784 [label="gini = 0.0\nsamples = 1\nvalue = [0, 2, 0, 0, 0, 0, 0, 0, 0]", fillcolor="#d7e539"] ;
780 -> 784 ;
785 [label="gini = 0.0\nsamples = 2\nvalue = [3, 0, 0, 0, 0, 0, 0, 0, 0]", fillcolor="#e58139"] ;
779 -> 785 ;
786 [label="resident <= 195.0\ngini = 0.486\nsamples = 6\nvalue = [1, 3, 0, 0, 0, 0, 0, 8, 0]", fillcolor="#f191e9"] ;
760 -> 786 ;
787 [label="police_value <= 1.5\ngini = 0.375\nsamples = 2\nvalue = [1, 3, 0, 0, 0, 0, 0, 0, 0]", fillcolor="#e4ee7b"] ;
786 -> 787 ;
788 [label="gini = 0.0\nsamples = 1\nvalue = [1, 0, 0, 0, 0, 0, 0, 0, 0]", fillcolor="#e58139"] ;
787 -> 788 ;
789 [label="gini = 0.0\nsamples = 1\nvalue = [0, 3, 0, 0, 0, 0, 0, 0, 0]", fillcolor="#d7e539"] ;
787 -> 789 ;
790 [label="gini = 0.0\nsamples = 4\nvalue = [0, 0, 0, 0, 0, 0, 0, 8, 0]", fillcolor="#e539d7"] ;
786 -> 790 ;
}