digraph Tree {
node [shape=box, style="filled, rounded", color="black", fontname=helvetica] ;
edge [fontname=helvetica] ;
0 [label="police_value <= 0.5\ngini = 0.26\nsamples = 88\nvalue = [117, 20, 1]", fillcolor="#ea975c"] ;
1 [label="CCTV_num <= 6.5\ngini = 0.292\nsamples = 76\nvalue = [99, 20, 1]", fillcolor="#ea9b63"] ;
0 -> 1 [labeldistance=2.5, labelangle=45, headlabel="True"] ;
2 [label="floating <= 975.0\ngini = 0.308\nsamples = 71\nvalue = [91, 20, 1]", fillcolor="#eb9e66"] ;
1 -> 2 ;
3 [label="gini = 0.0\nsamples = 17\nvalue = [33, 0, 0]", fillcolor="#e58139"] ;
2 -> 3 ;
4 [label="floating <= 995.0\ngini = 0.397\nsamples = 54\nvalue = [58, 20, 1]", fillcolor="#eeae7f"] ;
2 -> 4 ;
5 [label="gini = 0.0\nsamples = 2\nvalue = [0, 5, 0]", fillcolor="#39e581"] ;
4 -> 5 ;
6 [label="CCTV_num <= 5.5\ngini = 0.344\nsamples = 52\nvalue = [58, 15, 1]", fillcolor="#eca36f"] ;
4 -> 6 ;
7 [label="resident <= 245.0\ngini = 0.295\nsamples = 47\nvalue = [56, 11, 1]", fillcolor="#ea9c63"] ;
6 -> 7 ;
8 [label="resident <= 135.0\ngini = 0.425\nsamples = 26\nvalue = [27, 10, 1]", fillcolor="#efb287"] ;
7 -> 8 ;
9 [label="gini = 0.0\nsamples = 6\nvalue = [8, 0, 0]", fillcolor="#e58139"] ;
8 -> 9 ;
10 [label="floating <= 5135.0\ngini = 0.487\nsamples = 20\nvalue = [19, 10, 1]", fillcolor="#f3c6a6"] ;
8 -> 10 ;
11 [label="floating <= 3360.0\ngini = 0.457\nsamples = 18\nvalue = [19, 8, 1]", fillcolor="#f1ba92"] ;
10 -> 11 ;
12 [label="resident <= 195.0\ngini = 0.198\nsamples = 6\nvalue = [8, 1, 0]", fillcolor="#e89152"] ;
11 -> 12 ;
13 [label="gini = 0.0\nsamples = 2\nvalue = [4, 0, 0]", fillcolor="#e58139"] ;
12 -> 13 ;
14 [label="floating <= 2985.0\ngini = 0.32\nsamples = 4\nvalue = [4, 1, 0]", fillcolor="#eca06a"] ;
12 -> 14 ;
15 [label="gini = 0.0\nsamples = 1\nvalue = [0, 1, 0]", fillcolor="#39e581"] ;
14 -> 15 ;
16 [label="gini = 0.0\nsamples = 3\nvalue = [4, 0, 0]", fillcolor="#e58139"] ;
14 -> 16 ;
17 [label="floating <= 3665.0\ngini = 0.526\nsamples = 12\nvalue = [11, 7, 1]", fillcolor="#f6d5bd"] ;
11 -> 17 ;
18 [label="gini = 0.0\nsamples = 2\nvalue = [0, 4, 0]", fillcolor="#39e581"] ;
17 -> 18 ;
19 [label="resident <= 235.0\ngini = 0.418\nsamples = 10\nvalue = [11, 3, 1]", fillcolor="#eeab7b"] ;
17 -> 19 ;
20 [label="resident <= 225.0\ngini = 0.512\nsamples = 8\nvalue = [7, 3, 1]", fillcolor="#f2c09c"] ;
19 -> 20 ;
21 [label="resident <= 190.0\ngini = 0.32\nsamples = 3\nvalue = [4, 0, 1]", fillcolor="#eca06a"] ;
20 -> 21 ;
22 [label="gini = 0.0\nsamples = 1\nvalue = [3, 0, 0]", fillcolor="#e58139"] ;
21 -> 22 ;
23 [label="CCTV_num <= 2.0\ngini = 0.5\nsamples = 2\nvalue = [1, 0, 1]", fillcolor="#ffffff"] ;
21 -> 23 ;
24 [label="gini = 0.0\nsamples = 1\nvalue = [0, 0, 1]", fillcolor="#8139e5"] ;
23 -> 24 ;
25 [label="gini = 0.0\nsamples = 1\nvalue = [1, 0, 0]", fillcolor="#e58139"] ;
23 -> 25 ;
26 [label="CCTV_num <= 1.0\ngini = 0.5\nsamples = 5\nvalue = [3, 3, 0]", fillcolor="#ffffff"] ;
20 -> 26 ;
27 [label="floating <= 4550.0\ngini = 0.48\nsamples = 4\nvalue = [2, 3, 0]", fillcolor="#bdf6d5"] ;
26 -> 27 ;
28 [label="gini = 0.0\nsamples = 2\nvalue = [0, 3, 0]", fillcolor="#39e581"] ;
27 -> 28 ;
29 [label="gini = 0.0\nsamples = 2\nvalue = [2, 0, 0]", fillcolor="#e58139"] ;
27 -> 29 ;
30 [label="gini = 0.0\nsamples = 1\nvalue = [1, 0, 0]", fillcolor="#e58139"] ;
26 -> 30 ;
31 [label="gini = 0.0\nsamples = 2\nvalue = [4, 0, 0]", fillcolor="#e58139"] ;
19 -> 31 ;
32 [label="gini = 0.0\nsamples = 2\nvalue = [0, 2, 0]", fillcolor="#39e581"] ;
10 -> 32 ;
33 [label="floating <= 5075.0\ngini = 0.064\nsamples = 21\nvalue = [29, 1, 0]", fillcolor="#e68540"] ;
7 -> 33 ;
34 [label="gini = 0.0\nsamples = 17\nvalue = [25, 0, 0]", fillcolor="#e58139"] ;
33 -> 34 ;
35 [label="floating <= 5100.0\ngini = 0.32\nsamples = 4\nvalue = [4, 1, 0]", fillcolor="#eca06a"] ;
33 -> 35 ;
36 [label="gini = 0.0\nsamples = 1\nvalue = [0, 1, 0]", fillcolor="#39e581"] ;
35 -> 36 ;
37 [label="gini = 0.0\nsamples = 3\nvalue = [4, 0, 0]", fillcolor="#e58139"] ;
35 -> 37 ;
38 [label="floating <= 4110.0\ngini = 0.444\nsamples = 5\nvalue = [2, 4, 0]", fillcolor="#9cf2c0"] ;
6 -> 38 ;
39 [label="gini = 0.0\nsamples = 2\nvalue = [2, 0, 0]", fillcolor="#e58139"] ;
38 -> 39 ;
40 [label="gini = 0.0\nsamples = 3\nvalue = [0, 4, 0]", fillcolor="#39e581"] ;
38 -> 40 ;
41 [label="gini = 0.0\nsamples = 5\nvalue = [8, 0, 0]", fillcolor="#e58139"] ;
1 -> 41 ;
42 [label="gini = 0.0\nsamples = 12\nvalue = [18, 0, 0]", fillcolor="#e58139"] ;
0 -> 42 [labeldistance=2.5, labelangle=-45, headlabel="False"] ;
}