digraph Tree {
node [shape=box, style="filled, rounded", color="black", fontname=helvetica] ;
edge [fontname=helvetica] ;
0 [label="police_value <= 0.5\ngini = 0.339\nsamples = 126\nvalue = [156, 36, 5]", fillcolor="#eca16b"] ;
1 [label="CCTV_num <= 8.0\ngini = 0.377\nsamples = 102\nvalue = [121, 33, 5]", fillcolor="#eda775"] ;
0 -> 1 [labeldistance=2.5, labelangle=45, headlabel="True"] ;
2 [label="floating <= 6490.0\ngini = 0.36\nsamples = 98\nvalue = [118, 29, 5]", fillcolor="#eca470"] ;
1 -> 2 ;
3 [label="floating <= 1365.0\ngini = 0.277\nsamples = 90\nvalue = [116, 17, 5]", fillcolor="#ea985d"] ;
2 -> 3 ;
4 [label="floating <= 805.0\ngini = 0.217\nsamples = 43\nvalue = [59, 4, 4]", fillcolor="#e89152"] ;
3 -> 4 ;
5 [label="resident <= 25.0\ngini = 0.34\nsamples = 26\nvalue = [32, 4, 4]", fillcolor="#eb9d65"] ;
4 -> 5 ;
6 [label="resident <= 15.0\ngini = 0.288\nsamples = 14\nvalue = [20, 3, 1]", fillcolor="#ea995f"] ;
5 -> 6 ;
7 [label="floating <= 265.0\ngini = 0.215\nsamples = 11\nvalue = [15, 1, 1]", fillcolor="#e89152"] ;
6 -> 7 ;
8 [label="floating <= 225.0\ngini = 0.625\nsamples = 4\nvalue = [2, 1, 1]", fillcolor="#f6d5bd"] ;
7 -> 8 ;
9 [label="gini = 0.0\nsamples = 1\nvalue = [1, 0, 0]", fillcolor="#e58139"] ;
8 -> 9 ;
10 [label="resident <= 5.0\ngini = 0.667\nsamples = 3\nvalue = [1, 1, 1]", fillcolor="#ffffff"] ;
8 -> 10 ;
11 [label="gini = 0.0\nsamples = 1\nvalue = [0, 1, 0]", fillcolor="#39e581"] ;
10 -> 11 ;
12 [label="gini = 0.5\nsamples = 2\nvalue = [1, 0, 1]", fillcolor="#ffffff"] ;
10 -> 12 ;
13 [label="gini = 0.0\nsamples = 7\nvalue = [13, 0, 0]", fillcolor="#e58139"] ;
7 -> 13 ;
14 [label="floating <= 760.0\ngini = 0.408\nsamples = 3\nvalue = [5, 2, 0]", fillcolor="#efb388"] ;
6 -> 14 ;
15 [label="gini = 0.0\nsamples = 2\nvalue = [5, 0, 0]", fillcolor="#e58139"] ;
14 -> 15 ;
16 [label="gini = 0.0\nsamples = 1\nvalue = [0, 2, 0]", fillcolor="#39e581"] ;
14 -> 16 ;
17 [label="floating <= 750.0\ngini = 0.398\nsamples = 12\nvalue = [12, 1, 3]", fillcolor="#eda876"] ;
5 -> 17 ;
18 [label="floating <= 635.0\ngini = 0.198\nsamples = 7\nvalue = [8, 1, 0]", fillcolor="#e89152"] ;
17 -> 18 ;
19 [label="gini = 0.0\nsamples = 4\nvalue = [6, 0, 0]", fillcolor="#e58139"] ;
18 -> 19 ;
20 [label="floating <= 695.0\ngini = 0.444\nsamples = 3\nvalue = [2, 1, 0]", fillcolor="#f2c09c"] ;
18 -> 20 ;
21 [label="gini = 0.0\nsamples = 1\nvalue = [0, 1, 0]", fillcolor="#39e581"] ;
20 -> 21 ;
22 [label="gini = 0.0\nsamples = 2\nvalue = [2, 0, 0]", fillcolor="#e58139"] ;
20 -> 22 ;
23 [label="CCTV_num <= 0.5\ngini = 0.49\nsamples = 5\nvalue = [4, 0, 3]", fillcolor="#f8e0ce"] ;
17 -> 23 ;
24 [label="resident <= 35.0\ngini = 0.375\nsamples = 4\nvalue = [1, 0, 3]", fillcolor="#ab7bee"] ;
23 -> 24 ;
25 [label="gini = 0.0\nsamples = 3\nvalue = [0, 0, 3]", fillcolor="#8139e5"] ;
24 -> 25 ;
26 [label="gini = 0.0\nsamples = 1\nvalue = [1, 0, 0]", fillcolor="#e58139"] ;
24 -> 26 ;
27 [label="gini = 0.0\nsamples = 1\nvalue = [3, 0, 0]", fillcolor="#e58139"] ;
23 -> 27 ;
28 [label="gini = 0.0\nsamples = 17\nvalue = [27, 0, 0]", fillcolor="#e58139"] ;
4 -> 28 ;
29 [label="CCTV_num <= 5.0\ngini = 0.322\nsamples = 47\nvalue = [57, 13, 1]", fillcolor="#eb9f69"] ;
3 -> 29 ;
30 [label="CCTV_num <= 2.5\ngini = 0.303\nsamples = 43\nvalue = [54, 11, 1]", fillcolor="#eb9c64"] ;
29 -> 30 ;
31 [label="CCTV_num <= 1.5\ngini = 0.324\nsamples = 36\nvalue = [43, 11, 0]", fillcolor="#eca16c"] ;
30 -> 31 ;
32 [label="floating <= 1710.0\ngini = 0.311\nsamples = 34\nvalue = [42, 10, 0]", fillcolor="#eb9f68"] ;
31 -> 32 ;
33 [label="gini = 0.0\nsamples = 2\nvalue = [0, 4, 0]", fillcolor="#39e581"] ;
32 -> 33 ;
34 [label="resident <= 275.0\ngini = 0.219\nsamples = 32\nvalue = [42, 6, 0]", fillcolor="#e99355"] ;
32 -> 34 ;
35 [label="floating <= 5915.0\ngini = 0.067\nsamples = 21\nvalue = [28, 1, 0]", fillcolor="#e68640"] ;
34 -> 35 ;
36 [label="gini = 0.0\nsamples = 16\nvalue = [23, 0, 0]", fillcolor="#e58139"] ;
35 -> 36 ;
37 [label="floating <= 6010.0\ngini = 0.278\nsamples = 5\nvalue = [5, 1, 0]", fillcolor="#ea9a61"] ;
35 -> 37 ;
38 [label="gini = 0.0\nsamples = 1\nvalue = [0, 1, 0]", fillcolor="#39e581"] ;
37 -> 38 ;
39 [label="gini = 0.0\nsamples = 4\nvalue = [5, 0, 0]", fillcolor="#e58139"] ;
37 -> 39 ;
40 [label="floating <= 5200.0\ngini = 0.388\nsamples = 11\nvalue = [14, 5, 0]", fillcolor="#eeae80"] ;
34 -> 40 ;
41 [label="gini = 0.0\nsamples = 1\nvalue = [0, 2, 0]", fillcolor="#39e581"] ;
40 -> 41 ;
42 [label="CCTV_num <= 0.5\ngini = 0.291\nsamples = 10\nvalue = [14, 3, 0]", fillcolor="#eb9c63"] ;
40 -> 42 ;
43 [label="resident <= 305.0\ngini = 0.198\nsamples = 7\nvalue = [8, 1, 0]", fillcolor="#e89152"] ;
42 -> 43 ;
44 [label="gini = 0.0\nsamples = 4\nvalue = [6, 0, 0]", fillcolor="#e58139"] ;
43 -> 44 ;
45 [label="floating <= 6150.0\ngini = 0.444\nsamples = 3\nvalue = [2, 1, 0]", fillcolor="#f2c09c"] ;
43 -> 45 ;
46 [label="gini = 0.0\nsamples = 1\nvalue = [1, 0, 0]", fillcolor="#e58139"] ;
45 -> 46 ;
47 [label="resident <= 325.0\ngini = 0.5\nsamples = 2\nvalue = [1, 1, 0]", fillcolor="#ffffff"] ;
45 -> 47 ;
48 [label="gini = 0.0\nsamples = 1\nvalue = [0, 1, 0]", fillcolor="#39e581"] ;
47 -> 48 ;
49 [label="gini = 0.0\nsamples = 1\nvalue = [1, 0, 0]", fillcolor="#e58139"] ;
47 -> 49 ;
50 [label="floating <= 5695.0\ngini = 0.375\nsamples = 3\nvalue = [6, 2, 0]", fillcolor="#eeab7b"] ;
42 -> 50 ;
51 [label="gini = 0.0\nsamples = 1\nvalue = [3, 0, 0]", fillcolor="#e58139"] ;
50 -> 51 ;
52 [label="floating <= 6220.0\ngini = 0.48\nsamples = 2\nvalue = [3, 2, 0]", fillcolor="#f6d5bd"] ;
50 -> 52 ;
53 [label="gini = 0.0\nsamples = 1\nvalue = [0, 2, 0]", fillcolor="#39e581"] ;
52 -> 53 ;
54 [label="gini = 0.0\nsamples = 1\nvalue = [3, 0, 0]", fillcolor="#e58139"] ;
52 -> 54 ;
55 [label="resident <= 165.0\ngini = 0.5\nsamples = 2\nvalue = [1, 1, 0]", fillcolor="#ffffff"] ;
31 -> 55 ;
56 [label="gini = 0.0\nsamples = 1\nvalue = [0, 1, 0]", fillcolor="#39e581"] ;
55 -> 56 ;
57 [label="gini = 0.0\nsamples = 1\nvalue = [1, 0, 0]", fillcolor="#e58139"] ;
55 -> 57 ;
58 [label="resident <= 315.0\ngini = 0.153\nsamples = 7\nvalue = [11, 0, 1]", fillcolor="#e78c4b"] ;
30 -> 58 ;
59 [label="gini = 0.0\nsamples = 4\nvalue = [6, 0, 0]", fillcolor="#e58139"] ;
58 -> 59 ;
60 [label="floating <= 6185.0\ngini = 0.278\nsamples = 3\nvalue = [5, 0, 1]", fillcolor="#ea9a61"] ;
58 -> 60 ;
61 [label="gini = 0.0\nsamples = 1\nvalue = [3, 0, 0]", fillcolor="#e58139"] ;
60 -> 61 ;
62 [label="floating <= 6450.0\ngini = 0.444\nsamples = 2\nvalue = [2, 0, 1]", fillcolor="#f2c09c"] ;
60 -> 62 ;
63 [label="gini = 0.0\nsamples = 1\nvalue = [0, 0, 1]", fillcolor="#8139e5"] ;
62 -> 63 ;
64 [label="gini = 0.0\nsamples = 1\nvalue = [2, 0, 0]", fillcolor="#e58139"] ;
62 -> 64 ;
65 [label="resident <= 215.0\ngini = 0.48\nsamples = 4\nvalue = [3, 2, 0]", fillcolor="#f6d5bd"] ;
29 -> 65 ;
66 [label="floating <= 2950.0\ngini = 0.444\nsamples = 2\nvalue = [1, 2, 0]", fillcolor="#9cf2c0"] ;
65 -> 66 ;
67 [label="gini = 0.0\nsamples = 1\nvalue = [1, 0, 0]", fillcolor="#e58139"] ;
66 -> 67 ;
68 [label="gini = 0.0\nsamples = 1\nvalue = [0, 2, 0]", fillcolor="#39e581"] ;
66 -> 68 ;
69 [label="gini = 0.0\nsamples = 2\nvalue = [2, 0, 0]", fillcolor="#e58139"] ;
65 -> 69 ;
70 [label="floating <= 6815.0\ngini = 0.245\nsamples = 8\nvalue = [2, 12, 0]", fillcolor="#5ae996"] ;
2 -> 70 ;
71 [label="gini = 0.0\nsamples = 6\nvalue = [0, 12, 0]", fillcolor="#39e581"] ;
70 -> 71 ;
72 [label="gini = 0.0\nsamples = 2\nvalue = [2, 0, 0]", fillcolor="#e58139"] ;
70 -> 72 ;
73 [label="resident <= 240.0\ngini = 0.49\nsamples = 4\nvalue = [3, 4, 0]", fillcolor="#cef8e0"] ;
1 -> 73 ;
74 [label="gini = 0.0\nsamples = 2\nvalue = [3, 0, 0]", fillcolor="#e58139"] ;
73 -> 74 ;
75 [label="gini = 0.0\nsamples = 2\nvalue = [0, 4, 0]", fillcolor="#39e581"] ;
73 -> 75 ;
76 [label="resident <= 65.0\ngini = 0.145\nsamples = 24\nvalue = [35, 3, 0]", fillcolor="#e78c4a"] ;
0 -> 76 [labeldistance=2.5, labelangle=-45, headlabel="False"] ;
77 [label="resident <= 55.0\ngini = 0.211\nsamples = 15\nvalue = [22, 3, 0]", fillcolor="#e99254"] ;
76 -> 77 ;
78 [label="CCTV_num <= 3.5\ngini = 0.159\nsamples = 13\nvalue = [21, 2, 0]", fillcolor="#e78d4c"] ;
77 -> 78 ;
79 [label="gini = 0.0\nsamples = 8\nvalue = [17, 0, 0]", fillcolor="#e58139"] ;
78 -> 79 ;
80 [label="floating <= 1180.0\ngini = 0.444\nsamples = 5\nvalue = [4, 2, 0]", fillcolor="#f2c09c"] ;
78 -> 80 ;
81 [label="gini = 0.0\nsamples = 2\nvalue = [0, 2, 0]", fillcolor="#39e581"] ;
80 -> 81 ;
82 [label="gini = 0.0\nsamples = 3\nvalue = [4, 0, 0]", fillcolor="#e58139"] ;
80 -> 82 ;
83 [label="CCTV_num <= 1.0\ngini = 0.5\nsamples = 2\nvalue = [1, 1, 0]", fillcolor="#ffffff"] ;
77 -> 83 ;
84 [label="gini = 0.0\nsamples = 1\nvalue = [0, 1, 0]", fillcolor="#39e581"] ;
83 -> 84 ;
85 [label="gini = 0.0\nsamples = 1\nvalue = [1, 0, 0]", fillcolor="#e58139"] ;
83 -> 85 ;
86 [label="gini = 0.0\nsamples = 9\nvalue = [13, 0, 0]", fillcolor="#e58139"] ;
76 -> 86 ;
}