digraph Tree {
node [shape=box, style="filled, rounded", color="black", fontname=helvetica] ;
edge [fontname=helvetica] ;
0 [label="police_value <= 0.5\ngini = 0.3\nsamples = 102\nvalue = [133, 30]", fillcolor="#eb9d66"] ;
1 [label="CCTV_num <= 2.5\ngini = 0.344\nsamples = 87\nvalue = [106, 30]", fillcolor="#eca571"] ;
0 -> 1 [labeldistance=2.5, labelangle=45, headlabel="True"] ;
2 [label="floating <= 4845.0\ngini = 0.399\nsamples = 62\nvalue = [71, 27]", fillcolor="#efb184"] ;
1 -> 2 ;
3 [label="floating <= 445.0\ngini = 0.209\nsamples = 49\nvalue = [67, 9]", fillcolor="#e89254"] ;
2 -> 3 ;
4 [label="floating <= 345.0\ngini = 0.397\nsamples = 8\nvalue = [8, 3]", fillcolor="#efb083"] ;
3 -> 4 ;
5 [label="gini = 0.0\nsamples = 7\nvalue = [8, 0]", fillcolor="#e58139"] ;
4 -> 5 ;
6 [label="gini = 0.0\nsamples = 1\nvalue = [0, 3]", fillcolor="#399de5"] ;
4 -> 6 ;
7 [label="CCTV_num <= 1.5\ngini = 0.168\nsamples = 41\nvalue = [59, 6]", fillcolor="#e88e4d"] ;
3 -> 7 ;
8 [label="CCTV_num <= 0.5\ngini = 0.128\nsamples = 36\nvalue = [54, 4]", fillcolor="#e78a48"] ;
7 -> 8 ;
9 [label="floating <= 1650.0\ngini = 0.131\nsamples = 35\nvalue = [53, 4]", fillcolor="#e78b48"] ;
8 -> 9 ;
10 [label="gini = 0.0\nsamples = 16\nvalue = [25, 0]", fillcolor="#e58139"] ;
9 -> 10 ;
11 [label="resident <= 185.0\ngini = 0.219\nsamples = 19\nvalue = [28, 4]", fillcolor="#e99355"] ;
9 -> 11 ;
12 [label="floating <= 2405.0\ngini = 0.494\nsamples = 6\nvalue = [5, 4]", fillcolor="#fae6d7"] ;
11 -> 12 ;
13 [label="resident <= 155.0\ngini = 0.278\nsamples = 4\nvalue = [5, 1]", fillcolor="#ea9a61"] ;
12 -> 13 ;
14 [label="gini = 0.0\nsamples = 2\nvalue = [4, 0]", fillcolor="#e58139"] ;
13 -> 14 ;
15 [label="floating <= 1805.0\ngini = 0.5\nsamples = 2\nvalue = [1, 1]", fillcolor="#ffffff"] ;
13 -> 15 ;
16 [label="gini = 0.0\nsamples = 1\nvalue = [0, 1]", fillcolor="#399de5"] ;
15 -> 16 ;
17 [label="gini = 0.0\nsamples = 1\nvalue = [1, 0]", fillcolor="#e58139"] ;
15 -> 17 ;
18 [label="gini = 0.0\nsamples = 2\nvalue = [0, 3]", fillcolor="#399de5"] ;
12 -> 18 ;
19 [label="gini = 0.0\nsamples = 13\nvalue = [23, 0]", fillcolor="#e58139"] ;
11 -> 19 ;
20 [label="gini = 0.0\nsamples = 1\nvalue = [1, 0]", fillcolor="#e58139"] ;
8 -> 20 ;
21 [label="floating <= 3610.0\ngini = 0.408\nsamples = 5\nvalue = [5, 2]", fillcolor="#efb388"] ;
7 -> 21 ;
22 [label="gini = 0.0\nsamples = 2\nvalue = [3, 0]", fillcolor="#e58139"] ;
21 -> 22 ;
23 [label="floating <= 4560.0\ngini = 0.5\nsamples = 3\nvalue = [2, 2]", fillcolor="#ffffff"] ;
21 -> 23 ;
24 [label="gini = 0.0\nsamples = 2\nvalue = [0, 2]", fillcolor="#399de5"] ;
23 -> 24 ;
25 [label="gini = 0.0\nsamples = 1\nvalue = [2, 0]", fillcolor="#e58139"] ;
23 -> 25 ;
26 [label="floating <= 5050.0\ngini = 0.298\nsamples = 13\nvalue = [4, 18]", fillcolor="#65b3eb"] ;
2 -> 26 ;
27 [label="gini = 0.0\nsamples = 9\nvalue = [0, 18]", fillcolor="#399de5"] ;
26 -> 27 ;
28 [label="gini = 0.0\nsamples = 4\nvalue = [4, 0]", fillcolor="#e58139"] ;
26 -> 28 ;
29 [label="resident <= 285.0\ngini = 0.145\nsamples = 25\nvalue = [35, 3]", fillcolor="#e78c4a"] ;
1 -> 29 ;
30 [label="floating <= 3925.0\ngini = 0.064\nsamples = 19\nvalue = [29, 1]", fillcolor="#e68540"] ;
29 -> 30 ;
31 [label="gini = 0.0\nsamples = 11\nvalue = [19, 0]", fillcolor="#e58139"] ;
30 -> 31 ;
32 [label="CCTV_num <= 4.0\ngini = 0.165\nsamples = 8\nvalue = [10, 1]", fillcolor="#e88e4d"] ;
30 -> 32 ;
33 [label="resident <= 210.0\ngini = 0.278\nsamples = 3\nvalue = [5, 1]", fillcolor="#ea9a61"] ;
32 -> 33 ;
34 [label="gini = 0.0\nsamples = 1\nvalue = [0, 1]", fillcolor="#399de5"] ;
33 -> 34 ;
35 [label="gini = 0.0\nsamples = 2\nvalue = [5, 0]", fillcolor="#e58139"] ;
33 -> 35 ;
36 [label="gini = 0.0\nsamples = 5\nvalue = [5, 0]", fillcolor="#e58139"] ;
32 -> 36 ;
37 [label="floating <= 4420.0\ngini = 0.375\nsamples = 6\nvalue = [6, 2]", fillcolor="#eeab7b"] ;
29 -> 37 ;
38 [label="gini = 0.0\nsamples = 2\nvalue = [0, 2]", fillcolor="#399de5"] ;
37 -> 38 ;
39 [label="gini = 0.0\nsamples = 4\nvalue = [6, 0]", fillcolor="#e58139"] ;
37 -> 39 ;
40 [label="gini = 0.0\nsamples = 15\nvalue = [27, 0]", fillcolor="#e58139"] ;
0 -> 40 [labeldistance=2.5, labelangle=-45, headlabel="False"] ;
}