digraph Tree {
node [shape=box, style="filled, rounded", color="black", fontname=helvetica] ;
edge [fontname=helvetica] ;
0 [label="CCTV_num <= 2.5\ngini = 0.442\nsamples = 138\nvalue = [154, 52, 10, 2]", fillcolor="#efb285"] ;
1 [label="police_value <= 0.5\ngini = 0.481\nsamples = 110\nvalue = [122, 49, 10, 2]", fillcolor="#f1ba93"] ;
0 -> 1 [labeldistance=2.5, labelangle=45, headlabel="True"] ;
2 [label="CCTV_num <= 0.5\ngini = 0.502\nsamples = 99\nvalue = [106, 47, 10, 2]", fillcolor="#f2c09c"] ;
1 -> 2 ;
3 [label="floating <= 6405.0\ngini = 0.519\nsamples = 85\nvalue = [90, 42, 10, 2]", fillcolor="#f3c4a2"] ;
2 -> 3 ;
4 [label="floating <= 220.0\ngini = 0.468\nsamples = 74\nvalue = [85, 30, 7, 2]", fillcolor="#f0b58b"] ;
3 -> 4 ;
5 [label="floating <= 185.0\ngini = 0.278\nsamples = 3\nvalue = [1, 5, 0, 0]", fillcolor="#6cea61"] ;
4 -> 5 ;
6 [label="gini = 0.0\nsamples = 1\nvalue = [1, 0, 0, 0]", fillcolor="#e58139"] ;
5 -> 6 ;
7 [label="gini = 0.0\nsamples = 2\nvalue = [0, 5, 0, 0]", fillcolor="#47e539"] ;
5 -> 7 ;
8 [label="floating <= 4105.0\ngini = 0.445\nsamples = 71\nvalue = [84, 25, 7, 2]", fillcolor="#efaf81"] ;
4 -> 8 ;
9 [label="floating <= 690.0\ngini = 0.342\nsamples = 49\nvalue = [66, 17, 1, 0]", fillcolor="#eca36e"] ;
8 -> 9 ;
10 [label="resident <= 15.0\ngini = 0.469\nsamples = 22\nvalue = [20, 12, 0, 0]", fillcolor="#f5cdb0"] ;
9 -> 10 ;
11 [label="resident <= 5.0\ngini = 0.278\nsamples = 10\nvalue = [15, 3, 0, 0]", fillcolor="#ea9a61"] ;
10 -> 11 ;
12 [label="floating <= 310.0\ngini = 0.408\nsamples = 4\nvalue = [5, 2, 0, 0]", fillcolor="#efb388"] ;
11 -> 12 ;
13 [label="gini = 0.0\nsamples = 3\nvalue = [5, 0, 0, 0]", fillcolor="#e58139"] ;
12 -> 13 ;
14 [label="gini = 0.0\nsamples = 1\nvalue = [0, 2, 0, 0]", fillcolor="#47e539"] ;
12 -> 14 ;
15 [label="floating <= 485.0\ngini = 0.165\nsamples = 6\nvalue = [10, 1, 0, 0]", fillcolor="#e88e4d"] ;
11 -> 15 ;
16 [label="gini = 0.0\nsamples = 4\nvalue = [9, 0, 0, 0]", fillcolor="#e58139"] ;
15 -> 16 ;
17 [label="floating <= 635.0\ngini = 0.5\nsamples = 2\nvalue = [1, 1, 0, 0]", fillcolor="#ffffff"] ;
15 -> 17 ;
18 [label="gini = 0.0\nsamples = 1\nvalue = [0, 1, 0, 0]", fillcolor="#47e539"] ;
17 -> 18 ;
19 [label="gini = 0.0\nsamples = 1\nvalue = [1, 0, 0, 0]", fillcolor="#e58139"] ;
17 -> 19 ;
20 [label="floating <= 315.0\ngini = 0.459\nsamples = 12\nvalue = [5, 9, 0, 0]", fillcolor="#adf3a7"] ;
10 -> 20 ;
21 [label="gini = 0.0\nsamples = 3\nvalue = [0, 3, 0, 0]", fillcolor="#47e539"] ;
20 -> 21 ;
22 [label="floating <= 435.0\ngini = 0.496\nsamples = 9\nvalue = [5, 6, 0, 0]", fillcolor="#e0fbde"] ;
20 -> 22 ;
23 [label="gini = 0.0\nsamples = 1\nvalue = [3, 0, 0, 0]", fillcolor="#e58139"] ;
22 -> 23 ;
24 [label="resident <= 35.0\ngini = 0.375\nsamples = 8\nvalue = [2, 6, 0, 0]", fillcolor="#84ee7b"] ;
22 -> 24 ;
25 [label="gini = 0.0\nsamples = 2\nvalue = [0, 2, 0, 0]", fillcolor="#47e539"] ;
24 -> 25 ;
26 [label="resident <= 50.0\ngini = 0.444\nsamples = 6\nvalue = [2, 4, 0, 0]", fillcolor="#a3f29c"] ;
24 -> 26 ;
27 [label="floating <= 570.0\ngini = 0.48\nsamples = 5\nvalue = [2, 3, 0, 0]", fillcolor="#c2f6bd"] ;
26 -> 27 ;
28 [label="gini = 0.0\nsamples = 2\nvalue = [0, 2, 0, 0]", fillcolor="#47e539"] ;
27 -> 28 ;
29 [label="floating <= 615.0\ngini = 0.444\nsamples = 3\nvalue = [2, 1, 0, 0]", fillcolor="#f2c09c"] ;
27 -> 29 ;
30 [label="gini = 0.0\nsamples = 1\nvalue = [1, 0, 0, 0]", fillcolor="#e58139"] ;
29 -> 30 ;
31 [label="gini = 0.5\nsamples = 2\nvalue = [1, 1, 0, 0]", fillcolor="#ffffff"] ;
29 -> 31 ;
32 [label="gini = 0.0\nsamples = 1\nvalue = [0, 1, 0, 0]", fillcolor="#47e539"] ;
26 -> 32 ;
33 [label="floating <= 970.0\ngini = 0.208\nsamples = 27\nvalue = [46, 5, 1, 0]", fillcolor="#e89152"] ;
9 -> 33 ;
34 [label="gini = 0.0\nsamples = 14\nvalue = [28, 0, 0, 0]", fillcolor="#e58139"] ;
33 -> 34 ;
35 [label="resident <= 55.0\ngini = 0.392\nsamples = 13\nvalue = [18, 5, 1, 0]", fillcolor="#eda978"] ;
33 -> 35 ;
36 [label="floating <= 1945.0\ngini = 0.278\nsamples = 3\nvalue = [1, 5, 0, 0]", fillcolor="#6cea61"] ;
35 -> 36 ;
37 [label="floating <= 1205.0\ngini = 0.444\nsamples = 2\nvalue = [1, 2, 0, 0]", fillcolor="#a3f29c"] ;
36 -> 37 ;
38 [label="gini = 0.0\nsamples = 1\nvalue = [0, 2, 0, 0]", fillcolor="#47e539"] ;
37 -> 38 ;
39 [label="gini = 0.0\nsamples = 1\nvalue = [1, 0, 0, 0]", fillcolor="#e58139"] ;
37 -> 39 ;
40 [label="gini = 0.0\nsamples = 1\nvalue = [0, 3, 0, 0]", fillcolor="#47e539"] ;
36 -> 40 ;
41 [label="floating <= 2205.0\ngini = 0.105\nsamples = 10\nvalue = [17, 0, 1, 0]", fillcolor="#e78845"] ;
35 -> 41 ;
42 [label="resident <= 125.0\ngini = 0.278\nsamples = 3\nvalue = [5, 0, 1, 0]", fillcolor="#ea9a61"] ;
41 -> 42 ;
43 [label="gini = 0.0\nsamples = 2\nvalue = [5, 0, 0, 0]", fillcolor="#e58139"] ;
42 -> 43 ;
44 [label="gini = 0.0\nsamples = 1\nvalue = [0, 0, 1, 0]", fillcolor="#399de5"] ;
42 -> 44 ;
45 [label="gini = 0.0\nsamples = 7\nvalue = [12, 0, 0, 0]", fillcolor="#e58139"] ;
41 -> 45 ;
46 [label="resident <= 180.0\ngini = 0.63\nsamples = 22\nvalue = [18, 8, 6, 2]", fillcolor="#f5cfb3"] ;
8 -> 46 ;
47 [label="gini = 0.0\nsamples = 2\nvalue = [0, 0, 5, 0]", fillcolor="#399de5"] ;
46 -> 47 ;
48 [label="floating <= 5205.0\ngini = 0.533\nsamples = 20\nvalue = [18, 8, 1, 2]", fillcolor="#f3c3a1"] ;
46 -> 48 ;
49 [label="floating <= 5160.0\ngini = 0.48\nsamples = 4\nvalue = [2, 3, 0, 0]", fillcolor="#c2f6bd"] ;
48 -> 49 ;
50 [label="gini = 0.0\nsamples = 2\nvalue = [2, 0, 0, 0]", fillcolor="#e58139"] ;
49 -> 50 ;
51 [label="gini = 0.0\nsamples = 2\nvalue = [0, 3, 0, 0]", fillcolor="#47e539"] ;
49 -> 51 ;
52 [label="resident <= 270.0\ngini = 0.503\nsamples = 16\nvalue = [16, 5, 1, 2]", fillcolor="#f0b68c"] ;
48 -> 52 ;
53 [label="resident <= 235.0\ngini = 0.245\nsamples = 8\nvalue = [12, 0, 0, 2]", fillcolor="#e9965a"] ;
52 -> 53 ;
54 [label="floating <= 6305.0\ngini = 0.48\nsamples = 4\nvalue = [3, 0, 0, 2]", fillcolor="#f6d5bd"] ;
53 -> 54 ;
55 [label="gini = 0.0\nsamples = 2\nvalue = [3, 0, 0, 0]", fillcolor="#e58139"] ;
54 -> 55 ;
56 [label="gini = 0.0\nsamples = 2\nvalue = [0, 0, 0, 2]", fillcolor="#d739e5"] ;
54 -> 56 ;
57 [label="gini = 0.0\nsamples = 4\nvalue = [9, 0, 0, 0]", fillcolor="#e58139"] ;
53 -> 57 ;
58 [label="floating <= 6380.0\ngini = 0.58\nsamples = 8\nvalue = [4, 5, 1, 0]", fillcolor="#e0fbde"] ;
52 -> 58 ;
59 [label="floating <= 6125.0\ngini = 0.449\nsamples = 7\nvalue = [1, 5, 1, 0]", fillcolor="#84ee7b"] ;
58 -> 59 ;
60 [label="resident <= 285.0\ngini = 0.625\nsamples = 4\nvalue = [1, 2, 1, 0]", fillcolor="#c2f6bd"] ;
59 -> 60 ;
61 [label="gini = 0.0\nsamples = 1\nvalue = [0, 0, 1, 0]", fillcolor="#399de5"] ;
60 -> 61 ;
62 [label="floating <= 5700.0\ngini = 0.444\nsamples = 3\nvalue = [1, 2, 0, 0]", fillcolor="#a3f29c"] ;
60 -> 62 ;
63 [label="gini = 0.0\nsamples = 1\nvalue = [0, 1, 0, 0]", fillcolor="#47e539"] ;
62 -> 63 ;
64 [label="resident <= 375.0\ngini = 0.5\nsamples = 2\nvalue = [1, 1, 0, 0]", fillcolor="#ffffff"] ;
62 -> 64 ;
65 [label="gini = 0.0\nsamples = 1\nvalue = [0, 1, 0, 0]", fillcolor="#47e539"] ;
64 -> 65 ;
66 [label="gini = 0.0\nsamples = 1\nvalue = [1, 0, 0, 0]", fillcolor="#e58139"] ;
64 -> 66 ;
67 [label="gini = 0.0\nsamples = 3\nvalue = [0, 3, 0, 0]", fillcolor="#47e539"] ;
59 -> 67 ;
68 [label="gini = 0.0\nsamples = 1\nvalue = [3, 0, 0, 0]", fillcolor="#e58139"] ;
58 -> 68 ;
69 [label="floating <= 6640.0\ngini = 0.555\nsamples = 11\nvalue = [5, 12, 3, 0]", fillcolor="#a9f3a3"] ;
3 -> 69 ;
70 [label="floating <= 6550.0\ngini = 0.653\nsamples = 7\nvalue = [4, 5, 3, 0]", fillcolor="#e8fce6"] ;
69 -> 70 ;
71 [label="floating <= 6425.0\ngini = 0.494\nsamples = 5\nvalue = [4, 5, 0, 0]", fillcolor="#dafad7"] ;
70 -> 71 ;
72 [label="gini = 0.0\nsamples = 1\nvalue = [0, 4, 0, 0]", fillcolor="#47e539"] ;
71 -> 72 ;
73 [label="resident <= 325.0\ngini = 0.32\nsamples = 4\nvalue = [4, 1, 0, 0]", fillcolor="#eca06a"] ;
71 -> 73 ;
74 [label="gini = 0.0\nsamples = 3\nvalue = [4, 0, 0, 0]", fillcolor="#e58139"] ;
73 -> 74 ;
75 [label="gini = 0.0\nsamples = 1\nvalue = [0, 1, 0, 0]", fillcolor="#47e539"] ;
73 -> 75 ;
76 [label="gini = 0.0\nsamples = 2\nvalue = [0, 0, 3, 0]", fillcolor="#399de5"] ;
70 -> 76 ;
77 [label="floating <= 6790.0\ngini = 0.219\nsamples = 4\nvalue = [1, 7, 0, 0]", fillcolor="#61e955"] ;
69 -> 77 ;
78 [label="floating <= 6730.0\ngini = 0.375\nsamples = 2\nvalue = [1, 3, 0, 0]", fillcolor="#84ee7b"] ;
77 -> 78 ;
79 [label="gini = 0.0\nsamples = 1\nvalue = [0, 3, 0, 0]", fillcolor="#47e539"] ;
78 -> 79 ;
80 [label="gini = 0.0\nsamples = 1\nvalue = [1, 0, 0, 0]", fillcolor="#e58139"] ;
78 -> 80 ;
81 [label="gini = 0.0\nsamples = 2\nvalue = [0, 4, 0, 0]", fillcolor="#47e539"] ;
77 -> 81 ;
82 [label="CCTV_num <= 1.5\ngini = 0.363\nsamples = 14\nvalue = [16, 5, 0, 0]", fillcolor="#eda877"] ;
2 -> 82 ;
83 [label="gini = 0.0\nsamples = 4\nvalue = [8, 0, 0, 0]", fillcolor="#e58139"] ;
82 -> 83 ;
84 [label="floating <= 800.0\ngini = 0.473\nsamples = 10\nvalue = [8, 5, 0, 0]", fillcolor="#f5d0b5"] ;
82 -> 84 ;
85 [label="gini = 0.0\nsamples = 2\nvalue = [3, 0, 0, 0]", fillcolor="#e58139"] ;
84 -> 85 ;
86 [label="floating <= 1035.0\ngini = 0.5\nsamples = 8\nvalue = [5, 5, 0, 0]", fillcolor="#ffffff"] ;
84 -> 86 ;
87 [label="gini = 0.0\nsamples = 3\nvalue = [0, 4, 0, 0]", fillcolor="#47e539"] ;
86 -> 87 ;
88 [label="floating <= 6235.0\ngini = 0.278\nsamples = 5\nvalue = [5, 1, 0, 0]", fillcolor="#ea9a61"] ;
86 -> 88 ;
89 [label="gini = 0.0\nsamples = 4\nvalue = [5, 0, 0, 0]", fillcolor="#e58139"] ;
88 -> 89 ;
90 [label="gini = 0.0\nsamples = 1\nvalue = [0, 1, 0, 0]", fillcolor="#47e539"] ;
88 -> 90 ;
91 [label="floating <= 600.0\ngini = 0.198\nsamples = 11\nvalue = [16, 2, 0, 0]", fillcolor="#e89152"] ;
1 -> 91 ;
92 [label="gini = 0.0\nsamples = 1\nvalue = [0, 1, 0, 0]", fillcolor="#47e539"] ;
91 -> 92 ;
93 [label="resident <= 290.0\ngini = 0.111\nsamples = 10\nvalue = [16, 1, 0, 0]", fillcolor="#e78945"] ;
91 -> 93 ;
94 [label="gini = 0.0\nsamples = 9\nvalue = [16, 0, 0, 0]", fillcolor="#e58139"] ;
93 -> 94 ;
95 [label="gini = 0.0\nsamples = 1\nvalue = [0, 1, 0, 0]", fillcolor="#47e539"] ;
93 -> 95 ;
96 [label="resident <= 235.0\ngini = 0.157\nsamples = 28\nvalue = [32, 3, 0, 0]", fillcolor="#e78d4c"] ;
0 -> 96 [labeldistance=2.5, labelangle=-45, headlabel="False"] ;
97 [label="gini = 0.0\nsamples = 18\nvalue = [24, 0, 0, 0]", fillcolor="#e58139"] ;
96 -> 97 ;
98 [label="resident <= 245.0\ngini = 0.397\nsamples = 10\nvalue = [8, 3, 0, 0]", fillcolor="#efb083"] ;
96 -> 98 ;
99 [label="gini = 0.0\nsamples = 2\nvalue = [0, 2, 0, 0]", fillcolor="#47e539"] ;
98 -> 99 ;
100 [label="CCTV_num <= 4.5\ngini = 0.198\nsamples = 8\nvalue = [8, 1, 0, 0]", fillcolor="#e89152"] ;
98 -> 100 ;
101 [label="CCTV_num <= 3.5\ngini = 0.375\nsamples = 4\nvalue = [3, 1, 0, 0]", fillcolor="#eeab7b"] ;
100 -> 101 ;
102 [label="gini = 0.0\nsamples = 3\nvalue = [3, 0, 0, 0]", fillcolor="#e58139"] ;
101 -> 102 ;
103 [label="gini = 0.0\nsamples = 1\nvalue = [0, 1, 0, 0]", fillcolor="#47e539"] ;
101 -> 103 ;
104 [label="gini = 0.0\nsamples = 4\nvalue = [5, 0, 0, 0]", fillcolor="#e58139"] ;
100 -> 104 ;
}