digraph Tree {
node [shape=box, style="filled, rounded", color="black", fontname=helvetica] ;
edge [fontname=helvetica] ;
0 [label="police_value <= 0.5\ngini = 0.596\nsamples = 328\nvalue = [263, 178, 65, 4]", fillcolor="#f8dfcc"] ;
1 [label="CCTV_num <= 1.5\ngini = 0.614\nsamples = 273\nvalue = [202, 159, 60, 4]", fillcolor="#fbebdf"] ;
0 -> 1 [labeldistance=2.5, labelangle=45, headlabel="True"] ;
2 [label="floating <= 255.0\ngini = 0.625\nsamples = 209\nvalue = [142, 130, 48, 4]", fillcolor="#fdf7f3"] ;
1 -> 2 ;
3 [label="floating <= 245.0\ngini = 0.458\nsamples = 69\nvalue = [68, 23, 7, 0]", fillcolor="#efb388"] ;
2 -> 3 ;
4 [label="floating <= 65.0\ngini = 0.491\nsamples = 63\nvalue = [58, 23, 7, 0]", fillcolor="#f1bb94"] ;
3 -> 4 ;
5 [label="gini = 0.0\nsamples = 4\nvalue = [4, 0, 0, 0]", fillcolor="#e58139"] ;
4 -> 5 ;
6 [label="resident <= 15.0\ngini = 0.505\nsamples = 59\nvalue = [54, 23, 7, 0]", fillcolor="#f2bf9a"] ;
4 -> 6 ;
7 [label="resident <= 5.0\ngini = 0.494\nsamples = 14\nvalue = [8, 10, 0, 0]", fillcolor="#dafad7"] ;
6 -> 7 ;
8 [label="floating <= 75.0\ngini = 0.245\nsamples = 5\nvalue = [6, 1, 0, 0]", fillcolor="#e9965a"] ;
7 -> 8 ;
9 [label="gini = 0.0\nsamples = 1\nvalue = [3, 0, 0, 0]", fillcolor="#e58139"] ;
8 -> 9 ;
10 [label="floating <= 85.0\ngini = 0.375\nsamples = 4\nvalue = [3, 1, 0, 0]", fillcolor="#eeab7b"] ;
8 -> 10 ;
11 [label="gini = 0.0\nsamples = 1\nvalue = [0, 1, 0, 0]", fillcolor="#47e539"] ;
10 -> 11 ;
12 [label="gini = 0.0\nsamples = 3\nvalue = [3, 0, 0, 0]", fillcolor="#e58139"] ;
10 -> 12 ;
13 [label="floating <= 235.0\ngini = 0.298\nsamples = 9\nvalue = [2, 9, 0, 0]", fillcolor="#70eb65"] ;
7 -> 13 ;
14 [label="gini = 0.0\nsamples = 7\nvalue = [0, 9, 0, 0]", fillcolor="#47e539"] ;
13 -> 14 ;
15 [label="gini = 0.0\nsamples = 2\nvalue = [2, 0, 0, 0]", fillcolor="#e58139"] ;
13 -> 15 ;
16 [label="floating <= 235.0\ngini = 0.464\nsamples = 45\nvalue = [46, 13, 7, 0]", fillcolor="#efb184"] ;
6 -> 16 ;
17 [label="resident <= 35.0\ngini = 0.453\nsamples = 44\nvalue = [46, 12, 7, 0]", fillcolor="#eeae80"] ;
16 -> 17 ;
18 [label="floating <= 125.0\ngini = 0.509\nsamples = 25\nvalue = [23, 6, 6, 0]", fillcolor="#f0b58b"] ;
17 -> 18 ;
19 [label="gini = 0.0\nsamples = 4\nvalue = [7, 0, 0, 0]", fillcolor="#e58139"] ;
18 -> 19 ;
20 [label="resident <= 25.0\ngini = 0.582\nsamples = 21\nvalue = [16, 6, 6, 0]", fillcolor="#f3c6a5"] ;
18 -> 20 ;
21 [label="floating <= 195.0\ngini = 0.62\nsamples = 9\nvalue = [5, 3, 2, 0]", fillcolor="#f8dbc6"] ;
20 -> 21 ;
22 [label="gini = 0.0\nsamples = 2\nvalue = [0, 2, 0, 0]", fillcolor="#47e539"] ;
21 -> 22 ;
23 [label="floating <= 225.0\ngini = 0.531\nsamples = 7\nvalue = [5, 1, 2, 0]", fillcolor="#f2c09c"] ;
21 -> 23 ;
24 [label="floating <= 205.0\ngini = 0.32\nsamples = 4\nvalue = [4, 1, 0, 0]", fillcolor="#eca06a"] ;
23 -> 24 ;
25 [label="gini = 0.0\nsamples = 1\nvalue = [1, 0, 0, 0]", fillcolor="#e58139"] ;
24 -> 25 ;
26 [label="floating <= 215.0\ngini = 0.375\nsamples = 3\nvalue = [3, 1, 0, 0]", fillcolor="#eeab7b"] ;
24 -> 26 ;
27 [label="gini = 0.444\nsamples = 2\nvalue = [2, 1, 0, 0]", fillcolor="#f2c09c"] ;
26 -> 27 ;
28 [label="gini = 0.0\nsamples = 1\nvalue = [1, 0, 0, 0]", fillcolor="#e58139"] ;
26 -> 28 ;
29 [label="gini = 0.444\nsamples = 3\nvalue = [1, 0, 2, 0]", fillcolor="#9ccef2"] ;
23 -> 29 ;
30 [label="floating <= 145.0\ngini = 0.549\nsamples = 12\nvalue = [11, 3, 4, 0]", fillcolor="#f2c09c"] ;
20 -> 30 ;
31 [label="floating <= 135.0\ngini = 0.611\nsamples = 4\nvalue = [1, 3, 2, 0]", fillcolor="#d1f8ce"] ;
30 -> 31 ;
32 [label="gini = 0.0\nsamples = 1\nvalue = [0, 0, 2, 0]", fillcolor="#399de5"] ;
31 -> 32 ;
33 [label="gini = 0.375\nsamples = 3\nvalue = [1, 3, 0, 0]", fillcolor="#84ee7b"] ;
31 -> 33 ;
34 [label="floating <= 155.0\ngini = 0.278\nsamples = 8\nvalue = [10, 0, 2, 0]", fillcolor="#ea9a61"] ;
30 -> 34 ;
35 [label="gini = 0.0\nsamples = 1\nvalue = [2, 0, 0, 0]", fillcolor="#e58139"] ;
34 -> 35 ;
36 [label="floating <= 170.0\ngini = 0.32\nsamples = 7\nvalue = [8, 0, 2, 0]", fillcolor="#eca06a"] ;
34 -> 36 ;
37 [label="gini = 0.375\nsamples = 5\nvalue = [6, 0, 2, 0]", fillcolor="#eeab7b"] ;
36 -> 37 ;
38 [label="gini = 0.0\nsamples = 2\nvalue = [2, 0, 0, 0]", fillcolor="#e58139"] ;
36 -> 38 ;
39 [label="CCTV_num <= 0.5\ngini = 0.371\nsamples = 19\nvalue = [23, 6, 1, 0]", fillcolor="#eda673"] ;
17 -> 39 ;
40 [label="floating <= 205.0\ngini = 0.39\nsamples = 18\nvalue = [21, 6, 1, 0]", fillcolor="#eda978"] ;
39 -> 40 ;
41 [label="resident <= 55.0\ngini = 0.499\nsamples = 13\nvalue = [12, 6, 1, 0]", fillcolor="#f3c5a4"] ;
40 -> 41 ;
42 [label="resident <= 45.0\ngini = 0.418\nsamples = 10\nvalue = [11, 3, 1, 0]", fillcolor="#eeab7b"] ;
41 -> 42 ;
43 [label="floating <= 130.0\ngini = 0.397\nsamples = 8\nvalue = [8, 3, 0, 0]", fillcolor="#efb083"] ;
42 -> 43 ;
44 [label="floating <= 95.0\ngini = 0.5\nsamples = 2\nvalue = [1, 1, 0, 0]", fillcolor="#ffffff"] ;
43 -> 44 ;
45 [label="gini = 0.0\nsamples = 1\nvalue = [1, 0, 0, 0]", fillcolor="#e58139"] ;
44 -> 45 ;
46 [label="gini = 0.0\nsamples = 1\nvalue = [0, 1, 0, 0]", fillcolor="#47e539"] ;
44 -> 46 ;
47 [label="floating <= 155.0\ngini = 0.346\nsamples = 6\nvalue = [7, 2, 0, 0]", fillcolor="#eca572"] ;
43 -> 47 ;
48 [label="gini = 0.0\nsamples = 1\nvalue = [2, 0, 0, 0]", fillcolor="#e58139"] ;
47 -> 48 ;
49 [label="floating <= 165.0\ngini = 0.408\nsamples = 5\nvalue = [5, 2, 0, 0]", fillcolor="#efb388"] ;
47 -> 49 ;
50 [label="gini = 0.5\nsamples = 2\nvalue = [1, 1, 0, 0]", fillcolor="#ffffff"] ;
49 -> 50 ;
51 [label="floating <= 180.0\ngini = 0.32\nsamples = 3\nvalue = [4, 1, 0, 0]", fillcolor="#eca06a"] ;
49 -> 51 ;
52 [label="gini = 0.0\nsamples = 1\nvalue = [1, 0, 0, 0]", fillcolor="#e58139"] ;
51 -> 52 ;
53 [label="gini = 0.375\nsamples = 2\nvalue = [3, 1, 0, 0]", fillcolor="#eeab7b"] ;
51 -> 53 ;
54 [label="floating <= 165.0\ngini = 0.375\nsamples = 2\nvalue = [3, 0, 1, 0]", fillcolor="#eeab7b"] ;
42 -> 54 ;
55 [label="gini = 0.0\nsamples = 1\nvalue = [0, 0, 1, 0]", fillcolor="#399de5"] ;
54 -> 55 ;
56 [label="gini = 0.0\nsamples = 1\nvalue = [3, 0, 0, 0]", fillcolor="#e58139"] ;
54 -> 56 ;
57 [label="floating <= 175.0\ngini = 0.375\nsamples = 3\nvalue = [1, 3, 0, 0]", fillcolor="#84ee7b"] ;
41 -> 57 ;
58 [label="gini = 0.0\nsamples = 1\nvalue = [1, 0, 0, 0]", fillcolor="#e58139"] ;
57 -> 58 ;
59 [label="gini = 0.0\nsamples = 2\nvalue = [0, 3, 0, 0]", fillcolor="#47e539"] ;
57 -> 59 ;
60 [label="gini = 0.0\nsamples = 5\nvalue = [9, 0, 0, 0]", fillcolor="#e58139"] ;
40 -> 60 ;
61 [label="gini = 0.0\nsamples = 1\nvalue = [2, 0, 0, 0]", fillcolor="#e58139"] ;
39 -> 61 ;
62 [label="gini = 0.0\nsamples = 1\nvalue = [0, 1, 0, 0]", fillcolor="#47e539"] ;
16 -> 62 ;
63 [label="gini = 0.0\nsamples = 6\nvalue = [10, 0, 0, 0]", fillcolor="#e58139"] ;
3 -> 63 ;
64 [label="floating <= 1435.0\ngini = 0.635\nsamples = 140\nvalue = [74, 107, 41, 4]", fillcolor="#d7f9d4"] ;
2 -> 64 ;
65 [label="floating <= 275.0\ngini = 0.54\nsamples = 62\nvalue = [39, 60, 7, 0]", fillcolor="#c5f7c1"] ;
64 -> 65 ;
66 [label="floating <= 265.0\ngini = 0.586\nsamples = 8\nvalue = [2, 9, 7, 0]", fillcolor="#defadb"] ;
65 -> 66 ;
67 [label="resident <= 35.0\ngini = 0.469\nsamples = 3\nvalue = [0, 5, 3, 0]", fillcolor="#b5f5b0"] ;
66 -> 67 ;
68 [label="gini = 0.0\nsamples = 1\nvalue = [0, 5, 0, 0]", fillcolor="#47e539"] ;
67 -> 68 ;
69 [label="gini = 0.0\nsamples = 2\nvalue = [0, 0, 3, 0]", fillcolor="#399de5"] ;
67 -> 69 ;
70 [label="resident <= 35.0\ngini = 0.64\nsamples = 5\nvalue = [2, 4, 4, 0]", fillcolor="#ffffff"] ;
66 -> 70 ;
71 [label="gini = 0.0\nsamples = 2\nvalue = [0, 4, 0, 0]", fillcolor="#47e539"] ;
70 -> 71 ;
72 [label="resident <= 60.0\ngini = 0.444\nsamples = 3\nvalue = [2, 0, 4, 0]", fillcolor="#9ccef2"] ;
70 -> 72 ;
73 [label="gini = 0.0\nsamples = 2\nvalue = [0, 0, 4, 0]", fillcolor="#399de5"] ;
72 -> 73 ;
74 [label="gini = 0.0\nsamples = 1\nvalue = [2, 0, 0, 0]", fillcolor="#e58139"] ;
72 -> 74 ;
75 [label="resident <= 125.0\ngini = 0.487\nsamples = 54\nvalue = [37, 51, 0, 0]", fillcolor="#ccf8c9"] ;
65 -> 75 ;
76 [label="resident <= 75.0\ngini = 0.439\nsamples = 28\nvalue = [27, 13, 0, 0]", fillcolor="#f2be98"] ;
75 -> 76 ;
77 [label="resident <= 65.0\ngini = 0.488\nsamples = 18\nvalue = [15, 11, 0, 0]", fillcolor="#f8ddca"] ;
76 -> 77 ;
78 [label="resident <= 15.0\ngini = 0.469\nsamples = 16\nvalue = [15, 9, 0, 0]", fillcolor="#f5cdb0"] ;
77 -> 78 ;
79 [label="gini = 0.0\nsamples = 1\nvalue = [3, 0, 0, 0]", fillcolor="#e58139"] ;
78 -> 79 ;
80 [label="floating <= 405.0\ngini = 0.49\nsamples = 15\nvalue = [12, 9, 0, 0]", fillcolor="#f8e0ce"] ;
78 -> 80 ;
81 [label="CCTV_num <= 0.5\ngini = 0.5\nsamples = 13\nvalue = [9, 9, 0, 0]", fillcolor="#ffffff"] ;
80 -> 81 ;
82 [label="floating <= 290.0\ngini = 0.498\nsamples = 12\nvalue = [8, 9, 0, 0]", fillcolor="#ebfce9"] ;
81 -> 82 ;
83 [label="gini = 0.0\nsamples = 1\nvalue = [0, 1, 0, 0]", fillcolor="#47e539"] ;
82 -> 83 ;
84 [label="resident <= 25.0\ngini = 0.5\nsamples = 11\nvalue = [8, 8, 0, 0]", fillcolor="#ffffff"] ;
82 -> 84 ;
85 [label="floating <= 335.0\ngini = 0.444\nsamples = 3\nvalue = [2, 4, 0, 0]", fillcolor="#a3f29c"] ;
84 -> 85 ;
86 [label="gini = 0.0\nsamples = 2\nvalue = [0, 4, 0, 0]", fillcolor="#47e539"] ;
85 -> 86 ;
87 [label="gini = 0.0\nsamples = 1\nvalue = [2, 0, 0, 0]", fillcolor="#e58139"] ;
85 -> 87 ;
88 [label="floating <= 355.0\ngini = 0.48\nsamples = 8\nvalue = [6, 4, 0, 0]", fillcolor="#f6d5bd"] ;
84 -> 88 ;
89 [label="resident <= 55.0\ngini = 0.245\nsamples = 6\nvalue = [6, 1, 0, 0]", fillcolor="#e9965a"] ;
88 -> 89 ;
90 [label="floating <= 315.0\ngini = 0.444\nsamples = 3\nvalue = [2, 1, 0, 0]", fillcolor="#f2c09c"] ;
89 -> 90 ;
91 [label="gini = 0.0\nsamples = 1\nvalue = [1, 0, 0, 0]", fillcolor="#e58139"] ;
90 -> 91 ;
92 [label="resident <= 40.0\ngini = 0.5\nsamples = 2\nvalue = [1, 1, 0, 0]", fillcolor="#ffffff"] ;
90 -> 92 ;
93 [label="gini = 0.0\nsamples = 1\nvalue = [1, 0, 0, 0]", fillcolor="#e58139"] ;
92 -> 93 ;
94 [label="gini = 0.0\nsamples = 1\nvalue = [0, 1, 0, 0]", fillcolor="#47e539"] ;
92 -> 94 ;
95 [label="gini = 0.0\nsamples = 3\nvalue = [4, 0, 0, 0]", fillcolor="#e58139"] ;
89 -> 95 ;
96 [label="gini = 0.0\nsamples = 2\nvalue = [0, 3, 0, 0]", fillcolor="#47e539"] ;
88 -> 96 ;
97 [label="gini = 0.0\nsamples = 1\nvalue = [1, 0, 0, 0]", fillcolor="#e58139"] ;
81 -> 97 ;
98 [label="gini = 0.0\nsamples = 2\nvalue = [3, 0, 0, 0]", fillcolor="#e58139"] ;
80 -> 98 ;
99 [label="gini = 0.0\nsamples = 2\nvalue = [0, 2, 0, 0]", fillcolor="#47e539"] ;
77 -> 99 ;
100 [label="resident <= 105.0\ngini = 0.245\nsamples = 10\nvalue = [12, 2, 0, 0]", fillcolor="#e9965a"] ;
76 -> 100 ;
101 [label="gini = 0.0\nsamples = 6\nvalue = [8, 0, 0, 0]", fillcolor="#e58139"] ;
100 -> 101 ;
102 [label="floating <= 610.0\ngini = 0.444\nsamples = 4\nvalue = [4, 2, 0, 0]", fillcolor="#f2c09c"] ;
100 -> 102 ;
103 [label="gini = 0.0\nsamples = 2\nvalue = [0, 2, 0, 0]", fillcolor="#47e539"] ;
102 -> 103 ;
104 [label="gini = 0.0\nsamples = 2\nvalue = [4, 0, 0, 0]", fillcolor="#e58139"] ;
102 -> 104 ;
105 [label="floating <= 1075.0\ngini = 0.33\nsamples = 26\nvalue = [10, 38, 0, 0]", fillcolor="#77ec6d"] ;
75 -> 105 ;
106 [label="floating <= 885.0\ngini = 0.087\nsamples = 11\nvalue = [1, 21, 0, 0]", fillcolor="#50e642"] ;
105 -> 106 ;
107 [label="gini = 0.0\nsamples = 8\nvalue = [0, 15, 0, 0]", fillcolor="#47e539"] ;
106 -> 107 ;
108 [label="floating <= 1015.0\ngini = 0.245\nsamples = 3\nvalue = [1, 6, 0, 0]", fillcolor="#66e95a"] ;
106 -> 108 ;
109 [label="gini = 0.0\nsamples = 1\nvalue = [1, 0, 0, 0]", fillcolor="#e58139"] ;
108 -> 109 ;
110 [label="gini = 0.0\nsamples = 2\nvalue = [0, 6, 0, 0]", fillcolor="#47e539"] ;
108 -> 110 ;
111 [label="floating <= 1170.0\ngini = 0.453\nsamples = 15\nvalue = [9, 17, 0, 0]", fillcolor="#a8f3a2"] ;
105 -> 111 ;
112 [label="gini = 0.0\nsamples = 2\nvalue = [5, 0, 0, 0]", fillcolor="#e58139"] ;
111 -> 112 ;
113 [label="floating <= 1330.0\ngini = 0.308\nsamples = 13\nvalue = [4, 17, 0, 0]", fillcolor="#72eb68"] ;
111 -> 113 ;
114 [label="floating <= 1315.0\ngini = 0.463\nsamples = 9\nvalue = [4, 7, 0, 0]", fillcolor="#b0f4aa"] ;
113 -> 114 ;
115 [label="resident <= 170.0\ngini = 0.42\nsamples = 8\nvalue = [3, 7, 0, 0]", fillcolor="#96f08e"] ;
114 -> 115 ;
116 [label="gini = 0.0\nsamples = 1\nvalue = [1, 0, 0, 0]", fillcolor="#e58139"] ;
115 -> 116 ;
117 [label="resident <= 195.0\ngini = 0.346\nsamples = 7\nvalue = [2, 7, 0, 0]", fillcolor="#7cec72"] ;
115 -> 117 ;
118 [label="gini = 0.0\nsamples = 3\nvalue = [0, 4, 0, 0]", fillcolor="#47e539"] ;
117 -> 118 ;
119 [label="CCTV_num <= 0.5\ngini = 0.48\nsamples = 4\nvalue = [2, 3, 0, 0]", fillcolor="#c2f6bd"] ;
117 -> 119 ;
120 [label="resident <= 215.0\ngini = 0.444\nsamples = 3\nvalue = [2, 1, 0, 0]", fillcolor="#f2c09c"] ;
119 -> 120 ;
121 [label="gini = 0.0\nsamples = 1\nvalue = [1, 0, 0, 0]", fillcolor="#e58139"] ;
120 -> 121 ;
122 [label="gini = 0.5\nsamples = 2\nvalue = [1, 1, 0, 0]", fillcolor="#ffffff"] ;
120 -> 122 ;
123 [label="gini = 0.0\nsamples = 1\nvalue = [0, 2, 0, 0]", fillcolor="#47e539"] ;
119 -> 123 ;
124 [label="gini = 0.0\nsamples = 1\nvalue = [1, 0, 0, 0]", fillcolor="#e58139"] ;
114 -> 124 ;
125 [label="gini = 0.0\nsamples = 4\nvalue = [0, 10, 0, 0]", fillcolor="#47e539"] ;
113 -> 125 ;
126 [label="floating <= 1995.0\ngini = 0.68\nsamples = 78\nvalue = [35, 47, 34, 4]", fillcolor="#e5fbe3"] ;
64 -> 126 ;
127 [label="resident <= 235.0\ngini = 0.676\nsamples = 71\nvalue = [25, 43, 34, 4]", fillcolor="#e8fce6"] ;
126 -> 127 ;
128 [label="resident <= 175.0\ngini = 0.198\nsamples = 11\nvalue = [0, 2, 16, 0]", fillcolor="#52a9e8"] ;
127 -> 128 ;
129 [label="gini = 0.0\nsamples = 1\nvalue = [0, 2, 0, 0]", fillcolor="#47e539"] ;
128 -> 129 ;
130 [label="gini = 0.0\nsamples = 10\nvalue = [0, 0, 16, 0]", fillcolor="#399de5"] ;
128 -> 130 ;
131 [label="resident <= 395.0\ngini = 0.658\nsamples = 60\nvalue = [25, 41, 18, 4]", fillcolor="#d0f8cd"] ;
127 -> 131 ;
132 [label="resident <= 325.0\ngini = 0.633\nsamples = 56\nvalue = [25, 41, 12, 4]", fillcolor="#cbf8c7"] ;
131 -> 132 ;
133 [label="floating <= 1865.0\ngini = 0.641\nsamples = 40\nvalue = [23, 24, 12, 0]", fillcolor="#fafefa"] ;
132 -> 133 ;
134 [label="resident <= 245.0\ngini = 0.617\nsamples = 24\nvalue = [19, 10, 8, 0]", fillcolor="#f6d5bd"] ;
133 -> 134 ;
135 [label="gini = 0.0\nsamples = 2\nvalue = [0, 3, 0, 0]", fillcolor="#47e539"] ;
134 -> 135 ;
136 [label="floating <= 1740.0\ngini = 0.59\nsamples = 22\nvalue = [19, 7, 8, 0]", fillcolor="#f4caab"] ;
134 -> 136 ;
137 [label="CCTV_num <= 0.5\ngini = 0.665\nsamples = 15\nvalue = [8, 7, 8, 0]", fillcolor="#ffffff"] ;
136 -> 137 ;
138 [label="floating <= 1590.0\ngini = 0.665\nsamples = 14\nvalue = [7, 7, 8, 0]", fillcolor="#f2f8fd"] ;
137 -> 138 ;
139 [label="resident <= 265.0\ngini = 0.278\nsamples = 4\nvalue = [5, 0, 1, 0]", fillcolor="#ea9a61"] ;
138 -> 139 ;
140 [label="resident <= 255.0\ngini = 0.444\nsamples = 2\nvalue = [2, 0, 1, 0]", fillcolor="#f2c09c"] ;
139 -> 140 ;
141 [label="gini = 0.0\nsamples = 1\nvalue = [2, 0, 0, 0]", fillcolor="#e58139"] ;
140 -> 141 ;
142 [label="gini = 0.0\nsamples = 1\nvalue = [0, 0, 1, 0]", fillcolor="#399de5"] ;
140 -> 142 ;
143 [label="gini = 0.0\nsamples = 2\nvalue = [3, 0, 0, 0]", fillcolor="#e58139"] ;
139 -> 143 ;
144 [label="resident <= 305.0\ngini = 0.602\nsamples = 10\nvalue = [2, 7, 7, 0]", fillcolor="#ffffff"] ;
138 -> 144 ;
145 [label="floating <= 1690.0\ngini = 0.569\nsamples = 7\nvalue = [2, 7, 3, 0]", fillcolor="#adf3a7"] ;
144 -> 145 ;
146 [label="gini = 0.0\nsamples = 4\nvalue = [0, 7, 0, 0]", fillcolor="#47e539"] ;
145 -> 146 ;
147 [label="resident <= 280.0\ngini = 0.48\nsamples = 3\nvalue = [2, 0, 3, 0]", fillcolor="#bddef6"] ;
145 -> 147 ;
148 [label="gini = 0.0\nsamples = 1\nvalue = [2, 0, 0, 0]", fillcolor="#e58139"] ;
147 -> 148 ;
149 [label="gini = 0.0\nsamples = 2\nvalue = [0, 0, 3, 0]", fillcolor="#399de5"] ;
147 -> 149 ;
150 [label="gini = 0.0\nsamples = 3\nvalue = [0, 0, 4, 0]", fillcolor="#399de5"] ;
144 -> 150 ;
151 [label="gini = 0.0\nsamples = 1\nvalue = [1, 0, 0, 0]", fillcolor="#e58139"] ;
137 -> 151 ;
152 [label="gini = 0.0\nsamples = 7\nvalue = [11, 0, 0, 0]", fillcolor="#e58139"] ;
136 -> 152 ;
153 [label="floating <= 1985.0\ngini = 0.529\nsamples = 16\nvalue = [4, 14, 4, 0]", fillcolor="#99f191"] ;
133 -> 153 ;
154 [label="resident <= 295.0\ngini = 0.41\nsamples = 13\nvalue = [4, 14, 1, 0]", fillcolor="#84ee7b"] ;
153 -> 154 ;
155 [label="floating <= 1955.0\ngini = 0.231\nsamples = 9\nvalue = [2, 13, 0, 0]", fillcolor="#63e957"] ;
154 -> 155 ;
156 [label="gini = 0.0\nsamples = 6\nvalue = [0, 12, 0, 0]", fillcolor="#47e539"] ;
155 -> 156 ;
157 [label="resident <= 250.0\ngini = 0.444\nsamples = 3\nvalue = [2, 1, 0, 0]", fillcolor="#f2c09c"] ;
155 -> 157 ;
158 [label="gini = 0.0\nsamples = 1\nvalue = [0, 1, 0, 0]", fillcolor="#47e539"] ;
157 -> 158 ;
159 [label="gini = 0.0\nsamples = 2\nvalue = [2, 0, 0, 0]", fillcolor="#e58139"] ;
157 -> 159 ;
160 [label="floating <= 1910.0\ngini = 0.625\nsamples = 4\nvalue = [2, 1, 1, 0]", fillcolor="#f6d5bd"] ;
154 -> 160 ;
161 [label="CCTV_num <= 0.5\ngini = 0.5\nsamples = 2\nvalue = [0, 1, 1, 0]", fillcolor="#ffffff"] ;
160 -> 161 ;
162 [label="gini = 0.0\nsamples = 1\nvalue = [0, 0, 1, 0]", fillcolor="#399de5"] ;
161 -> 162 ;
163 [label="gini = 0.0\nsamples = 1\nvalue = [0, 1, 0, 0]", fillcolor="#47e539"] ;
161 -> 163 ;
164 [label="gini = 0.0\nsamples = 2\nvalue = [2, 0, 0, 0]", fillcolor="#e58139"] ;
160 -> 164 ;
165 [label="gini = 0.0\nsamples = 3\nvalue = [0, 0, 3, 0]", fillcolor="#399de5"] ;
153 -> 165 ;
166 [label="resident <= 345.0\ngini = 0.416\nsamples = 16\nvalue = [2, 17, 0, 4]", fillcolor="#81ed78"] ;
132 -> 166 ;
167 [label="resident <= 335.0\ngini = 0.521\nsamples = 9\nvalue = [1, 8, 0, 4]", fillcolor="#adf3a7"] ;
166 -> 167 ;
168 [label="floating <= 1615.0\ngini = 0.219\nsamples = 6\nvalue = [1, 7, 0, 0]", fillcolor="#61e955"] ;
167 -> 168 ;
169 [label="gini = 0.0\nsamples = 1\nvalue = [1, 0, 0, 0]", fillcolor="#e58139"] ;
168 -> 169 ;
170 [label="gini = 0.0\nsamples = 5\nvalue = [0, 7, 0, 0]", fillcolor="#47e539"] ;
168 -> 170 ;
171 [label="floating <= 1715.0\ngini = 0.32\nsamples = 3\nvalue = [0, 1, 0, 4]", fillcolor="#e16aec"] ;
167 -> 171 ;
172 [label="gini = 0.0\nsamples = 1\nvalue = [0, 1, 0, 0]", fillcolor="#47e539"] ;
171 -> 172 ;
173 [label="gini = 0.0\nsamples = 2\nvalue = [0, 0, 0, 4]", fillcolor="#d739e5"] ;
171 -> 173 ;
174 [label="CCTV_num <= 0.5\ngini = 0.18\nsamples = 7\nvalue = [1, 9, 0, 0]", fillcolor="#5be84f"] ;
166 -> 174 ;
175 [label="resident <= 360.0\ngini = 0.198\nsamples = 6\nvalue = [1, 8, 0, 0]", fillcolor="#5ee852"] ;
174 -> 175 ;
176 [label="floating <= 1770.0\ngini = 0.375\nsamples = 2\nvalue = [1, 3, 0, 0]", fillcolor="#84ee7b"] ;
175 -> 176 ;
177 [label="gini = 0.0\nsamples = 1\nvalue = [0, 3, 0, 0]", fillcolor="#47e539"] ;
176 -> 177 ;
178 [label="gini = 0.0\nsamples = 1\nvalue = [1, 0, 0, 0]", fillcolor="#e58139"] ;
176 -> 178 ;
179 [label="gini = 0.0\nsamples = 4\nvalue = [0, 5, 0, 0]", fillcolor="#47e539"] ;
175 -> 179 ;
180 [label="gini = 0.0\nsamples = 1\nvalue = [0, 1, 0, 0]", fillcolor="#47e539"] ;
174 -> 180 ;
181 [label="gini = 0.0\nsamples = 4\nvalue = [0, 0, 6, 0]", fillcolor="#399de5"] ;
131 -> 181 ;
182 [label="resident <= 205.0\ngini = 0.408\nsamples = 7\nvalue = [10, 4, 0, 0]", fillcolor="#efb388"] ;
126 -> 182 ;
183 [label="gini = 0.0\nsamples = 1\nvalue = [0, 2, 0, 0]", fillcolor="#47e539"] ;
182 -> 183 ;
184 [label="floating <= 2025.0\ngini = 0.278\nsamples = 6\nvalue = [10, 2, 0, 0]", fillcolor="#ea9a61"] ;
182 -> 184 ;
185 [label="gini = 0.0\nsamples = 3\nvalue = [7, 0, 0, 0]", fillcolor="#e58139"] ;
184 -> 185 ;
186 [label="resident <= 330.0\ngini = 0.48\nsamples = 3\nvalue = [3, 2, 0, 0]", fillcolor="#f6d5bd"] ;
184 -> 186 ;
187 [label="gini = 0.0\nsamples = 2\nvalue = [3, 0, 0, 0]", fillcolor="#e58139"] ;
186 -> 187 ;
188 [label="gini = 0.0\nsamples = 1\nvalue = [0, 2, 0, 0]", fillcolor="#47e539"] ;
186 -> 188 ;
189 [label="resident <= 190.0\ngini = 0.551\nsamples = 64\nvalue = [60, 29, 12, 0]", fillcolor="#f4c9aa"] ;
1 -> 189 ;
190 [label="resident <= 65.0\ngini = 0.625\nsamples = 36\nvalue = [26, 21, 10, 0]", fillcolor="#fbeee4"] ;
189 -> 190 ;
191 [label="CCTV_num <= 12.5\ngini = 0.436\nsamples = 20\nvalue = [19, 7, 1, 0]", fillcolor="#efb388"] ;
190 -> 191 ;
192 [label="resident <= 35.0\ngini = 0.381\nsamples = 19\nvalue = [19, 5, 1, 0]", fillcolor="#eda774"] ;
191 -> 192 ;
193 [label="floating <= 335.0\ngini = 0.43\nsamples = 12\nvalue = [11, 5, 0, 0]", fillcolor="#f1ba93"] ;
192 -> 193 ;
194 [label="floating <= 170.0\ngini = 0.26\nsamples = 10\nvalue = [11, 2, 0, 0]", fillcolor="#ea985d"] ;
193 -> 194 ;
195 [label="gini = 0.0\nsamples = 5\nvalue = [8, 0, 0, 0]", fillcolor="#e58139"] ;
194 -> 195 ;
196 [label="floating <= 190.0\ngini = 0.48\nsamples = 5\nvalue = [3, 2, 0, 0]", fillcolor="#f6d5bd"] ;
194 -> 196 ;
197 [label="gini = 0.0\nsamples = 2\nvalue = [0, 2, 0, 0]", fillcolor="#47e539"] ;
196 -> 197 ;
198 [label="gini = 0.0\nsamples = 3\nvalue = [3, 0, 0, 0]", fillcolor="#e58139"] ;
196 -> 198 ;
199 [label="gini = 0.0\nsamples = 2\nvalue = [0, 3, 0, 0]", fillcolor="#47e539"] ;
193 -> 199 ;
200 [label="floating <= 240.0\ngini = 0.198\nsamples = 7\nvalue = [8, 0, 1, 0]", fillcolor="#e89152"] ;
192 -> 200 ;
201 [label="resident <= 45.0\ngini = 0.444\nsamples = 3\nvalue = [2, 0, 1, 0]", fillcolor="#f2c09c"] ;
200 -> 201 ;
202 [label="CCTV_num <= 7.0\ngini = 0.5\nsamples = 2\nvalue = [1, 0, 1, 0]", fillcolor="#ffffff"] ;
201 -> 202 ;
203 [label="gini = 0.0\nsamples = 1\nvalue = [1, 0, 0, 0]", fillcolor="#e58139"] ;
202 -> 203 ;
204 [label="gini = 0.0\nsamples = 1\nvalue = [0, 0, 1, 0]", fillcolor="#399de5"] ;
202 -> 204 ;
205 [label="gini = 0.0\nsamples = 1\nvalue = [1, 0, 0, 0]", fillcolor="#e58139"] ;
201 -> 205 ;
206 [label="gini = 0.0\nsamples = 4\nvalue = [6, 0, 0, 0]", fillcolor="#e58139"] ;
200 -> 206 ;
207 [label="gini = 0.0\nsamples = 1\nvalue = [0, 2, 0, 0]", fillcolor="#47e539"] ;
191 -> 207 ;
208 [label="floating <= 255.0\ngini = 0.638\nsamples = 16\nvalue = [7, 14, 9, 0]", fillcolor="#d3f9d0"] ;
190 -> 208 ;
209 [label="gini = 0.0\nsamples = 2\nvalue = [0, 4, 0, 0]", fillcolor="#47e539"] ;
208 -> 209 ;
210 [label="floating <= 425.0\ngini = 0.66\nsamples = 14\nvalue = [7, 10, 9, 0]", fillcolor="#f4fdf3"] ;
208 -> 210 ;
211 [label="gini = 0.0\nsamples = 2\nvalue = [4, 0, 0, 0]", fillcolor="#e58139"] ;
210 -> 211 ;
212 [label="floating <= 705.0\ngini = 0.607\nsamples = 12\nvalue = [3, 10, 9, 0]", fillcolor="#f1fdf0"] ;
210 -> 212 ;
213 [label="resident <= 165.0\ngini = 0.459\nsamples = 7\nvalue = [0, 5, 9, 0]", fillcolor="#a7d3f3"] ;
212 -> 213 ;
214 [label="resident <= 135.0\ngini = 0.426\nsamples = 6\nvalue = [0, 4, 9, 0]", fillcolor="#91c9f1"] ;
213 -> 214 ;
215 [label="CCTV_num <= 2.5\ngini = 0.494\nsamples = 5\nvalue = [0, 4, 5, 0]", fillcolor="#d7ebfa"] ;
214 -> 215 ;
216 [label="gini = 0.0\nsamples = 1\nvalue = [0, 1, 0, 0]", fillcolor="#47e539"] ;
215 -> 216 ;
217 [label="floating <= 620.0\ngini = 0.469\nsamples = 4\nvalue = [0, 3, 5, 0]", fillcolor="#b0d8f5"] ;
215 -> 217 ;
218 [label="gini = 0.0\nsamples = 2\nvalue = [0, 0, 5, 0]", fillcolor="#399de5"] ;
217 -> 218 ;
219 [label="gini = 0.0\nsamples = 2\nvalue = [0, 3, 0, 0]", fillcolor="#47e539"] ;
217 -> 219 ;
220 [label="gini = 0.0\nsamples = 1\nvalue = [0, 0, 4, 0]", fillcolor="#399de5"] ;
214 -> 220 ;
221 [label="gini = 0.0\nsamples = 1\nvalue = [0, 1, 0, 0]", fillcolor="#47e539"] ;
213 -> 221 ;
222 [label="floating <= 960.0\ngini = 0.469\nsamples = 5\nvalue = [3, 5, 0, 0]", fillcolor="#b5f5b0"] ;
212 -> 222 ;
223 [label="CCTV_num <= 6.5\ngini = 0.375\nsamples = 3\nvalue = [3, 1, 0, 0]", fillcolor="#eeab7b"] ;
222 -> 223 ;
224 [label="gini = 0.0\nsamples = 2\nvalue = [3, 0, 0, 0]", fillcolor="#e58139"] ;
223 -> 224 ;
225 [label="gini = 0.0\nsamples = 1\nvalue = [0, 1, 0, 0]", fillcolor="#47e539"] ;
223 -> 225 ;
226 [label="gini = 0.0\nsamples = 2\nvalue = [0, 4, 0, 0]", fillcolor="#47e539"] ;
222 -> 226 ;
227 [label="CCTV_num <= 12.0\ngini = 0.368\nsamples = 28\nvalue = [34, 8, 2, 0]", fillcolor="#eca470"] ;
189 -> 227 ;
228 [label="floating <= 1865.0\ngini = 0.328\nsamples = 25\nvalue = [33, 6, 2, 0]", fillcolor="#eb9e66"] ;
227 -> 228 ;
229 [label="resident <= 315.0\ngini = 0.157\nsamples = 21\nvalue = [32, 3, 0, 0]", fillcolor="#e78d4c"] ;
228 -> 229 ;
230 [label="resident <= 265.0\ngini = 0.067\nsamples = 16\nvalue = [28, 1, 0, 0]", fillcolor="#e68640"] ;
229 -> 230 ;
231 [label="gini = 0.0\nsamples = 9\nvalue = [17, 0, 0, 0]", fillcolor="#e58139"] ;
230 -> 231 ;
232 [label="floating <= 1775.0\ngini = 0.153\nsamples = 7\nvalue = [11, 1, 0, 0]", fillcolor="#e78c4b"] ;
230 -> 232 ;
233 [label="gini = 0.0\nsamples = 5\nvalue = [9, 0, 0, 0]", fillcolor="#e58139"] ;
232 -> 233 ;
234 [label="floating <= 1820.0\ngini = 0.444\nsamples = 2\nvalue = [2, 1, 0, 0]", fillcolor="#f2c09c"] ;
232 -> 234 ;
235 [label="gini = 0.0\nsamples = 1\nvalue = [0, 1, 0, 0]", fillcolor="#47e539"] ;
234 -> 235 ;
236 [label="gini = 0.0\nsamples = 1\nvalue = [2, 0, 0, 0]", fillcolor="#e58139"] ;
234 -> 236 ;
237 [label="floating <= 1685.0\ngini = 0.444\nsamples = 5\nvalue = [4, 2, 0, 0]", fillcolor="#f2c09c"] ;
229 -> 237 ;
238 [label="gini = 0.0\nsamples = 2\nvalue = [0, 2, 0, 0]", fillcolor="#47e539"] ;
237 -> 238 ;
239 [label="gini = 0.0\nsamples = 3\nvalue = [4, 0, 0, 0]", fillcolor="#e58139"] ;
237 -> 239 ;
240 [label="resident <= 300.0\ngini = 0.611\nsamples = 4\nvalue = [1, 3, 2, 0]", fillcolor="#d1f8ce"] ;
228 -> 240 ;
241 [label="gini = 0.0\nsamples = 1\nvalue = [0, 0, 2, 0]", fillcolor="#399de5"] ;
240 -> 241 ;
242 [label="resident <= 400.0\ngini = 0.375\nsamples = 3\nvalue = [1, 3, 0, 0]", fillcolor="#84ee7b"] ;
240 -> 242 ;
243 [label="resident <= 360.0\ngini = 0.5\nsamples = 2\nvalue = [1, 1, 0, 0]", fillcolor="#ffffff"] ;
242 -> 243 ;
244 [label="gini = 0.0\nsamples = 1\nvalue = [0, 1, 0, 0]", fillcolor="#47e539"] ;
243 -> 244 ;
245 [label="gini = 0.0\nsamples = 1\nvalue = [1, 0, 0, 0]", fillcolor="#e58139"] ;
243 -> 245 ;
246 [label="gini = 0.0\nsamples = 1\nvalue = [0, 2, 0, 0]", fillcolor="#47e539"] ;
242 -> 246 ;
247 [label="CCTV_num <= 15.5\ngini = 0.444\nsamples = 3\nvalue = [1, 2, 0, 0]", fillcolor="#a3f29c"] ;
227 -> 247 ;
248 [label="gini = 0.0\nsamples = 2\nvalue = [0, 2, 0, 0]", fillcolor="#47e539"] ;
247 -> 248 ;
249 [label="gini = 0.0\nsamples = 1\nvalue = [1, 0, 0, 0]", fillcolor="#e58139"] ;
247 -> 249 ;
250 [label="floating <= 1995.0\ngini = 0.432\nsamples = 55\nvalue = [61, 19, 5, 0]", fillcolor="#eeaf81"] ;
0 -> 250 [labeldistance=2.5, labelangle=-45, headlabel="False"] ;
251 [label="resident <= 35.0\ngini = 0.414\nsamples = 53\nvalue = [61, 17, 5, 0]", fillcolor="#eeab7b"] ;
250 -> 251 ;
252 [label="gini = 0.0\nsamples = 9\nvalue = [15, 0, 0, 0]", fillcolor="#e58139"] ;
251 -> 252 ;
253 [label="police_value <= 2.5\ngini = 0.474\nsamples = 44\nvalue = [46, 17, 5, 0]", fillcolor="#f0b78e"] ;
251 -> 253 ;
254 [label="police_value <= 1.5\ngini = 0.406\nsamples = 35\nvalue = [38, 15, 0, 0]", fillcolor="#efb387"] ;
253 -> 254 ;
255 [label="floating <= 665.0\ngini = 0.456\nsamples = 27\nvalue = [24, 13, 0, 0]", fillcolor="#f3c5a4"] ;
254 -> 255 ;
256 [label="CCTV_num <= 2.5\ngini = 0.497\nsamples = 18\nvalue = [14, 12, 0, 0]", fillcolor="#fbede3"] ;
255 -> 256 ;
257 [label="floating <= 225.0\ngini = 0.432\nsamples = 11\nvalue = [13, 6, 0, 0]", fillcolor="#f1bb94"] ;
256 -> 257 ;
258 [label="floating <= 170.0\ngini = 0.48\nsamples = 5\nvalue = [4, 6, 0, 0]", fillcolor="#c2f6bd"] ;
257 -> 258 ;
259 [label="floating <= 145.0\ngini = 0.32\nsamples = 3\nvalue = [4, 1, 0, 0]", fillcolor="#eca06a"] ;
258 -> 259 ;
260 [label="gini = 0.0\nsamples = 1\nvalue = [0, 1, 0, 0]", fillcolor="#47e539"] ;
259 -> 260 ;
261 [label="gini = 0.0\nsamples = 2\nvalue = [4, 0, 0, 0]", fillcolor="#e58139"] ;
259 -> 261 ;
262 [label="gini = 0.0\nsamples = 2\nvalue = [0, 5, 0, 0]", fillcolor="#47e539"] ;
258 -> 262 ;
263 [label="gini = 0.0\nsamples = 6\nvalue = [9, 0, 0, 0]", fillcolor="#e58139"] ;
257 -> 263 ;
264 [label="floating <= 210.0\ngini = 0.245\nsamples = 7\nvalue = [1, 6, 0, 0]", fillcolor="#66e95a"] ;
256 -> 264 ;
265 [label="gini = 0.0\nsamples = 1\nvalue = [1, 0, 0, 0]", fillcolor="#e58139"] ;
264 -> 265 ;
266 [label="gini = 0.0\nsamples = 6\nvalue = [0, 6, 0, 0]", fillcolor="#47e539"] ;
264 -> 266 ;
267 [label="resident <= 265.0\ngini = 0.165\nsamples = 9\nvalue = [10, 1, 0, 0]", fillcolor="#e88e4d"] ;
255 -> 267 ;
268 [label="floating <= 1555.0\ngini = 0.245\nsamples = 5\nvalue = [6, 1, 0, 0]", fillcolor="#e9965a"] ;
267 -> 268 ;
269 [label="gini = 0.0\nsamples = 4\nvalue = [6, 0, 0, 0]", fillcolor="#e58139"] ;
268 -> 269 ;
270 [label="gini = 0.0\nsamples = 1\nvalue = [0, 1, 0, 0]", fillcolor="#47e539"] ;
268 -> 270 ;
271 [label="gini = 0.0\nsamples = 4\nvalue = [4, 0, 0, 0]", fillcolor="#e58139"] ;
267 -> 271 ;
272 [label="floating <= 210.0\ngini = 0.219\nsamples = 8\nvalue = [14, 2, 0, 0]", fillcolor="#e99355"] ;
254 -> 272 ;
273 [label="resident <= 55.0\ngini = 0.5\nsamples = 3\nvalue = [2, 2, 0, 0]", fillcolor="#ffffff"] ;
272 -> 273 ;
274 [label="gini = 0.0\nsamples = 1\nvalue = [1, 0, 0, 0]", fillcolor="#e58139"] ;
273 -> 274 ;
275 [label="CCTV_num <= 5.0\ngini = 0.444\nsamples = 2\nvalue = [1, 2, 0, 0]", fillcolor="#a3f29c"] ;
273 -> 275 ;
276 [label="gini = 0.0\nsamples = 1\nvalue = [0, 2, 0, 0]", fillcolor="#47e539"] ;
275 -> 276 ;
277 [label="gini = 0.0\nsamples = 1\nvalue = [1, 0, 0, 0]", fillcolor="#e58139"] ;
275 -> 277 ;
278 [label="gini = 0.0\nsamples = 5\nvalue = [12, 0, 0, 0]", fillcolor="#e58139"] ;
272 -> 278 ;
279 [label="floating <= 230.0\ngini = 0.587\nsamples = 9\nvalue = [8, 2, 5, 0]", fillcolor="#f7d9c4"] ;
253 -> 279 ;
280 [label="gini = 0.0\nsamples = 2\nvalue = [0, 0, 5, 0]", fillcolor="#399de5"] ;
279 -> 280 ;
281 [label="resident <= 160.0\ngini = 0.32\nsamples = 7\nvalue = [8, 2, 0, 0]", fillcolor="#eca06a"] ;
279 -> 281 ;
282 [label="gini = 0.0\nsamples = 5\nvalue = [6, 0, 0, 0]", fillcolor="#e58139"] ;
281 -> 282 ;
283 [label="resident <= 280.0\ngini = 0.5\nsamples = 2\nvalue = [2, 2, 0, 0]", fillcolor="#ffffff"] ;
281 -> 283 ;
284 [label="gini = 0.0\nsamples = 1\nvalue = [0, 2, 0, 0]", fillcolor="#47e539"] ;
283 -> 284 ;
285 [label="gini = 0.0\nsamples = 1\nvalue = [2, 0, 0, 0]", fillcolor="#e58139"] ;
283 -> 285 ;
286 [label="gini = 0.0\nsamples = 2\nvalue = [0, 2, 0, 0]", fillcolor="#47e539"] ;
250 -> 286 ;
}